svm_type nu_svr
kernel_type precomputed
nr_class 2
total_sv 563
rho -0.117823
probA 0.0416978
SV
0.001953125 0:2 
0.0005970987532629466 0:3 
-0.001953125 0:4 
-0.001953125 0:5 
0.001953125 0:7 
0.001953125 0:8 
-0.001953125 0:9 
-0.001953125 0:10 
-0.001953125 0:12 
0.001953125 0:15 
0.001953125 0:19 
0.001953125 0:20 
0.001953125 0:24 
0.0007035170497109252 0:25 
-0.001953125 0:26 
0.001953125 0:27 
0.001592292605279051 0:28 
0.001953125 0:33 
0.001953125 0:35 
0.001953125 0:37 
0.001953125 0:39 
0.001953125 0:41 
-0.001081626383053194 0:43 
0.001953125 0:44 
0.0004901314828187047 0:46 
0.001953125 0:48 
0.001953125 0:50 
-0.001953125 0:51 
-0.001953125 0:52 
0.001953125 0:53 
0.001953125 0:54 
0.001953125 0:55 
0.001953125 0:58 
0.001953125 0:59 
0.001935042340038552 0:62 
-0.001953125 0:66 
-0.001953125 0:68 
-0.001953125 0:69 
-0.001953125 0:70 
-0.0009728422609897364 0:75 
0.001953125 0:77 
0.001953125 0:80 
-0.001953125 0:82 
0.001953125 0:83 
0.001953125 0:86 
0.001953125 0:87 
0.001476142344005725 0:88 
-0.0007275200361448049 0:89 
-0.0006558091525236169 0:90 
-0.001953125 0:91 
-0.001953125 0:92 
-0.001953125 0:95 
-0.001953125 0:97 
0.00193170646089465 0:99 
0.001505765004082944 0:100 
0.00106460967967908 0:101 
0.001953125 0:102 
0.001506585834647719 0:105 
-0.001953125 0:108 
-0.001020680711432037 0:111 
0.001953125 0:114 
0.001953125 0:115 
0.001953125 0:121 
0.001953125 0:122 
-0.001335278917621309 0:123 
-0.0001702991098744614 0:124 
-0.001473698410848443 0:125 
-0.001953125 0:126 
0.0002616583627563044 0:127 
-0.001953125 0:128 
0.001953125 0:130 
-0.001953125 0:131 
0.001953125 0:132 
0.001953125 0:134 
0.001953125 0:138 
0.001953125 0:142 
-0.001953125 0:143 
-0.001953125 0:146 
0.001953125 0:150 
0.001953125 0:151 
-0.001953125 0:154 
0.001953125 0:157 
-0.001953125 0:158 
0.001953125 0:160 
-0.001387720916724454 0:164 
0.001953125 0:171 
0.001953125 0:177 
0.001953125 0:178 
0.001953125 0:179 
0.001953125 0:180 
-0.0001294998201016937 0:184 
-0.001953125 0:185 
0.001953125 0:187 
0.001953125 0:193 
-0.0006515058123685248 0:203 
-0.0001951510313906507 0:209 
-0.001953125 0:213 
0.001953125 0:214 
-0.001953125 0:215 
0.001953125 0:217 
-0.001953125 0:218 
-0.001953125 0:220 
0.001953125 0:221 
-0.0009060096432081535 0:224 
0.001953125 0:225 
-0.001953125 0:226 
0.001953125 0:231 
-0.001953125 0:235 
0.001395416253765688 0:238 
0.001953125 0:240 
0.001953125 0:241 
0.001953125 0:244 
-0.001953125 0:245 
-0.001953125 0:247 
0.001953125 0:249 
0.001953125 0:253 
0.001953125 0:254 
0.001953125 0:255 
-0.001953125 0:259 
-0.001953125 0:260 
0.001953125 0:262 
-0.001953125 0:264 
0.001953125 0:265 
-0.0006616205580778528 0:268 
0.001953125 0:273 
0.0005071560701214833 0:278 
0.001953125 0:280 
0.001953125 0:281 
-0.001953125 0:285 
-0.001953125 0:288 
0.001953125 0:294 
-0.001953125 0:296 
0.001953125 0:303 
0.001953125 0:304 
0.001953125 0:305 
0.001953125 0:306 
0.001953125 0:307 
0.001953125 0:308 
-0.001953125 0:313 
0.001953125 0:314 
-0.001953125 0:317 
0.001953125 0:318 
0.001953125 0:319 
0.001953125 0:320 
0.001953125 0:323 
-0.001953125 0:324 
-0.0001393832594200127 0:325 
0.001953125 0:326 
-0.001953125 0:327 
0.001953125 0:330 
0.001953125 0:331 
-0.001953125 0:333 
-0.001953125 0:335 
-0.001953125 0:336 
-3.526005332139775e-05 0:341 
-2.871962817746509e-05 0:342 
0.001953125 0:343 
0.001953125 0:345 
-0.001953125 0:346 
-0.001127117804696313 0:349 
-0.001953125 0:350 
-0.001953125 0:351 
-0.001953125 0:353 
0.001953125 0:356 
-0.001953125 0:357 
-0.001953125 0:359 
0.001953125 0:365 
-0.001953125 0:366 
0.001953125 0:368 
0.001342038781049808 0:370 
-0.001953125 0:374 
0.001953125 0:377 
-0.001953125 0:378 
-0.0008406627036061038 0:379 
-0.001953125 0:380 
-0.001953125 0:381 
-0.001953125 0:384 
-0.001953125 0:391 
0.001953125 0:392 
0.001953125 0:393 
-0.001953125 0:394 
0.001953125 0:397 
-0.001953125 0:401 
0.001953125 0:402 
0.001953125 0:404 
0.001953125 0:405 
0.001953125 0:408 
0.001953125 0:409 
0.001953125 0:415 
0.001953125 0:416 
-0.001953125 0:417 
0.001953125 0:423 
-0.001953125 0:428 
0.001953125 0:431 
0.001953125 0:433 
-0.001953125 0:434 
0.001953125 0:440 
-0.001953125 0:442 
0.00138146768742817 0:445 
0.001953125 0:447 
-0.001953125 0:448 
-0.001953125 0:449 
0.001953125 0:450 
-0.001953125 0:451 
0.001953125 0:453 
0.001953125 0:456 
0.001953125 0:457 
-0.001953125 0:458 
0.001953125 0:465 
-0.001953125 0:466 
-0.001953125 0:468 
-0.001953125 0:469 
-0.001953125 0:470 
-0.001953125 0:473 
0.001953125 0:474 
-0.001953125 0:475 
-0.001953125 0:478 
0.001953125 0:490 
-0.001953125 0:491 
0.001953125 0:493 
0.001953125 0:500 
-0.0008025311549271278 0:502 
0.001953125 0:503 
-0.001450109771029796 0:507 
0.001805689449124289 0:508 
0.001953125 0:509 
-0.001953125 0:513 
-0.001953125 0:514 
-0.001953125 0:518 
-0.001953125 0:519 
-0.001953125 0:520 
-1.706357687053433e-05 0:522 
0.001953125 0:524 
-0.001953125 0:525 
-0.001953125 0:526 
0.001953125 0:527 
0.001953125 0:528 
-0.001953125 0:529 
-0.001953125 0:530 
-0.001953125 0:531 
-0.001953125 0:532 
-0.001953125 0:533 
-0.001953125 0:539 
0.001953125 0:540 
-0.001953125 0:541 
0.001953125 0:544 
-0.001953125 0:546 
-1.431307838376178e-05 0:551 
-0.001953125 0:552 
0.001953125 0:553 
0.001953125 0:554 
-0.001953125 0:561 
-0.000505057117733732 0:563 
0.001953125 0:566 
-0.001953125 0:567 
-0.001953125 0:568 
0.001783325324602529 0:569 
-0.001953125 0:571 
0.001953125 0:572 
-0.001953125 0:573 
-0.001953125 0:574 
0.001953125 0:576 
-0.001953125 0:580 
-0.001953125 0:582 
-0.001953125 0:583 
0.001953125 0:585 
-0.001791309250482109 0:586 
0.001953125 0:588 
0.001953125 0:590 
-0.001953125 0:595 
-0.001953125 0:597 
-0.001953125 0:600 
-0.001638795004974079 0:602 
0.001953125 0:603 
-0.001953125 0:605 
0.001953125 0:606 
0.001953125 0:607 
0.001953125 0:611 
0.001953125 0:612 
-0.001953125 0:613 
0.001953125 0:614 
-0.001953125 0:615 
-0.001953125 0:616 
-0.001953125 0:620 
0.001953125 0:621 
-0.001953125 0:626 
0.001817080339178016 0:627 
-0.001953125 0:629 
0.001953125 0:639 
0.001953125 0:640 
0.001953125 0:641 
-0.001953125 0:643 
0.001953125 0:644 
0.001953125 0:646 
-0.001093329178032976 0:647 
-0.001953125 0:649 
-0.001953125 0:650 
0.001953125 0:661 
0.001953125 0:669 
0.001953125 0:672 
0.001953125 0:673 
-0.001953125 0:675 
-0.001953125 0:676 
-0.001953125 0:682 
-0.001709622674858058 0:683 
-7.913841833832636e-06 0:684 
0.001953125 0:686 
0.001953125 0:689 
-0.001953125 0:691 
0.001953125 0:693 
-0.001953125 0:696 
-0.001953125 0:697 
-0.001953125 0:698 
-0.001953125 0:702 
-0.001953125 0:703 
-0.001953125 0:704 
0.001953125 0:705 
0.0001297415973192866 0:707 
-0.001953125 0:709 
0.001953125 0:710 
-0.001953125 0:712 
-0.001953125 0:714 
-0.001953125 0:715 
-0.001953125 0:716 
0.001953125 0:723 
0.001953125 0:729 
-0.001171934289074139 0:733 
0.001953125 0:734 
-0.001953125 0:736 
-0.001953125 0:737 
-0.001953125 0:738 
-0.001953125 0:739 
-0.001953125 0:740 
-0.001953125 0:743 
0.001953125 0:751 
0.001953125 0:755 
0.001953125 0:759 
-0.001953125 0:760 
0.001953125 0:761 
-0.001953125 0:764 
-0.001953125 0:766 
-0.001953125 0:767 
-0.001114871078112342 0:769 
-0.001953125 0:771 
0.001953125 0:773 
-0.001953125 0:778 
-0.001953125 0:782 
0.001953125 0:783 
0.001953125 0:784 
-0.001953125 0:786 
0.001953125 0:787 
-0.001953125 0:788 
0.001953125 0:793 
-0.001953125 0:796 
-0.001759811883715607 0:797 
-0.0003062508331241028 0:798 
0.001217531762070673 0:800 
-0.001953125 0:804 
-0.0002243628452738689 0:811 
-0.0009434480395918824 0:812 
-0.001953125 0:813 
0.001953125 0:815 
0.001953125 0:817 
-0.001953125 0:825 
0.001953125 0:826 
-0.001953125 0:828 
-0.001953125 0:834 
-0.00124141514729833 0:836 
-0.0006537811541821279 0:837 
-0.001953125 0:840 
-0.001953125 0:841 
-0.001953125 0:842 
-0.001953125 0:843 
-0.001692756821998417 0:846 
0.001953125 0:848 
-0.001953125 0:849 
-0.001953125 0:854 
0.001894006761750407 0:856 
0.001953125 0:862 
-0.001953125 0:866 
-0.001953125 0:867 
-3.858511783677073e-05 0:868 
-0.001601685171515298 0:870 
-0.001953125 0:874 
0.0005369998941042706 0:875 
-0.001953125 0:877 
0.001953125 0:880 
0.0002924596387022929 0:881 
-0.001953125 0:882 
-0.001953125 0:886 
-0.001953125 0:887 
-0.001953125 0:888 
0.001953125 0:890 
-0.001953125 0:891 
0.001953125 0:892 
0.001953125 0:897 
-0.0005192105968999608 0:907 
-0.001953125 0:908 
-0.001953125 0:915 
-0.001953125 0:916 
-0.001953125 0:918 
0.001953125 0:921 
0.001953125 0:924 
-0.001953125 0:925 
-0.001953125 0:928 
0.001953125 0:929 
0.0002439883316577292 0:932 
0.001953125 0:934 
0.001953125 0:935 
-0.001953125 0:937 
-0.001953125 0:939 
0.001953125 0:941 
-0.001953125 0:951 
0.0009923572472447296 0:953 
-0.001953125 0:956 
0.001953125 0:959 
0.001953125 0:962 
0.001953125 0:963 
-0.001953125 0:967 
-0.001953125 0:968 
-0.001953125 0:969 
0.001953125 0:971 
0.001953125 0:972 
-0.0002526396688059163 0:973 
0.001953125 0:977 
0.001953125 0:978 
0.001953125 0:980 
-0.001953125 0:981 
-0.001953125 0:983 
-0.001953125 0:984 
0.001953125 0:985 
-0.001953125 0:986 
0.001953125 0:988 
0.001953125 0:989 
0.001953125 0:992 
0.001953125 0:994 
0.001953125 0:995 
0.001953125 0:997 
0.001953125 0:998 
0.001953125 0:1001 
-0.001953125 0:1002 
0.001953125 0:1007 
0.001953125 0:1008 
-0.001953125 0:1010 
0.001953125 0:1015 
0.001953125 0:1016 
-0.001953125 0:1017 
-0.001953125 0:1025 
0.001953125 0:1027 
-0.001953125 0:1031 
-0.001953125 0:1037 
-0.001953125 0:1041 
0.001953125 0:1042 
0.001953125 0:1043 
-0.001953125 0:1048 
-0.00166894677301709 0:1049 
0.001953125 0:1050 
0.001953125 0:1051 
0.001953125 0:1052 
0.001953125 0:1056 
0.001953125 0:1057 
0.001953125 0:1064 
0.001953125 0:1066 
-0.001953125 0:1067 
0.001953125 0:1070 
0.001953125 0:1071 
-0.001953125 0:1072 
-0.001953125 0:1073 
-0.001953125 0:1074 
-0.001953125 0:1076 
0.001953125 0:1081 
-0.001953125 0:1083 
-0.001953125 0:1086 
0.001953125 0:1087 
-0.001953125 0:1089 
-0.001953125 0:1090 
-0.001953125 0:1094 
0.001953125 0:1095 
0.001953125 0:1104 
0.001953125 0:1108 
-5.50382465860378e-05 0:1110 
-0.001953125 0:1111 
-0.001953125 0:1112 
0.001953125 0:1115 
0.001953125 0:1116 
0.001953125 0:1121 
-0.00163266930986225 0:1123 
-0.0009022670279098746 0:1125 
0.001953125 0:1126 
0.001953125 0:1127 
0.001953125 0:1128 
-0.0007649915248825549 0:1130 
-0.001953125 0:1134 
0.001953125 0:1135 
-0.001953125 0:1138 
-0.001953125 0:1139 
-0.00184072716723663 0:1142 
0.001953125 0:1143 
0.001953125 0:1144 
0.0006797069225200964 0:1145 
0.001953125 0:1146 
0.001953125 0:1147 
-0.001337896505311664 0:1150 
0.001953125 0:1152 
-0.001953125 0:1154 
-0.001953125 0:1156 
-0.001294620466137694 0:1157 
-0.001953125 0:1159 
0.001953125 0:1160 
-0.001953125 0:1165 
0.001953125 0:1166 
0.001953125 0:1168 
-0.001953125 0:1170 
-0.001953125 0:1172 
-0.001953125 0:1175 
-0.001953125 0:1179 
-0.001506567328930579 0:1181 
0.001953125 0:1183 
0.0009187790043908201 0:1190 
-0.001953125 0:1195 
-0.001953125 0:1200 
-0.001953125 0:1205 
0.001953125 0:1207 
-0.001953125 0:1208 
0.0003437054944001451 0:1214 
-0.001953125 0:1215 
0.001953125 0:1220 
0.001953125 0:1225 
-0.001953125 0:1226 
0.001953125 0:1227 
0.001953125 0:1228 
0.001953125 0:1230 
-0.001953125 0:1232 
0.001953125 0:1233 
-0.001953125 0:1239 
-0.001953125 0:1242 
-0.001953125 0:1245 
-0.001953125 0:1246 
-0.001953125 0:1248 
0.001953125 0:1249 
-0.001953125 0:1251 
-0.001953125 0:1254 
0.001073027429361073 0:1257 
0.001953125 0:1260 
-0.001953125 0:1262 
0.001953125 0:1266 
0.001953125 0:1268 
-0.001389454730269618 0:1270 
0.001953125 0:1271 
-0.001953125 0:1273 
-0.001953125 0:1276 
-0.001953125 0:1278 
0.001953125 0:1279 
0.001953125 0:1280 
0.001483492911522097 0:1282 
0.001863111772788778 0:1285 
-0.001953125 0:1286 
0.001953125 0:1289 
-0.001953125 0:1290 
0.001953125 0:1292 
-0.001953125 0:1294 
0.001953125 0:1295 
-0.001953125 0:1303 
