svm_type nu_svc
kernel_type rbf
gamma 0.0135135
nr_class 2
total_sv 5450
rho -4.18206
label 0 1
nr_sv 2722 2728
SV
0.902268567994492 12:1 33:1 41:0.10714286 42:0.35714286 43:0.25 48:0.5 49:0.062179924 50:0.39332259 51:0.81690141 52:1 53:0.9084507 54:0.4084507 55:0.169 56:0.976 57:0.5725 58:0.0965 59:0.32121556 60:0.43920596 61:0.36918605 62:0.35174419 63:0.36046512 64:0.50872093 65:0.34782609 66:0.35714286 67:0.75 68:0.2 69:0.2 70:0.34996695 71:0.412135 72:0.81286792 73:0.23076923 
0.902268567994492 1:1 32:1 41:0.5 42:0.035714286 43:0.46428571 46:0.79 47:0.395 48:0.105 49:0.38823861 50:0.45525453 51:1 52:0.3943662 53:0.6971831 54:0.8028169 55:0.976 56:0.35 57:0.663 58:0.813 59:0.71868787 60:0.72704715 61:0.35174419 62:0.20639535 63:0.27906977 64:0.57267442 65:0.43478261 66:0.035714286 67:0.090336134 68:0.2 69:0.2 70:0.49781146 71:0.067844239 72:0.10378385 73:0.076923077 
0.902268567994492 16:1 21:1 41:0.035714286 42:0.5 43:0.46428571 45:0.79 47:0.395 48:0.895 49:0.063383406 50:0.40011226 51:0.3943662 52:0.97183099 53:0.68309859 54:0.21126761 55:0.35 56:1 57:0.675 58:0.175 59:0.45725646 60:0.59568859 61:0.20639535 62:0.18895349 63:0.19767442 64:0.50872093 65:0.43478261 66:0.5 67:0.90966387 68:0.2 69:0.2 70:0.4422052 71:0.52271467 72:0.90316447 73:0.076923077 
0.902268567994492 10:1 33:1 41:0.39285714 42:0.035714286 43:0.35714286 46:0.784 47:0.392 48:0.108 49:0.26459604 50:0.3301322 51:0.81690141 52:0.45070423 53:0.63380282 54:0.68309859 55:0.169 56:0.251 57:0.21 58:0.459 59:0.4471741 60:0.41516749 61:0.36918605 62:0.2994186 63:0.33430233 64:0.53488372 65:0.30434783 66:0.035714286 67:0.11734694 68:0.2 69:0.2 70:0.29177876 71:0.063092591 72:0.14296671 73:0.076923077 
0.902268567994492 3:1 32:1 41:0.64285714 42:0.035714286 43:0.60714286 46:0.86494 47:0.43247 48:0.06753 49:0.6564844 50:0.73764394 51:1 52:0.52112676 53:0.76056338 54:0.73943662 55:0.976 56:0.121 57:0.5485 58:0.9275 59:0.64498722 60:0.64562655 61:0.35174419 63:0.17587209 64:0.67587209 65:0.60869565 66:0.035714286 67:0.066326531 68:0.2 69:0.2 70:0.71975561 71:0.072253754 72:0.0777046 73:0.076923077 
0.902268567994492 7:1 40:1 41:0.32142857 43:0.32142857 44:1 46:1 47:0.5 49:0.46334313 50:0.47299501 51:0.98591549 52:0.53521127 53:0.76056338 54:0.72535211 55:0.802 56:0.223 57:0.5125 58:0.7895 59:0.48153934 60:0.5258995 61:0.36918605 62:1 63:0.68459302 64:0.18459302 65:0.17391304 67:0.061688312 68:0.2 69:0.2 70:0.23917988 71:0.033590418 72:0.091211122 
0.902268567994492 18:1 24:1 41:0.53571429 42:0.035714286 43:0.5 45:0.86525 46:0.775 47:0.820125 48:0.545125 49:0.45407391 50:0.5204062 51:0.54929577 52:0.6056338 53:0.57746479 54:0.47183099 55:0.224 56:0.215 57:0.2195 58:0.5045 59:0.55254189 60:0.52465881 61:0.12790698 62:0.15697674 63:0.14244186 64:0.48546512 65:0.47826087 66:0.035714286 67:0.083333333 68:0.2 69:0.2 70:0.52798268 71:0.053601632 72:0.076265336 73:0.076923077 
0.902268567994492 12:1 32:1 41:0.46428571 42:0.035714286 43:0.42857143 48:0.5 49:0.59144099 50:0.6021232 51:1 52:1 53:1 54:0.5 55:0.976 56:0.976 57:0.976 58:0.5 59:0.46989492 60:0.58700372 61:0.35174419 62:0.35174419 63:0.35174419 64:0.5 65:0.39130435 66:0.035714286 67:0.098214286 68:0.4 69:0.2 70:0.47757405 71:0.071928676 72:0.11430779 73:0.076923077 
0.902268567994492 1:1 38:1 41:0.42857143 42:0.21428571 43:0.21428571 45:0.775 46:0.79 47:0.7825 48:0.4925 49:0.45447748 50:0.64779067 51:0.6056338 52:0.3943662 53:0.5 54:0.6056338 55:0.215 56:0.35 57:0.2825 58:0.4325 59:0.39818233 60:0.3891129 61:0.15697674 62:0.20639535 63:0.18168605 64:0.4752907 65:0.56521739 66:0.21428571 67:0.33928571 68:0.2 69:0.2 70:0.61284855 71:0.23438591 72:0.32255327 73:0.46153846 
0.902268567994492 1:1 31:1 41:0.071428571 42:0.5 43:0.42857143 46:0.79 47:0.395 48:0.105 49:0.074442607 50:0.53551816 51:0.94366197 52:0.3943662 53:0.66901408 54:0.77464789 55:0.516 56:0.35 57:0.433 58:0.583 59:0.48040329 60:0.60235732 61:0.39534884 62:0.20639535 63:0.30087209 64:0.59447674 65:0.47826087 66:0.5 67:0.85714286 68:0.4 69:0.2 70:0.54736626 71:0.5644157 72:0.8542737 73:0.076923077 
0.902268567994492 4:1 24:1 41:0.17857143 42:0.46428571 43:0.28571429 45:0.86525 46:0.86525 47:0.86525 48:0.5 49:0.32778849 50:0.93309086 51:0.54929577 52:0.54929577 53:0.54929577 54:0.5 55:0.224 56:0.224 57:0.224 58:0.5 59:0.38582789 60:0.19494417 61:0.12790698 62:0.12790698 63:0.12790698 64:0.5 65:0.56521739 66:0.46428571 67:0.71428571 68:0.4 69:0.4 70:0.7257557 71:0.55999515 72:0.69773786 73:0.38461538 
0.902268567994492 16:1 38:1 41:0.17857143 42:0.21428571 43:0.035714286 45:0.775 47:0.3875 48:0.8875 49:0.2802381 50:0.42094145 51:0.6056338 52:0.97183099 53:0.78873239 54:0.31690141 55:0.215 56:1 57:0.6075 58:0.1075 59:0.19255893 60:0.28334367 61:0.15697674 62:0.18895349 63:0.17296512 64:0.48401163 65:0.26086957 66:0.21428571 67:0.54120879 68:0.8 69:0.4 70:0.30815668 71:0.26017852 72:0.55044949 73:0.23076923 
0.902268567994492 16:1 39:1 41:0.5 42:0.035714286 43:0.46428571 45:0.78 47:0.39 48:0.89 49:0.65256346 50:0.6578122 51:0.73239437 52:0.97183099 53:0.85211268 54:0.38028169 55:0.392 56:1 57:0.696 58:0.196 59:0.4943198 60:0.58281638 61:0.095930233 62:0.18895349 63:0.14244186 64:0.45348837 65:0.43478261 66:0.035714286 67:0.090336134 68:0.2 69:0.2 70:0.52709101 71:0.073955432 72:0.10822802 73:0.076923077 
0.902268567994492 11:1 39:1 41:0.071428571 42:0.53571429 43:0.46428571 45:0.78 47:0.39 48:0.89 49:0.062581085 50:0.26645089 51:0.73239437 52:0.94366197 53:0.83802817 54:0.3943662 55:0.392 56:0.516 57:0.454 58:0.438 59:0.48494746 60:0.56498139 61:0.095930233 62:0.39534884 63:0.24563953 64:0.3502907 65:0.52173913 66:0.53571429 67:0.86654135 68:0.2 69:0.2 70:0.48533057 71:0.52103522 72:0.85074899 73:0.15384615 
0.902268567994492 12:1 38:1 41:0.10714286 42:0.57142857 43:0.46428571 45:0.775 47:0.3875 48:0.8875 49:0.12435985 50:0.51254167 51:0.6056338 52:1 53:0.8028169 54:0.3028169 55:0.215 56:0.976 57:0.5955 58:0.1195 59:0.3277478 60:0.45828164 61:0.15697674 62:0.35174419 63:0.25436047 64:0.40261628 65:0.60869565 66:0.57142857 67:0.83163265 68:0.2 69:0.2 70:0.6275578 71:0.6204122 72:0.85804836 73:0.23076923 
0.902268567994492 11:1 31:1 41:0.71428571 42:0.10714286 43:0.60714286 48:0.5 49:0.51707541 50:0.6355353 51:0.94366197 52:0.94366197 53:0.94366197 54:0.5 55:0.516 56:0.516 57:0.516 58:0.5 59:0.11332008 60:0.057537221 61:0.39534884 62:0.39534884 63:0.39534884 64:0.5 65:0.7826087 66:0.10714286 67:0.13571429 68:0.2 70:0.68091357 71:0.1075122 72:0.12931847 73:0.30769231 
0.902268567994492 15:1 35:1 42:0.35714286 43:0.35714286 44:1 45:0.79 46:0.79 47:0.79 48:0.5 49:0.063383406 50:0.33524528 51:0.76056338 52:0.76056338 53:0.76056338 54:0.5 55:0.7 56:0.7 57:0.7 58:0.5 59:0.50468617 60:0.52434864 61:0.52325581 62:0.52325581 63:0.52325581 64:0.5 65:0.2173913 66:0.35714286 67:0.94642857 68:0.4 69:0.4 70:0.2641912 71:0.39517511 72:0.89688239 
0.902268567994492 5:1 26:1 41:0.60714286 42:0.035714286 43:0.57142857 48:0.5 49:0.40142877 50:0.39965934 51:1 53:0.5 54:1 55:0.976 56:0.008 57:0.492 58:0.984 59:0.36821926 60:0.31001861 61:0.35465116 62:0.50290698 63:0.42877907 64:0.42587209 65:0.56521739 66:0.035714286 67:0.071428571 68:0.2 70:0.61677635 71:0.052234923 72:0.062823677 73:0.15384615 
0.902268567994492 20:1 21:1 41:0.071428571 42:0.60714286 43:0.53571429 45:0.79 47:0.395 48:0.895 49:0.12596449 50:0.72086429 51:0.3943662 52:0.98591549 53:0.69014085 54:0.20422535 55:0.35 56:0.802 57:0.576 58:0.274 59:0.51065038 60:0.33080025 61:0.20639535 62:0.36918605 63:0.2877907 64:0.41860465 65:0.60869565 66:0.60714286 67:0.88265306 68:0.4 69:0.4 70:0.64171009 71:0.61968194 72:0.84398845 73:0.15384615 
0.902268567994492 11:1 23:1 41:0.46428571 42:0.071428571 43:0.39285714 45:0.86494 47:0.43247 48:0.93247 49:0.53346122 50:0.54367708 51:0.52112676 52:0.94366197 53:0.73239437 54:0.28873239 55:0.121 56:0.516 57:0.3185 58:0.3025 59:0.45413235 60:0.57227047 62:0.39534884 63:0.19767442 64:0.30232558 65:0.43478261 66:0.071428571 67:0.15336134 68:0.2 69:0.2 70:0.55082254 71:0.096011991 72:0.13765485 73:0.15384615 
0.902268567994492 3:1 21:1 42:0.32142857 43:0.32142857 44:1 45:0.79 46:0.86494 47:0.82747 48:0.46253 49:0.063383406 50:0.19774061 51:0.3943662 52:0.52112676 53:0.45774648 54:0.43661972 55:0.35 56:0.121 57:0.2355 58:0.6145 59:0.45498438 60:0.72735732 61:0.20639535 63:0.10319767 64:0.60319767 65:0.17391304 66:0.32142857 67:0.93831169 68:0.2 69:0.2 70:0.18147347 71:0.34161384 72:0.90732986 
0.902268567994492 13:1 40:1 41:0.071428571 42:0.5 43:0.42857143 48:0.5 49:0.074354352 50:0.45653239 51:0.98591549 52:0.81690141 53:0.90140845 54:0.58450704 55:0.802 56:0.169 57:0.4855 58:0.8165 59:0.49105368 60:0.62996278 61:0.36918605 62:0.36918605 63:0.36918605 64:0.5 65:0.47826087 66:0.5 67:0.85714286 68:0.4 69:0.2 70:0.53964563 71:0.55662727 72:0.85017796 73:0.076923077 
0.902268567994492 6:1 35:1 41:0.071428571 42:0.53571429 43:0.46428571 45:0.79 47:0.395 48:0.895 49:0.12556333 50:0.32431388 51:0.76056338 52:1 53:0.88028169 54:0.38028169 55:0.7 56:0.976 57:0.838 58:0.362 59:0.53180915 60:0.71091811 61:0.52325581 62:0.35465116 63:0.43895349 64:0.58430233 65:0.52173913 66:0.53571429 67:0.86654135 68:0.2 69:0.2 70:0.58405901 71:0.57905245 72:0.83995885 73:0.15384615 
0.902268567994492 13:1 21:1 41:0.21428571 42:0.60714286 43:0.39285714 45:0.79 47:0.395 48:0.895 49:0.2647565 50:0.75617217 51:0.3943662 52:0.81690141 53:0.6056338 54:0.28873239 55:0.35 56:0.169 57:0.2595 58:0.5905 59:0.47287702 60:0.43656948 61:0.20639535 62:0.36918605 63:0.2877907 64:0.41860465 65:0.7826087 66:0.60714286 67:0.73571429 68:0.4 69:0.4 70:0.88788932 71:0.67366568 72:0.7249154 73:0.46153846 
0.902268567994492 4:1 23:1 41:0.42857143 42:0.32142857 43:0.10714286 45:0.86494 46:0.86525 47:0.865095 48:0.499845 49:0.27003578 50:0.47320852 51:0.52112676 52:0.54929577 53:0.53521127 54:0.48591549 55:0.121 56:0.224 57:0.1725 58:0.4485 59:0.25234308 60:0.49829404 62:0.12790698 63:0.063953488 64:0.43604651 65:0.69565217 66:0.32142857 67:0.43012422 68:0.4 69:0.2 70:0.67714966 71:0.35245316 72:0.45659385 73:0.38461538 
0.902268567994492 20:1 32:1 41:0.57142857 42:0.035714286 43:0.53571429 48:0.5 49:0.25064527 50:0.25266127 51:1 52:0.98591549 53:0.99295775 54:0.50704225 55:0.976 56:0.802 57:0.889 58:0.587 59:0.58591309 60:0.6521402 61:0.35174419 62:0.36918605 63:0.36046512 64:0.49127907 65:0.52173913 66:0.035714286 67:0.077067669 68:0.2 69:0.2 70:0.48879914 71:0.057682261 72:0.088802589 73:0.076923077 
0.902268567994492 18:1 21:1 41:0.67857143 42:0.14285714 43:0.53571429 45:0.79 46:0.775 47:0.7825 48:0.5075 49:0.45233929 50:0.51865763 51:0.3943662 52:0.6056338 53:0.5 54:0.3943662 55:0.35 56:0.215 57:0.2825 58:0.5675 59:0.37418347 60:0.52434864 61:0.20639535 62:0.15697674 63:0.18168605 64:0.5247093 65:0.7826087 66:0.14285714 67:0.17857143 68:0.2 69:0.2 70:0.79739057 71:0.16386476 72:0.17839632 73:0.30769231 
0.902268567994492 20:1 39:1 41:0.53571429 42:0.17857143 43:0.35714286 45:0.78 47:0.39 48:0.89 49:0.52066179 50:0.6619321 51:0.73239437 52:0.98591549 53:0.85915493 54:0.37323944 55:0.392 56:0.802 57:0.597 58:0.295 59:0.46449872 60:0.53706576 61:0.095930233 62:0.36918605 63:0.23255814 64:0.36337209 65:0.65217391 66:0.17857143 67:0.25649351 68:0.2 69:0.2 70:0.69694429 71:0.20996297 72:0.26059032 73:0.38461538 
0.902268567994492 3:1 36:1 41:0.10714286 42:0.5 43:0.39285714 46:0.86494 47:0.43247 48:0.06753 49:0.13197709 50:0.61124052 51:0.97183099 52:0.52112676 53:0.74647887 54:0.72535211 55:1 56:0.121 57:0.5605 58:0.9395 59:0.54572565 60:0.6332196 61:0.18895349 63:0.094476744 64:0.59447674 65:0.52173913 66:0.5 67:0.81015038 68:0.2 69:0.2 70:0.61459493 71:0.56509053 72:0.79174092 73:0.23076923 
0.902268567994492 4:1 38:1 42:0.25 43:0.25 44:1 45:0.775 46:0.86525 47:0.820125 48:0.454875 49:0.062179924 50:0.19655252 51:0.6056338 52:0.54929577 53:0.57746479 54:0.52816901 55:0.215 56:0.224 57:0.2195 58:0.4955 59:0.43581369 60:0.52093672 61:0.15697674 62:0.12790698 63:0.14244186 64:0.51453488 65:0.086956522 66:0.25 67:0.91666667 68:0.2 69:0.2 70:0.065940666 71:0.26493733 72:0.92280625 
0.902268567994492 12:1 21:1 41:0.071428571 42:0.42857143 43:0.35714286 45:0.79 47:0.395 48:0.895 49:0.18894674 50:0.5267106 51:0.3943662 52:1 53:0.6971831 54:0.1971831 55:0.35 56:0.976 57:0.663 58:0.187 59:0.44291394 60:0.39283499 61:0.20639535 62:0.35174419 63:0.27906977 64:0.42732558 65:0.39130435 66:0.42857143 67:0.83482143 68:0.2 69:0.2 70:0.43055309 71:0.45283987 72:0.79456074 73:0.15384615 
0.902268567994492 13:1 38:1 41:0.42857143 42:0.035714286 43:0.39285714 45:0.775 47:0.3875 48:0.8875 49:0.25064527 50:0.25858636 51:0.6056338 52:0.81690141 53:0.71126761 54:0.3943662 55:0.215 56:0.169 57:0.192 58:0.523 59:0.65421755 60:0.66315136 61:0.15697674 62:0.36918605 63:0.2630814 64:0.39389535 65:0.34782609 66:0.035714286 67:0.10714286 68:0.2 69:0.2 70:0.3870543 71:0.052922086 72:0.099021697 73:0.076923077 
0.902268567994492 20:1 26:1 41:0.39285714 42:0.42857143 43:0.035714286 48:0.5 49:0.40316179 50:0.98049397 51:1 52:0.98591549 53:0.99295775 54:0.50704225 55:0.976 56:0.802 57:0.889 58:0.587 59:0.42672536 60:0.35297767 61:0.35465116 62:0.36918605 63:0.3619186 64:0.49273256 65:0.7826087 66:0.42857143 67:0.52142857 68:0.4 69:0.2 70:0.8663163 71:0.45688684 72:0.49496959 73:0.84615385 
0.902268567994492 1:1 37:1 41:0.14285714 42:0.60714286 43:0.46428571 45:0.83 46:0.79 47:0.81 48:0.52 49:0.19939698 50:0.80932404 51:0.91549296 52:0.3943662 53:0.65492958 54:0.76056338 55:0.823 56:0.35 57:0.5865 58:0.7365 59:0.58122692 60:0.68191687 61:0.15988372 62:0.20639535 63:0.18313953 64:0.47674419 65:0.69565217 66:0.60714286 67:0.80279503 68:0.4 69:0.4 70:0.80944639 71:0.67400394 72:0.77802082 73:0.30769231 
0.902268567994492 6:1 31:1 42:0.28571429 43:0.28571429 44:1 48:0.5 50:0.063893216 51:0.94366197 52:1 53:0.97183099 54:0.47183099 55:0.516 56:0.976 57:0.746 58:0.27 59:0.47855723 60:0.6792804 61:0.39534884 62:0.35465116 63:0.375 64:0.52034884 65:0.13043478 66:0.28571429 67:0.92857143 68:0.2 69:0.2 70:0.11252377 71:0.3070188 72:0.94905982 
0.902268567994492 11:1 33:1 41:0.32142857 42:0.14285714 43:0.17857143 48:0.5 49:0.3883389 50:0.39146241 51:0.81690141 52:0.94366197 53:0.88028169 54:0.43661972 55:0.169 56:0.516 57:0.3425 58:0.3265 59:0.33740415 60:0.36135236 61:0.36918605 62:0.39534884 63:0.38226744 64:0.4869186 65:0.34782609 66:0.14285714 67:0.32142857 68:0.2 69:0.2 70:0.26980783 71:0.12993221 72:0.29844471 73:0.30769231 
0.902268567994492 3:1 35:1 41:0.035714286 42:0.42857143 43:0.39285714 45:0.79 46:0.86494 47:0.82747 48:0.46253 49:0.063383406 50:0.60961002 51:0.76056338 52:0.52112676 53:0.64084507 54:0.61971831 55:0.7 56:0.121 57:0.4105 58:0.7895 59:0.45768248 60:0.40601737 61:0.52325581 63:0.26162791 64:0.76162791 65:0.34782609 66:0.42857143 67:0.89285714 68:0.4 69:0.4 70:0.47191524 71:0.53931292 72:0.89611487 73:0.076923077 
0.902268567994492 1:1 38:1 41:0.32142857 42:0.10714286 43:0.21428571 45:0.775 46:0.79 47:0.7825 48:0.4925 49:0.25737995 50:0.39235287 51:0.6056338 52:0.3943662 53:0.5 54:0.6056338 55:0.215 56:0.35 57:0.2825 58:0.4325 59:0.37475149 60:0.37174318 61:0.15697674 62:0.20639535 63:0.18168605 64:0.4752907 65:0.30434783 66:0.10714286 67:0.27040816 68:0.2 69:0.2 70:0.28702218 71:0.13567995 72:0.30137702 73:0.23076923 
0.902268567994492 11:1 33:1 41:0.071428571 42:0.39285714 43:0.32142857 48:0.5 49:0.062581085 50:0.45775688 51:0.81690141 52:0.94366197 53:0.88028169 54:0.43661972 55:0.169 56:0.516 57:0.3425 58:0.3265 59:0.48494746 60:0.31141439 61:0.36918605 62:0.39534884 63:0.38226744 64:0.4869186 65:0.34782609 66:0.39285714 67:0.82142857 68:0.2 69:0.2 70:0.33355825 71:0.40159723 72:0.81260324 73:0.15384615 
0.902268567994492 13:1 35:1 41:0.32142857 42:0.071428571 43:0.25 45:0.79 47:0.395 48:0.895 49:0.20713376 50:0.20879979 51:0.76056338 52:0.81690141 53:0.78873239 54:0.47183099 55:0.7 56:0.169 57:0.4345 58:0.7655 59:0.52300483 60:0.433933 61:0.52325581 62:0.36918605 63:0.44622093 64:0.57703488 65:0.26086957 66:0.071428571 67:0.21153846 68:0.4 69:0.2 70:0.24051008 71:0.062758986 72:0.15901682 73:0.15384615 
0.902268567994492 20:1 30:1 41:0.17857143 42:0.42857143 43:0.25 45:0.784 47:0.392 48:0.892 49:0.13229802 50:0.52491108 51:0.45070423 52:0.98591549 53:0.71830986 54:0.23239437 55:0.251 56:0.802 57:0.5265 58:0.2245 59:0.46875888 60:0.75 61:0.2994186 62:0.36918605 63:0.33430233 64:0.46511628 65:0.52173913 66:0.42857143 67:0.69736842 68:0.2 69:0.2 70:0.57624608 71:0.49827894 72:0.72796071 73:0.38461538 
0.902268567994492 7:1 35:1 41:0.32142857 43:0.32142857 44:1 45:0.79 46:1 47:0.895 48:0.395 49:0.26278038 50:0.27081908 51:0.76056338 52:0.53521127 53:0.64788732 54:0.61267606 55:0.7 56:0.223 57:0.4615 58:0.7385 59:0.41777904 60:0.45626551 61:0.52325581 62:1 63:0.76162791 64:0.26162791 65:0.17391304 67:0.061688312 68:0.2 69:0.2 70:0.19951291 71:0.033590418 72:0.10141905 
0.902268567994492 4:1 32:1 41:0.071428571 42:0.57142857 43:0.5 46:0.86525 47:0.432625 48:0.067375 49:0.13229802 50:0.53801242 51:1 52:0.54929577 53:0.77464789 54:0.72535211 55:0.976 56:0.224 57:0.6 58:0.876 59:0.45470037 60:0.25 61:0.35174419 62:0.12790698 63:0.23982558 64:0.6119186 65:0.56521739 66:0.57142857 67:0.875 68:0.4 69:0.4 70:0.56720725 71:0.57291903 72:0.84726965 73:0.15384615 
0.902268567994492 11:1 32:1 42:0.32142857 43:0.32142857 44:1 48:0.5 50:0.13977248 51:1 52:0.94366197 53:0.97183099 54:0.52816901 55:0.976 56:0.516 57:0.746 58:0.73 59:0.54387958 60:0.6450062 61:0.35174419 62:0.39534884 63:0.37354651 64:0.47819767 65:0.17391304 66:0.32142857 67:0.93831169 68:0.2 69:0.2 70:0.1323215 71:0.30834378 72:0.91112722 
0.902268567994492 14:1 33:1 41:0.39285714 42:0.035714286 43:0.35714286 46:0.90953 47:0.454765 48:0.045235 49:0.40661899 50:0.48937512 51:0.81690141 52:0.70422535 53:0.76056338 54:0.55633803 55:0.169 56:0.988 57:0.5785 58:0.0905 59:0.37333144 60:0.48340571 61:0.36918605 62:0.29360465 63:0.33139535 64:0.5377907 65:0.30434783 66:0.035714286 67:0.11734694 68:0.4 69:0.2 70:0.38266754 71:0.096675846 72:0.18201336 73:0.076923077 
0.902268567994492 11:1 38:1 41:0.10714286 42:0.46428571 43:0.35714286 45:0.775 47:0.3875 48:0.8875 49:0.18726186 50:0.65153125 51:0.6056338 52:0.94366197 53:0.77464789 54:0.33098592 55:0.215 56:0.516 57:0.3655 58:0.3495 59:0.42757739 60:0.54807692 61:0.15697674 62:0.39534884 63:0.27616279 64:0.38081395 65:0.47826087 66:0.46428571 67:0.79761905 68:0.4 69:0.4 70:0.5404718 71:0.5315308 72:0.81067891 73:0.23076923 
0.902268567994492 11:1 31:1 41:0.17857143 42:0.14285714 43:0.035714286 48:0.5 49:0.062902013 50:0.063407951 51:0.94366197 52:0.94366197 53:0.94366197 54:0.5 55:0.516 56:0.516 57:0.516 58:0.5 59:0.46833286 60:0.57568238 61:0.39534884 62:0.39534884 63:0.39534884 64:0.5 65:0.17391304 66:0.14285714 67:0.4512987 68:0.2 69:0.2 70:0.089653138 71:0.14418715 72:0.48839766 73:0.30769231 
0.902268567994492 1:1 36:1 42:0.28571429 43:0.28571429 44:1 46:0.79 47:0.395 48:0.105 50:0.33808327 51:0.97183099 52:0.3943662 53:0.68309859 54:0.78873239 55:1 56:0.35 57:0.675 58:0.825 59:0.5472877 60:0.53644541 61:0.18895349 62:0.20639535 63:0.19767442 64:0.49127907 65:0.13043478 66:0.28571429 67:0.92857143 68:0.2 69:0.2 70:0.1564064 71:0.31577599 72:0.88494938 
0.902268567994492 11:1 32:1 41:0.39285714 42:0.035714286 43:0.35714286 48:0.5 49:0.38302833 50:0.39203421 51:1 52:0.94366197 53:0.97183099 54:0.52816901 55:0.976 56:0.516 57:0.746 58:0.73 59:0.55538199 60:0.60902605 61:0.35174419 62:0.39534884 63:0.37354651 64:0.47819767 65:0.30434783 66:0.035714286 67:0.11734694 68:0.2 69:0.2 70:0.35727391 71:0.057673733 72:0.11452677 73:0.076923077 
0.902268567994492 11:1 31:1 41:0.035714286 42:0.35714286 43:0.32142857 48:0.5 50:0.13209397 51:0.94366197 52:0.94366197 53:0.94366197 54:0.5 55:0.516 56:0.516 57:0.516 58:0.5 59:0.54955978 60:0.47146402 61:0.39534884 62:0.39534884 63:0.39534884 64:0.5 65:0.26086957 66:0.35714286 67:0.87087912 68:0.2 69:0.2 70:0.17756531 71:0.30834378 72:0.82739117 73:0.076923077 
0.902268567994492 4:1 29:1 41:0.035714286 42:0.5 43:0.46428571 45:0.92674 46:0.86525 47:0.895995 48:0.530745 49:0.074354352 50:0.47511481 51:0.43661972 52:0.54929577 53:0.49295775 54:0.44366197 56:0.224 57:0.112 58:0.388 59:0.47287702 60:0.78086228 61:0.53488372 62:0.12790698 63:0.33139535 64:0.70348837 65:0.43478261 66:0.5 67:0.90966387 68:0.4 69:0.2 70:0.52370846 71:0.57292039 72:0.89232021 
0.902268567994492 12:1 40:1 41:0.39285714 42:0.071428571 43:0.32142857 48:0.5 49:0.40239477 50:0.40563134 51:0.98591549 52:1 53:0.99295775 54:0.49295775 55:0.802 56:0.976 57:0.889 58:0.413 59:0.34010224 60:0.41315136 61:0.36918605 62:0.35174419 63:0.36046512 64:0.50872093 65:0.34782609 66:0.071428571 67:0.17857143 68:0.2 69:0.2 70:0.33187341 71:0.086517223 72:0.17886894 73:0.15384615 
0.902268567994492 1:1 32:1 41:0.35714286 42:0.17857143 43:0.17857143 46:0.79 47:0.395 48:0.105 49:0.38998767 50:0.52699691 51:1 52:0.3943662 53:0.6971831 54:0.8028169 55:0.976 56:0.35 57:0.663 58:0.813 59:0.23913661 60:0.38197891 61:0.35174419 62:0.20639535 63:0.27906977 64:0.57267442 65:0.43478261 66:0.17857143 67:0.34243697 68:0.4 69:0.2 70:0.49998458 71:0.22627399 72:0.35918213 73:0.38461538 
0.902268567994492 19:1 39:1 41:0.035714286 42:0.57142857 43:0.53571429 45:0.78 46:0.78 47:0.78 48:0.5 49:0.12516217 50:0.39569392 51:0.73239437 52:0.73239437 53:0.73239437 54:0.5 55:0.392 56:0.392 57:0.392 58:0.5 59:0.44561204 60:0.6096464 61:0.095930233 62:0.095930233 63:0.095930233 64:0.5 65:0.52173913 66:0.57142857 67:0.92293233 68:0.2 69:0.2 70:0.45385877 71:0.53120215 72:0.9037136 73:0.076923077 
0.902268567994492 6:1 25:1 41:0.071428571 42:0.17857143 43:0.10714286 48:0.5 49:0.12949471 50:0.12556311 52:1 53:0.5 55:0.008 56:0.976 57:0.492 58:0.016 59:0.41692701 60:0.75697891 61:0.50290698 62:0.35465116 63:0.42877907 64:0.57412791 65:0.086956522 66:0.17857143 67:0.67857143 70:0.1103193 71:0.21304118 72:0.67106738 73:0.15384615 
0.902268567994492 13:1 40:1 41:0.39285714 42:0.035714286 43:0.35714286 48:0.5 49:0.26258702 50:0.26469908 51:0.98591549 52:0.81690141 53:0.90140845 54:0.58450704 55:0.802 56:0.169 57:0.4855 58:0.8165 59:0.62922465 60:0.60127171 61:0.36918605 62:0.36918605 63:0.36918605 64:0.5 65:0.30434783 66:0.035714286 67:0.11734694 68:0.4 69:0.2 70:0.27457098 71:0.043427318 72:0.10491703 73:0.076923077 
0.902268567994492 10:1 38:1 41:0.10714286 42:0.35714286 43:0.25 45:0.775 46:0.784 47:0.7795 48:0.4955 49:0.1316008 50:0.4050102 51:0.6056338 52:0.45070423 53:0.52816901 54:0.57746479 55:0.215 56:0.251 57:0.233 58:0.482 59:0.3943482 60:0.42183623 61:0.15697674 62:0.2994186 63:0.22819767 64:0.42877907 65:0.34782609 66:0.35714286 67:0.75 68:0.2 69:0.2 70:0.34092957 71:0.36668473 72:0.7337732 73:0.23076923 
0.902268567994492 1:1 31:1 41:0.35714286 42:0.14285714 43:0.21428571 46:0.79 47:0.395 48:0.105 49:0.33837753 50:0.46714756 51:0.94366197 52:0.3943662 53:0.66901408 54:0.77464789 55:0.516 56:0.35 57:0.433 58:0.583 59:0.40059642 60:0.61584988 61:0.39534884 62:0.20639535 63:0.30087209 64:0.59447674 65:0.39130435 66:0.14285714 67:0.29910714 68:0.4 70:0.43746265 71:0.20045586 72:0.34685134 73:0.15384615 
0.902268567994492 8:1 33:1 41:0.14285714 42:0.42857143 43:0.28571429 46:0.92784 47:0.46392 48:0.03608 49:0.2053847 50:0.86538185 51:0.81690141 52:0.56338028 53:0.69014085 54:0.62676056 55:0.169 56:0.037 57:0.103 58:0.566 59:0.41039477 60:0.16811414 61:0.36918605 62:0.078488372 63:0.22383721 64:0.64534884 65:0.47826087 66:0.42857143 67:0.73809524 68:0.4 69:0.4 70:0.56323473 71:0.5111205 72:0.75841074 
0.902268567994492 4:1 31:1 41:0.60714286 42:0.14285714 43:0.46428571 46:0.86525 47:0.432625 48:0.067375 49:0.46494055 50:0.67067253 51:0.94366197 52:0.54929577 53:0.74647887 54:0.6971831 55:0.516 56:0.224 57:0.37 58:0.646 59:0.43780176 60:0.3549938 61:0.39534884 62:0.12790698 63:0.26162791 64:0.63372093 65:0.69565217 66:0.14285714 67:0.19720497 68:0.4 69:0.2 70:0.72109144 71:0.16959164 72:0.20197108 73:0.30769231 
0.902268567994492 6:1 31:1 41:0.32142857 42:0.17857143 43:0.14285714 48:0.5 49:0.46418156 50:0.60095371 51:0.94366197 52:1 53:0.97183099 54:0.47183099 55:0.516 56:0.976 57:0.746 58:0.27 59:0.19241693 60:0.22316998 61:0.39534884 62:0.35465116 63:0.375 64:0.52034884 65:0.39130435 66:0.17857143 67:0.36607143 68:0.6 69:0.2 70:0.39909067 71:0.1930248 72:0.35368976 73:0.15384615 
0.902268567994492 4:1 24:1 41:0.21428571 42:0.42857143 43:0.21428571 45:0.86525 46:0.86525 47:0.86525 48:0.5 49:0.39720937 50:0.93309086 51:0.54929577 52:0.54929577 53:0.54929577 54:0.5 55:0.224 56:0.224 57:0.224 58:0.5 59:0.34663448 60:0.19494417 61:0.12790698 62:0.12790698 63:0.12790698 64:0.5 65:0.56521739 66:0.42857143 67:0.66071429 68:0.4 69:0.4 70:0.7257557 71:0.51658017 72:0.64248443 73:0.46153846 
0.902268567994492 13:1 26:1 41:0.32142857 42:0.28571429 43:0.035714286 48:0.5 49:0.24912086 50:0.3694694 51:1 52:0.81690141 53:0.9084507 54:0.5915493 55:0.976 56:0.169 57:0.5725 58:0.9035 59:0.1721102 60:0.1898263 61:0.35465116 62:0.36918605 63:0.3619186 64:0.49273256 65:0.52173913 66:0.28571429 67:0.47180451 70:0.33398846 71:0.2476127 72:0.5022595 73:0.69230769 
0.902268567994492 11:1 31:1 41:0.57142857 42:0.14285714 43:0.42857143 48:0.5 49:0.51179613 50:0.50485346 51:0.94366197 52:0.94366197 53:0.94366197 54:0.5 55:0.516 56:0.516 57:0.516 58:0.5 59:0.48494746 60:0.70192308 61:0.39534884 62:0.39534884 63:0.39534884 64:0.5 65:0.65217391 66:0.14285714 67:0.20779221 70:0.60728884 71:0.14926007 72:0.20284647 73:0.38461538 
0.902268567994492 20:1 38:1 41:0.42857143 42:0.035714286 43:0.39285714 45:0.775 47:0.3875 48:0.8875 49:0.45588635 50:0.45955317 51:0.6056338 52:0.98591549 53:0.79577465 54:0.30985915 55:0.215 56:0.802 57:0.5085 58:0.2065 59:0.39662028 60:0.44540943 61:0.15697674 62:0.36918605 63:0.2630814 64:0.39389535 65:0.34782609 66:0.035714286 67:0.10714286 68:0.4 69:0.2 70:0.36678872 71:0.057682261 72:0.11236 73:0.076923077 
0.902268567994492 3:1 40:1 41:0.60714286 42:0.071428571 43:0.53571429 46:0.86494 47:0.43247 48:0.06753 49:0.65471368 50:0.73585898 51:0.98591549 52:0.52112676 53:0.75352113 54:0.73239437 55:0.802 56:0.121 57:0.4615 58:0.8405 59:0.47813121 60:0.46588089 61:0.36918605 63:0.18459302 64:0.68459302 65:0.60869565 66:0.071428571 67:0.11734694 68:0.4 69:0.2 70:0.71115299 71:0.096337069 72:0.10980689 73:0.15384615 
0.902268567994492 20:1 26:1 41:0.46428571 42:0.10714286 43:0.35714286 48:0.5 49:0.53487251 50:0.53917463 51:1 52:0.98591549 53:0.99295775 54:0.50704225 55:0.976 56:0.802 57:0.889 58:0.587 59:0.45725646 60:0.65927419 61:0.35465116 62:0.36918605 63:0.3619186 64:0.49273256 65:0.47826087 66:0.10714286 67:0.20238095 68:0.4 69:0.2 70:0.56941664 71:0.13435878 72:0.19105404 73:0.23076923 
0.902268567994492 4:1 30:1 41:0.10714286 42:0.46428571 43:0.35714286 45:0.784 46:0.86525 47:0.824625 48:0.459375 49:0.062902013 50:0.66036469 51:0.45070423 52:0.54929577 53:0.5 54:0.45070423 55:0.251 56:0.224 57:0.2375 58:0.5135 59:0.50440216 60:0.39748759 61:0.2994186 62:0.12790698 63:0.21366279 64:0.58575581 65:0.47826087 66:0.46428571 67:0.79761905 68:0.2 69:0.2 70:0.5382955 71:0.53591184 72:0.8195697 73:0.23076923 
0.902268567994492 10:1 32:1 41:0.035714286 42:0.39285714 43:0.35714286 46:0.784 47:0.392 48:0.108 49:0.069396004 50:0.61402836 51:1 52:0.45070423 53:0.72535211 54:0.77464789 55:0.976 56:0.251 57:0.6135 58:0.8625 59:0.49005964 60:0.38166873 61:0.35174419 62:0.2994186 63:0.3255814 64:0.52616279 65:0.30434783 66:0.39285714 67:0.88265306 68:0.4 69:0.4 70:0.39953084 71:0.47996218 72:0.87960312 73:0.076923077 
0.902268567994492 19:1 32:1 41:0.53571429 42:0.035714286 43:0.5 46:0.78 47:0.39 48:0.11 49:0.726982 50:0.79591375 51:1 52:0.73239437 53:0.86619718 54:0.63380282 55:0.976 56:0.392 57:0.684 58:0.792 59:0.28415223 60:0.25899504 61:0.35174419 62:0.095930233 63:0.22383721 64:0.62790698 65:0.47826087 66:0.035714286 67:0.083333333 68:0.6 69:0.2 70:0.54952796 71:0.05835328 72:0.080507653 73:0.076923077 
0.902268567994492 9:1 26:1 41:0.25 43:0.25 44:1 46:0.92674 47:0.46337 48:0.03663 49:0.25906483 50:0.26114856 51:1 52:0.43661972 53:0.71830986 54:0.78169014 55:0.976 57:0.488 58:0.988 59:0.55339392 60:0.56978908 61:0.35465116 62:0.53488372 63:0.44476744 64:0.40988372 65:0.086956522 67:0.083333333 68:0.2 69:0.2 70:0.13228705 71:0.024095651 72:0.095379186 
0.902268567994492 14:1 33:1 41:0.035714286 42:0.39285714 43:0.35714286 46:0.90953 47:0.454765 48:0.045235 50:0.48972128 51:0.81690141 52:0.70422535 53:0.76056338 54:0.55633803 55:0.169 56:0.988 57:0.5785 58:0.0905 59:0.35941494 60:0.43470844 61:0.36918605 62:0.29360465 63:0.33139535 64:0.5377907 65:0.30434783 66:0.39285714 67:0.88265306 68:0.4 69:0.4 70:0.41201259 71:0.51455142 72:0.92659559 73:0.076923077 
0.902268567994492 15:1 21:1 41:0.071428571 42:0.32142857 43:0.25 45:0.79 46:0.79 47:0.79 48:0.5 49:0.12676681 50:0.53203234 51:0.3943662 52:0.76056338 53:0.57746479 54:0.31690141 55:0.35 56:0.7 57:0.525 58:0.325 59:0.38667992 60:0.43300248 61:0.20639535 62:0.52325581 63:0.36482558 64:0.34156977 65:0.26086957 66:0.32142857 67:0.78846154 68:0.4 69:0.4 70:0.33357393 71:0.3982298 72:0.80580427 73:0.15384615 
0.902268567994492 10:1 38:1 41:0.071428571 42:0.42857143 43:0.35714286 45:0.775 46:0.784 47:0.7795 48:0.4955 49:0.062179924 50:0.39076039 51:0.6056338 52:0.45070423 53:0.52816901 54:0.57746479 55:0.215 56:0.251 57:0.233 58:0.482 59:0.44035785 60:0.496433 61:0.15697674 62:0.2994186 63:0.22819767 64:0.42877907 65:0.39130435 66:0.42857143 67:0.83482143 68:0.2 69:0.2 70:0.36032022 71:0.44843416 72:0.87043943 73:0.15384615 
0.902268567994492 15:1 25:1 41:0.42857143 42:0.10714286 43:0.32142857 46:0.79 47:0.395 48:0.105 49:0.18894674 50:0.26028479 52:0.76056338 53:0.38028169 54:0.11971831 55:0.008 56:0.7 57:0.354 58:0.154 59:0.54544164 60:0.70300868 61:0.50290698 62:0.52325581 63:0.5130814 64:0.48982558 65:0.43478261 66:0.10714286 67:0.21638655 68:0.2 69:0.2 70:0.48362038 71:0.15129444 72:0.2438017 73:0.23076923 
0.902268567994492 8:1 26:1 42:0.28571429 43:0.28571429 44:1 46:0.92784 47:0.46392 48:0.03608 50:0.26581195 51:1 52:0.56338028 53:0.78169014 54:0.71830986 55:0.976 56:0.037 57:0.5065 58:0.9695 59:0.54387958 60:0.49612283 61:0.35465116 62:0.078488372 63:0.21656977 64:0.6380814 65:0.13043478 66:0.28571429 67:0.92857143 68:0.2 69:0.2 70:0.15083469 71:0.32291283 72:0.91523569 
0.902268567994492 11:1 31:1 41:0.071428571 42:0.53571429 43:0.46428571 48:0.5 50:0.46166003 51:0.94366197 52:0.94366197 53:0.94366197 54:0.5 55:0.516 56:0.516 57:0.516 58:0.5 59:0.55183187 60:0.23759305 61:0.39534884 62:0.39534884 63:0.39534884 64:0.5 65:0.52173913 66:0.53571429 67:0.86654135 68:0.2 69:0.2 70:0.44303137 71:0.49317032 72:0.85099444 73:0.15384615 
0.902268567994492 12:1 40:1 42:0.32142857 43:0.32142857 44:1 48:0.5 50:0.20083983 51:0.98591549 52:1 53:0.99295775 54:0.49295775 55:0.802 56:0.976 57:0.889 58:0.413 59:0.51917069 60:0.69370347 61:0.36918605 62:0.35174419 63:0.36046512 64:0.50872093 65:0.17391304 66:0.32142857 67:0.93831169 68:0.2 69:0.2 70:0.18791692 71:0.35684653 72:0.93480131 
0.902268567994492 17:1 38:1 41:0.28571429 42:0.21428571 43:0.071428571 45:0.775 46:0.83 47:0.8025 48:0.4725 49:0.18694093 50:0.33147719 51:0.6056338 52:0.91549296 53:0.76056338 54:0.34507042 55:0.215 56:0.823 57:0.519 58:0.196 59:0.3111332 60:0.30319479 61:0.15697674 62:0.15988372 63:0.15843023 64:0.49854651 65:0.39130435 66:0.21428571 67:0.43303571 68:0.2 69:0.2 70:0.264604 71:0.21301294 72:0.48773321 73:0.46153846 
0.902268567994492 1:1 33:1 41:0.14285714 42:0.42857143 43:0.28571429 46:0.79 47:0.395 48:0.105 49:0.13555464 50:0.73123036 51:0.81690141 52:0.3943662 53:0.6056338 54:0.71126761 55:0.169 56:0.35 57:0.2595 58:0.4095 59:0.50383414 60:0.42199132 61:0.36918605 62:0.20639535 63:0.2877907 64:0.58139535 65:0.47826087 66:0.42857143 67:0.73809524 68:0.4 69:0.4 70:0.58010953 71:0.52472643 72:0.76368951 73:0.30769231 
0.902268567994492 20:1 37:1 41:0.32142857 42:0.46428571 43:0.14285714 45:0.83 47:0.415 48:0.915 49:0.26691154 50:0.59215909 51:0.91549296 52:0.98591549 53:0.95070423 54:0.46478873 55:0.823 56:0.802 57:0.8125 58:0.5105 59:0.40400454 60:0.51225186 61:0.15988372 62:0.36918605 63:0.26453488 64:0.39534884 65:0.73913043 66:0.46428571 67:0.58928571 68:0.4 69:0.2 70:0.74266814 71:0.48405986 72:0.59096556 73:0.23076923 
0.902268567994492 19:1 31:1 41:0.21428571 42:0.42857143 43:0.21428571 46:0.78 47:0.39 48:0.11 49:0.20651758 50:0.54932233 51:0.94366197 52:0.73239437 53:0.83802817 54:0.6056338 55:0.516 56:0.392 57:0.454 58:0.562 59:0.40585061 60:0.44308313 61:0.39534884 62:0.095930233 63:0.24563953 64:0.6497093 65:0.56521739 66:0.42857143 67:0.66071429 68:0.6 69:0.4 70:0.59223909 71:0.46033011 72:0.65945053 73:0.46153846 
0.902268567994492 17:1 36:1 41:0.10714286 42:0.17857143 43:0.071428571 46:0.83 47:0.415 48:0.085 49:0.062902013 50:0.26438366 51:0.97183099 52:0.91549296 53:0.94366197 54:0.52816901 55:1 56:0.823 57:0.9115 58:0.5885 59:0.51647259 60:0.61817618 61:0.18895349 62:0.15988372 63:0.1744186 64:0.51453488 65:0.13043478 66:0.17857143 67:0.60714286 68:0.2 69:0.2 70:0.1490946 71:0.22285836 72:0.64135015 73:0.15384615 
0.902268567994492 11:1 32:1 41:0.64285714 42:0.035714286 43:0.60714286 48:0.5 49:0.65227302 50:0.66344451 51:1 52:0.94366197 53:0.97183099 54:0.52816901 55:0.976 56:0.516 57:0.746 58:0.73 59:0.44262993 60:0.4858871 61:0.35174419 62:0.39534884 63:0.37354651 64:0.47819767 65:0.60869565 66:0.035714286 67:0.066326531 68:0.2 69:0.2 70:0.63745726 71:0.057673733 72:0.068031936 73:0.076923077 
0.902268567994492 8:1 38:1 41:0.035714286 42:0.28571429 43:0.25 45:0.775 46:0.92784 47:0.85142 48:0.42358 49:0.12476101 50:0.39590339 51:0.6056338 52:0.56338028 53:0.58450704 54:0.52112676 55:0.215 56:0.037 57:0.126 58:0.589 59:0.42047714 60:0.50217122 61:0.15697674 62:0.078488372 63:0.11773256 64:0.53924419 65:0.17391304 66:0.28571429 67:0.84090909 68:0.4 69:0.4 70:0.18187572 71:0.32191537 72:0.85542461 
0.902268567994492 13:1 30:1 41:0.10714286 42:0.60714286 43:0.5 45:0.784 47:0.392 48:0.892 49:0.2651023 50:0.67205472 51:0.45070423 52:0.81690141 53:0.63380282 54:0.31690141 55:0.251 56:0.169 57:0.21 58:0.541 59:0.32661176 60:0.26101117 61:0.2994186 62:0.36918605 63:0.33430233 64:0.46511628 65:0.65217391 66:0.60714286 67:0.84090909 68:0.4 69:0.4 70:0.70249908 71:0.63056229 72:0.80617232 73:0.23076923 
0.902268567994492 1:1 21:1 41:0.10714286 42:0.53571429 43:0.42857143 45:0.79 46:0.79 47:0.79 48:0.5 49:0.12676681 50:0.59089012 51:0.3943662 52:0.3943662 53:0.3943662 54:0.5 55:0.35 56:0.35 57:0.35 58:0.5 59:0.56915649 60:0.50666873 61:0.20639535 62:0.20639535 63:0.20639535 64:0.5 65:0.56521739 66:0.53571429 67:0.82142857 68:0.4 69:0.4 70:0.65559152 71:0.59226775 72:0.79421449 73:0.15384615 
0.902268567994492 13:1 23:1 41:0.42857143 42:0.035714286 43:0.39285714 45:0.86494 47:0.43247 48:0.93247 49:0.4541044 50:0.45775688 51:0.52112676 52:0.81690141 53:0.66901408 54:0.35211268 55:0.121 56:0.169 57:0.145 58:0.476 59:0.3638171 60:0.31141439 62:0.36918605 63:0.18459302 64:0.31540698 65:0.34782609 66:0.035714286 67:0.10714286 68:0.2 69:0.2 70:0.33355825 71:0.043427318 72:0.091556399 73:0.076923077 
0.902268567994492 13:1 21:1 41:0.035714286 42:0.42857143 43:0.39285714 45:0.79 47:0.395 48:0.895 49:0.063383406 50:0.58862636 51:0.3943662 52:0.81690141 53:0.6056338 54:0.28873239 55:0.35 56:0.169 57:0.2595 58:0.5905 59:0.49786992 60:0.3101737 61:0.20639535 62:0.36918605 63:0.2877907 64:0.41860465 65:0.34782609 66:0.42857143 67:0.89285714 68:0.4 69:0.4 70:0.36934019 71:0.45586988 72:0.87298702 73:0.076923077 
0.902268567994492 4:1 24:1 41:0.071428571 42:0.60714286 43:0.53571429 45:0.86525 46:0.86525 47:0.86525 48:0.5 49:0.13280428 50:0.73585898 51:0.54929577 52:0.54929577 53:0.54929577 54:0.5 55:0.224 56:0.224 57:0.224 58:0.5 59:0.41806305 60:0.46588089 61:0.12790698 62:0.12790698 63:0.12790698 64:0.5 65:0.60869565 66:0.60714286 67:0.88265306 68:0.4 69:0.4 70:0.71115299 71:0.69094949 72:0.8770664 73:0.15384615 
0.902268567994492 19:1 25:1 41:0.21428571 42:0.071428571 43:0.14285714 46:0.78 47:0.39 48:0.11 49:0.12580403 50:0.18990034 52:0.73239437 53:0.36619718 54:0.13380282 55:0.008 56:0.392 57:0.2 58:0.308 59:0.60607782 60:0.53427419 61:0.50290698 62:0.095930233 63:0.2994186 64:0.70348837 65:0.13043478 66:0.071428571 67:0.28571429 68:0.2 69:0.2 70:0.14353518 71:0.091256535 72:0.28033183 73:0.15384615 
0.902268567994492 11:1 36:1 42:0.35714286 43:0.35714286 44:1 48:0.5 50:0.39903012 51:0.97183099 52:0.94366197 53:0.95774648 54:0.51408451 55:1 56:0.516 57:0.758 58:0.742 59:0.5472877 60:0.40462159 61:0.18895349 62:0.39534884 63:0.29215116 64:0.39680233 65:0.2173913 66:0.35714286 67:0.94642857 68:0.2 69:0.2 70:0.22882488 71:0.37276608 72:0.90214879 
0.902268567994492 5:1 37:1 41:0.78571429 42:0.10714286 43:0.67857143 45:0.83 47:0.415 48:0.915 49:0.58956115 50:0.73329192 51:0.91549296 53:0.45774648 54:0.95774648 55:0.823 56:0.008 57:0.4155 58:0.9075 59:0.50852031 60:0.41950993 61:0.15988372 62:0.50290698 63:0.33139535 64:0.32848837 65:0.86956522 66:0.10714286 67:0.12301587 68:0.2 69:0.2 70:0.83484234 71:0.14416629 72:0.14844684 73:0.23076923 
0.6230537443178541 6:1 33:1 41:0.071428571 42:0.46428571 43:0.39285714 48:0.5 49:0.069420876 50:0.67275512 51:0.81690141 52:1 53:0.9084507 54:0.4084507 55:0.169 56:0.976 57:0.5725 58:0.0965 59:0.45768248 60:0.1450062 61:0.36918605 62:0.35465116 63:0.3619186 64:0.50726744 65:0.43478261 66:0.46428571 67:0.84663866 68:0.2 69:0.2 70:0.50553655 71:0.53930058 72:0.85858717 73:0.15384615 
0.902268567994492 11:1 26:1 42:0.35714286 43:0.35714286 44:1 48:0.5 50:0.53379142 51:1 52:0.94366197 53:0.97183099 54:0.52816901 55:0.976 56:0.516 57:0.746 58:0.73 59:0.54387958 60:0.5117866 61:0.35465116 62:0.39534884 63:0.375 64:0.47965116 65:0.2173913 66:0.35714286 67:0.94642857 68:0.4 69:0.4 70:0.27838374 71:0.42328819 72:0.93686151 
0.902268567994492 11:1 38:1 41:0.25 42:0.57142857 43:0.32142857 45:0.775 47:0.3875 48:0.8875 49:0.32052266 50:1 51:0.6056338 52:0.94366197 53:0.77464789 54:0.33098592 55:0.215 56:0.516 57:0.3655 58:0.3495 59:0.41167282 60:0.3655397 61:0.15697674 62:0.39534884 63:0.27616279 64:0.38081395 65:0.7826087 66:0.57142857 67:0.69285714 68:0.4 69:0.4 70:0.87879776 71:0.65294462 72:0.70761526 73:0.15384615 
0.902268567994492 19:1 38:1 41:0.46428571 42:0.035714286 43:0.42857143 45:0.775 46:0.78 47:0.7775 48:0.4975 49:0.45797239 50:0.52474042 51:0.6056338 52:0.73239437 53:0.66901408 54:0.43661972 55:0.215 56:0.392 57:0.3035 58:0.4115 59:0.3639591 60:0.34615385 61:0.15697674 62:0.095930233 63:0.12645349 64:0.53052326 65:0.39130435 66:0.035714286 67:0.098214286 68:0.4 69:0.2 70:0.39566429 71:0.05835328 72:0.10731639 73:0.076923077 
0.902268567994492 1:1 26:1 41:0.53571429 42:0.035714286 43:0.5 46:0.79 47:0.395 48:0.105 49:0.66739357 50:0.74257989 51:1 52:0.3943662 53:0.6971831 54:0.8028169 55:0.976 56:0.35 57:0.663 58:0.813 59:0.4973019 60:0.51985112 61:0.35465116 62:0.20639535 63:0.28052326 64:0.57412791 65:0.47826087 66:0.035714286 67:0.083333333 68:0.4 69:0.2 70:0.56372764 71:0.077339006 72:0.10698568 73:0.076923077 
0.902268567994492 7:1 33:1 41:0.035714286 42:0.42857143 43:0.39285714 46:1 47:0.5 50:0.28930605 51:0.81690141 52:0.53521127 53:0.67605634 54:0.64084507 55:0.169 56:0.223 57:0.196 58:0.473 59:0.49687589 60:0.40369107 61:0.36918605 62:1 63:0.68459302 64:0.18459302 65:0.34782609 66:0.42857143 67:0.89285714 68:0.6 69:0.6 70:0.33707926 71:0.45014726 72:0.90536285 
0.902268567994492 20:1 26:1 41:0.28571429 42:0.10714286 43:0.17857143 48:0.5 49:0.2738789 50:0.33997499 51:1 52:0.98591549 53:0.99295775 54:0.50704225 55:0.976 56:0.802 57:0.889 58:0.587 59:0.30204487 60:0.24255583 61:0.35465116 62:0.36918605 63:0.3619186 64:0.49273256 65:0.26086957 66:0.10714286 67:0.29395604 68:0.6 69:0.2 70:0.28749969 71:0.1343341 72:0.29820348 73:0.23076923 
0.902268567994492 12:1 32:1 41:0.28571429 42:0.32142857 43:0.035714286 48:0.5 49:0.25906483 50:0.46238792 51:1 52:1 53:1 54:0.5 55:0.976 56:0.976 57:0.976 58:0.5 59:0.36509514 60:0.2051799 61:0.35174419 62:0.35174419 63:0.35174419 64:0.5 65:0.52173913 66:0.32142857 67:0.52819549 68:0.2 69:0.2 70:0.46977282 71:0.29408884 72:0.48792638 73:0.61538462 
0.902268567994492 4:1 36:1 41:0.035714286 42:0.5 43:0.46428571 46:0.86525 47:0.432625 48:0.067375 49:0.066592693 50:0.61115398 51:0.97183099 52:0.54929577 53:0.76056338 54:0.71126761 55:1 56:0.224 57:0.612 58:0.888 59:0.59315535 60:0.42741935 61:0.18895349 62:0.12790698 63:0.15843023 64:0.53052326 65:0.43478261 66:0.5 67:0.90966387 68:0.4 69:0.4 70:0.4960736 71:0.53865287 72:0.86778832 73:0.076923077 
0.902268567994492 12:1 36:1 41:0.035714286 42:0.60714286 43:0.57142857 48:0.5 50:0.0059250848 51:0.97183099 52:1 53:0.98591549 54:0.48591549 55:1 56:0.976 57:0.988 58:0.512 59:0.50028401 60:0.75728908 61:0.18895349 62:0.35174419 63:0.27034884 64:0.41860465 65:0.56521739 66:0.60714286 67:0.92857143 68:0.2 69:0.2 70:0.50906529 71:0.573971 72:0.91020099 73:0.076923077 
0.902268567994492 6:1 32:1 41:0.035714286 42:0.39285714 43:0.35714286 48:0.5 50:0.2781579 51:1 52:1 53:1 54:0.5 55:0.976 56:0.976 57:0.976 58:0.5 59:0.54615166 60:0.53241315 61:0.35174419 62:0.35465116 63:0.35319767 64:0.49854651 65:0.30434783 66:0.39285714 67:0.88265306 68:0.4 69:0.4 70:0.33234436 71:0.44166946 72:0.89497196 73:0.076923077 
0.902268567994492 3:1 31:1 41:0.035714286 42:0.35714286 43:0.32142857 46:0.86494 47:0.43247 48:0.06753 50:0.20879979 51:0.94366197 52:0.52112676 53:0.73239437 54:0.71126761 55:0.516 56:0.121 57:0.3185 58:0.6975 59:0.48082931 60:0.433933 61:0.39534884 63:0.19767442 64:0.69767442 65:0.26086957 66:0.35714286 67:0.87087912 68:0.4 69:0.4 70:0.24051008 71:0.38365495 72:0.90847672 73:0.076923077 
0.902268567994492 1:1 39:1 41:0.5 42:0.10714286 43:0.39285714 45:0.78 46:0.79 47:0.785 48:0.495 49:0.56427278 50:0.63862968 51:0.73239437 52:0.3943662 53:0.56338028 54:0.66901408 55:0.392 56:0.35 57:0.371 58:0.521 59:0.41593297 60:0.50728908 61:0.095930233 62:0.20639535 63:0.15116279 64:0.44476744 65:0.52173913 66:0.10714286 67:0.18984962 68:0.2 69:0.2 70:0.54905875 71:0.13976058 72:0.20475957 73:0.23076923 
0.902268567994492 12:1 30:1 41:0.39285714 42:0.35714286 43:0.035714286 45:0.784 47:0.392 48:0.892 49:0.44699342 50:0.63935677 51:0.45070423 52:1 53:0.72535211 54:0.22535211 55:0.251 56:0.976 57:0.6135 58:0.1375 59:0.38540187 60:0.48123449 61:0.2994186 62:0.35174419 63:0.3255814 64:0.47383721 65:0.69565217 66:0.35714286 67:0.47670807 68:0.2 69:0.2 70:0.69262354 71:0.33820423 72:0.43032407 73:0.76923077 
0.902268567994492 12:1 33:1 41:0.10714286 42:0.25 43:0.14285714 48:0.5 49:0.12435985 50:0.45648791 51:0.81690141 52:1 53:0.9084507 54:0.4084507 55:0.169 56:0.976 57:0.5725 58:0.0965 59:0.35061062 60:0.30924318 61:0.36918605 62:0.35174419 63:0.36046512 64:0.50872093 65:0.2173913 66:0.25 67:0.67857143 68:0.2 69:0.2 70:0.21503208 71:0.3093446 72:0.77081664 73:0.23076923 
0.902268567994492 5:1 23:1 41:0.5 42:0.071428571 43:0.42857143 45:0.86494 47:0.43247 48:0.93247 49:0.65104145 50:0.73123036 51:0.52112676 53:0.26056338 54:0.76056338 55:0.121 56:0.008 57:0.0645 58:0.5565 59:0.55893212 60:0.42199132 62:0.50290698 63:0.25145349 64:0.24854651 65:0.47826087 66:0.071428571 67:0.14285714 68:0.4 69:0.4 70:0.58010953 71:0.10042622 72:0.13826304 73:0.076923077 
0.902268567994492 11:1 31:1 41:0.57142857 42:0.035714286 43:0.53571429 48:0.5 49:0.34104204 50:0.34971022 51:0.94366197 52:0.94366197 53:0.94366197 54:0.5 55:0.516 56:0.516 57:0.516 58:0.5 59:0.47529111 60:0.52155707 61:0.39534884 62:0.39534884 63:0.39534884 64:0.5 65:0.52173913 66:0.035714286 67:0.077067669 68:0.2 69:0.2 70:0.48016401 71:0.057673733 72:0.090225414 73:0.076923077 
0.902268567994492 4:1 34:1 41:0.53571429 42:0.035714286 43:0.5 45:0.90953 46:0.86525 47:0.88739 48:0.52214 49:0.65407744 50:0.73524269 51:0.70422535 52:0.54929577 53:0.62676056 54:0.57746479 55:0.988 56:0.224 57:0.606 58:0.882 59:0.4639307 60:0.46386476 61:0.29360465 62:0.12790698 63:0.21075581 64:0.58284884 65:0.47826087 66:0.035714286 67:0.083333333 68:0.2 69:0.2 70:0.58223793 71:0.077005401 72:0.10339085 73:0.076923077 
0.902268567994492 6:1 32:1 41:0.035714286 42:0.5 43:0.46428571 48:0.5 50:0.39658034 51:1 52:1 53:1 54:0.5 55:0.976 56:0.976 57:0.976 58:0.5 59:0.61147401 60:0.86972705 61:0.35174419 62:0.35465116 63:0.35319767 64:0.49854651 65:0.43478261 66:0.5 67:0.90966387 68:0.2 69:0.2 70:0.49656476 71:0.55664859 72:0.8964245 73:0.076923077 
0.902268567994492 9:1 30:1 41:0.42857143 42:0.035714286 43:0.39285714 45:0.784 46:0.92674 47:0.85537 48:0.42863 49:0.3248552 50:0.4024205 51:0.45070423 52:0.43661972 53:0.44366197 54:0.50704225 55:0.251 57:0.1255 58:0.6255 59:0.55254189 60:0.49131514 61:0.2994186 62:0.53488372 63:0.41715116 64:0.38226744 65:0.34782609 66:0.035714286 67:0.10714286 68:0.4 69:0.4 70:0.33101735 71:0.067522969 72:0.14077504 
0.902268567994492 10:1 31:1 41:0.035714286 42:0.39285714 43:0.35714286 46:0.784 47:0.392 48:0.108 50:0.3301322 51:0.94366197 52:0.45070423 53:0.6971831 54:0.74647887 55:0.516 56:0.251 57:0.3835 58:0.6325 59:0.52144277 60:0.41516749 61:0.39534884 62:0.2994186 63:0.34738372 64:0.54796512 65:0.30434783 66:0.39285714 67:0.88265306 68:0.2 69:0.2 70:0.29177876 71:0.4144978 72:0.89713759 73:0.076923077 
0.902268567994492 16:1 31:1 41:0.17857143 42:0.14285714 43:0.035714286 48:0.5 49:0.12949471 50:0.19954579 51:0.94366197 52:0.97183099 53:0.95774648 54:0.48591549 55:0.516 56:1 57:0.758 58:0.258 59:0.60181767 60:0.79435484 61:0.39534884 62:0.18895349 63:0.29215116 64:0.60319767 65:0.17391304 66:0.14285714 67:0.4512987 68:0.2 69:0.2 70:0.17928952 71:0.1801294 72:0.48977456 73:0.30769231 
0.902268567994492 1:1 40:1 41:0.32142857 42:0.071428571 43:0.25 46:0.79 47:0.395 48:0.105 49:0.2738789 50:0.33997499 51:0.98591549 52:0.3943662 53:0.69014085 54:0.79577465 55:0.802 56:0.35 57:0.576 58:0.726 59:0.34493042 60:0.24255583 61:0.36918605 62:0.20639535 63:0.2877907 64:0.58139535 65:0.26086957 66:0.071428571 67:0.21153846 68:0.6 69:0.2 70:0.28749969 71:0.10074749 72:0.2256302 73:0.15384615 
0.902268567994492 1:1 34:1 41:0.46428571 42:0.10714286 43:0.35714286 45:0.90953 46:0.79 47:0.849765 48:0.559765 49:0.5948661 50:0.66946907 51:0.70422535 52:0.3943662 53:0.54929577 54:0.65492958 55:0.988 56:0.35 57:0.669 58:0.819 59:0.44689009 60:0.54109801 61:0.29360465 62:0.20639535 63:0.25 64:0.54360465 65:0.47826087 66:0.10714286 67:0.20238095 68:0.4 69:0.2 70:0.59432307 71:0.13976058 72:0.19253274 73:0.23076923 
0.902268567994492 16:1 23:1 41:0.5 42:0.035714286 43:0.46428571 45:0.86494 47:0.43247 48:0.93247 49:0.33773006 50:0.34637159 51:0.52112676 52:0.97183099 53:0.74647887 54:0.27464789 55:0.121 56:1 57:0.5605 58:0.0605 59:0.5305311 60:0.65694789 62:0.18895349 63:0.094476744 64:0.40552326 65:0.43478261 66:0.035714286 67:0.090336134 68:0.2 69:0.2 70:0.51763656 71:0.0834502 72:0.1249609 73:0.076923077 
0.902268567994492 1:1 25:1 41:0.21428571 42:0.071428571 43:0.14285714 46:0.79 47:0.395 48:0.105 50:0.063893216 52:0.3943662 53:0.1971831 54:0.3028169 55:0.008 56:0.35 57:0.179 58:0.329 59:0.60735586 60:0.6792804 61:0.50290698 62:0.20639535 63:0.35465116 64:0.64825581 65:0.13043478 66:0.071428571 67:0.28571429 68:0.2 69:0.2 70:0.11252377 71:0.1061825 72:0.34749718 73:0.15384615 
0.902268567994492 11:1 26:1 41:0.14285714 42:0.14285714 48:0.5 49:0.062902013 50:0.20112937 51:1 52:0.94366197 53:0.97183099 54:0.52816901 55:0.976 56:0.516 57:0.746 58:0.73 59:0.68659472 60:0.67555831 61:0.35465116 62:0.39534884 63:0.375 64:0.47965116 65:0.13043478 66:0.14285714 67:0.5 68:0.4 69:0.4 70:0.13664932 71:0.16248952 72:0.48764247 73:0.076923077 
0.902268567994492 20:1 39:1 41:0.25 42:0.39285714 43:0.14285714 45:0.78 47:0.39 48:0.89 49:0.26909866 50:0.54932233 51:0.73239437 52:0.98591549 53:0.85915493 54:0.37323944 55:0.392 56:0.802 57:0.597 58:0.295 59:0.39051406 60:0.44308313 61:0.095930233 62:0.36918605 63:0.23255814 64:0.36337209 65:0.56521739 66:0.39285714 67:0.60714286 68:0.6 69:0.4 70:0.59223909 71:0.42607248 72:0.60961078 73:0.38461538 
0.902268567994492 1:1 32:1 41:0.57142857 42:0.035714286 43:0.53571429 46:0.79 47:0.395 48:0.105 49:0.41036022 50:0.48347916 51:1 52:0.3943662 53:0.6971831 54:0.8028169 55:0.976 56:0.35 57:0.663 58:0.813 59:0.61005396 60:0.64299007 61:0.35174419 62:0.20639535 63:0.27906977 64:0.57267442 65:0.52173913 66:0.035714286 67:0.077067669 68:0.2 69:0.2 70:0.54393814 71:0.077339006 72:0.11044813 73:0.076923077 
0.902268567994492 10:1 21:1 41:0.46428571 42:0.071428571 43:0.39285714 45:0.79 46:0.784 47:0.787 48:0.503 49:0.39078999 50:0.45734117 51:0.3943662 52:0.45070423 53:0.42253521 54:0.47183099 55:0.35 56:0.251 57:0.3005 58:0.5495 59:0.69284294 60:0.73030397 61:0.20639535 62:0.2994186 63:0.25290698 64:0.45348837 65:0.43478261 66:0.071428571 67:0.15336134 68:0.4 69:0.2 70:0.52453578 71:0.096679201 72:0.14433584 73:0.15384615 
0.902268567994492 20:1 32:1 41:0.39285714 42:0.071428571 43:0.32142857 48:0.5 49:0.31442983 50:0.31695888 51:1 52:0.98591549 53:0.99295775 54:0.50704225 55:0.976 56:0.802 57:0.889 58:0.587 59:0.43297359 60:0.43377792 61:0.35174419 62:0.36918605 63:0.36046512 64:0.49127907 65:0.34782609 66:0.071428571 67:0.17857143 68:0.2 69:0.2 70:0.30514706 71:0.077013928 72:0.16827657 73:0.15384615 
0.902268567994492 6:1 31:1 41:0.5 42:0.035714286 43:0.46428571 48:0.5 49:0.53346122 50:0.54367708 51:0.94366197 52:1 53:0.97183099 54:0.47183099 55:0.516 56:0.976 57:0.746 58:0.27 59:0.45640443 60:0.57227047 61:0.39534884 62:0.35465116 63:0.375 64:0.52034884 65:0.43478261 66:0.035714286 67:0.090336134 68:0.2 69:0.2 70:0.55082254 71:0.071928676 72:0.10098921 73:0.076923077 
0.902268567994492 6:1 36:1 41:0.46428571 42:0.035714286 43:0.42857143 48:0.5 49:0.39560713 50:0.3987891 51:0.97183099 52:1 53:0.98591549 54:0.48591549 55:1 56:0.976 57:0.988 58:0.512 59:0.55041181 60:0.6403536 61:0.18895349 62:0.35465116 63:0.27180233 64:0.41715116 65:0.39130435 66:0.035714286 67:0.098214286 68:0.4 69:0.2 70:0.44739228 71:0.062433908 72:0.10416322 73:0.076923077 
0.902268567994492 18:1 39:1 41:0.57142857 42:0.17857143 43:0.39285714 45:0.78 46:0.775 47:0.7775 48:0.5025 49:0.45660844 50:0.64993878 51:0.73239437 52:0.6056338 53:0.66901408 54:0.56338028 55:0.392 56:0.215 57:0.3035 58:0.5885 59:0.52385686 60:0.51256203 61:0.095930233 62:0.15697674 63:0.12645349 64:0.46947674 65:0.69565217 66:0.17857143 67:0.24378882 68:0.4 69:0.2 70:0.68400756 71:0.19130834 72:0.23977507 73:0.23076923 
0.902268567994492 11:1 33:1 41:0.46428571 42:0.071428571 43:0.39285714 48:0.5 49:0.25184875 50:0.32247957 51:0.81690141 52:0.94366197 53:0.88028169 54:0.43661972 55:0.169 56:0.516 57:0.3425 58:0.3265 59:0.50994036 60:0.51519851 61:0.36918605 62:0.39534884 63:0.38226744 64:0.4869186 65:0.43478261 66:0.071428571 67:0.15336134 68:0.2 69:0.2 70:0.36721091 71:0.087179715 72:0.16882347 73:0.15384615 
0.902268567994492 1:1 31:1 41:0.035714286 42:0.53571429 43:0.5 46:0.79 47:0.395 48:0.105 49:0.069396004 50:0.3311278 51:0.94366197 52:0.3943662 53:0.66901408 54:0.77464789 55:0.516 56:0.35 57:0.433 58:0.583 59:0.42473729 60:0.52993176 61:0.39534884 62:0.20639535 63:0.30087209 64:0.59447674 65:0.47826087 66:0.53571429 67:0.91666667 68:0.2 69:0.2 70:0.46764044 71:0.54781631 72:0.9153859 73:0.076923077 
0.902268567994492 20:1 33:1 41:0.32142857 42:0.21428571 43:0.10714286 48:0.5 49:0.1254831 50:0.19509753 51:0.81690141 52:0.98591549 53:0.90140845 54:0.41549296 55:0.169 56:0.802 57:0.4855 58:0.1835 59:0.70320932 60:0.73867866 61:0.36918605 62:0.36918605 63:0.36918605 64:0.5 65:0.43478261 66:0.21428571 67:0.40546218 68:0.2 69:0.2 70:0.43534759 71:0.23441439 72:0.40732173 73:0.46153846 
0.902268567994492 12:1 39:1 41:0.28571429 42:0.28571429 45:0.78 47:0.39 48:0.89 49:0.18766302 50:0.25899075 51:0.73239437 52:1 53:0.86619718 54:0.36619718 55:0.392 56:0.976 57:0.684 58:0.208 59:0.36552116 60:0.67292184 61:0.095930233 62:0.35174419 63:0.22383721 64:0.37209302 65:0.47826087 66:0.28571429 67:0.5 68:0.2 69:0.2 70:0.41765573 71:0.31921515 72:0.56972132 73:0.61538462 
0.902268567994492 11:1 31:1 41:0.60714286 42:0.10714286 43:0.5 48:0.5 49:0.12556333 50:0.2543597 51:0.94366197 52:0.94366197 53:0.94366197 54:0.5 55:0.516 56:0.516 57:0.516 58:0.5 59:0.51136041 60:0.47983871 61:0.39534884 62:0.39534884 63:0.39534884 64:0.5 65:0.65217391 66:0.10714286 67:0.15909091 68:0.2 69:0.2 70:0.52711917 71:0.13567614 72:0.2047567 73:0.23076923 
0.902268567994492 11:1 34:1 41:0.42857143 42:0.035714286 43:0.39285714 45:0.90953 47:0.454765 48:0.954765 49:0.4632629 50:0.47291413 51:0.70422535 52:0.94366197 53:0.82394366 54:0.38028169 55:0.988 56:0.516 57:0.752 58:0.736 59:0.72394206 60:0.79311414 61:0.29360465 62:0.39534884 63:0.34447674 64:0.44912791 65:0.34782609 66:0.035714286 67:0.10714286 68:0.2 69:0.2 70:0.44523165 71:0.057673733 72:0.096359992 73:0.076923077 
0.902268567994492 16:1 25:1 41:0.46428571 42:0.17857143 43:0.28571429 48:0.5 49:0.26753173 50:0.27560864 52:0.97183099 53:0.48591549 54:0.014084507 55:0.008 56:1 57:0.504 58:0.004 59:0.54629367 60:0.90183002 61:0.50290698 62:0.18895349 63:0.34593023 64:0.65697674 65:0.56521739 66:0.17857143 67:0.28571429 68:0.2 69:0.2 70:0.62112469 71:0.23406981 72:0.31892021 73:0.38461538 
0.902268567994492 20:1 31:1 42:0.28571429 43:0.28571429 44:1 48:0.5 50:0.19087087 51:0.94366197 52:0.98591549 53:0.96478873 54:0.47887324 55:0.516 56:0.802 57:0.659 58:0.357 59:0.47855723 60:0.59723945 61:0.39534884 62:0.36918605 63:0.38226744 64:0.5130814 65:0.13043478 66:0.28571429 67:0.92857143 68:0.2 69:0.2 70:0.10300577 71:0.29952856 72:0.9475338 
0.902268567994492 18:1 36:1 41:0.53571429 42:0.10714286 43:0.42857143 46:0.775 47:0.3875 48:0.1125 49:0.53092589 50:0.66769462 51:0.97183099 52:0.6056338 53:0.78873239 54:0.68309859 55:1 56:0.215 57:0.6075 58:0.8925 59:0.55793809 60:0.54435484 61:0.18895349 62:0.15697674 63:0.17296512 64:0.51598837 65:0.56521739 66:0.10714286 67:0.17857143 68:0.4 69:0.2 70:0.66281159 71:0.1309283 72:0.16418414 73:0.23076923 
0.902268567994492 16:1 23:1 41:0.071428571 42:0.32142857 43:0.25 45:0.86494 47:0.43247 48:0.93247 49:0.13197709 50:0.31972003 51:0.52112676 52:0.97183099 53:0.74647887 54:0.27464789 55:0.121 56:1 57:0.5605 58:0.0605 59:0.47472309 60:0.53287841 62:0.18895349 63:0.094476744 64:0.40552326 65:0.26086957 66:0.32142857 67:0.78846154 70:0.28227816 71:0.35343197 72:0.7784953 73:0.15384615 
0.902268567994492 3:1 33:1 41:0.53571429 42:0.17857143 43:0.35714286 46:0.86494 47:0.43247 48:0.06753 49:0.40118005 50:0.61049887 51:0.81690141 52:0.52112676 53:0.66901408 54:0.64788732 55:0.169 56:0.121 57:0.145 58:0.524 59:0.18971883 60:0.1792804 61:0.36918605 63:0.18459302 64:0.68459302 65:0.65217391 66:0.17857143 67:0.25649351 68:0.4 69:0.2 70:0.62366503 71:0.22217882 72:0.30121834 73:0.15384615 
0.902268567994492 13:1 38:1 41:0.25 42:0.25 45:0.775 47:0.3875 48:0.8875 49:0.32292963 50:0.52264651 51:0.6056338 52:0.81690141 53:0.71126761 54:0.3943662 55:0.215 56:0.169 57:0.192 58:0.523 59:0.40528259 60:0.34615385 61:0.15697674 62:0.36918605 63:0.2630814 64:0.39389535 65:0.39130435 66:0.25 67:0.5 68:0.2 69:0.2 70:0.42832675 71:0.29710187 72:0.52212116 73:0.53846154 
0.902268567994492 6:1 24:1 41:0.5 42:0.035714286 43:0.46428571 45:0.86525 47:0.432625 48:0.932625 49:0.38858441 50:0.3917099 51:0.54929577 52:1 53:0.77464789 54:0.27464789 55:0.224 56:0.976 57:0.6 58:0.124 59:0.46279466 60:0.54466501 61:0.12790698 62:0.35465116 63:0.24127907 64:0.38662791 65:0.43478261 66:0.035714286 67:0.090336134 68:0.2 69:0.2 70:0.40469228 71:0.062433908 72:0.11286842 73:0.076923077 
0.902268567994492 20:1 30:1 41:0.14285714 42:0.46428571 43:0.32142857 45:0.784 47:0.392 48:0.892 49:0.12508194 50:0.67382352 51:0.45070423 52:0.98591549 53:0.71830986 54:0.23239437 55:0.251 56:0.802 57:0.5265 58:0.2245 59:0.53791536 60:0.49581266 61:0.2994186 62:0.36918605 63:0.33430233 64:0.46511628 65:0.52173913 66:0.46428571 67:0.7537594 68:0.4 69:0.4 70:0.57064021 71:0.52235639 72:0.76859269 73:0.30769231 
0.902268567994492 13:1 25:1 41:0.28571429 42:0.071428571 43:0.21428571 48:0.5 49:0.25224991 50:0.33524528 52:0.81690141 53:0.4084507 54:0.091549296 55:0.008 56:0.169 57:0.0885 58:0.4195 59:0.59287134 60:0.52434864 61:0.50290698 62:0.36918605 63:0.43604651 64:0.56686047 65:0.2173913 66:0.071428571 67:0.23214286 68:0.4 69:0.4 70:0.2641912 71:0.099388402 72:0.233118 73:0.076923077 
0.902268567994492 20:1 37:1 41:0.5 42:0.035714286 43:0.46428571 45:0.83 47:0.415 48:0.915 49:0.66279226 50:0.66812327 51:0.91549296 52:0.98591549 53:0.95070423 54:0.46478873 55:0.823 56:0.802 57:0.8125 58:0.5105 59:0.44490202 60:0.49813896 61:0.15988372 62:0.36918605 63:0.26453488 64:0.39534884 65:0.43478261 66:0.035714286 67:0.090336134 68:0.4 69:0.2 70:0.52535575 71:0.057682261 72:0.083036889 73:0.076923077 
0.902268567994492 11:1 32:1 41:0.32142857 42:0.35714286 43:0.035714286 48:0.5 49:0.19891558 50:0.39413622 51:1 52:0.94366197 53:0.97183099 54:0.52816901 55:0.976 56:0.516 57:0.746 58:0.73 59:0.71613178 60:0.71572581 61:0.35174419 62:0.39534884 63:0.37354651 64:0.47819767 65:0.60869565 66:0.35714286 67:0.5255102 68:0.2 69:0.2 70:0.56937909 71:0.33343423 72:0.48796534 73:0.69230769 
0.902268567994492 20:1 25:1 41:0.39285714 42:0.21428571 43:0.17857143 48:0.5 49:0.32548904 50:0.59277942 52:0.98591549 53:0.49295775 54:0.0070422535 55:0.008 56:0.802 57:0.405 58:0.103 59:0.4750071 60:0.34444789 61:0.50290698 62:0.36918605 63:0.43604651 64:0.56686047 65:0.52173913 66:0.21428571 67:0.35902256 68:0.4 69:0.2 70:0.56245241 71:0.22793258 72:0.33352255 73:0.15384615 
0.902268567994492 12:1 40:1 41:0.60714286 42:0.035714286 43:0.57142857 48:0.5 49:0.79522105 50:0.80161723 51:0.98591549 52:1 53:0.99295775 54:0.49295775 55:0.802 56:0.976 57:0.889 58:0.413 59:0.39094007 60:0.46619107 61:0.36918605 62:0.35174419 63:0.36046512 64:0.50872093 65:0.56521739 66:0.035714286 67:0.071428571 68:0.4 69:0.2 70:0.66586873 71:0.062433908 72:0.071181571 73:0.076923077 
0.902268567994492 1:1 29:1 41:0.21428571 42:0.28571429 43:0.071428571 45:0.92674 46:0.79 47:0.85837 48:0.56837 49:0.074354352 50:0.56019145 51:0.43661972 52:0.3943662 53:0.41549296 54:0.52112676 56:0.35 57:0.175 58:0.325 59:0.56035217 60:0.36274814 61:0.53488372 62:0.20639535 63:0.37063953 64:0.66424419 65:0.39130435 66:0.28571429 67:0.56696429 68:1 69:0.8 70:0.46851847 71:0.36904037 72:0.61447508 
0.902268567994492 13:1 35:1 41:0.42857143 42:0.071428571 43:0.35714286 45:0.79 47:0.395 48:0.895 49:0.46628685 50:0.4759624 51:0.76056338 52:0.81690141 53:0.78873239 54:0.47183099 55:0.7 56:0.169 57:0.4345 58:0.7655 59:0.39804033 60:0.43021092 61:0.52325581 62:0.36918605 63:0.44622093 64:0.57703488 65:0.39130435 66:0.071428571 67:0.16517857 68:0.4 69:0.2 70:0.41847279 71:0.086508696 72:0.15299578 73:0.076923077 
0.902268567994492 12:1 21:1 41:0.57142857 42:0.035714286 43:0.53571429 45:0.79 47:0.395 48:0.895 49:0.65306972 50:0.65832254 51:0.3943662 52:1 53:0.6971831 54:0.1971831 55:0.35 56:0.976 57:0.663 58:0.187 59:0.65776768 60:0.75759926 61:0.20639535 62:0.35174419 63:0.27906977 64:0.42732558 65:0.52173913 66:0.035714286 67:0.077067669 68:0.2 69:0.2 70:0.61334254 71:0.062433908 72:0.077731514 73:0.076923077 
0.902268567994492 3:1 40:1 41:0.035714286 42:0.53571429 43:0.5 46:0.86494 47:0.43247 48:0.06753 50:0.53115401 51:0.98591549 52:0.52112676 53:0.75352113 54:0.73239437 55:0.802 56:0.121 57:0.4615 58:0.8405 59:0.56205623 60:0.52760546 61:0.36918605 63:0.18459302 64:0.68459302 65:0.47826087 66:0.53571429 67:0.91666667 68:0.2 69:0.2 70:0.50342721 71:0.57155232 72:0.91271153 73:0.076923077 
0.902268567994492 5:1 36:1 42:0.35714286 43:0.35714286 44:1 48:0.5 50:0.13694662 51:0.97183099 53:0.48591549 54:0.98591549 55:1 56:0.008 57:0.504 58:0.996 59:0.5472877 60:0.63942308 61:0.18895349 62:0.50290698 63:0.34593023 64:0.34302326 65:0.2173913 66:0.35714286 67:0.94642857 68:0.2 69:0.2 70:0.24870107 71:0.38840774 72:0.90612999 
0.902268567994492 11:1 21:1 41:0.10714286 42:0.53571429 43:0.42857143 45:0.79 47:0.395 48:0.895 49:0.18894674 50:0.59606224 51:0.3943662 52:0.94366197 53:0.66901408 54:0.22535211 55:0.35 56:0.516 57:0.433 58:0.417 59:0.46080659 60:0.54776675 61:0.20639535 62:0.39534884 63:0.30087209 64:0.40552326 65:0.56521739 66:0.53571429 67:0.82142857 68:0.4 69:0.4 70:0.63229698 71:0.58479883 72:0.80395698 73:0.23076923 
0.902268567994492 1:1 21:1 41:0.67857143 42:0.035714286 43:0.64285714 45:0.79 46:0.79 47:0.79 48:0.5 49:0.18894674 50:0.2543597 51:0.3943662 52:0.3943662 53:0.3943662 54:0.5 55:0.35 56:0.35 57:0.35 58:0.5 59:0.49233172 60:0.47983871 61:0.20639535 62:0.20639535 63:0.20639535 64:0.5 65:0.65217391 66:0.035714286 67:0.061688312 68:0.2 69:0.2 70:0.52711917 71:0.067844239 72:0.0986648 73:0.076923077 
0.902268567994492 3:1 38:1 41:0.39285714 42:0.035714286 43:0.35714286 45:0.775 46:0.86494 47:0.81997 48:0.45503 49:0.51978164 50:0.59984164 51:0.6056338 52:0.52112676 53:0.56338028 54:0.54225352 55:0.215 56:0.121 57:0.168 58:0.547 59:0.57015053 60:0.56389578 61:0.15697674 63:0.078488372 64:0.57848837 65:0.30434783 66:0.035714286 67:0.11734694 68:0.2 69:0.2 70:0.41888277 71:0.072253754 72:0.12741444 73:0.076923077 
0.902268567994492 15:1 21:1 41:0.17857143 42:0.28571429 43:0.10714286 45:0.79 46:0.79 47:0.79 48:0.5 49:0.26558369 50:0.60961002 51:0.3943662 52:0.76056338 53:0.57746479 54:0.31690141 55:0.35 56:0.7 57:0.525 58:0.325 59:0.34564044 60:0.40601737 61:0.20639535 62:0.52325581 63:0.36482558 64:0.34156977 65:0.34782609 66:0.28571429 67:0.60714286 68:0.4 69:0.4 70:0.47191524 71:0.3894027 72:0.6457178 73:0.23076923 
0.902268567994492 18:1 21:1 41:0.071428571 42:0.53571429 43:0.46428571 45:0.79 46:0.775 47:0.7825 48:0.5075 49:0.12596449 50:0.80600968 51:0.3943662 52:0.6056338 53:0.5 54:0.3943662 55:0.35 56:0.215 57:0.2825 58:0.5675 59:0.50724226 60:0.40865385 61:0.20639535 62:0.15697674 63:0.18168605 64:0.5247093 65:0.52173913 66:0.53571429 67:0.86654135 68:0.4 69:0.4 70:0.64473799 71:0.63358629 72:0.86039885 73:0.15384615 
0.902268567994492 4:1 32:1 41:0.60714286 42:0.035714286 43:0.57142857 46:0.86525 47:0.432625 48:0.067375 49:0.51675448 50:0.59089012 51:1 52:0.54929577 53:0.77464789 54:0.72535211 55:0.976 56:0.224 57:0.6 58:0.876 59:0.53479125 60:0.50666873 61:0.35174419 62:0.12790698 63:0.23982558 64:0.6119186 65:0.56521739 66:0.035714286 67:0.071428571 68:0.4 69:0.2 70:0.65559152 71:0.067510634 72:0.079324918 73:0.076923077 
0.902268567994492 13:1 21:1 41:0.46428571 42:0.035714286 43:0.42857143 45:0.79 47:0.395 48:0.895 49:0.32770826 50:0.3303441 51:0.3943662 52:0.81690141 53:0.6056338 54:0.28873239 55:0.35 56:0.169 57:0.2595 58:0.5905 59:0.48423743 60:0.44292804 61:0.20639535 62:0.36918605 63:0.2877907 64:0.41860465 65:0.39130435 66:0.035714286 67:0.098214286 68:0.2 69:0.2 70:0.32971705 71:0.043427318 72:0.092354849 73:0.076923077 
0.902268567994492 15:1 38:1 41:0.10714286 42:0.39285714 43:0.28571429 45:0.775 46:0.79 47:0.7825 48:0.4925 49:0.18694093 50:0.51806075 51:0.6056338 52:0.76056338 53:0.68309859 54:0.42253521 55:0.215 56:0.7 57:0.4575 58:0.2575 59:0.33300199 60:0.22906328 61:0.15697674 62:0.52325581 63:0.34011628 64:0.31686047 65:0.39130435 66:0.39285714 67:0.76785714 68:0.2 69:0.2 70:0.35815475 71:0.41180139 72:0.80213442 73:0.23076923 
0.902268567994492 19:1 31:1 41:0.67857143 42:0.10714286 43:0.57142857 46:0.78 47:0.39 48:0.11 49:0.71033061 50:0.77912843 51:0.94366197 52:0.73239437 53:0.83802817 54:0.6056338 55:0.516 56:0.392 57:0.454 58:0.562 59:0.41905709 60:0.27869107 61:0.39534884 62:0.095930233 63:0.24563953 64:0.6497093 65:0.73913043 66:0.10714286 67:0.14285714 68:0.2 69:0.2 70:0.74994822 71:0.1105882 72:0.12193583 73:0.23076923 
0.902268567994492 9:1 40:1 41:0.28571429 43:0.28571429 44:1 46:0.92674 47:0.46337 48:0.03663 49:0.33538567 50:0.33808327 51:0.98591549 52:0.43661972 53:0.71126761 54:0.77464789 55:0.802 57:0.401 58:0.901 59:0.52286282 60:0.53644541 61:0.36918605 62:0.53488372 63:0.45203488 64:0.41715116 65:0.13043478 67:0.071428571 68:0.2 69:0.2 70:0.1564064 71:0.024095651 72:0.088431594 
0.902268567994492 1:1 35:1 41:0.14285714 42:0.67857143 43:0.53571429 45:0.79 46:0.79 47:0.79 48:0.5 49:0.2587439 50:0.96789892 51:0.76056338 52:0.3943662 53:0.57746479 54:0.68309859 55:0.7 56:0.35 57:0.525 58:0.675 59:0.39406419 60:0.3432072 61:0.52325581 62:0.20639535 63:0.36482558 64:0.65843023 65:0.7826087 66:0.67857143 67:0.82142857 68:0.2 69:0.2 70:0.85677699 71:0.7004068 72:0.77530231 73:0.30769231 
0.902268567994492 11:1 32:1 41:0.57142857 42:0.035714286 43:0.53571429 48:0.5 49:0.65293172 50:0.66410851 51:1 52:0.94366197 53:0.97183099 54:0.52816901 55:0.976 56:0.516 57:0.746 58:0.73 59:0.57980687 60:0.63570099 61:0.35174419 62:0.39534884 63:0.37354651 64:0.47819767 65:0.52173913 66:0.035714286 67:0.077067669 68:0.2 69:0.2 70:0.6063991 71:0.057673733 72:0.07182994 73:0.076923077 
0.902268567994492 3:1 35:1 41:0.25 42:0.67857143 43:0.42857143 45:0.79 46:0.86494 47:0.82747 48:0.46253 49:0.25906483 50:0.97997797 51:0.76056338 52:0.52112676 53:0.64084507 54:0.61971831 55:0.7 56:0.121 57:0.4105 58:0.7895 59:0.25589321 60:0.14872829 61:0.52325581 63:0.26162791 64:0.76162791 65:0.91304348 66:0.67857143 67:0.72959184 68:0.2 69:0.2 70:0.93691734 71:0.71431092 72:0.73843814 73:0.53846154 
0.902268567994492 11:1 30:1 41:0.5 42:0.035714286 43:0.46428571 45:0.784 47:0.392 48:0.892 49:0.38844641 50:0.39749587 51:0.45070423 52:0.94366197 53:0.6971831 54:0.25352113 55:0.251 56:0.516 57:0.3835 58:0.3675 59:0.68247657 60:0.74782878 61:0.2994186 62:0.39534884 63:0.34738372 64:0.45203488 65:0.43478261 66:0.035714286 67:0.090336134 68:0.2 69:0.2 70:0.47622739 71:0.057673733 72:0.090890502 73:0.076923077 
0.902268567994492 20:1 40:1 42:0.35714286 43:0.35714286 44:1 48:0.5 50:0.14588358 51:0.98591549 52:0.98591549 53:0.98591549 54:0.5 55:0.802 56:0.802 57:0.802 58:0.5 59:0.51917069 60:0.49240074 61:0.36918605 62:0.36918605 63:0.36918605 64:0.5 65:0.2173913 66:0.35714286 67:0.94642857 68:0.2 69:0.2 70:0.18578446 71:0.35516838 72:0.93445541 
0.902268567994492 4:1 23:1 41:0.10714286 42:0.39285714 43:0.28571429 45:0.86494 46:0.86525 47:0.865095 48:0.499845 49:0.21325949 50:0.41112292 51:0.52112676 52:0.54929577 53:0.53521127 54:0.48591549 55:0.121 56:0.224 57:0.1725 58:0.4485 59:0.38511786 60:0.57475186 62:0.12790698 63:0.063953488 64:0.43604651 65:0.39130435 66:0.39285714 67:0.76785714 68:0.4 69:0.2 70:0.43794182 71:0.42030859 72:0.72985728 73:0.15384615 
0.902268567994492 20:1 37:1 41:0.46428571 42:0.035714286 43:0.42857143 45:0.83 47:0.415 48:0.915 49:0.4669977 50:0.47667898 51:0.91549296 52:0.98591549 53:0.95070423 54:0.46478873 55:0.823 56:0.802 57:0.8125 58:0.5105 59:0.53138313 60:0.62717122 61:0.15988372 62:0.36918605 63:0.26453488 64:0.39534884 65:0.39130435 66:0.035714286 67:0.098214286 68:0.6 69:0.2 70:0.4766485 71:0.067177028 72:0.10660059 73:0.076923077 
0.902268567994492 9:1 29:1 41:0.32142857 43:0.32142857 44:1 45:0.92674 46:0.92674 47:0.92674 48:0.5 49:0.33390057 50:0.33658623 51:0.43661972 52:0.43661972 53:0.43661972 54:0.5 58:0.5 59:0.65393354 60:0.67959057 61:0.53488372 62:0.53488372 63:0.53488372 64:0.5 65:0.17391304 67:0.061688312 68:0.4 69:0.2 70:0.26034032 71:0.024095651 72:0.064873509 
0.902268567994492 6:1 33:1 41:0.071428571 42:0.39285714 43:0.32142857 48:0.5 49:0.066592693 50:0.47007129 51:0.81690141 52:1 53:0.9084507 54:0.4084507 55:0.169 56:0.976 57:0.5725 58:0.0965 59:0.47742119 60:0.69742556 61:0.36918605 62:0.35465116 63:0.3619186 64:0.50726744 65:0.34782609 66:0.39285714 67:0.82142857 68:0.2 69:0.2 70:0.41027395 71:0.47757721 72:0.86202303 73:0.15384615 
0.902268567994492 12:1 33:1 41:0.14285714 42:0.42857143 43:0.28571429 48:0.5 49:0.1254831 50:0.59112386 51:0.81690141 52:1 53:0.9084507 54:0.4084507 55:0.169 56:0.976 57:0.5725 58:0.0965 59:0.44845214 60:0.39640199 61:0.36918605 62:0.35174419 63:0.36046512 64:0.50872093 65:0.47826087 66:0.42857143 67:0.73809524 68:0.2 69:0.2 70:0.47363434 71:0.46027208 72:0.76237767 73:0.30769231 
0.902268567994492 11:1 40:1 42:0.28571429 43:0.28571429 44:1 48:0.5 50:0.34211501 51:0.98591549 52:0.94366197 53:0.96478873 54:0.52112676 55:0.802 56:0.516 57:0.659 58:0.643 59:0.51917069 60:0.40555211 61:0.36918605 62:0.39534884 63:0.38226744 64:0.4869186 65:0.13043478 66:0.28571429 67:0.92857143 68:0.4 69:0.4 70:0.18185094 71:0.35207287 72:0.93380997 
0.902268567994492 13:1 25:1 41:0.28571429 42:0.21428571 43:0.071428571 48:0.5 49:0.33977838 50:0.45802539 52:0.81690141 53:0.4084507 54:0.091549296 55:0.008 56:0.169 57:0.0885 58:0.4195 59:0.42743539 60:0.56218983 61:0.50290698 62:0.36918605 63:0.43604651 64:0.56686047 65:0.39130435 66:0.21428571 67:0.43303571 68:0.2 70:0.4456581 71:0.22726628 72:0.38901519 73:0.53846154 
0.902268567994492 12:1 26:1 41:0.035714286 42:0.5 43:0.46428571 48:0.5 49:0.062581085 50:0.34637159 51:1 52:1 53:1 54:0.5 55:0.976 56:0.976 57:0.976 58:0.5 59:0.52854303 60:0.65694789 61:0.35465116 62:0.35174419 63:0.35319767 64:0.50145349 65:0.43478261 66:0.5 67:0.90966387 68:0.2 69:0.2 70:0.51763656 71:0.57731177 72:0.90591585 73:0.076923077 
0.902268567994492 8:1 21:1 41:0.14285714 42:0.42857143 43:0.28571429 45:0.79 46:0.92784 47:0.85892 48:0.43108 49:0.12628542 50:0.39927437 51:0.3943662 52:0.56338028 53:0.47887324 54:0.41549296 55:0.35 56:0.037 57:0.1935 58:0.6565 59:0.39491622 60:0.29497519 61:0.20639535 62:0.078488372 63:0.14244186 64:0.56395349 65:0.47826087 66:0.42857143 67:0.73809524 68:0.4 69:0.4 70:0.50084867 71:0.46337763 72:0.74118277 
0.902268567994492 20:1 35:1 41:0.35714286 42:0.14285714 43:0.21428571 45:0.79 47:0.395 48:0.895 49:0.45844576 50:0.46213316 51:0.76056338 52:0.98591549 53:0.87323944 54:0.38732394 55:0.7 56:0.802 57:0.751 58:0.449 59:0.22607214 60:0.30722705 61:0.52325581 62:0.36918605 63:0.44622093 64:0.57703488 65:0.39130435 66:0.14285714 67:0.29910714 68:0.4 69:0.2 70:0.43142318 71:0.17403191 72:0.30348725 73:0.30769231 
0.902268567994492 16:1 25:1 41:0.39285714 42:0.10714286 43:0.28571429 48:0.5 49:0.27641985 50:0.20369076 52:0.97183099 53:0.48591549 54:0.014084507 55:0.008 56:1 57:0.504 58:0.004 59:0.25461517 60:0.46991315 61:0.50290698 62:0.18895349 63:0.34593023 64:0.65697674 65:0.39130435 66:0.10714286 67:0.23214286 68:0.2 70:0.42672019 71:0.14010788 72:0.24563878 73:0.15384615 
0.4776583829503208 19:1 39:1 41:0.035714286 42:0.57142857 43:0.53571429 45:0.78 46:0.78 47:0.78 48:0.5 49:0.13200196 50:0.85575985 51:0.73239437 52:0.73239437 53:0.73239437 54:0.5 55:0.392 56:0.392 57:0.392 58:0.5 59:0.42175518 60:0.2771402 61:0.095930233 62:0.095930233 63:0.095930233 64:0.5 65:0.52173913 66:0.57142857 67:0.92293233 68:0.2 69:0.2 70:0.58914683 71:0.62851041 72:0.90729396 73:0.076923077 
0.902268567994492 18:1 21:1 41:0.53571429 42:0.035714286 43:0.5 45:0.79 46:0.775 47:0.7825 48:0.5075 49:0.5779323 50:0.64526082 51:0.3943662 52:0.6056338 53:0.5 54:0.3943662 55:0.35 56:0.215 57:0.2825 58:0.5675 59:0.38128373 60:0.33762407 61:0.20639535 62:0.15697674 63:0.18168605 64:0.5247093 65:0.47826087 66:0.035714286 67:0.083333333 68:0.2 69:0.2 70:0.52748357 71:0.053601632 72:0.076336653 73:0.076923077 
0.902268567994492 15:1 25:1 41:0.53571429 42:0.32142857 43:0.21428571 46:0.79 47:0.395 48:0.105 49:0.59581846 50:0.85408084 52:0.76056338 53:0.38028169 54:0.11971831 55:0.008 56:0.7 57:0.354 58:0.154 59:0.30048282 60:0.20362903 61:0.50290698 62:0.52325581 63:0.5130814 64:0.48982558 65:0.82608696 66:0.32142857 67:0.37637363 68:0.4 69:0.2 70:0.83573538 71:0.32563011 72:0.35765043 73:0.69230769 
0.902268567994492 10:1 36:1 41:0.071428571 42:0.53571429 43:0.46428571 46:0.784 47:0.392 48:0.108 49:0.12516217 50:0.83868661 51:0.97183099 52:0.45070423 53:0.71126761 54:0.76056338 55:1 56:0.251 57:0.6255 58:0.8745 59:0.5166146 60:0.42400744 61:0.18895349 62:0.2994186 63:0.24418605 64:0.44476744 65:0.52173913 66:0.53571429 67:0.86654135 68:0.4 69:0.4 70:0.5955806 71:0.59287107 72:0.84906516 73:0.15384615 
0.902268567994492 20:1 39:1 41:0.071428571 42:0.53571429 43:0.46428571 45:0.78 47:0.39 48:0.89 49:0.19458305 50:0.85575985 51:0.73239437 52:0.98591549 53:0.85915493 54:0.37323944 55:0.392 56:0.802 57:0.597 58:0.295 59:0.40641863 60:0.2771402 61:0.095930233 62:0.36918605 63:0.23255814 64:0.36337209 65:0.52173913 66:0.53571429 67:0.86654135 68:0.2 69:0.2 70:0.58914683 71:0.59425278 72:0.85728844 73:0.15384615 
0.902268567994492 20:1 38:1 41:0.14285714 42:0.5 43:0.35714286 45:0.775 47:0.3875 48:0.8875 49:0.25633694 50:0.67089899 51:0.6056338 52:0.98591549 53:0.79577465 54:0.30985915 55:0.215 56:0.802 57:0.5085 58:0.2065 59:0.32845782 60:0.35700993 61:0.15697674 62:0.36918605 63:0.2630814 64:0.39389535 65:0.56521739 66:0.5 67:0.76785714 68:0.4 69:0.4 70:0.61889624 71:0.57357823 72:0.79998252 73:0.30769231 
0.902268567994492 11:1 26:1 41:0.42857143 42:0.035714286 43:0.39285714 48:0.5 49:0.39261367 50:0.39577156 51:1 52:0.94366197 53:0.97183099 54:0.52816901 55:0.976 56:0.516 57:0.746 58:0.73 59:0.40173246 60:0.40663772 61:0.35465116 62:0.39534884 63:0.375 64:0.47965116 65:0.34782609 66:0.035714286 67:0.10714286 68:0.2 69:0.2 70:0.31807151 71:0.048178966 72:0.10462314 73:0.076923077 
0.902268567994492 10:1 39:1 41:0.28571429 42:0.25 43:0.035714286 45:0.78 46:0.784 47:0.782 48:0.498 49:0.18734209 50:0.37923454 51:0.73239437 52:0.45070423 53:0.5915493 54:0.64084507 55:0.392 56:0.251 57:0.3215 58:0.5705 59:0.37176938 60:0.44540943 61:0.095930233 62:0.2994186 63:0.19767442 64:0.39825581 65:0.43478261 66:0.25 67:0.46848739 68:0.2 69:0.2 70:0.39654348 71:0.26594195 72:0.48932595 73:0.53846154 
0.902268567994492 4:1 26:1 41:0.64285714 42:0.035714286 43:0.60714286 46:0.86525 47:0.432625 48:0.067375 49:0.65445934 50:0.72970258 51:1 52:0.54929577 53:0.77464789 54:0.72535211 55:0.976 56:0.224 57:0.6 58:0.876 59:0.46790684 60:0.43362283 61:0.35465116 62:0.12790698 63:0.24127907 64:0.61337209 65:0.60869565 66:0.035714286 67:0.066326531 68:0.2 69:0.2 70:0.68744962 71:0.067510634 72:0.075386277 73:0.076923077 
0.902268567994492 13:1 38:1 41:0.5 42:0.10714286 43:0.39285714 45:0.775 47:0.3875 48:0.8875 49:0.45708984 50:0.59277942 51:0.6056338 52:0.81690141 53:0.71126761 54:0.3943662 55:0.215 56:0.169 57:0.192 58:0.523 59:0.43822778 60:0.34444789 61:0.15697674 62:0.36918605 63:0.2630814 64:0.39389535 65:0.52173913 66:0.10714286 67:0.18984962 68:0.4 69:0.2 70:0.56245241 71:0.12142501 72:0.17345851 73:0.23076923 
0.902268567994492 20:1 23:1 41:0.35714286 42:0.071428571 43:0.28571429 45:0.86494 47:0.43247 48:0.93247 49:0.3201215 50:0.32862141 51:0.52112676 52:0.98591549 53:0.75352113 54:0.26760563 55:0.121 56:0.802 57:0.4615 58:0.1595 59:0.51150241 60:0.6792804 62:0.36918605 63:0.18459302 64:0.31540698 65:0.30434783 66:0.071428571 67:0.19387755 68:0.2 69:0.2 70:0.33103157 71:0.10551529 72:0.21754273 73:0.15384615 
0.902268567994492 1:1 39:1 42:0.21428571 43:0.21428571 44:1 45:0.78 46:0.79 47:0.785 48:0.495 49:0.062581085 50:0.26343901 51:0.73239437 52:0.3943662 53:0.56338028 54:0.66901408 55:0.392 56:0.35 57:0.371 58:0.521 59:0.46094859 60:0.7205335 61:0.095930233 62:0.20639535 63:0.15116279 64:0.44476744 65:0.043478261 66:0.21428571 67:0.90178571 68:0.2 69:0.2 70:0.1150337 71:0.29881969 72:0.91914451 
0.902268567994492 17:1 30:1 42:0.17857143 43:0.17857143 44:1 45:0.784 46:0.83 47:0.807 48:0.477 49:0.062902013 50:0.12556311 51:0.45070423 52:0.91549296 53:0.68309859 54:0.26760563 55:0.251 56:0.823 57:0.537 58:0.214 59:0.44092587 60:0.60933623 61:0.2994186 62:0.15988372 63:0.22965116 64:0.56976744 66:0.17857143 67:0.88265306 70:0.012884871 71:0.21369385 72:0.87174677 
0.902268567994492 13:1 36:1 42:0.39285714 43:0.39285714 44:1 48:0.5 50:0.34065922 51:0.97183099 52:0.81690141 53:0.8943662 54:0.57746479 55:1 56:0.169 57:0.5845 58:0.9155 59:0.5472877 60:0.62220844 61:0.18895349 62:0.36918605 63:0.27906977 64:0.40988372 65:0.26086957 66:0.39285714 67:0.9532967 68:0.2 69:0.2 70:0.30166939 71:0.43009143 72:0.91553611 
0.902268567994492 19:1 21:1 41:0.21428571 42:0.21428571 45:0.79 46:0.78 47:0.785 48:0.505 49:0.25828738 50:0.45075046 51:0.3943662 52:0.73239437 53:0.56338028 54:0.33098592 55:0.35 56:0.392 57:0.371 58:0.479 59:0.4778472 60:0.47797767 61:0.20639535 62:0.095930233 63:0.15116279 64:0.55523256 65:0.30434783 66:0.21428571 67:0.5 68:0.2 69:0.2 70:0.31289043 71:0.23235534 72:0.48833208 73:0.46153846 
0.902268567994492 17:1 40:1 41:0.035714286 42:0.5 43:0.46428571 46:0.83 47:0.415 48:0.085 49:0.062179924 50:0.5394763 51:0.98591549 52:0.91549296 53:0.95070423 54:0.53521127 55:0.802 56:0.823 57:0.8125 58:0.4895 59:0.47869923 60:0.50015509 61:0.36918605 62:0.15988372 63:0.26453488 64:0.60465116 65:0.43478261 66:0.5 67:0.90966387 68:0.4 69:0.4 70:0.47150845 71:0.55051432 72:0.91530692 73:0.076923077 
0.902268567994492 10:1 39:1 41:0.035714286 42:0.39285714 43:0.35714286 45:0.78 46:0.784 47:0.782 48:0.498 49:0.062581085 50:0.46136563 51:0.73239437 52:0.45070423 53:0.5915493 54:0.64084507 55:0.392 56:0.251 57:0.3215 58:0.5705 59:0.50383414 60:0.48914392 61:0.095930233 62:0.2994186 63:0.19767442 64:0.39825581 65:0.30434783 66:0.39285714 67:0.88265306 68:0.2 69:0.2 70:0.35125157 71:0.45112592 72:0.88775643 73:0.076923077 
0.902268567994492 6:1 25:1 41:0.10714286 42:0.39285714 43:0.28571429 48:0.5 49:0.066592693 50:0.45560311 52:1 53:0.5 55:0.008 56:0.976 57:0.492 58:0.016 59:0.5221528 60:0.57273573 61:0.50290698 62:0.35465116 63:0.42877907 64:0.57412791 65:0.39130435 66:0.39285714 67:0.76785714 68:0.2 69:0.2 70:0.43701821 71:0.44671389 72:0.77686555 73:0.23076923 
0.902268567994492 11:1 26:1 41:0.10714286 42:0.46428571 43:0.35714286 48:0.5 49:0.069396004 50:0.53115401 51:1 52:0.94366197 53:0.97183099 54:0.52816901 55:0.976 56:0.516 57:0.746 58:0.73 59:0.57583073 60:0.52760546 61:0.35465116 62:0.39534884 63:0.375 64:0.47965116 65:0.47826087 66:0.46428571 67:0.79761905 68:0.2 69:0.2 70:0.50342721 71:0.49455073 72:0.78889702 73:0.23076923 
0.902268567994492 4:1 32:1 41:0.46428571 42:0.035714286 43:0.42857143 46:0.86525 47:0.432625 48:0.067375 49:0.33051398 50:0.40907672 51:1 52:0.54929577 53:0.77464789 54:0.72535211 55:0.976 56:0.224 57:0.6 58:0.876 59:0.70718546 60:0.72952854 61:0.35174419 62:0.12790698 63:0.23982558 64:0.6119186 65:0.39130435 66:0.035714286 67:0.098214286 68:0.2 69:0.2 70:0.43618944 71:0.077005401 72:0.13181295 73:0.076923077 
0.902268567994492 20:1 40:1 41:0.57142857 42:0.035714286 43:0.53571429 48:0.5 49:0.53389769 50:0.53819197 51:0.98591549 52:0.98591549 53:0.98591549 54:0.5 55:0.802 56:0.802 57:0.802 58:0.5 59:0.57384266 60:0.63895782 61:0.36918605 62:0.36918605 63:0.36918605 64:0.5 65:0.52173913 66:0.035714286 67:0.077067669 68:0.2 69:0.2 70:0.56072691 71:0.057682261 72:0.077903382 73:0.076923077 
0.902268567994492 18:1 31:1 41:0.14285714 42:0.46428571 43:0.32142857 46:0.775 47:0.3875 48:0.1125 49:0.066592693 50:0.45788871 51:0.94366197 52:0.6056338 53:0.77464789 54:0.66901408 55:0.516 56:0.215 57:0.3655 58:0.6505 59:0.59656348 60:0.62282878 61:0.39534884 62:0.15697674 63:0.27616279 64:0.61918605 65:0.52173913 66:0.46428571 67:0.7537594 68:0.2 69:0.2 70:0.49609354 71:0.47794014 72:0.76928789 73:0.30769231 
0.902268567994492 1:1 31:1 41:0.35714286 42:0.39285714 43:0.035714286 46:0.79 47:0.395 48:0.105 49:0.19568142 50:0.57616637 51:0.94366197 52:0.3943662 53:0.66901408 54:0.77464789 55:0.516 56:0.35 57:0.433 58:0.583 59:0.64867935 60:0.41919975 61:0.39534884 62:0.20639535 63:0.30087209 64:0.59447674 65:0.69565217 66:0.39285714 67:0.52329193 68:0.2 69:0.2 70:0.63400233 71:0.3588656 72:0.4878535 73:0.76923077 
0.902268567994492 1:1 34:1 41:0.39285714 42:0.035714286 43:0.35714286 45:0.90953 46:0.79 47:0.849765 48:0.559765 49:0.41655254 50:0.48972128 51:0.70422535 52:0.3943662 53:0.54929577 54:0.65492958 55:0.988 56:0.35 57:0.669 58:0.819 59:0.4193411 60:0.43470844 61:0.29360465 62:0.20639535 63:0.25 64:0.54360465 65:0.30434783 66:0.035714286 67:0.11734694 68:0.4 69:0.2 70:0.41201259 71:0.077339006 72:0.13818378 73:0.076923077 
0.902268567994492 1:1 38:1 41:0.39285714 42:0.14285714 43:0.25 45:0.775 46:0.79 47:0.7825 48:0.4925 49:0.52461242 50:0.59272523 51:0.6056338 52:0.3943662 53:0.5 54:0.6056338 55:0.215 56:0.35 57:0.2825 58:0.4325 59:0.31553536 60:0.44060174 61:0.15697674 62:0.20639535 63:0.18168605 64:0.4752907 65:0.43478261 66:0.14285714 67:0.27941176 68:0.6 69:0.2 70:0.49992418 71:0.18012559 72:0.28469789 73:0.30769231 
0.902268567994492 12:1 30:1 41:0.25 42:0.25 45:0.784 47:0.392 48:0.892 49:0.19520003 50:0.32942938 51:0.45070423 52:1 53:0.72535211 54:0.22535211 55:0.251 56:0.976 57:0.6135 58:0.1375 59:0.49375178 60:0.5189206 61:0.2994186 62:0.35174419 63:0.3255814 64:0.47383721 65:0.39130435 66:0.25 67:0.5 68:0.2 69:0.2 70:0.33575507 71:0.24119143 72:0.48793779 73:0.53846154 
0.902268567994492 20:1 31:1 41:0.035714286 42:0.57142857 43:0.53571429 48:0.5 50:0.069979247 51:0.94366197 52:0.98591549 53:0.96478873 54:0.47887324 55:0.516 56:0.802 57:0.659 58:0.357 59:0.52144277 60:0.78644541 61:0.39534884 62:0.36918605 63:0.38226744 64:0.5130814 65:0.52173913 66:0.57142857 67:0.92293233 68:0.2 69:0.2 70:0.40651075 71:0.50478672 72:0.91603346 73:0.076923077 
0.902268567994492 12:1 31:1 41:0.035714286 42:0.42857143 43:0.39285714 48:0.5 50:0.33341825 51:0.94366197 52:1 53:0.97183099 54:0.47183099 55:0.516 56:0.976 57:0.746 58:0.27 59:0.52144277 60:0.36848635 61:0.39534884 62:0.35174419 63:0.37354651 64:0.52180233 65:0.34782609 66:0.42857143 67:0.89285714 68:0.2 69:0.2 70:0.35470504 71:0.46401796 72:0.90827352 73:0.076923077 
0.902268567994492 6:1 39:1 41:0.25 42:0.035714286 43:0.21428571 45:0.78 47:0.39 48:0.89 49:0.1948791 50:0.19644657 51:0.73239437 52:1 53:0.86619718 54:0.36619718 55:0.392 56:0.976 57:0.684 58:0.208 59:0.48906561 60:0.57335608 61:0.095930233 62:0.35465116 63:0.2252907 64:0.37063953 65:0.13043478 66:0.035714286 67:0.17857143 68:0.2 69:0.2 70:0.096543832 71:0.062433908 72:0.22611767 73:0.076923077 
0.902268567994492 20:1 35:1 41:0.53571429 42:0.10714286 43:0.42857143 45:0.79 47:0.395 48:0.895 49:0.64710767 50:0.78481088 51:0.76056338 52:0.98591549 53:0.87323944 54:0.38732394 55:0.7 56:0.802 57:0.751 58:0.449 59:0.3499006 60:0.41578784 61:0.52325581 62:0.36918605 63:0.44622093 64:0.57703488 65:0.56521739 66:0.10714286 67:0.17857143 68:0.2 69:0.2 70:0.66027031 71:0.15196546 72:0.19324778 73:0.23076923 
0.902268567994492 3:1 37:1 41:0.14285714 42:0.14285714 45:0.83 46:0.86494 47:0.84747 48:0.48253 49:0.12949471 50:0.26438366 51:0.91549296 52:0.52112676 53:0.71830986 54:0.6971831 55:0.823 56:0.121 57:0.472 58:0.851 59:0.56234024 60:0.61817618 61:0.15988372 63:0.07994186 64:0.57994186 65:0.13043478 66:0.14285714 67:0.5 68:0.2 69:0.2 70:0.1490946 71:0.17843244 72:0.51822061 73:0.076923077 
0.902268567994492 11:1 21:1 41:0.071428571 42:0.42857143 43:0.35714286 45:0.79 47:0.395 48:0.895 49:0.063383406 50:0.4107525 51:0.3943662 52:0.94366197 53:0.66901408 54:0.22535211 55:0.35 56:0.516 57:0.433 58:0.417 59:0.47557512 60:0.40601737 61:0.20639535 62:0.39534884 63:0.30087209 64:0.40552326 65:0.39130435 66:0.42857143 67:0.83482143 68:0.2 69:0.2 70:0.39907876 71:0.45518949 72:0.83471695 73:0.15384615 
0.902268567994492 11:1 24:1 41:0.071428571 42:0.53571429 43:0.46428571 45:0.86525 47:0.432625 48:0.932625 49:0.13884175 50:0.65832254 51:0.54929577 52:0.94366197 53:0.74647887 54:0.3028169 55:0.224 56:0.516 57:0.37 58:0.354 59:0.44078387 60:0.75759926 61:0.12790698 62:0.39534884 63:0.26162791 64:0.36627907 65:0.52173913 66:0.53571429 67:0.86654135 68:0.2 69:0.2 70:0.61334254 71:0.60480738 72:0.84934689 73:0.15384615 
0.902268567994492 10:1 31:1 41:0.60714286 42:0.035714286 43:0.57142857 46:0.784 47:0.392 48:0.108 49:0.58495503 50:0.65306793 51:0.94366197 52:0.45070423 53:0.6971831 54:0.74647887 55:0.516 56:0.251 57:0.3835 58:0.6325 59:0.46705481 60:0.43687965 61:0.39534884 62:0.2994186 63:0.34738372 64:0.54796512 65:0.56521739 66:0.035714286 67:0.071428571 68:0.4 69:0.2 70:0.62148844 71:0.063092591 72:0.077598022 73:0.076923077 
0.902268567994492 19:1 36:1 41:0.035714286 42:0.46428571 43:0.42857143 46:0.78 47:0.39 48:0.11 50:0.58254761 51:0.97183099 52:0.73239437 53:0.85211268 54:0.61971831 55:1 56:0.392 57:0.696 58:0.804 59:0.54955978 60:0.60902605 61:0.18895349 62:0.095930233 63:0.14244186 64:0.54651163 65:0.39130435 66:0.46428571 67:0.90178571 68:0.4 69:0.4 70:0.49001961 71:0.55423126 72:0.89991545 73:0.076923077 
0.902268567994492 18:1 21:1 41:0.53571429 42:0.071428571 43:0.46428571 45:0.79 46:0.775 47:0.7825 48:0.5075 49:0.56667974 50:0.69781097 51:0.3943662 52:0.6056338 53:0.5 54:0.3943662 55:0.35 56:0.215 57:0.2825 58:0.5675 59:0.52982107 60:0.53086228 61:0.20639535 62:0.15697674 63:0.18168605 64:0.5247093 65:0.52173913 66:0.071428571 67:0.13345865 68:0.2 69:0.2 70:0.57750071 71:0.10888408 72:0.15129415 73:0.15384615 
0.902268567994492 1:1 31:1 41:0.28571429 42:0.14285714 43:0.14285714 46:0.79 47:0.395 48:0.105 49:0.3325623 50:0.53284192 51:0.94366197 52:0.3943662 53:0.66901408 54:0.77464789 55:0.516 56:0.35 57:0.433 58:0.583 59:0.3416643 60:0.3501861 61:0.39534884 62:0.20639535 63:0.30087209 64:0.59447674 65:0.30434783 66:0.14285714 67:0.34693878 68:0.4 69:0.2 70:0.33785783 71:0.19842279 72:0.40072368 73:0.30769231 
0.902268567994492 1:1 23:1 41:0.28571429 42:0.10714286 43:0.17857143 45:0.86494 46:0.79 47:0.82747 48:0.53747 49:0.27333332 50:0.34535011 51:0.52112676 52:0.3943662 53:0.45774648 54:0.56338028 55:0.121 56:0.35 57:0.2355 58:0.3855 59:0.53209316 60:0.60716501 62:0.20639535 63:0.10319767 64:0.39680233 65:0.26086957 66:0.10714286 67:0.29395604 68:0.4 69:0.2 70:0.30812851 71:0.13500893 72:0.28861279 73:0.23076923 
0.902268567994492 7:1 29:1 41:0.32142857 43:0.32142857 44:1 45:0.92674 46:1 47:0.96337 48:0.46337 49:0.33264173 50:0.34124234 51:0.43661972 52:0.53521127 53:0.48591549 54:0.45070423 56:0.223 57:0.1115 58:0.3885 59:0.38682193 60:0.42245658 61:0.53488372 62:1 63:0.76744186 64:0.26744186 65:0.17391304 67:0.061688312 68:0.4 69:0.2 70:0.17670606 71:0.033590418 72:0.10799706 
0.902268567994492 16:1 36:1 41:0.5 42:0.14285714 43:0.35714286 48:0.5 49:0.26753173 50:0.27560864 51:0.97183099 52:0.97183099 53:0.97183099 54:0.5 55:1 56:1 57:1 58:0.5 59:0.61729622 60:0.90183002 61:0.18895349 62:0.18895349 63:0.18895349 64:0.5 65:0.56521739 66:0.14285714 67:0.23214286 68:0.2 69:0.2 70:0.62112469 71:0.18421003 72:0.2485605 73:0.30769231 
0.902268567994492 5:1 26:1 41:0.17857143 42:0.78571429 43:0.60714286 48:0.5 49:0.2009968 50:0.66244244 51:1 53:0.5 54:1 55:0.976 56:0.008 57:0.492 58:0.984 59:0.40812269 60:0.22487593 61:0.35465116 62:0.50290698 63:0.42877907 64:0.42587209 65:0.95652174 66:0.78571429 67:0.81403941 68:0.2 69:0.2 70:1 71:0.80834191 72:0.79663054 73:0.38461538 
0.902268567994492 1:1 26:1 41:0.071428571 42:0.42857143 43:0.35714286 46:0.79 47:0.395 48:0.105 49:0.063383406 50:0.59731018 51:1 52:0.3943662 53:0.6971831 54:0.8028169 55:0.976 56:0.35 57:0.663 58:0.813 59:0.50241409 60:0.59770471 61:0.35465116 62:0.20639535 63:0.28052326 64:0.57412791 65:0.39130435 66:0.42857143 67:0.83482143 68:0.4 69:0.4 70:0.50338511 71:0.51216844 72:0.81726854 73:0.076923077 
0.902268567994492 17:1 33:1 41:0.17857143 42:0.10714286 43:0.071428571 46:0.83 47:0.415 48:0.085 49:0.28846992 50:0.42773677 51:0.81690141 52:0.91549296 53:0.86619718 54:0.45070423 55:0.169 56:0.823 57:0.496 58:0.173 59:0.26001136 60:0.43889578 61:0.36918605 62:0.15988372 63:0.26453488 64:0.60465116 65:0.13043478 66:0.10714286 67:0.39285714 68:0.4 69:0.2 70:0.19177264 71:0.17163705 72:0.45551875 73:0.23076923 
0.902268567994492 10:1 32:1 41:0.035714286 42:0.64285714 43:0.60714286 46:0.784 47:0.392 48:0.108 50:0.46746622 51:1 52:0.45070423 53:0.72535211 54:0.77464789 55:0.976 56:0.251 57:0.6135 58:0.8625 59:0.61147401 60:0.49596774 61:0.35174419 62:0.2994186 63:0.3255814 64:0.52616279 65:0.60869565 66:0.64285714 67:0.93367347 68:0.4 69:0.4 70:0.57371622 71:0.61736331 72:0.90686733 73:0.076923077 
0.902268567994492 6:1 26:1 41:0.35714286 42:0.071428571 43:0.28571429 48:0.5 49:0.32124475 50:0.32382861 51:1 52:1 53:1 54:0.5 55:0.976 56:0.976 57:0.976 58:0.5 59:0.53564328 60:0.69804591 61:0.35465116 62:0.35465116 63:0.35465116 64:0.5 65:0.30434783 66:0.071428571 67:0.19387755 68:0.2 69:0.2 70:0.3663617 71:0.10077217 72:0.1951774 73:0.15384615 
0.902268567994492 15:1 21:1 41:0.53571429 42:0.21428571 43:0.32142857 45:0.79 46:0.79 47:0.79 48:0.5 49:0.46389673 50:0.65809446 51:0.3943662 52:0.76056338 53:0.57746479 54:0.31690141 55:0.35 56:0.7 57:0.525 58:0.325 59:0.32391366 60:0.22890819 61:0.20639535 62:0.52325581 63:0.36482558 64:0.34156977 65:0.69565217 66:0.21428571 67:0.29037267 68:0.4 69:0.2 70:0.71076468 71:0.24320585 72:0.29944755 73:0.46153846 
0.902268567994492 11:1 21:1 41:0.60714286 42:0.035714286 43:0.57142857 45:0.79 47:0.395 48:0.895 49:0.65648922 50:0.66769462 51:0.3943662 52:0.94366197 53:0.66901408 54:0.22535211 55:0.35 56:0.516 57:0.433 58:0.417 59:0.49616586 60:0.54435484 61:0.20639535 62:0.39534884 63:0.30087209 64:0.40552326 65:0.56521739 66:0.035714286 67:0.071428571 68:0.4 69:0.2 70:0.66281159 71:0.057673733 72:0.065105758 73:0.076923077 
0.902268567994492 12:1 21:1 41:0.60714286 42:0.035714286 43:0.57142857 45:0.79 47:0.395 48:0.895 49:0.60026172 50:0.61101487 51:0.3943662 52:1 53:0.6971831 54:0.1971831 55:0.35 56:0.976 57:0.663 58:0.187 59:0.51689861 60:0.63833747 61:0.20639535 62:0.35174419 63:0.27906977 64:0.42732558 65:0.56521739 66:0.035714286 67:0.071428571 68:0.4 69:0.2 70:0.62238214 71:0.071928676 72:0.08993444 73:0.076923077 
0.902268567994492 1:1 36:1 41:0.5 42:0.10714286 43:0.39285714 46:0.79 47:0.395 48:0.105 49:0.72336834 50:0.85575985 51:0.97183099 52:0.3943662 53:0.68309859 54:0.78873239 55:1 56:0.35 57:0.675 58:0.825 59:0.27960807 60:0.2771402 61:0.18895349 62:0.20639535 63:0.19767442 64:0.49127907 65:0.52173913 66:0.10714286 67:0.18984962 68:0.2 69:0.2 70:0.58914683 71:0.13568848 72:0.18792665 73:0.23076923 
0.902268567994492 5:1 21:1 42:0.42857143 43:0.42857143 44:1 45:0.79 47:0.395 48:0.895 49:0.063383406 50:0.27457907 51:0.3943662 53:0.1971831 54:0.6971831 55:0.35 56:0.008 57:0.179 58:0.671 59:0.45498438 60:0.34243176 61:0.20639535 62:0.50290698 63:0.35465116 64:0.35174419 65:0.30434783 66:0.42857143 67:0.95918367 68:0.4 69:0.4 70:0.26722647 71:0.40909759 72:0.92325159 
0.902268567994492 9:1 21:1 41:0.28571429 43:0.28571429 44:1 45:0.79 46:0.92674 47:0.85837 48:0.43163 49:0.25828738 50:0.26036485 51:0.3943662 52:0.43661972 53:0.41549296 54:0.47887324 55:0.35 57:0.175 58:0.675 59:0.61303607 60:0.63492556 61:0.20639535 62:0.53488372 63:0.37063953 64:0.33575581 65:0.13043478 67:0.071428571 68:0.2 69:0.2 70:0.14568497 71:0.024095651 72:0.09143481 
0.902268567994492 11:1 24:1 41:0.46428571 42:0.14285714 43:0.32142857 45:0.86525 47:0.432625 48:0.932625 49:0.65293172 50:0.66410851 51:0.54929577 52:0.94366197 53:0.74647887 54:0.3028169 55:0.224 56:0.516 57:0.37 58:0.354 59:0.46705481 60:0.63570099 61:0.12790698 62:0.39534884 63:0.26162791 64:0.36627907 65:0.52173913 66:0.14285714 67:0.2462406 68:0.2 69:0.2 70:0.6063991 71:0.15368192 72:0.20941888 73:0.30769231 
0.902268567994492 3:1 36:1 41:0.64285714 42:0.035714286 43:0.60714286 46:0.86494 47:0.43247 48:0.06753 49:0.52269808 50:0.59685645 51:0.97183099 52:0.52112676 53:0.74647887 54:0.72535211 55:1 56:0.121 57:0.5605 58:0.9395 59:0.49857995 60:0.45114764 61:0.18895349 63:0.094476744 64:0.59447674 65:0.60869565 66:0.035714286 67:0.066326531 68:0.2 69:0.2 70:0.65511632 71:0.062758986 72:0.0729092 73:0.076923077 
0.902268567994492 15:1 35:1 41:0.035714286 42:0.32142857 43:0.28571429 45:0.79 46:0.79 47:0.79 48:0.5 49:0.063383406 50:0.39130632 51:0.76056338 52:0.76056338 53:0.76056338 54:0.5 55:0.7 56:0.7 57:0.7 58:0.5 59:0.5722806 60:0.84351737 61:0.52325581 62:0.52325581 63:0.52325581 64:0.5 65:0.2173913 66:0.32142857 67:0.85714286 68:0.2 69:0.2 70:0.32882884 71:0.40770377 72:0.83106236 73:0.076923077 
0.902268567994492 3:1 34:1 41:0.35714286 42:0.28571429 43:0.071428571 45:0.90953 46:0.86494 47:0.887235 48:0.522295 49:0.19813573 50:0.27560864 51:0.70422535 52:0.52112676 53:0.61267606 54:0.5915493 55:0.988 56:0.121 57:0.5545 58:0.9335 59:0.59897756 60:0.90183002 61:0.29360465 63:0.14680233 64:0.64680233 65:0.56521739 66:0.28571429 67:0.44642857 68:0.2 69:0.2 70:0.62112469 71:0.35549618 72:0.49027123 73:0.61538462 
0.902268567994492 11:1 34:1 41:0.5 42:0.035714286 43:0.46428571 45:0.90953 47:0.454765 48:0.954765 49:0.39021152 50:0.39335009 51:0.70422535 52:0.94366197 53:0.82394366 54:0.38028169 55:0.988 56:0.516 57:0.752 58:0.736 59:0.65677364 60:0.6851737 61:0.29360465 62:0.39534884 63:0.34447674 64:0.44912791 65:0.43478261 66:0.035714286 67:0.090336134 68:0.2 69:0.2 70:0.43486416 71:0.048178966 72:0.081669983 73:0.076923077 
0.902268567994492 10:1 32:1 41:0.57142857 42:0.035714286 43:0.53571429 46:0.784 47:0.392 48:0.108 49:0.53185658 50:0.60546748 51:1 52:0.45070423 53:0.72535211 54:0.77464789 55:0.976 56:0.251 57:0.6135 58:0.8625 59:0.64569725 60:0.66656328 61:0.35174419 62:0.2994186 63:0.3255814 64:0.52616279 65:0.52173913 66:0.035714286 67:0.077067669 68:0.2 69:0.2 70:0.62840622 71:0.072587359 72:0.090000853 73:0.076923077 
0.902268567994492 13:1 40:1 42:0.39285714 43:0.39285714 44:1 48:0.5 50:0.26001627 51:0.98591549 52:0.81690141 53:0.90140845 54:0.58450704 55:0.802 56:0.169 57:0.4855 58:0.8165 59:0.51917069 60:0.43470844 61:0.36918605 62:0.36918605 63:0.36918605 64:0.5 65:0.26086957 66:0.39285714 67:0.9532967 68:0.2 69:0.2 70:0.21248972 71:0.37618422 72:0.93859466 
0.902268567994492 18:1 21:1 41:0.035714286 42:0.42857143 43:0.39285714 45:0.79 46:0.775 47:0.7825 48:0.5075 49:0.063383406 50:0.52521841 51:0.3943662 52:0.6056338 53:0.5 54:0.3943662 55:0.35 56:0.215 57:0.2825 58:0.5675 59:0.52598694 60:0.44618486 61:0.20639535 62:0.15697674 63:0.18168605 64:0.5247093 65:0.34782609 66:0.42857143 67:0.89285714 68:0.4 69:0.4 70:0.40382248 71:0.46673272 72:0.85013759 73:0.076923077 
0.902268567994492 12:1 32:1 41:0.64285714 42:0.035714286 43:0.60714286 48:0.5 49:0.51101868 50:0.51512894 51:1 52:1 53:1 54:0.5 55:0.976 56:0.976 57:0.976 58:0.5 59:0.51604658 60:0.60282258 61:0.35174419 62:0.35174419 63:0.35174419 64:0.5 65:0.60869565 66:0.035714286 67:0.066326531 68:0.2 69:0.2 70:0.6176515 71:0.062433908 72:0.077167154 73:0.076923077 
0.902268567994492 19:1 25:1 41:0.14285714 42:0.25 43:0.10714286 46:0.78 47:0.39 48:0.11 49:0.19447794 50:0.52272657 52:0.73239437 53:0.36619718 54:0.13380282 55:0.008 56:0.392 57:0.2 58:0.308 59:0.31965351 60:0.32599256 61:0.50290698 62:0.095930233 63:0.2994186 64:0.70348837 65:0.26086957 66:0.25 67:0.62362637 68:0.2 69:0.2 70:0.27063234 71:0.28187033 72:0.63534319 73:0.30769231 
0.902268567994492 11:1 31:1 41:0.64285714 42:0.10714286 43:0.53571429 48:0.5 49:0.51675448 50:0.65071924 51:0.94366197 52:0.94366197 53:0.94366197 54:0.5 55:0.516 56:0.516 57:0.516 58:0.5 59:0.49914797 60:0.5189206 61:0.39534884 62:0.39534884 63:0.39534884 64:0.5 65:0.69565217 66:0.10714286 67:0.15062112 68:0.4 69:0.2 70:0.71759586 71:0.12211087 72:0.14190222 73:0.23076923 
0.902268567994492 19:1 31:1 41:0.39285714 42:0.035714286 43:0.35714286 46:0.78 47:0.39 48:0.11 49:0.32076336 50:0.39235287 51:0.94366197 52:0.73239437 53:0.83802817 54:0.6056338 55:0.516 56:0.392 57:0.454 58:0.562 59:0.35572281 60:0.37174318 61:0.39534884 62:0.095930233 63:0.24563953 64:0.6497093 65:0.30434783 66:0.035714286 67:0.11734694 68:0.2 69:0.2 70:0.28702218 71:0.067848047 72:0.15469568 73:0.076923077 
0.902268567994492 7:1 31:1 42:0.21428571 43:0.21428571 44:1 46:1 47:0.5 50:0.27813283 51:0.94366197 52:0.53521127 53:0.73943662 54:0.70422535 55:0.516 56:0.223 57:0.3695 58:0.6465 59:0.47855723 60:0.40074442 61:0.39534884 62:1 63:0.69767442 64:0.19767442 65:0.043478261 66:0.21428571 67:0.90178571 68:0.4 69:0.4 70:0.053853797 71:0.26084817 72:0.93848094 
0.902268567994492 5:1 23:1 41:0.071428571 42:0.67857143 43:0.60714286 45:0.86494 47:0.43247 48:0.93247 49:0.13157593 50:0.51989586 51:0.52112676 53:0.26056338 54:0.76056338 55:0.121 56:0.008 57:0.0645 58:0.5565 59:0.44958819 60:0.37717122 62:0.50290698 63:0.25145349 64:0.24854651 65:0.69565217 66:0.67857143 67:0.89596273 68:0.2 69:0.2 70:0.63271006 71:0.63395775 72:0.87214038 73:0.15384615 
0.902268567994492 13:1 28:1 41:0.35714286 42:0.071428571 43:0.28571429 45:0.92784 47:0.46392 48:0.96392 49:0.47012997 50:0.54981568 51:0.56338028 52:0.81690141 53:0.69014085 54:0.37323944 55:0.037 56:0.169 57:0.103 58:0.434 59:0.31610338 60:0.25108561 61:0.078488372 62:0.36918605 63:0.22383721 64:0.35465116 65:0.30434783 66:0.071428571 67:0.19387755 68:0.6 69:0.2 70:0.36155694 71:0.096337069 72:0.18826755 
0.902268567994492 12:1 40:1 41:0.28571429 42:0.28571429 48:0.5 49:0.32848571 50:0.66144683 51:0.98591549 52:1 53:0.99295775 54:0.49295775 55:0.802 56:0.976 57:0.889 58:0.413 59:0.5110764 60:0.41470223 61:0.36918605 62:0.35174419 63:0.36046512 64:0.50872093 65:0.47826087 66:0.28571429 67:0.5 68:0.2 69:0.2 70:0.56761723 71:0.3327569 72:0.48799254 73:0.61538462 
0.902268567994492 1:1 25:1 41:0.21428571 42:0.25 43:0.035714286 46:0.79 47:0.395 48:0.105 49:0.20120942 50:0.46446162 52:0.3943662 53:0.1971831 54:0.3028169 55:0.008 56:0.35 57:0.179 58:0.329 59:0.40088043 60:0.53334367 61:0.50290698 62:0.20639535 63:0.35465116 64:0.64825581 65:0.34782609 66:0.25 67:0.53571429 68:0.4 69:0.2 70:0.47278706 71:0.3178323 72:0.52555758 73:0.46153846 
0.902268567994492 11:1 31:1 41:0.14285714 42:0.57142857 43:0.42857143 48:0.5 49:0.062179924 50:0.2543597 51:0.94366197 52:0.94366197 53:0.94366197 54:0.5 55:0.516 56:0.516 57:0.516 58:0.5 59:0.50497018 60:0.47983871 61:0.39534884 62:0.39534884 63:0.39534884 64:0.5 65:0.65217391 66:0.57142857 67:0.79220779 68:0.2 69:0.2 70:0.52711917 71:0.50100269 72:0.77614253 73:0.30769231 
0.902268567994492 12:1 31:1 41:0.57142857 42:0.071428571 43:0.5 48:0.5 49:0.38911635 50:0.45937443 51:0.94366197 52:1 53:0.97183099 54:0.47183099 55:0.516 56:0.976 57:0.746 58:0.27 59:0.42317523 60:0.55148883 61:0.39534884 62:0.35174419 63:0.37354651 64:0.52180233 65:0.56521739 66:0.071428571 67:0.125 68:0.2 69:0.2 70:0.52628362 71:0.10685983 72:0.15988677 73:0.15384615 
0.902268567994492 5:1 33:1 41:0.53571429 42:0.10714286 43:0.42857143 48:0.5 49:0.40142877 50:0.39965934 51:0.81690141 53:0.4084507 54:0.9084507 55:0.169 56:0.008 57:0.0885 58:0.5805 59:0.37049134 60:0.31001861 61:0.36918605 62:0.50290698 63:0.43604651 64:0.43313953 65:0.56521739 66:0.10714286 67:0.17857143 68:0.2 70:0.61677635 71:0.12347644 72:0.16381289 73:0.30769231 
0.902268567994492 8:1 21:1 41:0.10714286 42:0.39285714 43:0.28571429 45:0.79 46:0.92784 47:0.85892 48:0.43108 49:0.12676681 50:0.59731018 51:0.3943662 52:0.56338028 53:0.47887324 54:0.41549296 55:0.35 56:0.037 57:0.1935 58:0.6565 59:0.48111332 60:0.59770471 61:0.20639535 62:0.078488372 63:0.14244186 64:0.56395349 65:0.39130435 66:0.39285714 67:0.76785714 68:0.4 69:0.4 70:0.50338511 71:0.46841986 72:0.7469196 
0.902268567994492 17:1 25:1 41:0.14285714 42:0.28571429 43:0.14285714 46:0.83 47:0.415 48:0.085 49:0.14361557 50:0.27457907 52:0.91549296 53:0.45774648 54:0.042253521 55:0.008 56:0.823 57:0.4155 58:0.0925 59:0.27818801 60:0.34243176 61:0.50290698 62:0.15988372 63:0.33139535 64:0.67151163 65:0.30434783 66:0.28571429 67:0.65306122 68:0.4 69:0.2 70:0.26722647 71:0.26628568 72:0.604373 73:0.076923077 
0.902268567994492 12:1 32:1 41:0.071428571 42:0.53571429 43:0.46428571 48:0.5 49:0.1299761 50:0.7371328 51:1 52:1 53:1 54:0.5 55:0.976 56:0.976 57:0.976 58:0.5 59:0.56844646 60:0.49224566 61:0.35174419 62:0.35174419 63:0.35174419 64:0.5 65:0.52173913 66:0.53571429 67:0.86654135 68:0.4 69:0.4 70:0.64606306 71:0.62446077 72:0.84662713 73:0.15384615 
0.902268567994492 6:1 30:1 41:0.035714286 42:0.46428571 43:0.42857143 45:0.784 47:0.392 48:0.892 49:0.13229802 50:0.34026292 51:0.45070423 52:1 53:0.72535211 54:0.22535211 55:0.251 56:0.976 57:0.6135 58:0.1375 59:0.38710594 60:0.5683933 61:0.2994186 62:0.35465116 63:0.32703488 64:0.47238372 65:0.39130435 66:0.46428571 67:0.90178571 68:0.2 69:0.2 70:0.37798702 71:0.46234948 72:0.87414432 73:0.076923077 
0.902268567994492 15:1 23:1 41:0.035714286 42:0.39285714 43:0.35714286 45:0.86494 46:0.79 47:0.82747 48:0.53747 49:0.13157593 50:0.48481283 51:0.52112676 52:0.76056338 53:0.64084507 54:0.38028169 55:0.121 56:0.7 57:0.4105 58:0.2105 59:0.38199375 60:0.5932072 62:0.52325581 63:0.26162791 64:0.23837209 65:0.30434783 66:0.39285714 67:0.88265306 68:0.4 69:0.4 70:0.42797685 71:0.51118018 72:0.90040235 73:0.076923077 
