svm_type nu_svr
kernel_type precomputed
nr_class 2
total_sv 732
rho -0.0142578
SV
1 0:2 
0.8728716340155641 0:3 
-1 0:5 
1 0:6 
1 0:7 
1 0:8 
-1 0:9 
-1 0:10 
1 0:11 
-0.4387484474156745 0:12 
1 0:15 
1 0:20 
-1 0:21 
-1 0:22 
1 0:24 
1 0:27 
-0.4147947282354561 0:29 
-1 0:32 
1 0:33 
1 0:35 
-1 0:36 
1 0:37 
1 0:39 
0.1957895724268843 0:40 
1 0:41 
-1 0:43 
1 0:44 
1 0:46 
1 0:48 
1 0:50 
-1 0:51 
-1 0:52 
1 0:54 
1 0:55 
1 0:58 
1 0:59 
1 0:63 
-0.2348679272746991 0:65 
-1 0:66 
-1 0:68 
-1 0:69 
-1 0:70 
-1 0:71 
-1 0:75 
1 0:77 
1 0:78 
1 0:80 
-1 0:82 
1 0:83 
-1 0:84 
1 0:86 
1 0:87 
1 0:88 
-0.5152362911552196 0:89 
-1 0:90 
-1 0:92 
-0.7641569554038035 0:94 
-1 0:95 
-1 0:97 
1 0:99 
1 0:100 
1 0:102 
-1 0:103 
-1 0:104 
0.9678700896705754 0:105 
1 0:106 
-1 0:108 
-0.9945787374851542 0:110 
-1 0:111 
1 0:114 
1 0:115 
0.8369172040192476 0:116 
0.3171692781253096 0:117 
-1 0:118 
1 0:122 
-1 0:123 
-1 0:124 
-1 0:125 
-1 0:126 
1 0:127 
-1 0:128 
1 0:130 
-1 0:131 
1 0:132 
1 0:134 
1 0:136 
1 0:138 
-1 0:141 
1 0:142 
-1 0:143 
-1 0:146 
0.9487074892585424 0:147 
-1 0:148 
1 0:150 
1 0:151 
-0.2221455198825433 0:152 
-1 0:154 
1 0:156 
0.8899429646950072 0:157 
-1 0:158 
1 0:160 
-0.1558839808474635 0:161 
-1 0:164 
1 0:165 
-0.6149853259350277 0:167 
-1 0:168 
1 0:171 
-1 0:174 
1 0:177 
1 0:178 
1 0:179 
1 0:180 
-1 0:185 
0.2888765428179339 0:186 
1 0:187 
-0.3834727167643732 0:190 
1 0:193 
-1 0:195 
-1 0:203 
0.9977365307853433 0:207 
-0.7365291606498049 0:209 
-1 0:213 
1 0:214 
-1 0:215 
1 0:216 
1 0:217 
-1 0:218 
-1 0:220 
1 0:221 
-1 0:224 
1 0:225 
-1 0:226 
-1 0:229 
-1 0:230 
1 0:231 
-1 0:234 
-1 0:235 
0.8965671448783528 0:236 
0.8866080830302158 0:237 
1 0:238 
1 0:240 
1 0:241 
1 0:244 
-0.1904150956099425 0:245 
-1 0:247 
-0.03896732808335494 0:248 
1 0:249 
1 0:250 
-0.5498671816342022 0:251 
1 0:253 
0.8519017094438784 0:254 
1 0:255 
0.666345475194014 0:256 
-0.8530395878213725 0:257 
-1 0:258 
-1 0:259 
-1 0:260 
1 0:262 
1 0:263 
-1 0:264 
1 0:265 
-0.47472475038245 0:268 
1 0:269 
-1 0:272 
1 0:278 
1 0:280 
1 0:281 
-1 0:282 
1 0:284 
-0.5343108007866259 0:285 
-0.4674279347512878 0:288 
1 0:292 
1 0:294 
-0.4129531063861633 0:295 
-1 0:296 
-1 0:298 
-1 0:299 
-0.04179611091084705 0:300 
1 0:303 
1 0:304 
1 0:305 
1 0:306 
1 0:307 
1 0:308 
1 0:314 
1 0:316 
-1 0:317 
1 0:318 
1 0:319 
0.8022858538448291 0:320 
1 0:323 
-1 0:324 
-0.6242050597796082 0:325 
1 0:326 
-1 0:327 
1 0:330 
1 0:331 
-1 0:333 
-0.1249676427985407 0:334 
-1 0:335 
-1 0:336 
1 0:338 
-0.9059680088440842 0:339 
-1 0:341 
-0.5003267940894393 0:342 
1 0:343 
1 0:344 
1 0:345 
-1 0:346 
0.01394769020010817 0:347 
-0.04053647725433318 0:349 
-1 0:350 
-1 0:353 
-1 0:355 
1 0:356 
-1 0:357 
-0.9229625918146802 0:358 
-1 0:359 
1 0:361 
-0.3914127171361341 0:362 
-1 0:364 
1 0:365 
-1 0:366 
1 0:368 
1 0:370 
-1 0:374 
-1 0:376 
0.9935398371663842 0:377 
-1 0:378 
-1 0:379 
-1 0:380 
-1 0:381 
-1 0:384 
1 0:385 
-1 0:391 
0.6415994694757207 0:392 
1 0:393 
-1 0:394 
1 0:397 
-1 0:401 
1 0:402 
1 0:404 
1 0:405 
1 0:406 
1 0:407 
1 0:408 
1 0:416 
-1 0:417 
1 0:421 
1 0:423 
-0.4922878768584599 0:426 
-1 0:428 
-1 0:429 
1 0:431 
1 0:433 
-1 0:434 
1 0:435 
-1 0:436 
1 0:437 
1 0:438 
1 0:440 
-0.3728988558785787 0:441 
-1 0:442 
-0.9743316939192599 0:443 
1 0:446 
0.9760066183187828 0:447 
-1 0:448 
-1 0:449 
-0.8714963750680265 0:451 
1 0:453 
1 0:456 
1 0:457 
-1 0:458 
0.1946772139963167 0:461 
1 0:463 
1 0:465 
-0.5857401018645559 0:468 
-0.5589661626943712 0:470 
-1 0:473 
1 0:474 
-1 0:475 
-1 0:476 
1 0:477 
-1 0:478 
0.4373170985362693 0:480 
0.1505939038992913 0:485 
-0.2773421071438181 0:486 
-0.7851426350591985 0:487 
1 0:489 
1 0:490 
-1 0:491 
0.6913728790118342 0:492 
1 0:493 
0.7656689031787329 0:494 
1 0:500 
-1 0:502 
1 0:503 
0.6196876704922284 0:504 
-0.73510451041804 0:507 
1 0:508 
1 0:509 
-1 0:513 
-1 0:514 
1 0:515 
-1 0:517 
-1 0:519 
0.002380166317886815 0:521 
-1 0:522 
1 0:524 
-1 0:525 
-1 0:526 
0.1425081904498399 0:527 
1 0:528 
-1 0:529 
-1 0:530 
-1 0:531 
-1 0:532 
-1 0:533 
-0.3909331512426168 0:534 
-1 0:539 
1 0:540 
-1 0:541 
1 0:544 
0.02241166799335695 0:545 
-1 0:546 
-1 0:551 
-0.6554575422380741 0:552 
1 0:553 
1 0:554 
-0.0003534235422820195 0:558 
-1 0:561 
-1 0:563 
0.5467761855051974 0:564 
1 0:566 
-1 0:567 
-1 0:568 
1 0:569 
-1 0:571 
1 0:572 
-1 0:573 
-1 0:574 
0.0581719699639632 0:575 
1 0:576 
0.1586072719242932 0:577 
-1 0:580 
-1 0:583 
1 0:585 
1 0:586 
-1 0:587 
1 0:588 
1 0:590 
1 0:592 
-1 0:595 
1 0:596 
-1 0:597 
-1 0:599 
-1 0:602 
1 0:603 
-1 0:605 
1 0:606 
1 0:607 
1 0:610 
1 0:611 
1 0:612 
-0.6127379525463714 0:613 
1 0:614 
-1 0:615 
-1 0:620 
1 0:621 
-1 0:622 
-1 0:623 
-0.003779902047996246 0:625 
-1 0:626 
1 0:627 
-1 0:629 
-1 0:633 
0.6819343732352093 0:636 
1 0:639 
0.5308117796855347 0:640 
1 0:641 
-1 0:643 
1 0:644 
1 0:646 
-0.05729519896676703 0:649 
-1 0:650 
1 0:660 
1 0:661 
-1 0:668 
1 0:669 
1 0:671 
0.2236944258905786 0:672 
1 0:673 
-1 0:675 
-1 0:677 
1 0:681 
-1 0:682 
-1 0:683 
1 0:686 
1 0:687 
0.06242967037293485 0:689 
1 0:690 
-1 0:691 
-0.8789739948950919 0:696 
-0.8534164997602623 0:698 
1 0:700 
-1 0:702 
-1 0:703 
-1 0:704 
1 0:705 
0.07325717116860452 0:707 
-1 0:709 
1 0:710 
-1 0:712 
-1 0:714 
-1 0:715 
-1 0:716 
-1 0:718 
0.05821350999831403 0:722 
1 0:723 
-0.06125951546326042 0:727 
1 0:729 
-1 0:732 
1 0:734 
-1 0:736 
-1 0:737 
-1 0:738 
-1 0:739 
-1 0:740 
1 0:742 
-1 0:743 
-0.1940120890752974 0:744 
-1 0:745 
-0.4185176605199277 0:748 
1 0:751 
1 0:755 
1 0:756 
-0.7837034484893042 0:757 
0.01371808207713808 0:758 
1 0:759 
-1 0:760 
0.5813877907357354 0:765 
-1 0:767 
-1 0:769 
1 0:773 
0.6471777696826873 0:777 
-1 0:778 
-1 0:780 
-1 0:782 
0.4428351330752365 0:783 
1 0:784 
-1 0:786 
1 0:787 
-1 0:788 
-0.8460498766436 0:789 
1 0:793 
0.2173842338983047 0:794 
-1 0:796 
-0.5565255987821224 0:798 
1 0:799 
1 0:802 
1 0:803 
-1 0:804 
-0.007047314296650426 0:805 
-1 0:806 
1 0:807 
0.2537395147898679 0:808 
1 0:810 
-1 0:812 
-1 0:813 
1 0:815 
1 0:817 
-1 0:819 
-1 0:820 
1 0:824 
-1 0:825 
1 0:826 
-1 0:827 
-1 0:828 
1 0:832 
-1 0:834 
-1 0:841 
-1 0:842 
-1 0:845 
-1 0:846 
1 0:848 
-1 0:849 
-0.6370825049386644 0:854 
1 0:855 
1 0:856 
-0.5734760497317524 0:857 
1 0:858 
1 0:862 
0.6357396933760345 0:863 
-0.1333732707996567 0:865 
-0.08140242481305424 0:867 
-1 0:868 
-0.6631145357976432 0:869 
-1 0:870 
-0.02825760978425166 0:872 
-1 0:874 
1 0:879 
1 0:880 
1 0:881 
-1 0:882 
-1 0:885 
-1 0:886 
-0.2479149495390894 0:887 
-1 0:888 
1 0:890 
-1 0:891 
1 0:892 
1 0:897 
1 0:898 
0.03435445638660788 0:900 
-1 0:901 
-1 0:902 
1 0:904 
-0.3069145517140425 0:905 
0.3292250598787097 0:906 
-1 0:908 
1 0:912 
1 0:915 
-1 0:916 
-1 0:917 
-1 0:918 
-0.2151743822428969 0:920 
1 0:921 
1 0:924 
-1 0:927 
-1 0:928 
1 0:929 
1 0:934 
1 0:935 
-1 0:937 
-1 0:939 
0.5400218741086579 0:940 
1 0:941 
-0.2155798170733564 0:942 
-0.05095768309466856 0:947 
-1 0:950 
-1 0:951 
1 0:953 
-0.2725638500326907 0:954 
-1 0:956 
1 0:959 
-0.7131275685084161 0:961 
1 0:962 
1 0:963 
-1 0:968 
-1 0:969 
-0.9834457943839809 0:970 
1 0:971 
1 0:972 
-0.9872421159547207 0:973 
0.2665570825614144 0:975 
1 0:978 
1 0:980 
-1 0:981 
-1 0:983 
-1 0:984 
0.1260109106764045 0:985 
-1 0:986 
1 0:988 
1 0:989 
1 0:991 
1 0:992 
-1 0:993 
1 0:994 
1 0:995 
0.5239471865758142 0:997 
1 0:998 
1 0:1001 
-1 0:1002 
0.04399895503694714 0:1003 
1 0:1004 
1 0:1007 
1 0:1008 
-1 0:1009 
-1 0:1010 
-1 0:1011 
-1 0:1013 
1 0:1015 
1 0:1016 
-1 0:1017 
-1 0:1018 
-0.8363828906595067 0:1019 
-1 0:1022 
-0.7174789056351876 0:1024 
-1 0:1025 
0.5114818844950592 0:1026 
1 0:1027 
-1 0:1030 
-1 0:1033 
-0.3720126120818051 0:1034 
-1 0:1037 
0.4521252862092754 0:1038 
-1 0:1040 
-1 0:1041 
1 0:1042 
1 0:1043 
-1 0:1048 
-1 0:1049 
1 0:1050 
1 0:1051 
1 0:1052 
1 0:1054 
0.06757702537814761 0:1055 
1 0:1056 
1 0:1057 
1 0:1064 
-0.2415030483964147 0:1065 
1 0:1066 
1 0:1070 
1 0:1071 
-1 0:1072 
-1 0:1073 
-1 0:1074 
1 0:1075 
-1 0:1076 
1 0:1081 
-1 0:1083 
-0.1169432572895605 0:1086 
1 0:1087 
-1 0:1089 
-1 0:1090 
-1 0:1094 
1 0:1095 
-1 0:1099 
0.004472601159045408 0:1102 
1 0:1104 
-1 0:1106 
0.1313203921477384 0:1108 
-1 0:1109 
-1 0:1110 
-1 0:1111 
-1 0:1112 
-0.09624595808845302 0:1113 
1 0:1115 
1 0:1116 
1 0:1121 
-1 0:1125 
1 0:1126 
1 0:1127 
1 0:1128 
-1 0:1130 
-1 0:1134 
0.1103882446713524 0:1135 
-1 0:1138 
-1 0:1139 
-1 0:1140 
-1 0:1142 
1 0:1143 
1 0:1144 
1 0:1145 
1 0:1146 
1 0:1147 
0.5280385427025632 0:1149 
-0.9989922644264185 0:1150 
1 0:1152 
-0.353585316792433 0:1156 
-1 0:1157 
-1 0:1159 
1 0:1160 
-0.0778650230975559 0:1163 
-1 0:1165 
1 0:1166 
1 0:1168 
-1 0:1169 
-1 0:1170 
-1 0:1172 
1 0:1173 
-1 0:1175 
-0.1241872868853738 0:1177 
-1 0:1178 
-1 0:1179 
0.04160397413341405 0:1180 
-1 0:1181 
1 0:1183 
1 0:1184 
0.1607875512894254 0:1189 
0.6658850180344039 0:1190 
-0.9474176391813569 0:1193 
-0.2434258498546379 0:1194 
-1 0:1195 
1 0:1198 
-1 0:1200 
-1 0:1201 
-1 0:1208 
-0.3232435070063869 0:1211 
1 0:1214 
-1 0:1215 
1 0:1220 
1 0:1225 
-1 0:1226 
1 0:1227 
1 0:1228 
1 0:1230 
1 0:1233 
0.3432349899279616 0:1239 
-1 0:1245 
-0.2948827790948566 0:1246 
-1 0:1248 
1 0:1249 
-1 0:1251 
-1 0:1253 
-1 0:1254 
-1 0:1258 
0.7971035326925265 0:1260 
-0.8338525272383027 0:1262 
-1 0:1265 
1 0:1266 
1 0:1268 
-1 0:1270 
1 0:1271 
-1 0:1273 
1 0:1274 
-1 0:1276 
-1 0:1278 
1 0:1280 
0.4374477345869836 0:1281 
1 0:1282 
-0.7896995593166466 0:1286 
-1 0:1290 
1 0:1291 
1 0:1292 
-1 0:1294 
1 0:1295 
-1 0:1296 
1 0:1298 
0.6272382407254787 0:1300 
-1 0:1303 
1 0:1304 
