svm_type nu_svr
kernel_type rbf
gamma 0.0131579
nr_class 2
total_sv 4852
rho -0.440868
SV
-1 20:1 40:1 41:0.028571429 42:0.42857143 43:0.4 45:0.10787172 46:0.10787172 47:0.10787172 48:0.5 49:0.4333811 50:0.028706107 51:0.36863628 52:0.94366197 53:0.94366197 54:0.94366197 55:0.5 56:0.516 57:0.516 58:0.516 59:0.5 60:0.3117962 61:0.53192371 62:0.32266128 63:0.39534884 64:0.39534884 65:0.39534884 66:0.5 67:0.36666667 68:0.42857143 69:0.91111111 70:0.16666667 71:0.16666667 72:0.34558943 73:0.43471607 74:0.92939343 75:0.0625 
-1 20:1 40:1 41:0.057142857 42:0.4 43:0.34285714 45:0.10787172 46:0.10787172 47:0.10787172 48:0.5 49:0.40521324 50:0.056906681 51:0.36863628 52:0.94366197 53:0.94366197 54:0.94366197 55:0.5 56:0.516 57:0.516 58:0.516 59:0.5 60:0.31031936 61:0.53358209 62:0.32266128 63:0.39534884 64:0.39534884 65:0.39534884 66:0.5 67:0.36666667 68:0.4 69:0.85238095 70:0.16666667 71:0.16666667 72:0.34558943 73:0.4139312 74:0.88547194 75:0.125 
-1 2:1 40:1 41:0.11428571 42:0.34285714 43:0.22857143 45:0.10787172 46:0.14285714 47:0.12536443 48:0.48250729 49:0.34887752 50:0.11330783 51:0.36863628 52:0.94366197 53:0.6056338 54:0.77464789 55:0.66901408 56:0.516 57:0.215 58:0.3655 59:0.6505 60:0.3073657 61:0.53689884 62:0.32266128 63:0.39534884 64:0.15697674 65:0.27616279 66:0.61918605 67:0.36666667 68:0.34285714 69:0.73492063 70:0.16666667 71:0.16666667 72:0.34558943 73:0.37236144 74:0.79762898 75:0.25 
-1 2:1 22:1 41:0.14285714 42:0.31428571 43:0.17142857 45:0.14285714 46:0.14285714 47:0.14285714 48:0.5 49:0.32054589 50:0.14167236 51:0.36863628 52:0.6056338 53:0.6056338 54:0.6056338 55:0.5 56:0.215 57:0.215 58:0.215 59:0.5 60:0.33367177 61:0.50735904 62:0.32266128 63:0.15697674 64:0.15697674 65:0.15697674 66:0.5 67:0.36666667 68:0.31428571 69:0.67619048 70:0.16666667 71:0.16666667 72:0.34558943 73:0.34689658 74:0.74381801 75:0.3125 
-1 2:1 27:1 41:0.2 42:0.25714286 43:0.057142857 45:0.26239067 46:0.14285714 47:0.20262391 48:0.55976676 49:0.2633231 50:0.19896161 51:0.36863628 52:0.73239437 53:0.6056338 54:0.66901408 55:0.56338028 56:0.392 57:0.215 58:0.3035 59:0.5885 60:0.36994646 61:0.46662521 62:0.32266128 63:0.095930233 64:0.15697674 65:0.12645349 66:0.46947674 67:0.36666667 68:0.25714286 69:0.55873016 70:0.16666667 71:0.16666667 72:0.34558943 73:0.29186599 74:0.62753035 75:0.4375 
-1 6:1 25:1 41:0.28571429 42:0.17142857 43:0.11428571 45:0.34110787 46:0.33527697 47:0.33819242 48:0.50291545 49:0.17725009 50:0.28513458 51:0.36863628 53:0.54929577 54:0.27464789 55:0.22535211 56:0.008 57:0.224 58:0.116 59:0.392 60:0.41378992 61:0.41739221 62:0.32266128 63:0.50290698 64:0.12790698 65:0.31540698 66:0.6875 67:0.36666667 68:0.17142857 69:0.38253968 70:0.16666667 71:0.16666667 72:0.34558943 73:0.20901767 74:0.45245977 75:0.375 
-0.9575095410075767 17:1 32:1 41:0.34285714 42:0.11428571 43:0.22857143 46:0.37317784 47:0.18658892 48:0.31341108 49:0.12035483 50:0.34209591 51:0.36863628 52:0.81690141 53:0.3943662 54:0.6056338 55:0.71126761 56:0.169 57:0.35 58:0.2595 59:0.4095 60:0.46981724 61:0.35447761 62:0.32266128 63:0.36918605 64:0.20639535 65:0.2877907 66:0.58139535 67:0.36666667 68:0.11428571 69:0.26507937 70:0.16666667 71:0.16666667 72:0.34558943 73:0.15486476 74:0.33802677 75:0.25 
-1 7:1 37:1 41:0.37142857 42:0.085714286 43:0.28571429 45:0.37317784 46:0.26239067 47:0.31778426 48:0.55539359 49:0.09094507 50:0.37153983 51:0.36863628 52:0.3943662 53:0.73239437 54:0.56338028 55:0.33098592 56:0.35 57:0.392 58:0.371 59:0.479 60:0.48366254 61:0.33893035 62:0.32266128 63:0.20639535 64:0.095930233 65:0.15116279 66:0.55523256 67:0.36666667 68:0.085714286 69:0.20634921 70:0.16666667 71:0.16666667 72:0.34558943 73:0.11710796 74:0.25824112 75:0.1875 
-1 2:1 40:1 41:0.057142857 42:0.34285714 43:0.28571429 45:0.10787172 46:0.14285714 47:0.12536443 48:0.48250729 49:0.34666667 50:0.056906681 51:0.30010703 52:0.94366197 53:0.6056338 54:0.77464789 55:0.66901408 56:0.516 57:0.215 58:0.3655 59:0.6505 60:0.4081595 61:0.53358209 62:0.42457456 63:0.39534884 64:0.15697674 65:0.27616279 66:0.61918605 67:0.3 68:0.34285714 69:0.83035714 70:0.16666667 71:0.16666667 72:0.25557784 73:0.33960157 74:0.86247717 75:0.125 
1 20:1 40:1 41:0.11428571 42:0.28571429 43:0.17142857 45:0.10787172 46:0.10787172 47:0.10787172 48:0.5 49:0.29016718 50:0.11347179 51:0.30010703 52:0.94366197 53:0.94366197 54:0.94366197 55:0.5 56:0.516 57:0.516 58:0.516 59:0.5 60:0.43298874 61:0.50570066 62:0.42457456 63:0.39534884 64:0.39534884 65:0.39534884 66:0.5 67:0.3 68:0.28571429 69:0.69821429 70:0.16666667 71:0.16666667 72:0.25557784 73:0.29335183 74:0.74760803 75:0.25 
1 5:1 40:1 41:0.14285714 42:0.25714286 43:0.11428571 45:0.10787172 46:0.34110787 47:0.2244898 48:0.38338192 49:0.26199932 50:0.14167236 51:0.30010703 52:0.94366197 54:0.47183099 55:0.97183099 56:0.516 57:0.008 58:0.262 59:0.754 60:0.43151191 61:0.50735904 62:0.42457456 63:0.39534884 64:0.50290698 65:0.44912791 66:0.44622093 67:0.3 68:0.25714286 69:0.63214286 70:0.16666667 71:0.16666667 72:0.25557784 73:0.27256695 74:0.69598522 75:0.3125 
1 16:1 25:1 41:0.28571429 42:0.11428571 43:0.17142857 45:0.34110787 46:0.20116618 47:0.27113703 48:0.56997085 49:0.1172842 50:0.28655554 51:0.30010703 53:1 54:0.5 56:0.008 57:0.976 58:0.492 59:0.016 60:0.49206203 61:0.43936567 62:0.42457456 63:0.50290698 64:0.35174419 65:0.42732558 66:0.5755814 67:0.3 68:0.11428571 69:0.30178571 70:0.16666667 71:0.16666667 72:0.25557784 73:0.12033114 74:0.31788154 75:0.25 
1 20:1 40:1 41:0.34285714 42:0.057142857 43:0.28571429 45:0.10787172 46:0.10787172 47:0.10787172 48:0.5 49:0.060511771 50:0.34339391 51:0.30010703 52:0.94366197 53:0.94366197 54:0.94366197 55:0.5 56:0.516 57:0.516 58:0.516 59:0.5 60:0.44664944 61:0.4903607 62:0.42457456 63:0.39534884 64:0.39534884 65:0.39534884 66:0.5 67:0.3 68:0.057142857 69:0.16964286 70:0.16666667 71:0.16666667 72:0.25557784 73:0.06645879 74:0.18408033 75:0.125 
-1 12:1 40:1 41:0.37142857 42:0.028571429 43:0.34285714 45:0.10787172 47:0.05393586 48:0.55393586 49:0.03234391 50:0.37159448 51:0.30010703 52:0.94366197 53:0.81690141 54:0.88028169 55:0.56338028 56:0.516 57:0.169 58:0.3425 59:0.6735 60:0.4451726 61:0.49201907 62:0.42457456 63:0.39534884 64:0.36918605 65:0.38226744 66:0.5130814 67:0.3 68:0.028571429 69:0.10357143 70:0.16666667 71:0.16666667 72:0.25557784 73:0.04567391 74:0.13245752 75:0.0625 
-1 20:1 40:1 42:0.28571429 43:0.28571429 44:1 45:0.10787172 46:0.10787172 47:0.10787172 48:0.5 49:0.28912999 50:0.00050553354 51:0.16681842 52:0.94366197 53:0.94366197 54:0.94366197 55:0.5 56:0.516 57:0.516 58:0.516 59:0.5 60:0.37068488 61:0.53026534 62:0.38246322 63:0.39534884 64:0.39534884 65:0.39534884 66:0.5 67:0.16666667 68:0.28571429 69:0.94047619 70:0.16666667 71:0.16666667 72:0.17434832 73:0.31409373 74:0.9561563 
1 16:1 27:1 41:0.085714286 42:0.2 43:0.11428571 45:0.26239067 46:0.20116618 47:0.23177843 48:0.53061224 49:0.20266121 50:0.087074737 51:0.16681842 52:0.73239437 53:1 54:0.86619718 55:0.36619718 56:0.392 57:0.976 58:0.684 59:0.208 60:0.39302197 61:0.50518242 62:0.38246322 63:0.095930233 64:0.35174419 65:0.22383721 66:0.37209302 67:0.16666667 68:0.2 69:0.67619048 70:0.16666667 71:0.16666667 72:0.17434832 73:0.22598632 74:0.69619066 75:0.1875 
1 20:1 36:1 41:0.11428571 42:0.17142857 43:0.057142857 45:0.20116618 46:0.10787172 47:0.15451895 48:0.54664723 49:0.17405664 50:0.11571253 51:0.16681842 52:1 53:0.94366197 54:0.97183099 55:0.52816901 56:0.976 57:0.516 58:0.746 59:0.73 60:0.34908621 61:0.55451907 62:0.38246322 63:0.35174419 64:0.39534884 65:0.37354651 66:0.47819767 67:0.16666667 68:0.17142857 69:0.58809524 70:0.16666667 71:0.16666667 72:0.17434832 73:0.19289884 74:0.59856431 75:0.25 
1 17:1 40:1 41:0.14285714 42:0.14285714 45:0.10787172 46:0.37317784 47:0.24052478 48:0.36734694 49:0.14588878 50:0.1439131 51:0.16681842 52:0.94366197 53:0.3943662 54:0.66901408 55:0.77464789 56:0.516 57:0.35 58:0.433 59:0.583 60:0.34760938 61:0.55617745 62:0.38246322 63:0.39534884 64:0.20639535 65:0.30087209 66:0.59447674 67:0.16666667 68:0.14285714 69:0.5 70:0.16666667 71:0.16666667 72:0.17434832 73:0.17211396 74:0.53723741 75:0.3125 
1 2:1 32:1 41:0.22857143 42:0.057142857 43:0.17142857 46:0.14285714 47:0.071428571 48:0.42857143 49:0.059406346 50:0.23049597 51:0.16681842 52:0.81690141 53:0.6056338 54:0.71126761 55:0.6056338 56:0.169 57:0.215 58:0.192 59:0.477 60:0.40585195 61:0.49077529 62:0.38246322 63:0.36918605 64:0.15697674 65:0.2630814 66:0.60610465 67:0.16666667 68:0.057142857 69:0.23571429 70:0.16666667 71:0.16666667 72:0.17434832 73:0.079916331 74:0.26520337 75:0.125 
-1 15:1 29:1 41:0.28571429 43:0.28571429 44:1 45:0.17201166 46:0.55685131 47:0.36443149 48:0.30758017 49:0.0026066189 50:0.28736166 51:0.16681842 52:0.45070423 53:0.43661972 54:0.44366197 55:0.50704225 56:0.251 58:0.1255 59:0.6255 60:0.45514122 61:0.43542703 62:0.38246322 63:0.2994186 64:0.53488372 65:0.41715116 66:0.38226744 67:0.16666667 69:0.05952381 70:0.16666667 71:0.16666667 72:0.17434832 73:0.020795526 74:0.090764273 
-1 20:1 40:1 42:0.25714286 43:0.25714286 44:1 45:0.10787172 46:0.10787172 47:0.10787172 48:0.5 49:0.25910611 50:0.00050553354 51:0.13167521 52:0.94366197 53:0.94366197 54:0.94366197 55:0.5 56:0.516 57:0.516 58:0.516 59:0.5 60:0.42458926 61:0.53026534 62:0.43861167 63:0.39534884 64:0.39534884 65:0.39534884 66:0.5 67:0.13333333 68:0.25714286 69:0.93246753 70:0.16666667 71:0.16666667 72:0.14634101 73:0.2909659 74:0.95196622 
1 12:1 40:1 41:0.028571429 42:0.22857143 43:0.2 45:0.10787172 47:0.05393586 48:0.55393586 49:0.23093825 50:0.028706107 51:0.13167521 52:0.94366197 53:0.81690141 54:0.88028169 55:0.56338028 56:0.516 57:0.169 58:0.3425 59:0.6735 60:0.42311242 61:0.53192371 62:0.43861167 63:0.39534884 64:0.36918605 65:0.38226744 66:0.5130814 67:0.13333333 68:0.22857143 69:0.83636364 70:0.16666667 71:0.16666667 72:0.14634101 73:0.27018102 74:0.88638898 75:0.0625 
1 2:1 36:1 41:0.085714286 42:0.17142857 43:0.085714286 45:0.20116618 46:0.14285714 47:0.17201166 48:0.52915452 49:0.17467076 50:0.08503894 51:0.13167521 52:1 53:0.6056338 54:0.8028169 55:0.6971831 56:0.976 57:0.215 58:0.5955 59:0.8805 60:0.40972863 61:0.54695274 62:0.43861167 63:0.35174419 64:0.15697674 65:0.25436047 66:0.59738372 67:0.13333333 68:0.17142857 69:0.64415584 70:0.16666667 71:0.16666667 72:0.14634101 73:0.22040953 74:0.72935768 75:0.1875 
1 11:1 22:1 41:0.11428571 42:0.14285714 43:0.028571429 45:0.14285714 46:0.303207 47:0.22303207 48:0.41982507 49:0.14633913 50:0.11340347 51:0.13167521 52:0.6056338 53:0.76056338 54:0.68309859 55:0.42253521 56:0.215 57:0.7 58:0.4575 59:0.2575 60:0.43603471 61:0.51741294 62:0.43861167 63:0.15697674 64:0.52325581 65:0.34011628 66:0.31686047 67:0.13333333 68:0.14285714 69:0.54805195 70:0.16666667 71:0.16666667 72:0.14634101 73:0.19494467 74:0.64901488 75:0.25 
-1 3:1 29:1 41:0.2 42:0.057142857 43:0.14285714 45:0.17201166 46:0.3090379 47:0.24052478 48:0.43148688 49:0.059379052 50:0.20046454 51:0.13167521 52:0.45070423 53:0.91549296 54:0.68309859 55:0.26760563 56:0.251 57:0.823 58:0.537 59:0.214 60:0.45440281 61:0.4967869 62:0.43861167 63:0.2994186 64:0.15988372 65:0.22965116 66:0.56976744 67:0.13333333 68:0.057142857 69:0.25974026 70:0.16666667 71:0.16666667 72:0.14634101 73:0.075820916 74:0.27317403 75:0.125 
-1 12:1 23:1 41:0.22857143 42:0.028571429 43:0.2 45:0.3090379 47:0.15451895 48:0.65451895 49:0.030269533 50:0.22960787 51:0.13167521 52:0.91549296 53:0.81690141 54:0.86619718 55:0.54929577 56:0.823 57:0.169 58:0.496 59:0.827 60:0.42458926 61:0.53026534 62:0.43861167 63:0.15988372 64:0.36918605 65:0.26453488 66:0.39534884 67:0.13333333 68:0.028571429 69:0.16363636 70:0.16666667 71:0.16666667 72:0.14634101 73:0.03747954 74:0.15220525 75:0.0625 
-1 20:1 40:1 42:0.25714286 43:0.25714286 44:1 45:0.10787172 46:0.10787172 47:0.10787172 48:0.5 49:0.2628318 50:0.00050553354 51:0.13603617 52:0.94366197 53:0.94366197 54:0.94366197 55:0.5 56:0.516 57:0.516 58:0.516 59:0.5 60:0.49178512 61:0.53026534 62:0.50860494 63:0.39534884 64:0.39534884 65:0.39534884 66:0.5 67:0.13333333 68:0.25714286 69:0.93246753 70:0.16666667 71:0.16666667 72:0.16940454 73:0.31001126 74:0.95545661 
-1 14:1 40:1 41:0.028571429 42:0.22857143 43:0.2 45:0.10787172 46:0.20116618 47:0.15451895 48:0.45335277 49:0.23466394 50:0.028706107 51:0.13603617 52:0.94366197 53:1 54:0.97183099 55:0.47183099 56:0.516 57:0.976 58:0.746 59:0.27 60:0.49030829 61:0.53192371 62:0.50860494 63:0.39534884 64:0.35465116 65:0.375 66:0.52034884 67:0.13333333 68:0.22857143 69:0.83636364 70:0.16666667 71:0.16666667 72:0.16940454 73:0.28922638 74:0.89341996 75:0.0625 
-1 17:1 34:1 41:0.057142857 42:0.2 43:0.14285714 45:0.20116618 46:0.37317784 47:0.28717201 48:0.41399417 49:0.20605937 50:0.057343899 51:0.13603617 52:1 53:0.3943662 54:0.6971831 55:0.8028169 56:0.976 57:0.35 58:0.663 59:0.813 60:0.44637253 61:0.58126036 62:0.50860494 63:0.35465116 64:0.20639535 65:0.28052326 66:0.57412791 67:0.13333333 68:0.2 69:0.74025974 70:0.16666667 71:0.16666667 72:0.16940454 73:0.25613891 74:0.79466374 75:0.125 
1 14:1 40:1 41:0.14285714 42:0.11428571 43:0.028571429 45:0.10787172 46:0.20116618 47:0.15451895 48:0.45335277 49:0.11939952 50:0.14410439 51:0.13603617 52:0.94366197 53:1 54:0.97183099 55:0.47183099 56:0.516 57:0.976 58:0.746 59:0.27 60:0.4402806 61:0.58810116 62:0.50860494 63:0.39534884 64:0.35465116 65:0.375 66:0.52034884 67:0.13333333 68:0.11428571 69:0.45194805 70:0.16666667 71:0.16666667 72:0.16940454 73:0.14988622 74:0.47753125 75:0.25 
1 17:1 34:1 41:0.17142857 42:0.085714286 43:0.085714286 45:0.20116618 46:0.37317784 47:0.28717201 48:0.41399417 49:0.090794951 50:0.17274218 51:0.13603617 52:1 53:0.3943662 54:0.6971831 55:0.8028169 56:0.976 57:0.35 58:0.663 59:0.813 60:0.39634484 61:0.63743781 62:0.50860494 63:0.35465116 64:0.20639535 65:0.28052326 66:0.57412791 67:0.13333333 68:0.085714286 69:0.35584416 70:0.16666667 71:0.16666667 72:0.16940454 73:0.11679875 74:0.37877503 75:0.1875 
-1 12:1 24:1 41:0.22857143 42:0.028571429 43:0.2 45:0.29446064 47:0.14723032 48:0.64723032 49:0.03234391 50:0.2312611 51:0.13603617 52:0.52112676 53:0.81690141 54:0.66901408 55:0.35211268 56:0.121 57:0.169 58:0.145 59:0.476 60:0.4451726 61:0.58260779 62:0.50860494 64:0.36918605 65:0.18459302 66:0.31540698 67:0.13333333 68:0.028571429 69:0.16363636 70:0.16666667 71:0.16666667 72:0.16940454 73:0.04567391 74:0.16648866 75:0.0625 
1 20:1 40:1 42:0.77142857 43:0.77142857 44:1 45:0.10787172 46:0.10787172 47:0.10787172 48:0.5 49:0.78661208 50:0.00050553354 51:0.74912541 52:0.94366197 53:0.94366197 54:0.94366197 55:0.5 56:0.516 57:0.516 58:0.516 59:0.5 60:0.47489385 61:0.53026534 62:0.49101048 63:0.39534884 64:0.39534884 65:0.39534884 66:0.5 67:0.73333333 68:0.77142857 69:0.99211823 70:0.66666667 71:0.66666667 72:0.91350811 73:0.92447599 74:0.99430922 
1 3:1 40:1 41:0.028571429 42:0.74285714 43:0.71428571 45:0.10787172 46:0.3090379 47:0.20845481 48:0.39941691 49:0.75844422 50:0.028706107 51:0.74912541 52:0.94366197 53:0.91549296 54:0.92957746 55:0.51408451 56:0.516 57:0.823 58:0.6695 59:0.3465 60:0.47341702 61:0.53192371 62:0.49101048 63:0.39534884 64:0.15988372 65:0.27761628 66:0.61773256 67:0.73333333 68:0.74285714 69:0.95566502 70:0.66666667 71:0.66666667 72:0.91350811 73:0.90369111 74:0.97168402 75:0.0625 
-1 20:1 35:1 41:0.17142857 42:0.6 43:0.42857143 45:0.55685131 46:0.10787172 47:0.33236152 48:0.7244898 49:0.61270556 50:0.17461402 51:0.74912541 52:0.43661972 53:0.94366197 54:0.69014085 55:0.24647887 57:0.516 58:0.258 59:0.242 60:0.49870777 61:0.50352405 62:0.49101048 63:0.53488372 64:0.39534884 65:0.46511628 66:0.56976744 67:0.73333333 68:0.6 69:0.77339901 70:0.66666667 71:0.5 72:0.91350811 73:0.72747083 74:0.77986099 
-1 18:1 35:1 41:0.25714286 42:0.51428571 43:0.25714286 45:0.55685131 46:0.27405248 47:0.4154519 48:0.64139942 49:0.52522689 50:0.26219429 51:0.74912541 52:0.43661972 53:0.97183099 54:0.70422535 55:0.23239437 57:1 58:0.5 60:0.57836441 61:0.41407546 62:0.49101048 63:0.53488372 64:0.18895349 65:0.3619186 66:0.67296512 67:0.73333333 68:0.51428571 69:0.66403941 70:0.66666667 71:0.33333333 72:0.91350811 73:0.63583838 74:0.6801153 
-1 20:1 38:1 41:0.28571429 42:0.48571429 43:0.2 45:0.27405248 46:0.10787172 47:0.1909621 48:0.58309038 49:0.49628113 50:0.29117366 51:0.74912541 52:0.97183099 53:0.94366197 54:0.95774648 55:0.51408451 56:1 57:0.516 58:0.758 59:0.742 60:0.5322134 61:0.46589967 62:0.49101048 63:0.18895349 64:0.39534884 65:0.29215116 66:0.39680233 67:0.73333333 68:0.48571429 69:0.62758621 70:0.66666667 71:0.33333333 72:0.91350811 73:0.59280737 74:0.63327426 75:0.0625 
-1 16:1 40:1 41:0.31428571 42:0.45714286 43:0.14285714 45:0.10787172 46:0.20116618 47:0.15451895 48:0.45335277 49:0.46811327 50:0.31937423 51:0.74912541 52:0.94366197 53:1 54:0.97183099 55:0.47183099 56:0.516 57:0.976 58:0.746 59:0.27 60:0.53073657 61:0.46755804 62:0.49101048 63:0.39534884 64:0.35174419 65:0.37354651 66:0.52180233 67:0.73333333 68:0.45714286 69:0.591133 70:0.66666667 71:0.33333333 72:0.91350811 73:0.57202249 74:0.61064906 75:0.125 
1 17:1 36:1 41:0.34285714 42:0.42857143 43:0.085714286 45:0.20116618 46:0.37317784 47:0.28717201 48:0.41399417 49:0.4395087 50:0.34801202 51:0.74912541 52:1 53:0.3943662 54:0.6971831 55:0.8028169 56:0.976 57:0.35 58:0.663 59:0.813 60:0.48680081 61:0.51689469 62:0.49101048 63:0.35174419 64:0.20639535 65:0.27906977 66:0.57267442 67:0.73333333 68:0.42857143 69:0.5546798 70:0.66666667 71:0.33333333 72:0.91350811 73:0.53893501 74:0.57463199 75:0.0625 
1 15:1 37:1 41:0.37142857 42:0.4 43:0.028571429 45:0.37317784 46:0.55685131 47:0.46501458 48:0.40816327 49:0.41009894 50:0.37745594 51:0.74912541 52:0.3943662 53:0.43661972 54:0.41549296 55:0.47887324 56:0.35 58:0.175 59:0.675 60:0.50064611 61:0.50134743 62:0.49101048 63:0.20639535 64:0.53488372 65:0.37063953 66:0.33575581 67:0.73333333 68:0.4 69:0.5182266 70:0.66666667 71:0.33333333 72:0.91350811 73:0.5011782 74:0.53353214 
-1 18:1 35:1 41:0.4 42:0.37142857 43:0.028571429 45:0.55685131 46:0.27405248 47:0.4154519 48:0.64139942 49:0.37982941 50:0.40776062 51:0.74912541 52:0.43661972 53:0.97183099 54:0.70422535 55:0.23239437 57:1 58:0.5 60:0.54679712 61:0.44952322 62:0.49101048 63:0.53488372 64:0.18895349 65:0.3619186 66:0.67296512 67:0.73333333 68:0.37142857 69:0.4817734 70:0.66666667 71:0.16666667 72:0.91350811 73:0.46369866 74:0.49273412 
1 20:1 38:1 41:0.42857143 42:0.34285714 43:0.085714286 45:0.27405248 46:0.10787172 47:0.1909621 48:0.58309038 49:0.35088366 50:0.43673999 51:0.74912541 52:0.97183099 53:0.94366197 54:0.95774648 55:0.51408451 56:1 57:0.516 58:0.758 59:0.742 60:0.50064611 61:0.50134743 62:0.49101048 63:0.18895349 64:0.39534884 65:0.29215116 66:0.39680233 67:0.73333333 68:0.34285714 69:0.4453202 70:0.66666667 71:0.16666667 72:0.91350811 73:0.42066765 74:0.44589309 75:0.0625 
1 4:1 40:1 41:0.45714286 42:0.31428571 43:0.14285714 45:0.10787172 46:0.29446064 47:0.20116618 48:0.40670554 49:0.3227158 50:0.46494057 51:0.74912541 52:0.94366197 53:0.52112676 54:0.73239437 55:0.71126761 56:0.516 57:0.121 58:0.3185 59:0.6975 60:0.49916928 61:0.5030058 62:0.49101048 63:0.39534884 65:0.19767442 66:0.69767442 67:0.73333333 68:0.31428571 69:0.408867 70:0.66666667 71:0.16666667 72:0.91350811 73:0.39988277 74:0.42326789 75:0.125 
1 17:1 24:1 41:0.48571429 42:0.28571429 43:0.2 45:0.29446064 46:0.37317784 47:0.33381924 48:0.4606414 49:0.29367451 50:0.49401558 51:0.74912541 52:0.52112676 53:0.3943662 54:0.45774648 55:0.56338028 56:0.121 57:0.35 58:0.2355 59:0.3855 60:0.53415174 61:0.46372305 62:0.49101048 64:0.20639535 65:0.10319767 66:0.39680233 67:0.73333333 68:0.28571429 69:0.37241379 70:0.66666667 71:0.16666667 72:0.91350811 73:0.36651474 74:0.38694541 75:0.1875 
1 16:1 37:1 41:0.51428571 42:0.25714286 43:0.25714286 45:0.37317784 46:0.20116618 47:0.28717201 48:0.58600583 49:0.26426476 50:0.52345949 51:0.74912541 52:0.3943662 53:1 54:0.6971831 55:0.1971831 56:0.35 57:0.976 58:0.663 59:0.187 60:0.54799705 61:0.44817579 62:0.49101048 63:0.20639535 64:0.35174419 65:0.27906977 66:0.42732558 67:0.73333333 68:0.25714286 69:0.33596059 70:0.66666667 71:0.16666667 72:0.91350811 73:0.32875793 74:0.34584557 75:0.25 
1 16:1 36:1 41:0.54285714 42:0.22857143 43:0.31428571 45:0.20116618 46:0.20116618 47:0.20116618 48:0.5 49:0.23566018 50:0.55209728 51:0.74912541 52:1 53:1 54:1 55:0.5 56:0.976 57:0.976 58:0.976 59:0.5 60:0.50406129 61:0.49751244 62:0.49101048 63:0.35174419 64:0.35174419 65:0.35174419 66:0.5 67:0.73333333 68:0.22857143 69:0.29950739 70:0.66666667 71:0.16666667 72:0.91350811 73:0.29567046 74:0.30982849 75:0.3125 
1 5:1 36:1 41:0.57142857 42:0.2 43:0.37142857 45:0.20116618 46:0.34110787 47:0.27113703 48:0.43002915 49:0.20705561 50:0.58073507 51:0.74912541 52:1 54:0.5 55:1 56:0.976 57:0.008 58:0.492 59:0.984 60:0.46012553 61:0.54684909 62:0.49101048 63:0.35174419 64:0.50290698 65:0.42732558 66:0.4244186 67:0.73333333 68:0.2 69:0.26305419 70:0.66666667 71:0.16666667 72:0.91350811 73:0.26258298 74:0.27381142 75:0.375 
1 4:1 29:1 41:0.68571429 42:0.085714286 43:0.6 45:0.17201166 46:0.29446064 47:0.23323615 48:0.43877551 49:0.092241556 50:0.69568247 51:0.74912541 52:0.45070423 53:0.52112676 54:0.48591549 55:0.46478873 56:0.251 57:0.121 58:0.186 59:0.565 60:0.45671036 61:0.55068408 62:0.49101048 63:0.2994186 65:0.1497093 66:0.6497093 67:0.73333333 68:0.085714286 69:0.11724138 70:0.66666667 71:0.16666667 72:0.91350811 73:0.13845611 74:0.1386942 75:0.1875 
-1 4:1 26:1 41:0.057142857 42:0.51428571 43:0.45714286 45:0.33527697 46:0.29446064 47:0.3148688 48:0.52040816 49:0.51915387 50:0.057972401 51:0.50325075 52:0.54929577 53:0.52112676 54:0.53521127 55:0.51408451 56:0.224 57:0.121 58:0.1725 59:0.5515 60:0.21423297 61:0.50331675 62:0.19450053 63:0.12790698 65:0.063953488 66:0.56395349 67:0.5 68:0.51428571 69:0.88441558 70:0.33333333 71:0.33333333 72:0.53380426 73:0.55267095 74:0.88978107 75:0.125 
1 7:1 27:1 41:0.11428571 42:0.45714286 43:0.34285714 45:0.26239067 46:0.26239067 47:0.26239067 48:0.5 49:0.46122143 50:0.11597213 51:0.50325075 52:0.73239437 53:0.73239437 54:0.73239437 55:0.5 56:0.392 57:0.392 58:0.392 59:0.5 60:0.25918405 61:0.45283997 62:0.19450053 63:0.095930233 64:0.095930233 65:0.095930233 66:0.5 67:0.5 68:0.45714286 69:0.78831169 70:0.33333333 71:0.33333333 72:0.53380426 73:0.48973719 74:0.78841392 75:0.25 
1 2:1 27:1 41:0.14285714 42:0.42857143 43:0.28571429 45:0.26239067 46:0.14285714 47:0.20262391 48:0.55976676 49:0.43233026 50:0.14489684 51:0.50325075 52:0.73239437 53:0.6056338 54:0.66901408 55:0.56338028 56:0.392 57:0.215 58:0.3035 59:0.5885 60:0.26915267 61:0.44164594 62:0.19450053 63:0.095930233 64:0.15697674 65:0.12645349 66:0.46947674 67:0.5 68:0.42857143 69:0.74025974 70:0.33333333 71:0.33333333 72:0.53380426 73:0.46017147 74:0.74079252 75:0.3125 
1 7:1 22:1 41:0.17142857 42:0.4 43:0.22857143 45:0.14285714 46:0.26239067 47:0.20262391 48:0.44023324 49:0.40399864 50:0.17326137 51:0.50325075 52:0.6056338 53:0.73239437 54:0.66901408 55:0.43661972 56:0.215 57:0.392 58:0.3035 59:0.4115 60:0.29545874 61:0.41210614 62:0.19450053 63:0.15697674 64:0.095930233 65:0.12645349 66:0.53052326 67:0.5 68:0.4 69:0.69220779 70:0.33333333 71:0.33333333 72:0.53380426 73:0.43470661 74:0.69977637 75:0.375 
1 5:1 27:1 41:0.2 42:0.37142857 43:0.17142857 45:0.26239067 46:0.34110787 47:0.30174927 48:0.4606414 49:0.37510747 50:0.20218609 51:0.50325075 52:0.73239437 54:0.36619718 55:0.86619718 56:0.392 57:0.008 58:0.2 59:0.692 60:0.30542736 61:0.40091211 62:0.19450053 63:0.095930233 64:0.50290698 65:0.2994186 66:0.29651163 67:0.5 68:0.37142857 69:0.64415584 70:0.33333333 71:0.33333333 72:0.53380426 73:0.40514088 74:0.65215498 75:0.4375 
-1 9:1 22:1 41:0.25714286 42:0.31428571 43:0.057142857 45:0.14285714 46:0.17201166 47:0.1574344 48:0.48542274 49:0.31751621 50:0.25984424 51:0.50325075 52:0.6056338 53:0.45070423 54:0.52816901 55:0.57746479 56:0.215 57:0.251 58:0.233 59:0.482 60:0.37714602 61:0.32037728 62:0.19450053 63:0.15697674 64:0.2994186 65:0.22819767 66:0.42877907 67:0.5 68:0.31428571 69:0.54805195 70:0.33333333 71:0.33333333 72:0.53380426 73:0.35127917 74:0.56540014 75:0.5625 
-1 12:1 33:1 41:0.54285714 42:0.028571429 43:0.51428571 45:0.6122449 47:0.30612245 48:0.80612245 49:0.030269533 50:0.54742451 51:0.50325075 52:0.56338028 53:0.81690141 54:0.69014085 55:0.37323944 56:0.037 57:0.169 58:0.103 59:0.434 60:0.42458926 61:0.26710199 62:0.19450053 63:0.078488372 64:0.36918605 65:0.22383721 66:0.35465116 67:0.5 68:0.028571429 69:0.067532468 70:0.33333333 71:0.16666667 72:0.53380426 73:0.03747954 74:0.059964319 
1 15:1 32:1 41:0.57142857 43:0.57142857 44:1 46:0.55685131 47:0.27842566 48:0.22157434 49:0.0026066189 50:0.57511955 51:0.50325075 52:0.81690141 53:0.43661972 54:0.62676056 55:0.69014085 56:0.169 58:0.0845 59:0.5845 60:0.45514122 61:0.23279436 62:0.19450053 63:0.36918605 64:0.53488372 65:0.45203488 66:0.41715116 67:0.5 69:0.019480519 70:0.33333333 71:0.16666667 72:0.53380426 73:0.020795526 74:0.033091443 
1 20:1 40:1 42:0.71428571 43:0.71428571 44:1 45:0.10787172 46:0.10787172 47:0.10787172 48:0.5 49:0.72364381 50:0.00050553354 51:0.67542052 52:0.94366197 53:0.94366197 54:0.94366197 55:0.5 56:0.516 57:0.516 58:0.516 59:0.5 60:0.46640207 61:0.53026534 62:0.48216518 63:0.39534884 64:0.39534884 65:0.39534884 66:0.5 67:0.66666667 68:0.71428571 69:0.98941799 70:0.33333333 71:0.33333333 72:0.75577683 73:0.7942249 74:0.99083814 
-1 12:1 28:1 41:0.17142857 42:0.54285714 43:0.37142857 45:0.17492711 47:0.087463557 48:0.58746356 49:0.55268509 50:0.1716628 51:0.67542052 52:0.98591549 53:0.81690141 54:0.90140845 55:0.58450704 56:0.802 57:0.169 58:0.4855 59:0.8165 60:0.36117777 61:0.64842454 62:0.48216518 63:0.36918605 64:0.36918605 65:0.36918605 66:0.5 67:0.66666667 68:0.54285714 69:0.75449735 70:0.33333333 71:0.33333333 72:0.75577683 73:0.61945175 74:0.77098337 75:0.375 
-1 5:1 37:1 41:0.22857143 42:0.48571429 43:0.25714286 45:0.37317784 46:0.34110787 47:0.35714286 48:0.51603499 49:0.49561242 50:0.22880175 51:0.67542052 52:0.3943662 54:0.1971831 55:0.6971831 56:0.35 57:0.008 58:0.179 59:0.671 60:0.40557504 61:0.59856965 62:0.48216518 63:0.20639535 64:0.50290698 65:0.35465116 66:0.35174419 67:0.66666667 68:0.48571429 69:0.67619048 70:0.33333333 71:0.33333333 72:0.75577683 73:0.56501093 74:0.70249988 75:0.5 
-1 16:1 25:1 41:0.25714286 42:0.45714286 43:0.2 45:0.34110787 46:0.20116618 47:0.27113703 48:0.56997085 49:0.46635278 50:0.25809537 51:0.67542052 53:1 54:0.5 56:0.008 57:0.976 58:0.492 59:0.016 60:0.45098763 61:0.54757463 62:0.48216518 63:0.50290698 64:0.35174419 65:0.42732558 66:0.5755814 67:0.66666667 68:0.45714286 69:0.63703704 70:0.33333333 71:0.33333333 72:0.75577683 73:0.53661408 74:0.66677825 75:0.5625 
-1 14:1 22:1 41:0.31428571 42:0.4 43:0.085714286 45:0.14285714 46:0.20116618 47:0.17201166 48:0.47084548 49:0.40941658 50:0.31509769 51:0.67542052 52:0.6056338 53:1 54:0.8028169 55:0.3028169 56:0.215 57:0.976 58:0.5955 59:0.1195 60:0.43335795 61:0.56737148 62:0.48216518 63:0.15697674 64:0.35465116 65:0.25581395 66:0.40116279 67:0.66666667 68:0.4 69:0.55873016 70:0.33333333 71:0.33333333 72:0.75577683 73:0.47806175 74:0.59312271 75:0.625 
-1 14:1 37:1 41:0.37142857 42:0.34285714 43:0.028571429 45:0.37317784 46:0.20116618 47:0.28717201 48:0.58600583 49:0.35140225 50:0.3731794 51:0.67542052 52:0.3943662 53:1 54:0.6971831 55:0.1971831 56:0.35 57:0.976 58:0.663 59:0.187 60:0.40326749 61:0.60116086 62:0.48216518 63:0.20639535 64:0.35465116 65:0.28052326 66:0.42587209 67:0.66666667 68:0.34285714 69:0.48042328 70:0.33333333 71:0.33333333 72:0.75577683 73:0.40721747 74:0.5040046 75:0.5 
-1 8:1 34:1 41:0.4 42:0.31428571 43:0.085714286 45:0.20116618 46:0.17492711 47:0.18804665 48:0.51311953 49:0.32279768 50:0.40181719 51:0.67542052 52:1 53:0.98591549 54:0.99295775 55:0.50704225 56:0.976 57:0.802 58:0.889 59:0.587 60:0.35933173 61:0.65049751 62:0.48216518 63:0.35465116 64:0.36918605 65:0.3619186 66:0.49273256 67:0.66666667 68:0.31428571 69:0.44126984 70:0.33333333 71:0.33333333 72:0.75577683 73:0.37412999 74:0.46238242 75:0.4375 
-1 9:1 28:1 41:0.42857143 42:0.28571429 43:0.14285714 45:0.17492711 46:0.17201166 47:0.17346939 48:0.50145773 49:0.29431593 50:0.43033201 51:0.67542052 52:0.98591549 53:0.45070423 54:0.71830986 55:0.76760563 56:0.802 57:0.251 58:0.5265 59:0.7755 60:0.33145653 61:0.68179934 62:0.48216518 63:0.36918605 64:0.2994186 65:0.33430233 66:0.53488372 67:0.66666667 68:0.28571429 69:0.4021164 70:0.33333333 71:0.33333333 72:0.75577683 73:0.34514338 74:0.4259189 75:0.375 
1 8:1 29:1 41:0.45714286 42:0.25714286 43:0.2 45:0.17201166 46:0.17492711 47:0.17346939 48:0.49854227 49:0.26584783 50:0.45883317 51:0.67542052 52:0.45070423 53:0.98591549 54:0.71830986 55:0.23239437 56:0.251 57:0.802 58:0.5265 59:0.2245 60:0.35443973 61:0.65599088 62:0.48216518 63:0.2994186 64:0.36918605 65:0.33430233 66:0.46511628 67:0.66666667 68:0.25714286 69:0.36296296 70:0.33333333 71:0.33333333 72:0.75577683 73:0.31148744 74:0.38358162 75:0.3125 
1 5:1 23:1 41:0.51428571 42:0.2 43:0.31428571 45:0.3090379 46:0.34110787 47:0.32507289 48:0.48396501 49:0.20825657 50:0.51649132 51:0.67542052 52:0.91549296 54:0.45774648 55:0.95774648 56:0.823 57:0.008 58:0.4155 59:0.9075 60:0.29675097 61:0.72077114 62:0.48216518 63:0.15988372 64:0.50290698 65:0.33139535 66:0.32848837 67:0.66666667 68:0.2 69:0.28465608 70:0.33333333 71:0.33333333 72:0.75577683 73:0.24415945 74:0.29888681 75:0.1875 
-1 15:1 26:1 41:0.6 42:0.11428571 43:0.48571429 45:0.33527697 46:0.55685131 47:0.44606414 48:0.38921283 49:0.12050495 50:0.60434486 51:0.67542052 52:0.54929577 53:0.43661972 54:0.49295775 55:0.55633803 56:0.224 58:0.112 59:0.612 60:0.4130515 61:0.59017413 62:0.48216518 63:0.12790698 64:0.53488372 65:0.33139535 66:0.29651163 67:0.66666667 68:0.11428571 69:0.16719577 70:0.33333333 71:0.33333333 72:0.75577683 73:0.14989687 74:0.18030978 
-1 20:1 29:1 41:0.028571429 42:0.51428571 43:0.48571429 45:0.17201166 46:0.10787172 47:0.13994169 48:0.53206997 49:0.51672467 50:0.029006695 51:0.46654207 52:0.45070423 53:0.94366197 54:0.6971831 55:0.25352113 56:0.251 57:0.516 58:0.3835 59:0.3675 60:0.20878715 61:0.50445688 62:0.18988559 63:0.2994186 64:0.39534884 65:0.34738372 66:0.45203488 67:0.46666667 68:0.51428571 69:0.92789116 70:0.16666667 71:0.16666667 72:0.4122294 73:0.47687486 74:0.91357541 75:0.0625 
-1 3:1 40:1 41:0.057142857 42:0.48571429 43:0.42857143 45:0.10787172 46:0.3090379 47:0.20845481 48:0.39941691 49:0.48855681 50:0.057207269 51:0.46654207 52:0.94366197 53:0.91549296 54:0.92957746 55:0.51408451 56:0.516 57:0.823 58:0.6695 59:0.3465 60:0.20731032 61:0.50611526 62:0.18988559 63:0.39534884 64:0.15988372 65:0.27761628 66:0.61773256 67:0.46666667 68:0.48571429 69:0.87755102 70:0.16666667 71:0.16666667 72:0.4122294 73:0.45608998 74:0.87402249 75:0.125 
-1 20:1 32:1 41:0.11428571 42:0.42857143 43:0.31428571 46:0.10787172 47:0.05393586 48:0.44606414 49:0.43178437 50:0.11404563 51:0.46654207 52:0.81690141 53:0.94366197 54:0.88028169 55:0.43661972 56:0.169 57:0.516 58:0.3425 59:0.3265 60:0.20804874 61:0.50528607 62:0.18988559 63:0.36918605 64:0.39534884 65:0.38226744 66:0.4869186 67:0.46666667 68:0.42857143 69:0.77687075 70:0.16666667 71:0.16666667 72:0.4122294 73:0.40106459 74:0.76931104 75:0.25 
1 20:1 22:1 41:0.17142857 42:0.37142857 43:0.2 45:0.14285714 46:0.10787172 47:0.12536443 48:0.51749271 49:0.37528489 50:0.17061074 51:0.46654207 52:0.6056338 53:0.94366197 54:0.77464789 55:0.33098592 56:0.215 57:0.516 58:0.3655 59:0.3495 60:0.23287798 61:0.47740464 62:0.18988559 63:0.15697674 64:0.39534884 65:0.27616279 66:0.38081395 67:0.46666667 68:0.37142857 69:0.67619048 70:0.16666667 71:0.16666667 72:0.4122294 73:0.35481485 74:0.68129936 75:0.375 
1 5:1 40:1 41:0.2 42:0.34285714 43:0.14285714 45:0.10787172 46:0.34110787 47:0.2244898 48:0.38338192 49:0.34711702 50:0.19881131 51:0.46654207 52:0.94366197 54:0.47183099 55:0.97183099 56:0.516 57:0.008 58:0.262 59:0.754 60:0.23140114 61:0.47906302 62:0.18988559 63:0.39534884 64:0.50290698 65:0.44912791 66:0.44622093 67:0.46666667 68:0.34285714 69:0.62585034 70:0.16666667 71:0.16666667 72:0.4122294 73:0.33402997 74:0.64174644 75:0.4375 
-1 20:1 25:1 41:0.28571429 42:0.25714286 43:0.028571429 45:0.34110787 46:0.10787172 47:0.2244898 48:0.61661808 49:0.26042989 50:0.28559913 51:0.46654207 53:0.94366197 54:0.47183099 55:0.028169014 56:0.008 57:0.516 58:0.262 59:0.246 60:0.32074949 61:0.37873134 62:0.18988559 63:0.50290698 64:0.39534884 65:0.44912791 66:0.55377907 67:0.46666667 68:0.25714286 69:0.47482993 70:0.16666667 71:0.16666667 72:0.4122294 73:0.2564514 74:0.49411705 75:0.5625 
-1 12:1 29:1 41:0.028571429 42:0.28571429 43:0.25714286 45:0.17201166 47:0.086005831 48:0.58600583 49:0.28833845 50:0.029006695 51:0.19921407 52:0.45070423 53:0.81690141 54:0.63380282 55:0.31690141 56:0.251 57:0.169 58:0.21 59:0.541 60:0.36560827 61:0.50445688 62:0.35323527 63:0.2994186 64:0.36918605 65:0.33430233 66:0.46511628 67:0.2 68:0.28571429 69:0.86593407 70:0.16666667 71:0.16666667 72:0.21086246 73:0.31059038 74:0.86930068 75:0.0625 
1 12:1 31:1 41:0.085714286 42:0.22857143 43:0.14285714 45:0.303207 47:0.1516035 48:0.6516035 49:0.23159331 50:0.085817735 51:0.19921407 52:0.76056338 53:0.81690141 54:0.78873239 55:0.47183099 56:0.7 57:0.169 58:0.4345 59:0.7655 60:0.37769983 61:0.49087894 62:0.35323527 63:0.52325581 64:0.36918605 65:0.44622093 66:0.57703488 67:0.2 68:0.22857143 69:0.7032967 70:0.16666667 71:0.16666667 72:0.21086246 73:0.24619537 74:0.694104 75:0.1875 
1 16:1 32:1 41:0.11428571 42:0.2 43:0.085714286 46:0.20116618 47:0.10058309 48:0.39941691 49:0.2039304 50:0.11351277 51:0.19921407 52:0.81690141 53:1 54:0.9084507 55:0.4084507 56:0.169 57:0.976 58:0.5725 59:0.0965 60:0.4082518 61:0.45657131 62:0.35323527 63:0.36918605 64:0.35174419 65:0.36046512 66:0.50872093 67:0.2 68:0.2 69:0.62197802 70:0.16666667 71:0.16666667 72:0.21086246 73:0.22951135 74:0.64871254 75:0.25 
1 20:1 36:1 41:0.14285714 42:0.17142857 43:0.028571429 45:0.20116618 46:0.10787172 47:0.15451895 48:0.54664723 49:0.17532583 50:0.14215057 51:0.19921407 52:1 53:0.94366197 54:0.97183099 55:0.52816901 56:0.976 57:0.516 58:0.746 59:0.73 60:0.36431604 61:0.50590796 62:0.35323527 63:0.35174419 64:0.39534884 65:0.37354651 66:0.47819767 67:0.2 68:0.17142857 69:0.54065934 70:0.16666667 71:0.16666667 72:0.21086246 73:0.19642388 74:0.5586929 75:0.3125 
1 4:1 40:1 41:0.17142857 42:0.14285714 43:0.028571429 45:0.10787172 46:0.29446064 47:0.20116618 48:0.40670554 49:0.14715797 50:0.17035114 51:0.19921407 52:0.94366197 53:0.52112676 54:0.73239437 55:0.71126761 56:0.516 57:0.121 58:0.3185 59:0.6975 60:0.36283921 61:0.50756633 62:0.35323527 63:0.39534884 65:0.19767442 66:0.69767442 67:0.2 68:0.14285714 69:0.45934066 70:0.16666667 71:0.16666667 72:0.21086246 73:0.175639 74:0.5021444 75:0.3125 
-1 9:1 40:1 42:0.25714286 43:0.25714286 44:1 45:0.10787172 46:0.17201166 47:0.13994169 48:0.46793003 49:0.26284545 50:0.00050553354 51:0.13605214 52:0.94366197 53:0.45070423 54:0.6971831 55:0.74647887 56:0.516 57:0.251 58:0.3835 59:0.6325 60:0.45772568 61:0.53026534 62:0.47312758 63:0.39534884 64:0.2994186 65:0.34738372 66:0.54796512 67:0.13333333 68:0.25714286 69:0.93246753 70:0.16666667 71:0.16666667 72:0.17225239 73:0.31236295 74:0.95586163 
-1 16:1 29:1 41:0.028571429 42:0.22857143 43:0.2 45:0.17201166 46:0.20116618 47:0.18658892 48:0.48542274 49:0.23437735 50:0.029006695 51:0.13605214 52:0.45070423 53:1 54:0.72535211 55:0.22535211 56:0.251 57:0.976 58:0.6135 59:0.1375 60:0.48070888 61:0.50445688 62:0.47312758 63:0.2994186 64:0.35174419 65:0.3255814 66:0.47383721 67:0.13333333 68:0.22857143 69:0.83636364 70:0.16666667 71:0.16666667 72:0.17225239 73:0.27870701 74:0.85607395 75:0.0625 
1 20:1 24:1 41:0.085714286 42:0.17142857 43:0.085714286 45:0.29446064 46:0.10787172 47:0.20116618 48:0.59329446 49:0.17673149 50:0.086719497 51:0.13605214 52:0.52112676 53:0.94366197 54:0.73239437 55:0.28873239 56:0.121 57:0.516 58:0.3185 59:0.3025 60:0.47175558 61:0.51451078 62:0.47312758 64:0.39534884 65:0.19767442 66:0.30232558 67:0.13333333 68:0.17142857 69:0.64415584 70:0.16666667 71:0.16666667 72:0.17225239 73:0.21225151 74:0.65903774 75:0.1875 
1 16:1 40:1 41:0.11428571 42:0.14285714 43:0.028571429 45:0.10787172 46:0.20116618 47:0.15451895 48:0.45335277 49:0.14856363 50:0.11492007 51:0.13605214 52:0.94366197 53:1 54:0.97183099 55:0.47183099 56:0.516 57:0.976 58:0.746 59:0.27 60:0.47027875 61:0.51616915 62:0.47312758 63:0.39534884 64:0.35174419 65:0.37354651 66:0.52180233 67:0.13333333 68:0.14285714 69:0.54805195 70:0.16666667 71:0.16666667 72:0.17225239 73:0.19146663 74:0.59741193 75:0.25 
1 6:1 36:1 41:0.14285714 42:0.11428571 43:0.028571429 45:0.20116618 46:0.33527697 47:0.26822157 48:0.43294461 49:0.11995906 50:0.14355786 51:0.13605214 52:1 53:0.54929577 54:0.77464789 55:0.72535211 56:0.976 57:0.224 58:0.6 59:0.876 60:0.42634299 61:0.5655058 62:0.47312758 63:0.35174419 64:0.12790698 65:0.23982558 66:0.6119186 67:0.13333333 68:0.11428571 69:0.45194805 70:0.16666667 71:0.16666667 72:0.17225239 73:0.15837915 74:0.49930974 75:0.25 
1 6:1 26:1 41:0.17142857 42:0.085714286 43:0.085714286 45:0.33527697 46:0.33527697 47:0.33527697 48:0.5 49:0.090726714 50:0.17282416 51:0.13605214 52:0.54929577 53:0.54929577 54:0.54929577 55:0.5 56:0.224 57:0.224 58:0.224 59:0.5 60:0.45181835 61:0.53689884 62:0.47312758 63:0.12790698 64:0.12790698 65:0.12790698 66:0.5 67:0.13333333 68:0.085714286 69:0.35584416 70:0.16666667 71:0.16666667 72:0.17225239 73:0.12091026 74:0.38821692 75:0.1875 
-1 2:1 26:1 41:0.2 42:0.057142857 43:0.14285714 45:0.33527697 46:0.14285714 47:0.23906706 48:0.59620991 49:0.061494371 50:0.20209045 51:0.13605214 52:0.54929577 53:0.6056338 54:0.57746479 55:0.47183099 56:0.224 57:0.215 58:0.2195 59:0.5045 60:0.47729371 61:0.50829187 62:0.47312758 63:0.12790698 64:0.15697674 65:0.14244186 66:0.48546512 67:0.13333333 68:0.057142857 69:0.25974026 70:0.16666667 71:0.16666667 72:0.17225239 73:0.083441365 74:0.27712411 75:0.125 
-1 8:1 22:1 41:0.22857143 42:0.028571429 43:0.2 45:0.14285714 46:0.17492711 47:0.15889213 48:0.48396501 49:0.033162743 50:0.23045498 51:0.13605214 52:0.6056338 53:0.98591549 54:0.79577465 55:0.30985915 56:0.215 57:0.802 58:0.5085 59:0.2065 60:0.50359978 61:0.47875207 62:0.47312758 63:0.15697674 64:0.36918605 65:0.2630814 66:0.39389535 67:0.13333333 68:0.028571429 69:0.16363636 70:0.16666667 71:0.16666667 72:0.17225239 73:0.057976505 74:0.20162246 75:0.0625 
-1 1:1 28:1 41:0.25714286 43:0.25714286 44:1 45:0.17492711 46:1 47:0.58746356 48:0.087463557 49:0.0046809962 50:0.2589698 51:0.13605214 52:0.98591549 53:0.53521127 54:0.76056338 55:0.72535211 56:0.802 57:0.223 58:0.5125 59:0.7895 60:0.47572457 61:0.5100539 62:0.47312758 63:0.36918605 64:1 65:0.68459302 66:0.18459302 67:0.13333333 69:0.067532468 70:0.16666667 71:0.16666667 72:0.17225239 73:0.028989896 74:0.11567906 
-1 6:1 29:1 41:0.028571429 42:0.34285714 43:0.31428571 45:0.17201166 46:0.33527697 47:0.25364431 48:0.41836735 49:0.3506926 50:0.029006695 51:0.27220012 52:0.45070423 53:0.54929577 54:0.5 55:0.45070423 56:0.251 57:0.224 58:0.2375 59:0.5135 60:0.39357578 61:0.50445688 62:0.38236708 63:0.2994186 64:0.12790698 65:0.21366279 66:0.58575581 67:0.26666667 68:0.34285714 69:0.88761905 70:0.16666667 71:0.16666667 72:0.36146943 73:0.43495837 74:0.90512919 75:0.0625 
1 11:1 40:1 41:0.085714286 42:0.28571429 43:0.2 45:0.10787172 46:0.303207 47:0.20553936 48:0.40233236 49:0.29329239 50:0.086473562 51:0.27220012 52:0.94366197 53:0.76056338 54:0.85211268 55:0.5915493 56:0.516 57:0.7 58:0.608 59:0.408 60:0.4175743 61:0.47750829 62:0.38236708 63:0.39534884 64:0.52325581 65:0.45930233 66:0.43604651 67:0.26666667 68:0.28571429 69:0.74666667 70:0.16666667 71:0.16666667 72:0.36146943 73:0.3767046 74:0.78518726 75:0.1875 
1 2:1 31:1 41:0.11428571 42:0.25714286 43:0.14285714 45:0.303207 46:0.14285714 47:0.22303207 48:0.58017493 49:0.26421017 50:0.11558956 51:0.27220012 52:0.76056338 53:0.6056338 54:0.68309859 55:0.57746479 56:0.7 57:0.215 58:0.4575 59:0.7425 60:0.3991139 61:0.49823798 62:0.38236708 63:0.52325581 64:0.15697674 65:0.34011628 66:0.68313953 67:0.26666667 68:0.25714286 69:0.67619048 70:0.16666667 71:0.16666667 72:0.36146943 73:0.3289936 74:0.68695244 75:0.25 
1 2:1 22:1 41:0.14285714 42:0.22857143 43:0.085714286 45:0.14285714 46:0.14285714 47:0.14285714 48:0.5 49:0.23587854 50:0.14395409 51:0.27220012 52:0.6056338 53:0.6056338 54:0.6056338 55:0.5 56:0.215 57:0.215 58:0.215 59:0.5 60:0.42541997 61:0.46869818 62:0.38236708 63:0.15697674 64:0.15697674 65:0.15697674 66:0.5 67:0.26666667 68:0.22857143 69:0.60571429 70:0.16666667 71:0.16666667 72:0.36146943 73:0.30352874 74:0.63452143 75:0.3125 
1 17:1 22:1 41:0.17142857 42:0.2 43:0.028571429 45:0.14285714 46:0.37317784 47:0.25801749 48:0.38483965 49:0.20754691 50:0.17231862 51:0.27220012 52:0.6056338 53:0.3943662 54:0.5 55:0.6056338 56:0.215 57:0.35 58:0.2825 59:0.4325 60:0.45172605 61:0.43915837 62:0.38236708 63:0.15697674 64:0.20639535 65:0.18168605 66:0.4752907 67:0.26666667 68:0.2 69:0.5352381 70:0.16666667 71:0.16666667 72:0.36146943 73:0.27806388 74:0.58209041 75:0.375 
1 3:1 37:1 41:0.2 42:0.17142857 43:0.028571429 45:0.37317784 46:0.3090379 47:0.34110787 48:0.53206997 49:0.17813715 50:0.20176254 51:0.27220012 52:0.3943662 53:0.91549296 54:0.65492958 55:0.23943662 56:0.35 57:0.823 58:0.5865 59:0.2635 60:0.46557135 61:0.42361111 62:0.38236708 63:0.20639535 64:0.15988372 65:0.18313953 66:0.52325581 67:0.26666667 68:0.17142857 69:0.4647619 70:0.16666667 71:0.16666667 72:0.36146943 73:0.24030707 74:0.50435082 75:0.375 
1 3:1 23:1 41:0.22857143 42:0.14285714 43:0.085714286 45:0.3090379 46:0.3090379 47:0.3090379 48:0.5 49:0.14902764 50:0.23090586 51:0.27220012 52:0.91549296 53:0.91549296 54:0.91549296 55:0.5 56:0.823 57:0.823 58:0.823 59:0.5 60:0.4357578 61:0.45708955 62:0.38236708 63:0.15988372 64:0.15988372 65:0.15988372 66:0.5 67:0.26666667 68:0.14285714 69:0.39428571 70:0.16666667 71:0.16666667 72:0.36146943 73:0.20196569 74:0.42540764 75:0.3125 
1 9:1 23:1 41:0.25714286 42:0.11428571 43:0.14285714 45:0.3090379 46:0.17201166 47:0.24052478 48:0.56851312 49:0.11991812 50:0.26004919 51:0.27220012 52:0.91549296 53:0.45070423 54:0.68309859 55:0.73239437 56:0.823 57:0.251 58:0.537 59:0.786 60:0.40594425 61:0.49056799 62:0.38236708 63:0.15988372 64:0.2994186 65:0.22965116 66:0.43023256 67:0.26666667 68:0.11428571 69:0.32380952 70:0.16666667 71:0.16666667 72:0.36146943 73:0.16362432 74:0.34646445 75:0.25 
1 7:1 29:1 41:0.28571429 42:0.085714286 43:0.2 45:0.17201166 46:0.26239067 47:0.21720117 48:0.4548105 49:0.091450017 50:0.28855035 51:0.27220012 52:0.45070423 53:0.73239437 54:0.5915493 55:0.35915493 56:0.251 57:0.392 58:0.3215 59:0.4295 60:0.42892745 61:0.46475954 62:0.38236708 63:0.2994186 64:0.095930233 65:0.19767442 66:0.60174419 67:0.26666667 68:0.085714286 69:0.25333333 70:0.16666667 71:0.16666667 72:0.36146943 73:0.12996837 74:0.27716836 75:0.1875 
1 9:1 27:1 41:0.31428571 42:0.057142857 43:0.25714286 45:0.26239067 46:0.17201166 47:0.21720117 48:0.5451895 49:0.062558854 50:0.31747506 51:0.27220012 52:0.73239437 53:0.45070423 54:0.5915493 55:0.64084507 56:0.392 57:0.251 58:0.3215 59:0.5705 60:0.43889607 61:0.45356551 62:0.38236708 63:0.095930233 64:0.2994186 65:0.19767442 66:0.39825581 67:0.26666667 68:0.057142857 69:0.18285714 70:0.16666667 71:0.16666667 72:0.36146943 73:0.10040265 74:0.21629385 75:0.125 
1 17:1 29:1 41:0.34285714 42:0.028571429 43:0.31428571 45:0.17201166 46:0.37317784 47:0.27259475 48:0.39941691 49:0.034090754 50:0.34597623 51:0.27220012 52:0.45070423 53:0.3943662 54:0.42253521 55:0.52816901 56:0.251 57:0.35 58:0.3005 59:0.4505 60:0.46187927 61:0.42775705 62:0.38236708 63:0.2994186 64:0.20639535 65:0.25290698 66:0.54651163 67:0.26666667 68:0.028571429 69:0.11238095 70:0.16666667 71:0.16666667 72:0.36146943 73:0.066746705 74:0.14699776 75:0.0625 
-1 7:1 28:1 41:0.057142857 42:0.48571429 43:0.42857143 45:0.17492711 46:0.26239067 47:0.21865889 48:0.45626822 49:0.49045377 50:0.057521519 51:0.46912989 52:0.98591549 53:0.73239437 54:0.85915493 55:0.62676056 56:0.802 57:0.392 58:0.597 59:0.705 60:0.46464833 61:0.53575871 62:0.48543409 63:0.36918605 64:0.095930233 65:0.23255814 66:0.63662791 67:0.46666667 68:0.48571429 69:0.87755102 70:0.33333333 71:0.33333333 72:0.49589691 73:0.51697909 74:0.87597718 75:0.125 
-1 18:1 27:1 41:0.085714286 42:0.45714286 43:0.37142857 45:0.26239067 46:0.27405248 47:0.26822157 48:0.4941691 49:0.46156261 50:0.086446236 51:0.46912989 52:0.73239437 53:0.97183099 54:0.85211268 55:0.38028169 56:0.392 57:1 58:0.696 59:0.196 60:0.47461695 61:0.52456468 62:0.48543409 63:0.095930233 64:0.18895349 65:0.14244186 66:0.45348837 67:0.46666667 68:0.45714286 69:0.82721088 70:0.33333333 71:0.33333333 72:0.49589691 73:0.48741337 74:0.82596056 75:0.1875 
1 17:1 40:1 41:0.17142857 42:0.37142857 43:0.2 45:0.10787172 46:0.37317784 47:0.24052478 48:0.36734694 49:0.37628113 50:0.17182675 51:0.46912989 52:0.94366197 53:0.3943662 54:0.66901408 55:0.77464789 56:0.516 57:0.35 58:0.433 59:0.583 60:0.42551228 61:0.57970564 62:0.48543409 63:0.39534884 64:0.20639535 65:0.30087209 66:0.59447674 67:0.46666667 68:0.37142857 69:0.67619048 70:0.33333333 71:0.33333333 72:0.49589691 73:0.40281259 74:0.6828406 75:0.3125 
1 12:1 37:1 41:0.2 42:0.34285714 43:0.14285714 45:0.37317784 47:0.18658892 48:0.68658892 49:0.34687137 50:0.20127067 51:0.46912989 52:0.3943662 53:0.81690141 54:0.6056338 55:0.28873239 56:0.35 57:0.169 58:0.2595 59:0.5905 60:0.43935758 61:0.56415837 62:0.48543409 63:0.20639535 64:0.36918605 65:0.2877907 66:0.41860465 67:0.46666667 68:0.34285714 69:0.62585034 70:0.33333333 71:0.33333333 72:0.49589691 73:0.36505578 74:0.61896704 75:0.25 
1 20:1 32:1 41:0.22857143 42:0.31428571 43:0.085714286 46:0.10787172 47:0.05393586 48:0.44606414 49:0.31920846 50:0.22896571 51:0.46912989 52:0.81690141 53:0.94366197 54:0.88028169 55:0.43661972 56:0.169 57:0.516 58:0.3425 59:0.3265 60:0.46990954 61:0.52985075 62:0.48543409 63:0.36918605 64:0.39534884 65:0.38226744 66:0.4869186 67:0.46666667 68:0.31428571 69:0.5755102 70:0.33333333 71:0.33333333 72:0.49589691 73:0.34837177 74:0.59074253 75:0.1875 
1 16:1 40:1 41:0.25714286 42:0.28571429 43:0.028571429 45:0.10787172 46:0.20116618 47:0.15451895 48:0.45335277 49:0.2910406 50:0.25716628 51:0.46912989 52:0.94366197 53:1 54:0.97183099 55:0.47183099 56:0.516 57:0.976 58:0.746 59:0.27 60:0.46843271 61:0.53150912 62:0.48543409 63:0.39534884 64:0.35174419 65:0.37354651 66:0.52180233 67:0.46666667 68:0.28571429 69:0.52517007 70:0.33333333 71:0.33333333 72:0.49589691 73:0.32758689 74:0.55558054 75:0.125 
1 8:1 36:1 41:0.28571429 42:0.25714286 43:0.028571429 45:0.20116618 46:0.17492711 47:0.18804665 48:0.51311953 49:0.26243603 50:0.28580407 51:0.46912989 52:1 53:0.98591549 54:0.99295775 55:0.50704225 56:0.976 57:0.802 58:0.889 59:0.587 60:0.42449695 61:0.58084577 62:0.48543409 63:0.35174419 64:0.36918605 65:0.36046512 66:0.49127907 67:0.46666667 68:0.25714286 69:0.47482993 70:0.33333333 71:0.33333333 72:0.49589691 73:0.29449941 74:0.49960614 75:0.0625 
1 13:1 28:1 41:0.31428571 42:0.22857143 43:0.085714286 45:0.17492711 46:0.6122449 47:0.39358601 48:0.28134111 49:0.23395428 50:0.3143189 51:0.46912989 52:0.98591549 53:0.56338028 54:0.77464789 55:0.71126761 56:0.802 57:0.037 58:0.4195 59:0.8825 60:0.39662175 61:0.6121476 62:0.48543409 63:0.36918605 64:0.078488372 65:0.22383721 66:0.64534884 67:0.46666667 68:0.22857143 69:0.4244898 70:0.33333333 71:0.33333333 72:0.49589691 73:0.2655128 74:0.45056921 
1 16:1 33:1 41:0.34285714 42:0.2 43:0.14285714 45:0.6122449 46:0.20116618 47:0.40670554 48:0.70553936 49:0.20342545 50:0.34488318 51:0.46912989 52:0.56338028 53:1 54:0.78169014 55:0.28169014 56:0.037 57:0.976 58:0.5065 59:0.0305 60:0.43935758 61:0.56415837 62:0.48543409 63:0.078488372 64:0.35174419 65:0.21511628 66:0.36337209 67:0.46666667 68:0.2 69:0.37414966 70:0.33333333 71:0.16666667 72:0.49589691 73:0.22541049 74:0.38272773 
1 2:1 36:1 41:0.37142857 42:0.17142857 43:0.2 45:0.20116618 46:0.14285714 47:0.17201166 48:0.52915452 49:0.17482088 50:0.37352097 51:0.46912989 52:1 53:0.6056338 54:0.8028169 55:0.6971831 56:0.976 57:0.215 58:0.5955 59:0.8805 60:0.39542182 61:0.61349502 62:0.48543409 63:0.35174419 64:0.15697674 65:0.25436047 66:0.59738372 67:0.46666667 68:0.17142857 69:0.32380952 70:0.33333333 71:0.16666667 72:0.49589691 73:0.19232301 74:0.32675332 75:0.0625 
1 12:1 22:1 41:0.4 42:0.14285714 43:0.25714286 45:0.14285714 47:0.071428571 48:0.57142857 49:0.14648925 50:0.4018855 51:0.46912989 52:0.6056338 53:0.81690141 54:0.71126761 55:0.3943662 56:0.215 57:0.169 58:0.192 59:0.523 60:0.42172789 61:0.58395522 62:0.48543409 63:0.15697674 64:0.36918605 65:0.2630814 66:0.39389535 67:0.46666667 68:0.14285714 69:0.27346939 70:0.33333333 71:0.16666667 72:0.49589691 73:0.16685815 74:0.28367417 75:0.125 
1 17:1 29:1 41:0.48571429 42:0.057142857 43:0.42857143 45:0.17201166 46:0.37317784 47:0.27259475 48:0.39941691 49:0.062695326 50:0.48577675 51:0.46912989 52:0.45070423 53:0.3943662 54:0.42253521 55:0.52816901 56:0.251 57:0.35 58:0.3005 59:0.4505 60:0.50581503 61:0.48953151 62:0.48543409 63:0.2994186 64:0.20639535 65:0.25290698 66:0.54651163 67:0.46666667 68:0.057142857 69:0.12244898 70:0.33333333 71:0.16666667 72:0.49589691 73:0.099834178 74:0.17028906 75:0.125 
1 17:1 38:1 41:0.085714286 42:0.2 43:0.11428571 45:0.27405248 46:0.37317784 47:0.32361516 48:0.45043732 49:0.2041897 50:0.087429977 51:0.16902286 52:0.97183099 53:0.3943662 54:0.68309859 55:0.78873239 56:1 57:0.35 58:0.675 59:0.825 60:0.43686542 61:0.54073383 62:0.46110951 63:0.18895349 64:0.20639535 65:0.19767442 66:0.49127907 67:0.16666667 68:0.2 69:0.67619048 70:0.16666667 71:0.16666667 72:0.21016116 73:0.22922344 74:0.6489546 75:0.1875 
1 16:1 37:1 41:0.11428571 42:0.17142857 43:0.057142857 45:0.37317784 46:0.20116618 47:0.28717201 48:0.58600583 49:0.17477994 50:0.11687389 51:0.16902286 52:0.3943662 53:1 54:0.6971831 55:0.1971831 56:0.35 57:0.976 58:0.663 59:0.187 60:0.45071073 61:0.52518657 62:0.46110951 63:0.20639535 64:0.35174419 65:0.27906977 66:0.42732558 67:0.16666667 68:0.17142857 69:0.58809524 70:0.16666667 71:0.16666667 72:0.21016116 73:0.19146663 74:0.54607736 75:0.25 
1 6:1 36:1 41:0.14285714 42:0.14285714 45:0.20116618 46:0.33527697 47:0.26822157 48:0.43294461 49:0.14617537 50:0.14551168 51:0.16902286 52:1 53:0.54929577 54:0.77464789 55:0.72535211 56:0.976 57:0.224 58:0.6 59:0.876 60:0.40677497 61:0.57452322 62:0.46110951 63:0.35174419 64:0.12790698 65:0.23982558 66:0.6119186 67:0.16666667 68:0.14285714 69:0.5 70:0.16666667 71:0.16666667 72:0.21016116 73:0.15837915 74:0.45592281 75:0.3125 
1 16:1 26:1 41:0.17142857 42:0.11428571 43:0.057142857 45:0.33527697 46:0.20116618 47:0.26822157 48:0.56705539 49:0.11694302 50:0.17477798 51:0.16902286 52:0.54929577 53:1 54:0.77464789 55:0.27464789 56:0.224 57:0.976 58:0.6 59:0.124 60:0.43225032 61:0.54591625 62:0.46110951 63:0.12790698 64:0.35174419 65:0.23982558 66:0.3880814 67:0.16666667 68:0.11428571 69:0.41190476 70:0.16666667 71:0.16666667 72:0.21016116 73:0.12091026 74:0.35383006 75:0.25 
1 12:1 36:1 41:0.2 42:0.085714286 43:0.11428571 45:0.20116618 47:0.10058309 48:0.60058309 49:0.088338451 50:0.20341577 51:0.16902286 52:1 53:0.81690141 54:0.9084507 55:0.5915493 56:0.976 57:0.169 58:0.5725 59:0.9035 60:0.38831457 61:0.5952529 62:0.46110951 63:0.35174419 64:0.36918605 65:0.36046512 66:0.49127907 67:0.16666667 68:0.085714286 69:0.32380952 70:0.16666667 71:0.16666667 72:0.21016116 73:0.087822786 74:0.26367551 75:0.1875 
1 2:1 32:1 41:0.22857143 42:0.057142857 43:0.17142857 46:0.14285714 47:0.071428571 48:0.42857143 49:0.060675537 50:0.23111081 51:0.16902286 52:0.81690141 53:0.6056338 54:0.71126761 55:0.6056338 56:0.169 57:0.215 58:0.192 59:0.477 60:0.41886653 61:0.56094527 62:0.46110951 63:0.36918605 64:0.15697674 65:0.2630814 66:0.60610465 67:0.16666667 68:0.057142857 69:0.23571429 70:0.16666667 71:0.16666667 72:0.21016116 73:0.071138771 74:0.21821601 75:0.125 
-1 18:1 37:1 41:0.028571429 42:0.4 43:0.37142857 45:0.37317784 46:0.27405248 47:0.32361516 48:0.54956268 49:0.40593654 50:0.029949447 51:0.33796585 52:0.3943662 53:0.97183099 54:0.68309859 55:0.21126761 56:0.35 57:1 58:0.675 59:0.175 60:0.55907329 61:0.51471808 62:0.56427267 63:0.20639535 64:0.18895349 65:0.19767442 66:0.50872093 67:0.33333333 68:0.4 69:0.90420168 70:0.16666667 71:0.16666667 72:0.40942652 73:0.47045944 74:0.90530596 75:0.0625 
-1 16:1 38:1 41:0.057142857 42:0.37142857 43:0.31428571 45:0.27405248 46:0.20116618 47:0.23760933 48:0.53644315 49:0.37699079 50:0.058928815 51:0.33796585 52:0.97183099 53:1 54:0.98591549 55:0.48591549 56:1 57:0.976 58:0.988 59:0.512 60:0.51292228 61:0.56654229 62:0.56427267 63:0.18895349 64:0.35174419 65:0.27034884 66:0.41860465 67:0.33333333 68:0.37142857 69:0.84201681 70:0.16666667 71:0.16666667 72:0.40942652 73:0.42742843 74:0.82307539 75:0.125 
-1 6:1 36:1 41:0.085714286 42:0.34285714 43:0.25714286 45:0.20116618 46:0.33527697 47:0.26822157 48:0.43294461 49:0.34838622 50:0.087566607 51:0.33796585 52:1 53:0.54929577 54:0.77464789 55:0.72535211 56:0.976 57:0.224 58:0.6 59:0.876 60:0.46898652 61:0.61587894 62:0.56427267 63:0.35174419 64:0.12790698 65:0.23982558 66:0.6119186 67:0.33333333 68:0.34285714 69:0.77983193 70:0.16666667 71:0.16666667 72:0.40942652 73:0.39434095 74:0.75984654 75:0.1875 
1 16:1 28:1 41:0.25714286 42:0.17142857 43:0.085714286 45:0.17492711 46:0.20116618 47:0.18804665 48:0.48688047 49:0.17651314 50:0.25963929 51:0.33796585 52:0.98591549 53:1 54:0.99295775 55:0.49295775 56:0.802 57:0.976 58:0.889 59:0.413 60:0.43917297 61:0.64935738 62:0.56427267 63:0.36918605 64:0.35174419 65:0.36046512 66:0.50872093 67:0.33333333 68:0.17142857 69:0.40672269 70:0.16666667 71:0.16666667 72:0.40942652 73:0.21137054 74:0.41019733 75:0.375 
-1 12:1 26:1 41:0.34285714 42:0.085714286 43:0.25714286 45:0.33527697 47:0.16763848 48:0.66763848 49:0.089416581 50:0.346837 51:0.33796585 52:0.54929577 53:0.81690141 54:0.68309859 55:0.36619718 56:0.224 57:0.169 58:0.1965 59:0.5275 60:0.46612516 61:0.61909204 62:0.56427267 63:0.12790698 64:0.36918605 65:0.24854651 66:0.37936047 67:0.33333333 68:0.085714286 69:0.22016807 70:0.16666667 71:0.16666667 72:0.40942652 73:0.11241733 74:0.22110166 75:0.1875 
-1 16:1 37:1 41:0.028571429 42:0.37142857 43:0.34285714 45:0.37317784 46:0.20116618 47:0.28717201 48:0.58600583 49:0.37924258 50:0.029949447 51:0.30672034 52:0.3943662 53:1 54:0.6971831 55:0.1971831 56:0.35 57:0.976 58:0.663 59:0.187 60:0.46510984 61:0.51471808 62:0.46639746 63:0.20639535 64:0.35174419 65:0.27906977 66:0.42732558 67:0.3 68:0.37142857 69:0.89642857 70:0.33333333 71:0.33333333 72:0.35131376 73:0.42247117 74:0.89468604 75:0.0625 
-1 4:1 36:1 41:0.057142857 42:0.34285714 43:0.28571429 45:0.20116618 46:0.29446064 47:0.24781341 48:0.45335277 49:0.35063801 50:0.058587239 51:0.30672034 52:1 53:0.52112676 54:0.76056338 55:0.73943662 56:0.976 57:0.121 58:0.5485 59:0.9275 60:0.42117408 61:0.56405473 62:0.46639746 63:0.35174419 65:0.17587209 66:0.67587209 67:0.3 68:0.34285714 69:0.83035714 70:0.33333333 71:0.33333333 72:0.35131376 73:0.3893837 74:0.8254245 75:0.125 
1 20:1 34:1 41:0.11428571 42:0.28571429 43:0.17142857 45:0.20116618 46:0.10787172 47:0.15451895 48:0.54664723 49:0.29299215 50:0.11630004 51:0.30672034 52:1 53:0.94366197 54:0.97183099 55:0.52816901 56:0.976 57:0.516 58:0.746 59:0.73 60:0.41222079 61:0.57410862 62:0.46639746 63:0.35465116 64:0.39534884 65:0.375 66:0.47965116 67:0.3 68:0.28571429 69:0.69821429 70:0.33333333 71:0.33333333 72:0.35131376 73:0.3229282 74:0.68631413 75:0.1875 
1 5:1 40:1 41:0.14285714 42:0.25714286 43:0.11428571 45:0.10787172 46:0.34110787 47:0.2244898 48:0.38338192 49:0.26482429 50:0.14450061 51:0.30672034 52:0.94366197 54:0.47183099 55:0.97183099 56:0.516 57:0.008 58:0.262 59:0.754 60:0.41074395 61:0.575767 62:0.46639746 63:0.39534884 64:0.50290698 65:0.44912791 66:0.44622093 67:0.3 68:0.25714286 69:0.63214286 70:0.33333333 71:0.33333333 72:0.35131376 73:0.30214332 74:0.64280543 75:0.125 
-1 15:1 22:1 41:0.2 42:0.2 45:0.14285714 46:0.55685131 47:0.34985423 48:0.29300292 49:0.20723303 50:0.20215876 51:0.30672034 52:0.6056338 53:0.43661972 54:0.52112676 55:0.58450704 56:0.215 58:0.1075 59:0.6075 60:0.48246262 61:0.49523217 62:0.46639746 63:0.15697674 64:0.53488372 65:0.34593023 66:0.31104651 67:0.3 68:0.2 69:0.5 70:0.33333333 71:0.33333333 72:0.35131376 73:0.24828161 74:0.53005748 
-1 5:1 35:1 41:0.22857143 42:0.17142857 43:0.057142857 45:0.55685131 46:0.34110787 47:0.44897959 48:0.60787172 49:0.17696349 50:0.23246345 51:0.30672034 52:0.43661972 54:0.21830986 55:0.71830986 57:0.008 58:0.004 59:0.496 60:0.52861362 61:0.44340796 62:0.46639746 63:0.53488372 64:0.50290698 65:0.51889535 66:0.51598837 67:0.3 68:0.17142857 69:0.43392857 70:0.33333333 71:0.16666667 72:0.35131376 73:0.21080207 74:0.45160208 
-1 16:1 25:1 41:0.25714286 42:0.14285714 43:0.11428571 45:0.34110787 46:0.20116618 47:0.27113703 48:0.56997085 49:0.14770386 50:0.26175707 51:0.30672034 53:1 54:0.5 56:0.008 57:0.976 58:0.492 59:0.016 60:0.57402621 61:0.39241294 62:0.46639746 63:0.50290698 64:0.35174419 65:0.42732558 66:0.5755814 67:0.3 68:0.14285714 69:0.36785714 70:0.33333333 71:0.16666667 72:0.35131376 73:0.18240523 74:0.39215936 75:0.0625 
-1 4:1 36:1 41:0.28571429 42:0.11428571 43:0.17142857 45:0.20116618 46:0.29446064 47:0.24781341 48:0.45335277 49:0.11909928 50:0.29039486 51:0.30672034 52:1 53:0.52112676 54:0.76056338 55:0.73943662 56:0.976 57:0.121 58:0.5485 59:0.9275 60:0.53009046 61:0.44174959 62:0.46639746 63:0.35174419 65:0.17587209 66:0.67587209 67:0.3 68:0.11428571 69:0.30178571 70:0.33333333 71:0.16666667 72:0.35131376 73:0.14931775 74:0.32289782 75:0.125 
-1 20:1 24:1 41:0.31428571 42:0.085714286 43:0.22857143 45:0.29446064 46:0.10787172 47:0.20116618 48:0.59329446 49:0.090058001 50:0.31946987 51:0.30672034 52:0.52112676 53:0.94366197 54:0.73239437 55:0.28873239 56:0.121 57:0.516 58:0.3185 59:0.3025 60:0.56507292 61:0.40246683 62:0.46639746 64:0.39534884 65:0.19767442 66:0.30232558 67:0.3 68:0.085714286 69:0.23571429 70:0.33333333 71:0.16666667 72:0.35131376 73:0.11594972 74:0.25304899 75:0.1875 
-1 16:1 40:1 41:0.34285714 42:0.057142857 43:0.28571429 45:0.10787172 46:0.20116618 47:0.15451895 48:0.45335277 49:0.06189014 50:0.34767045 51:0.30672034 52:0.94366197 53:1 54:0.97183099 55:0.47183099 56:0.516 57:0.976 58:0.746 59:0.27 60:0.56359609 61:0.40412521 62:0.46639746 63:0.39534884 64:0.35174419 65:0.37354651 66:0.52180233 67:0.3 68:0.057142857 69:0.16964286 70:0.33333333 71:0.16666667 72:0.35131376 73:0.095164843 74:0.2095403 75:0.125 
-1 16:1 36:1 41:0.37142857 42:0.028571429 43:0.34285714 45:0.20116618 46:0.20116618 47:0.20116618 48:0.5 49:0.033285568 50:0.37630824 51:0.30672034 52:1 53:1 54:1 55:0.5 56:0.976 57:0.976 58:0.976 59:0.5 60:0.51966033 61:0.45346186 62:0.46639746 63:0.35174419 64:0.35174419 65:0.35174419 66:0.5 67:0.3 68:0.028571429 69:0.10357143 70:0.33333333 71:0.16666667 72:0.35131376 73:0.062077369 74:0.14027875 75:0.0625 
-1 17:1 40:1 42:0.22857143 43:0.22857143 44:1 45:0.10787172 46:0.37317784 47:0.24052478 48:0.36734694 49:0.23507335 50:0.00050553354 51:0.10354467 52:0.94366197 53:0.3943662 54:0.66901408 55:0.77464789 56:0.516 57:0.35 58:0.433 59:0.583 60:0.5368285 61:0.53026534 62:0.55552351 63:0.39534884 64:0.20639535 65:0.30087209 66:0.59447674 67:0.1 68:0.22857143 69:0.92285714 70:0.16666667 71:0.16666667 72:0.14918257 73:0.29331239 74:0.95241763 
-1 9:1 24:1 41:0.2 42:0.028571429 43:0.17142857 45:0.29446064 46:0.17201166 47:0.23323615 48:0.56122449 49:0.033149096 50:0.2026643 51:0.10354467 52:0.52112676 53:0.45070423 54:0.48591549 55:0.53521127 56:0.121 57:0.251 58:0.186 59:0.435 60:0.45274137 61:0.62468905 62:0.55552351 64:0.2994186 65:0.1497093 66:0.3502907 67:0.1 68:0.028571429 69:0.18285714 70:0.16666667 71:0.16666667 72:0.14918257 73:0.06264584 74:0.22973583 75:0.0625 
-1 1:1 29:1 41:0.22857143 43:0.22857143 44:1 45:0.17201166 46:1 47:0.58600583 48:0.086005831 49:0.0046809962 50:0.23116546 51:0.10354467 52:0.45070423 53:0.53521127 54:0.49295775 55:0.45774648 56:0.251 57:0.223 58:0.237 59:0.514 60:0.47572457 61:0.5988806 62:0.55552351 63:0.2994186 64:1 65:0.6497093 66:0.1497093 67:0.1 69:0.077142857 70:0.16666667 71:0.16666667 72:0.14918257 73:0.028989896 74:0.12429124 
-1 9:1 38:1 41:0.028571429 42:0.34285714 43:0.31428571 45:0.27405248 46:0.17201166 47:0.22303207 48:0.55102041 49:0.34408734 50:0.029484902 51:0.26502772 52:0.97183099 53:0.45070423 54:0.71126761 55:0.76056338 56:1 57:0.251 58:0.6255 59:0.8745 60:0.49787705 61:0.58208955 62:0.56302279 63:0.18895349 64:0.2994186 65:0.24418605 66:0.44476744 67:0.26666667 68:0.34285714 69:0.88761905 70:0.16666667 71:0.16666667 72:0.28605464 73:0.36330739 74:0.86768936 75:0.0625 
-1 16:1 29:1 41:0.057142857 42:0.31428571 43:0.25714286 45:0.17201166 46:0.20116618 47:0.18658892 48:0.48542274 49:0.31561924 50:0.057986064 51:0.26502772 52:0.45070423 53:1 54:0.72535211 55:0.22535211 56:0.251 57:0.976 58:0.6135 59:0.1375 60:0.52086025 61:0.55628109 62:0.56302279 63:0.2994186 64:0.35174419 65:0.3255814 66:0.47383721 67:0.26666667 68:0.31428571 69:0.81714286 70:0.16666667 71:0.16666667 72:0.28605464 73:0.32965145 74:0.78878362 75:0.125 
1 20:1 28:1 41:0.11428571 42:0.25714286 43:0.14285714 45:0.17492711 46:0.10787172 47:0.14139942 48:0.5335277 49:0.25853292 50:0.11513868 51:0.26502772 52:0.98591549 53:0.94366197 54:0.96478873 55:0.52112676 56:0.802 57:0.516 58:0.659 59:0.643 60:0.44904929 61:0.63691957 62:0.56302279 63:0.36918605 64:0.39534884 65:0.38226744 66:0.4869186 67:0.26666667 68:0.25714286 69:0.67619048 70:0.16666667 71:0.16666667 72:0.28605464 73:0.26757737 74:0.64325206 75:0.25 
1 17:1 40:1 41:0.14285714 42:0.22857143 43:0.085714286 45:0.10787172 46:0.37317784 47:0.24052478 48:0.36734694 49:0.23036506 50:0.14333925 51:0.26502772 52:0.94366197 53:0.3943662 54:0.66901408 55:0.77464789 56:0.516 57:0.35 58:0.433 59:0.583 60:0.44757246 61:0.63857794 62:0.56302279 63:0.39534884 64:0.20639535 65:0.30087209 66:0.59447674 67:0.26666667 68:0.22857143 69:0.60571429 70:0.16666667 71:0.16666667 72:0.28605464 73:0.24679249 74:0.59452229 75:0.3125 
1 12:1 37:1 41:0.17142857 42:0.2 43:0.028571429 45:0.37317784 47:0.18658892 48:0.68658892 49:0.20095531 50:0.17278317 51:0.26502772 52:0.3943662 53:0.81690141 54:0.6056338 55:0.28873239 56:0.35 57:0.169 58:0.2595 59:0.5905 60:0.46141776 61:0.62303068 62:0.56302279 63:0.20639535 64:0.36918605 65:0.2877907 66:0.41860465 67:0.26666667 68:0.2 69:0.5352381 70:0.16666667 71:0.16666667 72:0.28605464 73:0.20903568 74:0.50600214 75:0.375 
1 8:1 32:1 41:0.2 42:0.17142857 43:0.028571429 46:0.17492711 47:0.087463557 48:0.41253644 49:0.17329239 50:0.20047821 51:0.26502772 52:0.81690141 53:0.98591549 54:0.90140845 55:0.41549296 56:0.169 57:0.802 58:0.4855 59:0.1835 60:0.49196972 61:0.58872305 62:0.56302279 63:0.36918605 64:0.36918605 65:0.36918605 66:0.5 67:0.26666667 68:0.17142857 69:0.4647619 70:0.16666667 71:0.16666667 72:0.28605464 73:0.19235166 74:0.46688677 75:0.375 
1 2:1 28:1 41:0.22857143 42:0.14285714 43:0.085714286 45:0.17492711 46:0.14285714 47:0.15889213 48:0.51603499 49:0.14481064 50:0.22899303 51:0.26502772 52:0.98591549 53:0.6056338 54:0.79577465 55:0.69014085 56:0.802 57:0.215 58:0.5085 59:0.7935 60:0.46409452 61:0.62002488 62:0.56302279 63:0.36918605 64:0.15697674 65:0.2630814 66:0.60610465 67:0.26666667 68:0.14285714 69:0.39428571 70:0.16666667 71:0.16666667 72:0.28605464 73:0.16336506 74:0.39892819 75:0.3125 
1 16:1 22:1 41:0.25714286 42:0.11428571 43:0.14285714 45:0.14285714 46:0.20116618 47:0.17201166 48:0.47084548 49:0.11647902 50:0.25735756 51:0.26502772 52:0.6056338 53:1 54:0.8028169 55:0.3028169 56:0.215 57:0.976 58:0.5955 59:0.1195 60:0.49040059 61:0.59048507 62:0.56302279 63:0.15697674 64:0.35174419 65:0.25436047 66:0.40261628 67:0.26666667 68:0.11428571 69:0.32380952 70:0.16666667 71:0.16666667 72:0.28605464 73:0.13790019 74:0.33922629 75:0.25 
1 2:1 36:1 41:0.31428571 42:0.057142857 43:0.25714286 45:0.20116618 46:0.14285714 47:0.17201166 48:0.52915452 49:0.059269874 50:0.31463315 51:0.26502772 52:1 53:0.6056338 54:0.8028169 55:0.6971831 56:0.976 57:0.215 58:0.5955 59:0.8805 60:0.40252908 61:0.68915837 62:0.56302279 63:0.35174419 64:0.15697674 65:0.25436047 66:0.59738372 67:0.26666667 68:0.057142857 69:0.18285714 70:0.16666667 71:0.16666667 72:0.28605464 73:0.071725247 74:0.18408033 75:0.125 
-1 2:1 22:1 41:0.34285714 42:0.028571429 43:0.31428571 45:0.14285714 46:0.14285714 47:0.14285714 48:0.5 49:0.030938246 50:0.34299768 51:0.26502772 52:0.6056338 53:0.6056338 54:0.6056338 55:0.5 56:0.215 57:0.215 58:0.215 59:0.5 60:0.42883515 61:0.65961857 62:0.56302279 63:0.15697674 64:0.15697674 65:0.15697674 66:0.5 67:0.26666667 68:0.028571429 69:0.11238095 70:0.16666667 71:0.16666667 72:0.28605464 73:0.046260386 74:0.12437843 75:0.0625 
-1 5:1 38:1 41:0.028571429 42:0.48571429 43:0.45714286 45:0.27405248 46:0.34110787 47:0.30758017 48:0.4664723 49:0.49288298 50:0.029484902 51:0.43919426 52:0.97183099 54:0.48591549 55:0.98591549 56:1 57:0.008 58:0.504 59:0.996 60:0.37179251 61:0.58208955 62:0.43168926 63:0.18895349 64:0.50290698 65:0.34593023 66:0.34302326 67:0.43333333 68:0.48571429 69:0.92285714 70:0.16666667 71:0.16666667 72:0.52992428 73:0.5646897 74:0.91379633 75:0.0625 
-1 17:1 34:1 41:0.085714286 42:0.42857143 43:0.34285714 45:0.20116618 46:0.37317784 47:0.28717201 48:0.41399417 49:0.43501876 50:0.087416314 51:0.43919426 52:1 53:0.3943662 54:0.6971831 55:0.8028169 56:0.976 57:0.35 58:0.663 59:0.813 60:0.37326934 61:0.58043118 62:0.43168926 63:0.35465116 64:0.20639535 65:0.28052326 66:0.57412791 67:0.43333333 68:0.42857143 69:0.81714286 70:0.16666667 71:0.16666667 72:0.52992428 73:0.50320538 74:0.81427597 75:0.1875 
-1 16:1 37:1 41:0.11428571 42:0.4 43:0.28571429 45:0.37317784 46:0.20116618 47:0.28717201 48:0.58600583 49:0.40560901 50:0.11686023 51:0.43919426 52:0.3943662 53:1 54:0.6971831 55:0.1971831 56:0.35 57:0.976 58:0.663 59:0.187 60:0.38711464 61:0.56488391 62:0.43168926 63:0.20639535 64:0.35174419 65:0.27906977 66:0.42732558 67:0.43333333 68:0.4 69:0.76428571 70:0.16666667 71:0.16666667 72:0.52992428 73:0.46544857 74:0.75316167 75:0.25 
-1 17:1 27:1 41:0.17142857 42:0.34285714 43:0.17142857 45:0.26239067 46:0.37317784 47:0.31778426 48:0.44460641 49:0.34811327 50:0.17442274 51:0.43919426 52:0.73239437 53:0.3943662 54:0.56338028 55:0.66901408 56:0.392 57:0.35 58:0.371 59:0.521 60:0.3531475 61:0.60302653 62:0.43168926 63:0.095930233 64:0.20639535 65:0.15116279 66:0.44476744 67:0.43333333 68:0.34285714 69:0.65857143 70:0.16666667 71:0.16666667 72:0.52992428 73:0.40279537 74:0.65174933 75:0.375 
1 8:1 22:1 41:0.31428571 42:0.2 43:0.11428571 45:0.14285714 46:0.17492711 47:0.15889213 48:0.48396501 49:0.20476288 50:0.31793961 51:0.43919426 52:0.6056338 53:0.98591549 54:0.79577465 55:0.30985915 56:0.215 57:0.802 58:0.5085 59:0.2065 60:0.39976001 61:0.55068408 62:0.43168926 63:0.15697674 64:0.36918605 65:0.2630814 66:0.39389535 67:0.43333333 68:0.2 69:0.39428571 70:0.16666667 71:0.16666667 72:0.52992428 73:0.24561296 74:0.39732918 75:0.4375 
-1 17:1 34:1 41:0.48571429 42:0.028571429 43:0.45714286 45:0.20116618 46:0.37317784 47:0.28717201 48:0.41399417 49:0.032016377 50:0.49088673 51:0.43919426 52:1 53:0.3943662 54:0.6971831 55:0.8028169 56:0.976 57:0.35 58:0.663 59:0.813 60:0.44129592 61:0.50404229 62:0.43168926 63:0.35465116 64:0.20639535 65:0.28052326 66:0.57412791 67:0.43333333 68:0.028571429 69:0.077142857 70:0.16666667 71:0.16666667 72:0.52992428 73:0.058552334 74:0.094547251 75:0.0625 
-1 9:1 40:1 41:0.057142857 42:0.42857143 43:0.37142857 45:0.10787172 46:0.17201166 47:0.13994169 48:0.46793003 49:0.43556465 50:0.056401148 51:0.40357183 52:0.94366197 53:0.45070423 54:0.6971831 55:0.74647887 56:0.516 57:0.251 58:0.3835 59:0.6325 60:0.42634299 61:0.49761609 62:0.41015287 63:0.39534884 64:0.2994186 65:0.34738372 66:0.54796512 67:0.4 68:0.42857143 69:0.86165414 70:0.33333333 71:0.33333333 72:0.44873836 73:0.50321023 74:0.91201898 75:0.125 
-1 10:1 29:1 41:0.085714286 42:0.4 43:0.31428571 45:0.17201166 46:0.39067055 47:0.28134111 48:0.39067055 49:0.40709655 50:0.084902309 51:0.40357183 52:0.45070423 53:0.70422535 54:0.57746479 55:0.37323944 56:0.251 57:0.988 58:0.6195 59:0.1315 60:0.4493262 61:0.47180763 62:0.41015287 63:0.2994186 64:0.29360465 65:0.29651163 66:0.50290698 67:0.4 68:0.4 69:0.80601504 70:0.33333333 71:0.33333333 72:0.44873836 73:0.46955429 74:0.85128247 75:0.1875 
-1 8:1 30:1 41:0.11428571 42:0.37142857 43:0.25714286 45:0.39067055 46:0.17492711 47:0.28279883 48:0.60787172 49:0.37760491 50:0.1144282 51:0.40357183 52:0.70422535 53:0.98591549 54:0.84507042 55:0.35915493 56:0.988 57:0.802 58:0.895 59:0.593 60:0.40428281 61:0.52238806 62:0.41015287 63:0.29360465 64:0.36918605 65:0.33139535 66:0.4622093 67:0.4 68:0.37142857 69:0.75037594 70:0.33333333 71:0.33333333 72:0.44873836 73:0.415109 74:0.75302889 75:0.25 
-1 20:1 40:1 41:0.4 42:0.085714286 43:0.31428571 45:0.10787172 46:0.10787172 47:0.10787172 48:0.5 49:0.090535653 50:0.40183085 51:0.40357183 52:0.94366197 53:0.94366197 54:0.94366197 55:0.5 56:0.516 57:0.516 58:0.516 59:0.5 60:0.53959756 61:0.37043947 62:0.41015287 63:0.39534884 64:0.39534884 65:0.39534884 66:0.5 67:0.4 68:0.085714286 69:0.19398496 70:0.33333333 71:0.16666667 72:0.44873836 73:0.13057325 74:0.23954725 75:0.1875 
-1 9:1 32:1 41:0.028571429 42:0.25714286 43:0.22857143 46:0.17201166 47:0.086005831 48:0.41399417 49:0.26236779 50:0.028200574 51:0.16787272 52:0.81690141 53:0.45070423 54:0.63380282 55:0.68309859 56:0.169 57:0.251 58:0.21 59:0.459 60:0.48495477 61:0.49595771 62:0.46966638 63:0.36918605 64:0.2994186 65:0.33430233 66:0.53488372 67:0.16666667 68:0.25714286 69:0.85238095 70:0.16666667 71:0.16666667 72:0.17616451 73:0.29890949 74:0.90738829 75:0.0625 
-1 6:1 29:1 41:0.057142857 42:0.22857143 43:0.17142857 45:0.17201166 46:0.33527697 47:0.25364431 48:0.41836735 49:0.23389969 50:0.056701735 51:0.16787272 52:0.45070423 53:0.54929577 54:0.5 55:0.45070423 56:0.251 57:0.224 58:0.2375 59:0.5135 60:0.50793797 61:0.47014925 62:0.46966638 63:0.2994186 64:0.12790698 65:0.21366279 66:0.58575581 67:0.16666667 68:0.22857143 69:0.76428571 70:0.16666667 71:0.16666667 72:0.17616451 73:0.26525354 74:0.80850026 75:0.125 
1 5:1 27:1 41:0.11428571 42:0.17142857 43:0.057142857 45:0.26239067 46:0.34110787 47:0.30174927 48:0.4606414 49:0.17577619 50:0.11489274 51:0.16787272 52:0.73239437 54:0.36619718 55:0.86619718 56:0.392 57:0.008 58:0.2 59:0.692 60:0.54338195 61:0.43034826 62:0.46966638 63:0.095930233 64:0.50290698 65:0.2994186 66:0.29651163 67:0.16666667 68:0.17142857 69:0.58809524 70:0.16666667 71:0.16666667 72:0.17616451 73:0.19821892 74:0.61153886 75:0.25 
-1 12:1 34:1 41:0.17142857 42:0.11428571 43:0.057142857 45:0.20116618 47:0.10058309 48:0.60058309 49:0.11791198 50:0.17282416 51:0.16787272 52:1 53:0.81690141 54:0.9084507 55:0.5915493 56:0.976 57:0.169 58:0.5725 59:0.9035 60:0.54485878 61:0.42868988 62:0.46966638 63:0.35465116 64:0.36918605 65:0.3619186 66:0.49273256 67:0.16666667 68:0.11428571 69:0.41190476 70:0.16666667 71:0.16666667 72:0.17616451 73:0.1367346 74:0.43088538 75:0.25 
1 14:1 28:1 41:0.22857143 42:0.057142857 43:0.17142857 45:0.17492711 46:0.20116618 47:0.18804665 48:0.48688047 49:0.061767315 50:0.22903402 51:0.16787272 52:0.98591549 53:1 54:0.99295775 55:0.49295775 56:0.802 57:0.976 58:0.889 59:0.413 60:0.54753554 61:0.42568408 62:0.46966638 63:0.36918605 64:0.35465116 65:0.3619186 66:0.50726744 67:0.16666667 68:0.057142857 69:0.23571429 70:0.16666667 71:0.16666667 72:0.17616451 73:0.091063978 74:0.29669577 75:0.125 
-1 8:1 34:1 41:0.25714286 42:0.028571429 43:0.22857143 45:0.20116618 46:0.17492711 47:0.18804665 48:0.51311953 49:0.033162743 50:0.25767181 51:0.16787272 52:1 53:0.98591549 54:0.99295775 55:0.50704225 56:0.976 57:0.802 58:0.889 59:0.587 60:0.50359978 61:0.47502073 62:0.46966638 63:0.35465116 64:0.36918605 65:0.3619186 66:0.49273256 67:0.16666667 68:0.028571429 69:0.14761905 70:0.16666667 71:0.16666667 72:0.17616451 73:0.057976505 74:0.19947802 75:0.0625 
-1 7:1 37:1 41:0.057142857 42:0.4 43:0.34285714 45:0.37317784 46:0.26239067 47:0.31778426 48:0.55539359 49:0.40394405 50:0.057644487 51:0.36801329 52:0.3943662 53:0.73239437 54:0.56338028 55:0.33098592 56:0.35 57:0.392 58:0.371 59:0.479 60:0.46750969 61:0.48041045 62:0.43707336 63:0.20639535 64:0.095930233 65:0.15116279 66:0.55523256 67:0.36666667 68:0.4 69:0.85238095 70:0.16666667 71:0.16666667 72:0.42108012 73:0.46339873 74:0.87588157 75:0.125 
1 17:1 31:1 41:0.11428571 42:0.34285714 43:0.22857143 45:0.303207 46:0.37317784 47:0.33819242 48:0.46501458 49:0.34597066 50:0.1156852 51:0.36801329 52:0.76056338 53:0.3943662 54:0.57746479 55:0.68309859 56:0.7 57:0.35 58:0.525 59:0.675 60:0.45901791 61:0.4899461 62:0.43707336 63:0.52325581 64:0.20639535 65:0.36482558 66:0.65843023 67:0.36666667 68:0.34285714 69:0.73492063 70:0.16666667 71:0.16666667 72:0.42108012 73:0.386122 74:0.73074387 75:0.25 
1 16:1 36:1 41:0.17142857 42:0.28571429 43:0.11428571 45:0.20116618 46:0.20116618 47:0.20116618 48:0.5 49:0.28795633 50:0.17376691 51:0.36801329 52:1 53:1 54:1 55:0.5 56:0.976 57:0.976 58:0.976 59:0.5 60:0.42892745 61:0.52373549 62:0.43707336 63:0.35174419 64:0.35174419 65:0.35174419 66:0.5 67:0.36666667 68:0.28571429 69:0.61746032 70:0.16666667 71:0.16666667 72:0.42108012 73:0.31527772 74:0.5976873 75:0.375 
1 17:1 36:1 41:0.2 42:0.25714286 43:0.057142857 45:0.20116618 46:0.37317784 47:0.28717201 48:0.41399417 49:0.25935176 50:0.2024047 51:0.36801329 52:1 53:0.3943662 54:0.6971831 55:0.8028169 56:0.976 57:0.35 58:0.663 59:0.813 60:0.38499169 61:0.57307214 62:0.43707336 63:0.35174419 64:0.20639535 65:0.27906977 66:0.57267442 67:0.36666667 68:0.25714286 69:0.55873016 70:0.16666667 71:0.16666667 72:0.42108012 73:0.28219025 74:0.53554388 75:0.4375 
1 12:1 29:1 41:0.25714286 42:0.2 43:0.057142857 45:0.17201166 47:0.086005831 48:0.58600583 49:0.2014739 50:0.26034977 51:0.36801329 52:0.45070423 53:0.81690141 54:0.63380282 55:0.31690141 56:0.251 57:0.169 58:0.21 59:0.541 60:0.4218202 61:0.53171642 62:0.43707336 63:0.2994186 64:0.36918605 65:0.33430233 66:0.46511628 67:0.36666667 68:0.2 69:0.44126984 70:0.16666667 71:0.16666667 72:0.42108012 73:0.21077749 74:0.40141963 75:0.4375 
1 7:1 32:1 41:0.28571429 42:0.17142857 43:0.11428571 46:0.26239067 47:0.13119534 48:0.36880466 49:0.17381099 50:0.28804481 51:0.36801329 52:0.81690141 53:0.73239437 54:0.77464789 55:0.54225352 56:0.169 57:0.392 58:0.2805 59:0.3885 60:0.45237216 61:0.49740879 62:0.43707336 63:0.36918605 64:0.095930233 65:0.23255814 66:0.63662791 67:0.36666667 68:0.17142857 69:0.38253968 70:0.16666667 71:0.16666667 72:0.42108012 73:0.19409348 74:0.37008446 75:0.375 
1 2:1 27:1 41:0.31428571 42:0.14285714 43:0.17142857 45:0.26239067 46:0.14285714 47:0.20262391 48:0.55976676 49:0.14491982 50:0.31696953 51:0.36801329 52:0.73239437 53:0.6056338 54:0.66901408 55:0.56338028 56:0.392 57:0.215 58:0.3035 59:0.5885 60:0.46234078 61:0.48621476 62:0.43707336 63:0.095930233 64:0.15697674 65:0.12645349 66:0.46947674 67:0.36666667 68:0.14285714 69:0.32380952 70:0.16666667 71:0.16666667 72:0.42108012 73:0.16452775 74:0.31455543 75:0.3125 
1 8:1 22:1 41:0.34285714 42:0.11428571 43:0.22857143 45:0.14285714 46:0.17492711 47:0.15889213 48:0.48396501 49:0.1165882 50:0.34533406 51:0.36801329 52:0.6056338 53:0.98591549 54:0.79577465 55:0.30985915 56:0.215 57:0.802 58:0.5085 59:0.2065 60:0.48864685 61:0.45667496 62:0.43707336 63:0.15697674 64:0.36918605 65:0.2630814 66:0.39389535 67:0.36666667 68:0.11428571 69:0.26507937 70:0.16666667 71:0.16666667 72:0.42108012 73:0.13906289 74:0.26672846 75:0.25 
1 12:1 28:1 41:0.37142857 42:0.085714286 43:0.28571429 45:0.17492711 47:0.087463557 48:0.58746356 49:0.088106448 50:0.37384889 51:0.36801329 52:0.98591549 53:0.81690141 54:0.90140845 55:0.58450704 56:0.802 57:0.169 58:0.4855 59:0.8165 60:0.46077164 61:0.48797678 62:0.43707336 63:0.36918605 64:0.36918605 65:0.36918605 66:0.5 67:0.36666667 68:0.085714286 69:0.20634921 70:0.16666667 71:0.16666667 72:0.42108012 73:0.11007628 74:0.21228711 75:0.1875 
1 6:1 32:1 41:0.057142857 42:0.57142857 43:0.51428571 46:0.33527697 47:0.16763848 48:0.33236152 49:0.58027977 50:0.055895614 51:0.57237105 52:0.81690141 53:0.54929577 54:0.68309859 55:0.63380282 56:0.169 57:0.224 58:0.1965 59:0.4725 60:0.43991139 61:0.46165008 62:0.39092395 63:0.36918605 64:0.12790698 65:0.24854651 66:0.62063953 67:0.56666667 68:0.57142857 69:0.89642857 70:0.5 71:0.5 72:0.63492476 73:0.66105982 74:0.93969102 75:0.125 
1 5:1 34:1 41:0.17142857 42:0.45714286 43:0.28571429 45:0.20116618 46:0.34110787 47:0.27113703 48:0.43002915 49:0.46494712 50:0.17136221 51:0.57237105 52:1 54:0.5 55:1 56:0.976 57:0.008 58:0.492 59:0.984 60:0.38748385 61:0.52052239 62:0.39092395 63:0.35465116 64:0.50290698 65:0.42877907 66:0.42587209 67:0.56666667 68:0.45714286 69:0.7202381 70:0.5 71:0.5 72:0.63492476 73:0.52785026 74:0.74943537 75:0.125 
1 18:1 29:1 41:0.34285714 42:0.28571429 43:0.057142857 45:0.17201166 46:0.27405248 47:0.22303207 48:0.44897959 49:0.2925145 50:0.34399508 51:0.57237105 52:0.45070423 53:0.97183099 54:0.71126761 55:0.23943662 56:0.251 57:1 58:0.6255 59:0.1255 60:0.48717002 61:0.40858209 62:0.39092395 63:0.2994186 64:0.18895349 65:0.24418605 66:0.55523256 67:0.56666667 68:0.28571429 69:0.45595238 70:0.5 71:0.33333333 72:0.63492476 73:0.35776156 74:0.50650736 75:0.125 
0.2902548042823734 15:1 25:1 41:0.4 42:0.22857143 43:0.17142857 45:0.34110787 46:0.55685131 47:0.44897959 48:0.39212828 49:0.23430911 50:0.40226807 51:0.57237105 53:0.43661972 54:0.21830986 55:0.28169014 56:0.008 58:0.004 59:0.504 60:0.4864316 61:0.40941128 62:0.39092395 63:0.50290698 64:0.53488372 65:0.51889535 66:0.48401163 67:0.56666667 68:0.22857143 69:0.36785714 70:0.5 71:0.33333333 72:0.63492476 73:0.28633369 74:0.404491 
1 5:1 29:1 41:0.48571429 42:0.14285714 43:0.34285714 45:0.17201166 46:0.34110787 47:0.25655977 48:0.4154519 49:0.14696691 50:0.48971171 51:0.57237105 52:0.45070423 54:0.22535211 55:0.72535211 56:0.251 57:0.008 58:0.1295 59:0.6215 60:0.51163005 61:0.38111526 62:0.39092395 63:0.2994186 64:0.50290698 65:0.40116279 66:0.39825581 67:0.56666667 68:0.14285714 69:0.23571429 70:0.5 71:0.16666667 72:0.63492476 73:0.18211074 74:0.25563528 75:0.125 
1 17:1 25:1 41:0.51428571 42:0.11428571 43:0.4 45:0.34110787 46:0.37317784 47:0.35714286 48:0.48396501 49:0.11770727 50:0.51900533 51:0.57237105 53:0.3943662 54:0.1971831 55:0.3028169 56:0.008 57:0.35 58:0.179 59:0.329 60:0.55704264 61:0.33012023 62:0.39092395 63:0.50290698 64:0.20639535 65:0.35465116 66:0.64825581 67:0.56666667 68:0.11428571 69:0.19166667 70:0.5 71:0.16666667 72:0.63492476 73:0.15371389 74:0.21507768 75:0.1875 
1 16:1 37:1 41:0.54285714 42:0.085714286 43:0.45714286 45:0.37317784 46:0.20116618 47:0.28717201 48:0.58600583 49:0.088297509 50:0.54844924 51:0.57237105 52:0.3943662 53:1 54:0.6971831 55:0.1971831 56:0.35 57:0.976 58:0.663 59:0.187 60:0.57088795 61:0.31457297 62:0.39092395 63:0.20639535 64:0.35174419 65:0.27906977 66:0.42732558 67:0.56666667 68:0.085714286 69:0.14761905 70:0.5 71:0.16666667 72:0.63492476 73:0.11595708 74:0.16115178 75:0.1875 
-1 16:1 26:1 41:0.14285714 42:0.48571429 43:0.34285714 45:0.33527697 46:0.20116618 47:0.26822157 48:0.56705539 49:0.49368816 50:0.14400874 51:0.57403236 52:0.54929577 53:1 54:0.77464789 55:0.27464789 56:0.224 57:0.976 58:0.6 59:0.124 60:0.39422189 61:0.53741708 62:0.41361408 63:0.12790698 64:0.35174419 65:0.23982558 66:0.3880814 67:0.56666667 68:0.48571429 69:0.76428571 70:0.33333333 71:0.33333333 72:0.66184773 73:0.55886351 74:0.76943139 75:0.3125 
1 5:1 36:1 41:0.25714286 42:0.37142857 43:0.11428571 45:0.20116618 46:0.34110787 47:0.27113703 48:0.43002915 49:0.37926987 50:0.25855991 51:0.57403236 52:1 54:0.5 55:1 56:0.976 57:0.008 58:0.492 59:0.984 60:0.33985601 61:0.598466 62:0.41361408 63:0.35174419 64:0.50290698 65:0.42732558 66:0.4244186 67:0.56666667 68:0.37142857 69:0.58809524 70:0.33333333 71:0.33333333 72:0.66184773 73:0.43853565 74:0.60260531 75:0.125 
-1 6:1 25:1 41:0.28571429 42:0.34285714 43:0.057142857 45:0.34110787 46:0.33527697 47:0.33819242 48:0.50291545 49:0.35001024 50:0.28785353 51:0.57403236 53:0.54929577 54:0.27464789 55:0.22535211 56:0.008 57:0.224 58:0.116 59:0.392 60:0.3852686 61:0.54747098 62:0.41361408 63:0.50290698 64:0.12790698 65:0.31540698 66:0.6875 67:0.56666667 68:0.34285714 69:0.54404762 70:0.33333333 71:0.33333333 72:0.66184773 73:0.41013881 74:0.56323509 75:0.0625 
-1 13:1 26:1 41:0.31428571 42:0.31428571 45:0.33527697 46:0.6122449 47:0.47376093 48:0.36151603 49:0.32077789 50:0.31711983 51:0.57403236 52:0.54929577 53:0.56338028 54:0.55633803 55:0.49295775 56:0.224 57:0.037 58:0.1305 59:0.5935 60:0.41074395 61:0.51886401 62:0.41361408 63:0.12790698 64:0.078488372 65:0.10319767 66:0.5247093 67:0.56666667 68:0.31428571 69:0.5 70:0.33333333 71:0.33333333 72:0.66184773 73:0.37266991 74:0.51128711 
1 2:1 29:1 41:0.4 42:0.22857143 43:0.17142857 45:0.17201166 46:0.14285714 47:0.1574344 48:0.51457726 49:0.23252132 50:0.40547889 51:0.57403236 52:0.45070423 53:0.6056338 54:0.52816901 55:0.42253521 56:0.251 57:0.215 58:0.233 59:0.518 60:0.52187558 61:0.39407131 62:0.41361408 63:0.2994186 64:0.15697674 65:0.22819767 66:0.57122093 67:0.56666667 68:0.22857143 69:0.36785714 70:0.33333333 71:0.16666667 72:0.66184773 73:0.2705148 74:0.36965626 75:0.125 
-1 4:1 34:1 41:0.51428571 42:0.11428571 43:0.4 45:0.20116618 46:0.29446064 47:0.24781341 48:0.45335277 49:0.11784374 50:0.52028966 51:0.57403236 52:1 53:0.52112676 54:0.76056338 55:0.73943662 56:0.976 57:0.121 58:0.5485 59:0.9275 60:0.52178327 61:0.39417496 62:0.41361408 63:0.35465116 65:0.17732558 66:0.67732558 67:0.56666667 68:0.11428571 69:0.19166667 70:0.33333333 71:0.16666667 72:0.66184773 73:0.15457901 74:0.20891947 75:0.25 
-1 12:1 40:1 42:0.31428571 43:0.31428571 44:1 45:0.10787172 47:0.05393586 48:0.55393586 49:0.32234732 50:0.00050553354 51:0.20569959 52:0.94366197 53:0.81690141 54:0.88028169 55:0.56338028 56:0.516 57:0.169 58:0.3425 59:0.6735 60:0.32351855 61:0.53026534 62:0.33333333 63:0.39534884 64:0.36918605 65:0.38226744 66:0.5130814 67:0.2 68:0.31428571 69:0.94725275 70:0.33333333 71:0.33333333 72:0.25481209 73:0.38053898 74:0.96564676 
-1 4:1 32:1 41:0.028571429 42:0.28571429 43:0.25714286 46:0.29446064 47:0.14723032 48:0.35276968 49:0.29468441 50:0.028200574 51:0.20569959 52:0.81690141 53:0.52112676 54:0.66901408 55:0.64788732 56:0.169 57:0.121 58:0.145 59:0.524 60:0.35407052 61:0.49595771 62:0.33333333 63:0.36918605 65:0.18459302 66:0.68459302 67:0.2 68:0.28571429 69:0.86593407 70:0.33333333 71:0.33333333 72:0.25481209 73:0.36385496 74:0.92414725 75:0.0625 
0.5208849306527513 7:1 31:1 41:0.085714286 42:0.22857143 43:0.14285714 45:0.303207 46:0.26239067 47:0.28279883 48:0.52040816 49:0.2365609 50:0.086391584 51:0.20569959 52:0.76056338 53:0.73239437 54:0.74647887 55:0.51408451 56:0.7 57:0.392 58:0.546 59:0.654 60:0.37059258 61:0.47740464 62:0.33333333 63:0.52325581 64:0.095930233 65:0.30959302 66:0.71366279 67:0.2 68:0.22857143 69:0.7032967 70:0.33333333 71:0.33333333 72:0.25481209 73:0.28277594 74:0.72247276 75:0.1875 
1 4:1 27:1 41:0.11428571 42:0.2 43:0.085714286 45:0.26239067 46:0.29446064 47:0.27842566 48:0.48396501 49:0.20766974 50:0.1153163 51:0.20569959 52:0.73239437 53:0.52112676 54:0.62676056 55:0.6056338 56:0.392 57:0.121 58:0.2565 59:0.6355 60:0.3805612 61:0.46621061 62:0.33333333 63:0.095930233 65:0.047965116 66:0.54796512 67:0.2 68:0.2 69:0.62197802 70:0.33333333 71:0.33333333 72:0.25481209 73:0.25321021 74:0.64893152 75:0.25 
1 8:1 24:1 41:0.14285714 42:0.17142857 43:0.028571429 45:0.29446064 46:0.17492711 47:0.23469388 48:0.55976676 49:0.17862845 50:0.14439131 51:0.20569959 52:0.52112676 53:0.98591549 54:0.75352113 55:0.26760563 56:0.121 57:0.802 58:0.4615 59:0.1595 60:0.41554366 61:0.42692786 62:0.33333333 64:0.36918605 65:0.18459302 66:0.31540698 67:0.2 68:0.17142857 69:0.54065934 70:0.33333333 71:0.33333333 72:0.25481209 73:0.21984218 74:0.5659325 75:0.1875 
-1 20:1 28:1 41:0.17142857 42:0.14285714 43:0.028571429 45:0.17492711 46:0.10787172 47:0.14139942 48:0.5335277 49:0.15014671 50:0.17290613 51:0.20569959 52:0.98591549 53:0.94366197 54:0.96478873 55:0.52112676 56:0.802 57:0.516 58:0.659 59:0.643 60:0.38766845 61:0.45822968 62:0.33333333 63:0.36918605 64:0.39534884 65:0.38226744 66:0.4869186 67:0.2 68:0.14285714 69:0.45934066 70:0.33333333 71:0.33333333 72:0.25481209 73:0.19085557 74:0.49383174 75:0.125 
1 7:1 40:1 41:0.2 42:0.11428571 43:0.085714286 45:0.10787172 46:0.26239067 47:0.1851312 48:0.42274052 49:0.12197885 50:0.20110671 51:0.20569959 52:0.94366197 53:0.73239437 54:0.83802817 55:0.6056338 56:0.516 57:0.392 58:0.454 59:0.562 60:0.38619162 61:0.45988806 62:0.33333333 63:0.39534884 64:0.095930233 65:0.24563953 66:0.6497093 67:0.2 68:0.11428571 69:0.37802198 70:0.33333333 71:0.33333333 72:0.25481209 73:0.17007069 74:0.44213181 75:0.0625 
1 13:1 27:1 41:0.22857143 42:0.085714286 43:0.14285714 45:0.26239067 46:0.6122449 47:0.43731778 48:0.32507289 49:0.093087683 50:0.23003143 51:0.20569959 52:0.73239437 53:0.56338028 54:0.64788732 55:0.58450704 56:0.392 57:0.037 58:0.2145 59:0.6775 60:0.39616024 61:0.44869403 62:0.33333333 63:0.095930233 64:0.078488372 65:0.087209302 66:0.50872093 67:0.2 68:0.085714286 69:0.2967033 70:0.33333333 71:0.33333333 72:0.25481209 73:0.14050497 74:0.36859057 
1 17:1 29:1 41:0.28571429 42:0.028571429 43:0.25714286 45:0.17201166 46:0.37317784 47:0.27259475 48:0.39941691 49:0.034090754 50:0.28909687 51:0.20569959 52:0.45070423 53:0.3943662 54:0.42253521 55:0.52816901 56:0.251 57:0.35 58:0.3005 59:0.4505 60:0.46187927 61:0.37489635 62:0.33333333 63:0.2994186 64:0.20639535 65:0.25290698 66:0.54651163 67:0.2 68:0.028571429 69:0.13406593 70:0.33333333 71:0.16666667 72:0.25481209 73:0.066746705 74:0.18512562 75:0.0625 
-1 14:1 27:1 41:0.057142857 42:0.34285714 43:0.28571429 45:0.26239067 46:0.20116618 47:0.23177843 48:0.53061224 49:0.34655749 50:0.05712529 51:0.30023482 52:0.73239437 53:1 54:0.86619718 55:0.36619718 56:0.392 57:0.976 58:0.684 59:0.208 60:0.4726786 61:0.48476368 62:0.44649553 63:0.095930233 64:0.35465116 65:0.2252907 66:0.37063953 67:0.3 68:0.34285714 69:0.83035714 70:0.16666667 71:0.16666667 72:0.34203001 73:0.40631192 74:0.87474553 75:0.125 
1 8:1 23:1 41:0.25714286 42:0.14285714 43:0.11428571 45:0.3090379 46:0.17492711 47:0.24198251 48:0.56705539 49:0.1457523 50:0.25816368 51:0.30023482 52:0.91549296 53:0.98591549 54:0.95070423 55:0.46478873 56:0.823 57:0.802 58:0.8125 59:0.5105 60:0.43225032 61:0.53016169 62:0.44649553 63:0.15988372 64:0.36918605 65:0.26453488 66:0.39534884 67:0.3 68:0.14285714 69:0.36785714 70:0.16666667 71:0.16666667 72:0.34203001 73:0.17038726 74:0.37324375 75:0.3125 
1 5:1 28:1 41:0.28571429 42:0.11428571 43:0.17142857 45:0.17492711 46:0.34110787 47:0.25801749 48:0.41690962 49:0.11727056 50:0.28667851 51:0.30023482 52:0.98591549 54:0.49295775 55:0.99295775 56:0.802 57:0.008 58:0.405 59:0.897 60:0.40437512 61:0.56146352 62:0.44649553 63:0.36918605 64:0.50290698 65:0.43604651 66:0.43313953 67:0.3 68:0.11428571 69:0.30178571 70:0.16666667 71:0.16666667 72:0.34203001 73:0.14140065 74:0.31162732 75:0.25 
1 9:1 25:1 41:0.31428571 42:0.085714286 43:0.22857143 45:0.34110787 46:0.17201166 47:0.25655977 48:0.5845481 49:0.088010918 50:0.31597213 51:0.30023482 53:0.45070423 54:0.22535211 55:0.27464789 56:0.008 57:0.251 58:0.1295 59:0.3785 60:0.44978771 61:0.51046849 62:0.44649553 63:0.50290698 64:0.2994186 65:0.40116279 66:0.60174419 67:0.3 68:0.085714286 69:0.23571429 70:0.16666667 71:0.16666667 72:0.34203001 73:0.1130038 74:0.25126454 75:0.1875 
1 12:1 40:1 42:0.8 43:0.8 44:1 45:0.10787172 47:0.05393586 48:0.55393586 49:0.81416581 50:0.00050553354 51:0.78137729 52:0.94366197 53:0.81690141 54:0.88028169 55:0.56338028 56:0.516 57:0.169 58:0.3425 59:0.6735 60:0.0035074765 61:0.53026534 63:0.39534884 64:0.36918605 65:0.38226744 66:0.5130814 67:0.76666667 68:0.8 69:0.99333333 70:1 71:1 72:0.90916265 73:0.92088761 74:0.99422616 
1 11:1 32:1 41:0.028571429 42:0.77142857 43:0.74285714 46:0.303207 47:0.1516035 48:0.3483965 49:0.7865029 50:0.028200574 51:0.78137729 52:0.81690141 53:0.76056338 54:0.78873239 55:0.52816901 56:0.169 57:0.7 58:0.4345 59:0.2345 60:0.034059442 61:0.49595771 63:0.36918605 64:0.52325581 65:0.44622093 66:0.42296512 67:0.76666667 68:0.77142857 69:0.95809524 70:1 71:1 72:0.90916265 73:0.90420359 74:0.9759973 75:0.0625 
1 18:1 32:1 41:0.085714286 42:0.71428571 43:0.62857143 46:0.27405248 47:0.13702624 48:0.36297376 49:0.72975776 50:0.085011614 51:0.78137729 52:0.81690141 53:0.97183099 54:0.8943662 55:0.42253521 56:0.169 57:1 58:0.5845 59:0.0845 60:0.046151006 61:0.48237977 63:0.36918605 64:0.18895349 65:0.27906977 66:0.59011628 67:0.76666667 68:0.71428571 69:0.88761905 70:1 71:1 72:0.90916265 73:0.83980858 74:0.90563965 75:0.1875 
-1 13:1 28:1 41:0.25714286 42:0.54285714 43:0.28571429 45:0.17492711 46:0.6122449 47:0.39358601 48:0.28134111 49:0.55791198 50:0.25705697 51:0.78137729 52:0.98591549 53:0.56338028 54:0.77464789 55:0.71126761 56:0.802 57:0.037 58:0.4195 59:0.8825 60:0.013568396 61:0.51896766 63:0.36918605 64:0.078488372 65:0.22383721 66:0.64534884 67:0.76666667 68:0.54285714 69:0.67619048 70:1 71:1 72:0.90916265 73:0.65421868 74:0.7028651 
-1 17:1 33:1 41:0.28571429 42:0.51428571 43:0.22857143 45:0.6122449 46:0.37317784 47:0.49271137 48:0.61953353 49:0.52738315 50:0.28762126 51:0.78137729 52:0.56338028 53:0.3943662 54:0.47887324 55:0.58450704 56:0.037 57:0.35 58:0.1935 59:0.3435 60:0.056304227 61:0.47097844 63:0.078488372 64:0.20639535 65:0.14244186 66:0.43604651 67:0.76666667 68:0.51428571 69:0.64095238 70:1 71:0.83333333 72:0.90916265 73:0.61411636 74:0.65904951 
-1 2:1 37:1 41:0.31428571 42:0.48571429 43:0.17142857 45:0.37317784 46:0.14285714 47:0.25801749 48:0.61516035 49:0.49797339 50:0.31706517 51:0.78137729 52:0.3943662 53:0.6056338 54:0.5 55:0.3943662 56:0.35 57:0.215 58:0.2825 59:0.5675 60:0.070149529 61:0.45543118 63:0.20639535 64:0.15697674 65:0.18168605 66:0.5247093 67:0.76666667 68:0.48571429 69:0.60571429 70:1 71:0.83333333 72:0.90916265 73:0.57635955 74:0.61779662 75:0.0625 
-1 12:1 22:1 41:0.34285714 42:0.45714286 43:0.11428571 45:0.14285714 47:0.071428571 48:0.57142857 49:0.46964176 50:0.3454297 51:0.78137729 52:0.6056338 53:0.81690141 54:0.71126761 55:0.3943662 56:0.215 57:0.169 58:0.192 59:0.523 60:0.096455603 61:0.42589138 63:0.15697674 64:0.36918605 65:0.2630814 66:0.39389535 67:0.76666667 68:0.45714286 69:0.57047619 70:1 71:0.83333333 72:0.90916265 73:0.55089469 74:0.58997385 75:0.0625 
-1 13:1 32:1 41:0.37142857 42:0.42857143 43:0.057142857 46:0.6122449 47:0.30612245 48:0.19387755 49:0.44197885 50:0.37312474 51:0.78137729 52:0.81690141 53:0.56338028 54:0.69014085 55:0.62676056 56:0.169 57:0.037 58:0.103 59:0.566 60:0.12700757 61:0.39158375 63:0.36918605 64:0.078488372 65:0.22383721 66:0.64534884 67:0.76666667 68:0.42857143 69:0.5352381 70:1 71:0.83333333 72:0.90916265 73:0.53421068 74:0.57174498 
1 13:1 22:1 41:0.54285714 42:0.25714286 43:0.28571429 45:0.14285714 46:0.6122449 47:0.37755102 48:0.26530612 49:0.26642102 50:0.54888646 51:0.78137729 52:0.6056338 53:0.56338028 54:0.58450704 55:0.52112676 56:0.215 57:0.037 58:0.126 59:0.589 60:0.24663098 61:0.25725539 63:0.15697674 64:0.078488372 65:0.11773256 66:0.53924419 67:0.76666667 68:0.25714286 69:0.32380952 70:1 71:0.5 72:0.90916265 73:0.33251995 74:0.35137876 
1 5:1 33:1 41:0.57142857 42:0.22857143 43:0.34285714 45:0.6122449 46:0.34110787 47:0.47667638 48:0.63556851 49:0.23589219 50:0.57945074 51:0.78137729 52:0.56338028 54:0.28169014 55:0.78169014 56:0.037 57:0.008 58:0.0225 59:0.5145 60:0.28936681 61:0.20926617 63:0.078488372 64:0.50290698 65:0.29069767 66:0.2877907 67:0.76666667 68:0.22857143 69:0.28857143 70:1 71:0.33333333 72:0.90916265 73:0.29241763 74:0.30756317 
1 9:1 33:1 41:0.62857143 42:0.17142857 43:0.45714286 45:0.6122449 46:0.17201166 47:0.39212828 48:0.72011662 49:0.17610372 50:0.63930865 51:0.78137729 52:0.56338028 53:0.45070423 54:0.50704225 55:0.55633803 56:0.037 57:0.251 58:0.144 59:0.393 60:0.37751523 61:0.11028192 63:0.078488372 64:0.2994186 65:0.18895349 66:0.38953488 67:0.76666667 68:0.17142857 69:0.21809524 70:1 71:0.16666667 72:0.90916265 73:0.22391847 74:0.23272135 
1 12:1 29:1 41:0.65714286 42:0.14285714 43:0.51428571 45:0.17201166 47:0.086005831 48:0.58600583 49:0.14763562 50:0.66780981 51:0.78137729 52:0.45070423 53:0.81690141 54:0.63380282 55:0.31690141 56:0.251 57:0.169 58:0.21 59:0.541 60:0.40049843 61:0.084473466 63:0.2994186 64:0.36918605 65:0.33430233 66:0.46511628 67:0.76666667 68:0.14285714 69:0.18285714 70:1 71:0.16666667 72:0.90916265 73:0.19026252 74:0.19594904 75:0.0625 
1 17:1 22:1 41:0.77142857 42:0.028571429 43:0.74285714 45:0.14285714 46:0.37317784 47:0.25801749 48:0.38483965 49:0.034090754 50:0.78148654 51:0.78137729 52:0.6056338 53:0.3943662 54:0.5 55:0.6056338 56:0.215 57:0.35 58:0.2825 59:0.4325 60:0.46187927 61:0.015547264 63:0.15697674 64:0.20639535 65:0.18168605 66:0.4752907 67:0.76666667 68:0.028571429 69:0.041904762 70:1 71:0.16666667 72:0.90916265 73:0.066746705 74:0.060996306 75:0.0625 
0.6139846087612454 1:1 37:1 41:0.8 43:0.8 44:1 45:0.37317784 46:1 47:0.68658892 48:0.18658892 49:0.0046809962 50:0.81093045 51:0.78137729 52:0.3943662 53:0.53521127 54:0.46478873 55:0.42957746 56:0.35 57:0.223 58:0.2865 59:0.5635 60:0.47572457 63:0.20639535 64:1 65:0.60319767 66:0.10319767 67:0.76666667 69:0.0066666667 70:1 71:0.16666667 72:0.90916265 73:0.028989896 74:0.019743415 
1 14:1 32:1 41:0.057142857 42:0.28571429 43:0.22857143 46:0.20116618 47:0.10058309 48:0.39941691 49:0.29558512 50:0.058764859 51:0.24248814 52:0.81690141 53:1 54:0.9084507 55:0.4084507 56:0.169 57:0.976 58:0.5725 59:0.0965 60:0.52713679 61:0.44796849 62:0.46908951 63:0.36918605 64:0.35465116 65:0.3619186 66:0.50726744 67:0.23333333 68:0.28571429 69:0.80204082 70:0.5 71:0.33333333 72:0.31618231 73:0.37443085 74:0.84495038 75:0.0625 
-1 9:1 29:1 41:0.11428571 42:0.22857143 43:0.11428571 45:0.17201166 46:0.17201166 47:0.17201166 48:0.5 49:0.23851245 50:0.11590381 51:0.24248814 52:0.45070423 53:0.45070423 54:0.45070423 55:0.5 56:0.251 57:0.251 58:0.251 59:0.5 60:0.50618423 61:0.47149668 62:0.46908951 63:0.2994186 64:0.2994186 65:0.2994186 66:0.5 67:0.23333333 68:0.22857143 69:0.65102041 70:0.5 71:0.33333333 72:0.31618231 73:0.30768744 74:0.6966855 75:0.1875 
-1 20:1 29:1 41:0.14285714 42:0.2 43:0.057142857 45:0.17201166 46:0.10787172 47:0.13994169 48:0.53206997 49:0.21004435 50:0.14440497 51:0.24248814 52:0.45070423 53:0.94366197 54:0.6971831 55:0.25352113 56:0.251 57:0.516 58:0.3835 59:0.3675 60:0.52916744 61:0.44568823 62:0.46908951 63:0.2994186 64:0.39534884 65:0.34738372 66:0.45203488 67:0.23333333 68:0.2 69:0.5755102 70:0.5 71:0.33333333 72:0.31618231 73:0.27403149 74:0.62192165 75:0.25 
-1 7:1 40:1 41:0.17142857 42:0.17142857 45:0.10787172 46:0.26239067 47:0.1851312 48:0.42274052 49:0.18187649 50:0.17260555 51:0.24248814 52:0.94366197 53:0.73239437 54:0.83802817 55:0.6056338 56:0.516 57:0.392 58:0.454 59:0.562 60:0.5276906 61:0.4473466 62:0.46908951 63:0.39534884 64:0.095930233 65:0.24563953 66:0.6497093 67:0.23333333 68:0.17142857 69:0.5 70:0.5 71:0.33333333 72:0.31618231 73:0.25324661 74:0.57574979 75:0.3125 
-1 10:1 27:1 41:0.2 42:0.14285714 43:0.057142857 45:0.26239067 46:0.39067055 47:0.32653061 48:0.43586006 49:0.15298533 50:0.20153026 51:0.24248814 52:0.73239437 53:0.70422535 54:0.71830986 55:0.51408451 56:0.392 57:0.988 58:0.69 59:0.202 60:0.53765922 61:0.43615257 62:0.46908951 63:0.095930233 64:0.29360465 65:0.19476744 66:0.40116279 67:0.23333333 68:0.14285714 69:0.4244898 70:0.5 71:0.33333333 72:0.31618231 73:0.22368089 74:0.51007202 75:0.25 
-1 5:1 30:1 41:0.22857143 42:0.11428571 43:0.11428571 45:0.39067055 46:0.34110787 47:0.36588921 48:0.52478134 49:0.12349369 50:0.23105616 51:0.24248814 52:0.70422535 54:0.35211268 55:0.85211268 56:0.988 57:0.008 58:0.498 59:0.99 60:0.49261584 61:0.486733 62:0.46908951 63:0.29360465 64:0.50290698 65:0.39825581 66:0.39534884 67:0.23333333 68:0.11428571 69:0.34897959 70:0.5 71:0.33333333 72:0.31618231 73:0.1692356 74:0.3891264 75:0.1875 
1 16:1 25:1 41:0.25714286 42:0.085714286 43:0.17142857 45:0.34110787 46:0.20116618 47:0.27113703 48:0.56997085 49:0.09423405 50:0.26034977 51:0.24248814 53:1 54:0.5 56:0.008 57:0.976 58:0.492 59:0.016 60:0.53802843 61:0.43573798 62:0.46908951 63:0.50290698 64:0.35174419 65:0.42732558 66:0.5755814 67:0.23333333 68:0.085714286 69:0.27346939 70:0.5 71:0.33333333 72:0.31618231 73:0.14083875 74:0.3260452 75:0.125 
-1 16:1 36:1 41:0.28571429 42:0.057142857 43:0.22857143 45:0.20116618 46:0.20116618 47:0.20116618 48:0.5 49:0.065629478 50:0.28898757 51:0.24248814 52:1 53:1 54:1 55:0.5 56:0.976 57:0.976 58:0.976 59:0.5 60:0.49409267 61:0.48507463 62:0.46908951 63:0.35174419 64:0.35174419 65:0.35174419 66:0.5 67:0.23333333 68:0.057142857 69:0.19795918 70:0.5 71:0.33333333 72:0.31618231 73:0.10775128 74:0.25254416 75:0.0625 
-1 1:1 36:1 41:0.31428571 42:0.028571429 43:0.28571429 45:0.20116618 46:1 47:0.60058309 48:0.10058309 49:0.037024906 50:0.31762536 51:0.24248814 52:1 53:0.53521127 54:0.76760563 55:0.73239437 56:0.976 57:0.223 58:0.5995 59:0.8765 60:0.45015691 61:0.53441128 62:0.46908951 63:0.35174419 64:1 65:0.67587209 66:0.17587209 67:0.23333333 68:0.028571429 69:0.12244898 70:0.5 71:0.33333333 72:0.31618231 73:0.074663806 74:0.17904312 
-1 13:1 40:1 42:0.28571429 43:0.28571429 44:1 45:0.10787172 46:0.6122449 47:0.36005831 48:0.24781341 49:0.29091778 50:0.00050553354 51:0.16891104 52:0.94366197 53:0.56338028 54:0.75352113 55:0.69014085 56:0.516 57:0.037 58:0.2765 59:0.7395 60:0.47821673 61:0.53026534 62:0.49447169 63:0.39534884 64:0.078488372 65:0.2369186 66:0.65843023 67:0.16666667 68:0.28571429 69:0.94047619 70:0.33333333 71:0.33333333 72:0.19708411 73:0.33286845 74:0.95917826 
-1 8:1 33:1 41:0.028571429 42:0.25714286 43:0.22857143 45:0.6122449 46:0.17492711 47:0.39358601 48:0.71865889 49:0.26038895 50:0.031069818 51:0.16891104 52:0.56338028 53:0.98591549 54:0.77464789 55:0.28873239 56:0.037 57:0.802 58:0.4195 59:0.1175 60:0.52095256 61:0.48227612 62:0.49447169 63:0.078488372 64:0.36918605 65:0.22383721 66:0.35465116 67:0.16666667 68:0.25714286 69:0.85238095 70:0.33333333 71:0.16666667 72:0.19708411 73:0.29276614 74:0.84676865 
-1 15:1 27:1 41:0.085714286 42:0.2 43:0.11428571 45:0.26239067 46:0.55685131 47:0.40962099 48:0.35276968 49:0.20301604 50:0.088509359 51:0.16891104 52:0.73239437 53:0.43661972 54:0.58450704 55:0.64788732 56:0.392 58:0.196 59:0.696 60:0.50304597 61:0.50238391 62:0.49447169 63:0.095930233 64:0.53488372 65:0.31540698 66:0.28052326 67:0.16666667 68:0.2 69:0.67619048 70:0.33333333 71:0.16666667 72:0.19708411 73:0.2342138 74:0.68264236 
-1 5:1 35:1 41:0.11428571 42:0.17142857 43:0.057142857 45:0.55685131 46:0.34110787 47:0.44897959 48:0.60787172 49:0.1727465 50:0.11881405 51:0.16891104 52:0.43661972 54:0.21830986 55:0.71830986 57:0.008 58:0.004 59:0.496 60:0.54919697 61:0.4505597 62:0.49447169 63:0.53488372 64:0.50290698 65:0.51889535 66:0.51598837 67:0.16666667 68:0.17142857 69:0.58809524 70:0.33333333 72:0.19708411 73:0.19673426 74:0.57758459 
-1 8:1 25:1 41:0.14285714 42:0.14285714 45:0.34110787 46:0.17492711 47:0.25801749 48:0.58309038 49:0.14348686 50:0.14810766 51:0.16891104 53:0.98591549 54:0.49295775 55:0.0070422535 56:0.008 57:0.802 58:0.405 59:0.103 60:0.59460956 61:0.39956468 62:0.49447169 63:0.50290698 64:0.36918605 65:0.43604651 66:0.56686047 67:0.16666667 68:0.14285714 69:0.5 70:0.33333333 72:0.19708411 73:0.16833742 74:0.49798624 75:0.0625 
-1 8:1 28:1 41:0.17142857 42:0.11428571 43:0.057142857 45:0.17492711 46:0.17492711 47:0.17492711 48:0.5 49:0.11500512 50:0.17662249 51:0.16891104 52:0.98591549 53:0.98591549 54:0.98591549 55:0.5 56:0.802 57:0.802 58:0.802 59:0.5 60:0.56673435 61:0.4308665 62:0.49447169 63:0.36918605 64:0.36918605 65:0.36918605 66:0.5 67:0.16666667 68:0.11428571 69:0.41190476 70:0.33333333 72:0.19708411 73:0.13935081 74:0.41673474 75:0.125 
