svm_type c_svc
kernel_type precomputed
nr_class 2
total_sv 12
rho 0.569263
label 1 -1
probA bla
probB bluff
nr_sv 5 7
SV
0.01264861811373435 0:1 
0.1171959975263733 0:2 
0.07402085937400853 0:3 
0.05888076095733358 0:4 
0.01348682708859392 0:5 
-0.07751715070633727 0:6 
-0.05672043369507582 0:7 
-0.01885492389881072 0:12 
-0.05905443071864719 0:13 
-0.01367337238110104 0:14 
-0.02212863322479322 0:15 
-0.02828411843527837 0:18 
