svm_type c_svc
kernel_type precomputed
nr_class 2
total_sv 316
rho 2.57377
label 1 -1
probA -0.741132
probB -0.089613
nr_sv 156 160
SV
1 0:1 
1 0:3 
1 0:5 
1 0:6 
0.4428093985801307 0:7 
1 0:8 
0.8244583684506869 0:9 
1 0:11 
1 0:14 
1 0:15 
1 0:17 
1 0:18 
1 0:24 
1 0:31 
1 0:33 
1 0:36 
1 0:37 
1 0:39 
1 0:41 
1 0:42 
1 0:44 
1 0:45 
1 0:48 
1 0:49 
1 0:50 
1 0:52 
1 0:53 
1 0:54 
0.7963471091661976 0:56 
1 0:65 
1 0:66 
1 0:67 
1 0:70 
1 0:72 
1 0:73 
1 0:75 
1 0:76 
0.5600600801944721 0:77 
0.6476080429541562 0:81 
1 0:82 
0.2655707525397022 0:90 
1 0:93 
1 0:94 
1 0:102 
1 0:103 
1 0:104 
1 0:108 
1 0:111 
0.1163236307779629 0:118 
1 0:120 
1 0:123 
0.3714790866880635 0:129 
0.2707020603418369 0:130 
1 0:132 
1 0:135 
1 0:137 
1 0:142 
1 0:144 
1 0:145 
1 0:148 
0.2524189853032631 0:149 
1 0:152 
1 0:154 
1 0:156 
1 0:158 
1 0:163 
1 0:165 
1 0:166 
1 0:167 
1 0:168 
1 0:169 
0.8106240686966336 0:172 
0.8293484221320682 0:173 
1 0:174 
1 0:175 
1 0:176 
1 0:177 
1 0:178 
1 0:179 
1 0:180 
1 0:182 
0.2891620763678747 0:183 
1 0:185 
0.7228020280270132 0:188 
0.4162288635498768 0:190 
1 0:193 
1 0:194 
1 0:195 
1 0:196 
1 0:197 
1 0:198 
0.2997954585540699 0:199 
1 0:200 
0.3290784119157756 0:201 
1 0:202 
1 0:203 
1 0:204 
1 0:205 
0.6030746411464684 0:206 
0.8164894824340165 0:210 
1 0:213 
1 0:214 
0.5061019562454003 0:216 
1 0:217 
1 0:218 
0.2021307747275583 0:220 
1 0:221 
1 0:223 
0.7088563171569306 0:224 
0.3055737509474978 0:227 
1 0:228 
0.7233977133592048 0:229 
1 0:231 
1 0:232 
1 0:234 
0.4225075626828782 0:236 
1 0:239 
1 0:241 
0.204778167316676 0:242 
1 0:243 
1 0:244 
0.01094161729392246 0:245 
1 0:246 
1 0:247 
1 0:248 
1 0:250 
1 0:251 
1 0:252 
1 0:253 
1 0:254 
1 0:256 
1 0:260 
1 0:261 
1 0:263 
1 0:265 
1 0:266 
0.3503766927937424 0:269 
1 0:271 
1 0:272 
1 0:273 
1 0:274 
0.6035904183312382 0:275 
1 0:276 
1 0:277 
1 0:278 
1 0:279 
1 0:280 
1 0:281 
1 0:285 
1 0:286 
1 0:287 
1 0:288 
1 0:289 
1 0:290 
1 0:291 
1 0:294 
-1 0:296 
-1 0:297 
-0.04694260546655202 0:299 
-1 0:301 
-1 0:302 
-1 0:303 
-1 0:304 
-0.2880802622731393 0:305 
-1 0:306 
-0.4633142842396613 0:307 
-0.3278486302386621 0:310 
-1 0:312 
-0.5684543213231439 0:313 
-1 0:314 
-1 0:316 
-1 0:320 
-1 0:322 
-1 0:323 
-0.06636835012220013 0:325 
-0.6400316333930012 0:329 
-0.05304573516039126 0:330 
-1 0:331 
-1 0:333 
-1 0:334 
-0.368769198820645 0:335 
-1 0:337 
-1 0:338 
-1 0:345 
-0.8706729350178618 0:346 
-1 0:349 
-1 0:350 
-1 0:351 
-1 0:353 
-1 0:355 
-1 0:359 
-0.7537586062685607 0:360 
-1 0:362 
-1 0:363 
-1 0:365 
-1 0:366 
-1 0:367 
-0.8362624812513656 0:369 
-0.166261949687897 0:370 
-1 0:371 
-1 0:373 
-1 0:375 
-1 0:376 
-1 0:378 
-1 0:379 
-1 0:380 
-1 0:381 
-1 0:382 
-0.7842024972193444 0:383 
-1 0:385 
-1 0:386 
-1 0:388 
-1 0:392 
-1 0:394 
-1 0:395 
-1 0:396 
-1 0:397 
-1 0:398 
-1 0:405 
-1 0:407 
-0.8885146519681622 0:409 
-0.0710713782129396 0:410 
-1 0:415 
-1 0:416 
-1 0:417 
-0.6435378135749876 0:421 
-0.4608207622393833 0:424 
-1 0:425 
-0.006203526635347836 0:426 
-1 0:427 
-1 0:429 
-0.8446884992732018 0:431 
-1 0:434 
-1 0:438 
-1 0:443 
-1 0:444 
-0.2292743645404551 0:447 
-0.0688881392935151 0:451 
-1 0:452 
-1 0:454 
-1 0:456 
-0.2955250576996295 0:457 
-0.2483924543771052 0:458 
-1 0:459 
-1 0:460 
-0.7426076752317712 0:461 
-1 0:462 
-1 0:464 
-1 0:465 
-0.985185367019808 0:467 
-1 0:468 
-1 0:471 
-1 0:473 
-1 0:475 
-1 0:476 
-1 0:477 
-1 0:478 
-1 0:479 
-1 0:480 
-1 0:487 
-1 0:488 
-1 0:489 
-1 0:491 
-1 0:492 
-1 0:493 
-0.2967285832942647 0:494 
-1 0:496 
-1 0:497 
-0.209674225821015 0:499 
-0.8245288925774 0:500 
-1 0:504 
-1 0:505 
-1 0:508 
-1 0:513 
-0.4087088128675705 0:516 
-0.2307511314035663 0:517 
-1 0:518 
-1 0:520 
-1 0:522 
-1 0:523 
-1 0:526 
-1 0:527 
-1 0:528 
-1 0:529 
-1 0:532 
-1 0:533 
-1 0:534 
-1 0:536 
-1 0:537 
-0.3316719226111771 0:538 
-0.5835600576619628 0:539 
-1 0:540 
-0.890506332086485 0:541 
-1 0:542 
-1 0:543 
-1 0:548 
-1 0:549 
-1 0:554 
-1 0:555 
-1 0:557 
-1 0:558 
-1 0:560 
-1 0:561 
-1 0:563 
-1 0:564 
-1 0:565 
-1 0:566 
-1 0:568 
-1 0:569 
-0.2077827998031469 0:572 
-1 0:574 
-1 0:575 
-1 0:577 
-1 0:578 
-1 0:580 
-1 0:583 
