svm_type nu_svr
kernel_type precomputed
nr_class 2
total_sv 14
rho -0.330382
SV
-0.001179267386511728 0:3 
-0.001660548199267307 0:4 
-0.001337162832257799 0:5 
-0.0001838821576362481 0:6 
-0.001438135131062747 0:12 
-0.001442073987035784 0:13 
-0.000962055306228387 0:15 
-0.001953125 0:18 
0.001953125 0:20 
0.0005696737621179021 0:21 
0.001953125 0:22 
0.001774076237882098 0:23 
0.001953125 0:25 
0.001953125 0:26 
