svm_type nu_svr
kernel_type polynomial
degree 1
gamma 1
coef0 0
nr_class 2
total_sv 6
rho -0.0876369
SV
0.1 1:0.16666667 3:0.055555556 5:0.11111111 8:0.055555556 9:0.11111111 10:0.055555556 12:0.11111111 14:0.11111111 16:0.055555556 17:0.11111111 18:0.055555556 21:0.36 
0.1 3:0.11111111 4:0.11111111 5:0.055555556 6:0.11111111 10:0.11111111 13:0.055555556 15:0.055555556 16:0.055555556 17:0.16666667 18:0.11111111 20:0.055555556 21:0.36 
0.04999999999999999 1:0.21052632 3:0.10526316 4:0.10526316 5:0.10526316 6:0.10526316 9:0.052631579 10:0.10526316 15:0.052631579 16:0.052631579 17:0.10526316 21:0.38 
-0.1 4:0.058823529 5:0.17647059 6:0.058823529 8:0.058823529 9:0.058823529 10:0.058823529 12:0.11764706 14:0.058823529 15:0.058823529 16:0.058823529 17:0.058823529 18:0.17647059 21:0.34 
-0.04999999999999999 1:0.05 2:0.05 3:0.05 6:0.15 9:0.05 10:0.05 14:0.05 16:0.15 17:0.25 18:0.1 19:0.05 21:0.4 
-0.1 1:0.11111111 4:0.055555556 6:0.11111111 7:0.11111111 8:0.11111111 9:0.055555556 13:0.11111111 15:0.055555556 16:0.055555556 17:0.055555556 18:0.055555556 20:0.11111111 21:0.36 
