svm_type nu_svr
kernel_type rbf
gamma 0.0135135
nr_class 2
total_sv 6091
rho 5.99998
SV
1 11:1 23:1 41:0.21428571 42:0.14285714 43:0.071428571 45:0.86494 47:0.43247 48:0.93247 49:0.21180809 50:0.29438921 51:0.52112676 52:0.94366197 53:0.73239437 54:0.28873239 55:0.121 56:0.516 57:0.3185 58:0.3025 59:0.26924169 60:0.11631514 62:0.39534884 63:0.19767442 64:0.30232558 65:0.2173913 66:0.14285714 67:0.41071429 68:0.6 69:0.4 70:0.14567298 71:0.13976439 72:0.41427824 73:0.076923077 
1 9:1 31:1 41:0.25 42:0.10714286 43:0.14285714 46:0.92674 47:0.46337 48:0.03663 49:0.21180809 50:0.29438921 51:0.94366197 52:0.43661972 53:0.69014085 54:0.75352113 55:0.516 57:0.258 58:0.758 59:0.27151377 60:0.11631514 61:0.39534884 62:0.53488372 63:0.46511628 64:0.43023256 65:0.2173913 66:0.10714286 67:0.32142857 68:0.6 69:0.4 70:0.14567298 71:0.11568107 72:0.34705993 
1 7:1 33:1 41:0.35714286 43:0.35714286 44:1 46:1 47:0.5 49:0.28616244 50:0.29438921 51:0.81690141 52:0.53521127 53:0.67605634 54:0.64084507 55:0.169 56:0.223 57:0.196 58:0.473 59:0.10650383 60:0.11631514 61:0.36918605 62:1 63:0.68459302 64:0.18459302 65:0.2173913 67:0.053571429 68:0.6 69:0.2 70:0.14567298 71:0.033590418 72:0.11793884 
1 3:1 40:1 41:0.035714286 42:0.25 43:0.21428571 46:0.86494 47:0.43247 48:0.06753 49:0.062902013 50:0.26066329 51:0.98591549 52:0.52112676 53:0.75352113 54:0.73239437 55:0.802 56:0.121 57:0.4615 58:0.8405 59:0.48381142 60:0.51830025 61:0.36918605 63:0.18459302 64:0.68459302 65:0.13043478 66:0.25 67:0.82142857 68:0.2 69:0.2 70:0.15687697 71:0.29342254 72:0.82308216 73:0.076923077 
-1 12:1 21:1 41:0.21428571 42:0.071428571 43:0.14285714 45:0.79 47:0.395 48:0.895 49:0.25858344 50:0.26066329 51:0.3943662 52:1 53:0.6971831 54:0.1971831 55:0.35 56:0.976 57:0.663 58:0.187 59:0.37105936 60:0.51830025 61:0.20639535 62:0.35174419 63:0.27906977 64:0.42732558 65:0.13043478 66:0.071428571 67:0.28571429 68:0.2 69:0.2 70:0.15687697 71:0.10077217 72:0.29749212 73:0.15384615 
-1 12:1 32:1 41:0.25 42:0.035714286 43:0.21428571 48:0.5 49:0.25858344 50:0.26066329 51:1 52:1 53:1 54:0.5 55:0.976 56:0.976 57:0.976 58:0.5 59:0.43865379 60:0.51830025 61:0.35174419 62:0.35174419 63:0.35174419 64:0.5 65:0.13043478 66:0.035714286 67:0.17857143 68:0.2 69:0.2 70:0.15687697 71:0.062433908 72:0.19289744 73:0.076923077 
-1 5:1 31:1 41:0.071428571 42:0.35714286 43:0.28571429 48:0.5 49:0.062902013 50:0.19647164 51:0.94366197 53:0.47183099 54:0.97183099 55:0.516 56:0.008 57:0.262 58:0.754 59:0.51079239 60:0.52853598 61:0.39534884 62:0.50290698 63:0.44912791 64:0.44622093 65:0.30434783 66:0.35714286 67:0.80612245 68:0.2 69:0.2 70:0.25431625 71:0.3412679 72:0.78958469 73:0.15384615 
1 12:1 25:1 41:0.10714286 42:0.32142857 43:0.21428571 48:0.5 49:0.062902013 50:0.19647164 52:1 53:0.5 55:0.008 56:0.976 57:0.492 58:0.016 59:0.44092587 60:0.52853598 61:0.50290698 62:0.35174419 63:0.42732558 64:0.5755814 65:0.30434783 66:0.32142857 67:0.72959184 68:0.2 69:0.2 70:0.25431625 71:0.30836465 72:0.71452193 73:0.23076923 
1 6:1 32:1 41:0.14285714 42:0.28571429 43:0.14285714 48:0.5 49:0.062902013 50:0.19647164 51:1 52:1 53:1 54:0.5 55:0.976 56:0.976 57:0.976 58:0.5 59:0.50852031 60:0.52853598 61:0.35174419 62:0.35465116 63:0.35319767 64:0.49854651 65:0.30434783 66:0.28571429 67:0.65306122 68:0.2 69:0.2 70:0.25431625 71:0.27002639 72:0.62706021 73:0.30769231 
1 20:1 40:1 41:0.21428571 42:0.21428571 48:0.5 49:0.062902013 50:0.19647164 51:0.98591549 52:0.98591549 53:0.98591549 54:0.5 55:0.802 56:0.802 57:0.802 58:0.5 59:0.61900028 60:0.52853598 61:0.36918605 62:0.36918605 63:0.36918605 64:0.5 65:0.30434783 66:0.21428571 67:0.5 68:0.2 69:0.2 70:0.25431625 71:0.19810152 72:0.46297678 73:0.46153846 
-1 13:1 24:1 41:0.35714286 42:0.071428571 43:0.28571429 45:0.86525 47:0.432625 48:0.932625 49:0.19490397 50:0.19647164 51:0.54929577 52:0.81690141 53:0.68309859 54:0.36619718 55:0.224 56:0.169 57:0.1965 58:0.5275 59:0.60962795 60:0.52853598 61:0.12790698 62:0.36918605 63:0.24854651 64:0.37936047 65:0.30434783 66:0.071428571 67:0.19387755 68:0.2 69:0.2 70:0.25431625 71:0.062758986 72:0.15421754 73:0.15384615 
1 12:1 30:1 41:0.035714286 42:0.17857143 43:0.14285714 45:0.784 47:0.392 48:0.892 49:0.062902013 50:0.13336213 51:0.45070423 52:1 53:0.72535211 54:0.22535211 55:0.251 56:0.976 57:0.6135 58:0.1375 59:0.44319796 60:0.48185484 61:0.2994186 62:0.35174419 63:0.3255814 64:0.47383721 65:0.043478261 66:0.17857143 67:0.76785714 68:0.2 69:0.2 70:0.027578452 71:0.20117372 72:0.78888888 73:0.076923077 
1 20:1 23:1 41:0.10714286 42:0.10714286 45:0.86494 47:0.43247 48:0.93247 49:0.13229802 50:0.13336213 51:0.52112676 52:0.98591549 53:0.75352113 54:0.26760563 55:0.121 56:0.802 57:0.4615 58:0.1595 59:0.45697245 60:0.48185484 62:0.36918605 63:0.18459302 64:0.31540698 65:0.043478261 66:0.10714286 67:0.5 68:0.2 69:0.2 70:0.027578452 71:0.12417213 72:0.50502484 73:0.23076923 
-1 5:1 40:1 41:0.14285714 42:0.071428571 43:0.071428571 48:0.5 49:0.13229802 50:0.13336213 51:0.98591549 53:0.49295775 54:0.99295775 55:0.802 56:0.008 57:0.405 58:0.897 59:0.49985799 60:0.48185484 61:0.36918605 62:0.50290698 63:0.43604651 64:0.43313953 65:0.043478261 66:0.071428571 67:0.36607143 68:0.2 69:0.2 70:0.027578452 71:0.090585516 72:0.38120882 73:0.15384615 
1 11:1 24:1 41:0.035714286 42:0.21428571 43:0.17857143 45:0.86525 47:0.432625 48:0.932625 49:0.1316008 50:0.19655252 51:0.54929577 52:0.94366197 53:0.74647887 54:0.3028169 55:0.224 56:0.516 57:0.37 58:0.354 59:0.39662028 60:0.52093672 61:0.12790698 62:0.39534884 63:0.26162791 64:0.36627907 65:0.086956522 66:0.21428571 67:0.79761905 68:0.2 69:0.2 70:0.065940666 71:0.22152235 72:0.77786305 73:0.076923077 
-1 13:1 21:1 41:0.14285714 42:0.10714286 43:0.035714286 45:0.79 47:0.395 48:0.895 49:0.19498421 50:0.19655252 51:0.3943662 52:0.81690141 53:0.6056338 54:0.28873239 55:0.35 56:0.169 57:0.2595 58:0.5905 59:0.44518603 60:0.52093672 61:0.20639535 62:0.36918605 63:0.2877907 64:0.41860465 65:0.086956522 66:0.10714286 67:0.44047619 68:0.2 69:0.2 70:0.065940666 71:0.11535219 72:0.42340838 73:0.23076923 
-1 20:1 32:1 41:0.21428571 42:0.035714286 43:0.17857143 48:0.5 49:0.19498421 50:0.19655252 51:1 52:0.98591549 53:0.99295775 54:0.50704225 55:0.976 56:0.802 57:0.889 58:0.587 59:0.46577677 60:0.52093672 61:0.35174419 62:0.36918605 63:0.36046512 64:0.49127907 65:0.086956522 66:0.035714286 67:0.20238095 68:0.2 69:0.2 70:0.065940666 71:0.057682261 72:0.23087431 73:0.076923077 
-1 9:1 40:1 41:0.25 43:0.25 44:1 46:0.92674 47:0.46337 48:0.03663 49:0.19498421 50:0.19655252 51:0.98591549 52:0.43661972 53:0.71126761 54:0.77464789 55:0.802 57:0.401 58:0.901 59:0.50866231 60:0.52093672 61:0.36918605 62:0.53488372 63:0.45203488 64:0.41715116 65:0.086956522 67:0.083333333 68:0.2 69:0.2 70:0.065940666 71:0.024095651 72:0.11874365 
1 12:1 35:1 41:0.14285714 42:0.28571429 43:0.14285714 45:0.79 47:0.395 48:0.895 49:0.19616282 50:0.40765327 51:0.76056338 52:1 53:0.88028169 54:0.38028169 55:0.7 56:0.976 57:0.838 58:0.362 59:0.43410963 60:0.26380273 61:0.52325581 62:0.35174419 63:0.4375 64:0.58575581 65:0.30434783 66:0.28571429 67:0.65306122 68:0.2 69:0.2 70:0.30642423 71:0.29783206 72:0.63103249 73:0.30769231 
1 3:1 33:1 41:0.35714286 42:0.071428571 43:0.28571429 46:0.86494 47:0.43247 48:0.06753 49:0.33500457 50:0.40765327 51:0.81690141 52:0.52112676 53:0.66901408 54:0.64788732 55:0.169 56:0.121 57:0.145 58:0.524 59:0.39690429 60:0.26380273 61:0.36918605 63:0.18459302 64:0.68459302 65:0.30434783 66:0.071428571 67:0.19387755 68:0.2 69:0.2 70:0.30642423 71:0.095662242 72:0.2069663 73:0.15384615 
-1 5:1 40:1 41:0.035714286 42:0.39285714 43:0.35714286 48:0.5 50:0.20382664 51:0.98591549 53:0.49295775 54:0.99295775 55:0.802 56:0.008 57:0.405 58:0.897 59:0.44930417 60:0.27295285 61:0.36918605 62:0.50290698 63:0.43604651 64:0.43313953 65:0.30434783 66:0.39285714 67:0.88265306 68:0.2 69:0.2 70:0.270254 71:0.38873884 72:0.87320567 73:0.076923077 
-1 12:1 31:1 41:0.10714286 42:0.32142857 43:0.21428571 48:0.5 50:0.20382664 51:0.94366197 52:1 53:0.97183099 54:0.47183099 55:0.516 56:0.976 57:0.746 58:0.27 59:0.38170974 60:0.27295285 61:0.39534884 62:0.35174419 63:0.37354651 64:0.52180233 65:0.30434783 66:0.32142857 67:0.72959184 68:0.2 69:0.2 70:0.270254 71:0.33175227 72:0.74659351 73:0.23076923 
-1 3:1 32:1 41:0.14285714 42:0.28571429 43:0.14285714 46:0.86494 47:0.43247 48:0.06753 50:0.20382664 51:1 52:0.52112676 53:0.76056338 54:0.73943662 55:0.976 56:0.121 57:0.5485 58:0.9275 59:0.44930417 60:0.27295285 61:0.35174419 63:0.17587209 64:0.67587209 65:0.30434783 66:0.28571429 67:0.65306122 68:0.2 69:0.2 70:0.270254 71:0.29341402 72:0.66141398 73:0.30769231 
-1 5:1 24:1 41:0.21428571 42:0.21428571 45:0.86525 47:0.432625 48:0.932625 49:0.13881688 50:0.20382664 51:0.54929577 53:0.27464789 54:0.77464789 55:0.224 56:0.008 57:0.116 58:0.608 59:0.35629083 60:0.27295285 61:0.12790698 62:0.50290698 63:0.31540698 64:0.3125 65:0.30434783 66:0.21428571 67:0.5 68:0.2 69:0.2 70:0.270254 71:0.2113357 72:0.47905323 73:0.46153846 
-1 13:1 33:1 41:0.28571429 42:0.14285714 43:0.14285714 48:0.5 49:0.13881688 50:0.20382664 51:0.81690141 52:0.81690141 53:0.81690141 54:0.5 55:0.169 56:0.169 57:0.169 58:0.5 59:0.23942062 60:0.27295285 61:0.36918605 62:0.36918605 63:0.36918605 64:0.5 65:0.30434783 66:0.14285714 67:0.34693878 68:0.2 69:0.2 70:0.270254 71:0.15910077 72:0.36299823 73:0.30769231 
-1 20:1 26:1 41:0.35714286 42:0.071428571 43:0.28571429 48:0.5 49:0.13881688 50:0.20382664 51:1 52:0.98591549 53:0.99295775 54:0.50704225 55:0.976 56:0.802 57:0.889 58:0.587 59:0.26001136 60:0.27295285 61:0.35465116 62:0.36918605 63:0.3619186 64:0.49273256 65:0.30434783 66:0.071428571 67:0.19387755 68:0.2 69:0.2 70:0.270254 71:0.10143085 72:0.2348678 73:0.15384615 
-1 3:1 32:1 41:0.10714286 42:0.35714286 43:0.25 46:0.86494 47:0.43247 48:0.06753 49:0.069396004 50:0.27378081 51:1 52:0.52112676 53:0.76056338 54:0.73943662 55:0.976 56:0.121 57:0.5485 58:0.9275 59:0.44532803 60:0.38166873 61:0.35174419 63:0.17587209 64:0.67587209 65:0.34782609 66:0.35714286 67:0.75 68:0.2 69:0.2 70:0.29954921 71:0.35786615 72:0.7656018 73:0.23076923 
-1 11:1 23:1 41:0.14285714 42:0.32142857 43:0.17857143 45:0.86494 47:0.43247 48:0.93247 49:0.13879201 50:0.27378081 51:0.52112676 52:0.94366197 53:0.73239437 54:0.28873239 55:0.121 56:0.516 57:0.3185 58:0.3025 59:0.39150809 60:0.38166873 62:0.39534884 63:0.19767442 64:0.30232558 65:0.34782609 66:0.32142857 67:0.67857143 68:0.2 69:0.2 70:0.29954921 71:0.31920282 72:0.68363152 73:0.30769231 
1 18:1 32:1 41:0.10714286 42:0.28571429 43:0.17857143 46:0.775 47:0.3875 48:0.1125 49:0.12556333 50:0.45554326 51:1 52:0.6056338 53:0.8028169 54:0.6971831 55:0.976 56:0.215 57:0.5955 58:0.8805 59:0.54970179 60:0.53101737 61:0.35174419 62:0.15697674 63:0.25436047 64:0.59738372 65:0.26086957 66:0.28571429 67:0.70604396 68:0.2 69:0.2 70:0.28833012 71:0.31952272 72:0.69737007 73:0.23076923 
1 1:1 38:1 41:0.14285714 42:0.25 43:0.10714286 45:0.775 46:0.79 47:0.7825 48:0.4925 49:0.18774325 50:0.45554326 51:0.6056338 52:0.3943662 53:0.5 54:0.6056338 55:0.215 56:0.35 57:0.2825 58:0.4325 59:0.50923033 60:0.53101737 61:0.15697674 62:0.20639535 63:0.18168605 64:0.4752907 65:0.26086957 66:0.25 67:0.62362637 68:0.2 69:0.2 70:0.28833012 71:0.29001674 72:0.63369833 73:0.30769231 
1 13:1 21:1 41:0.17857143 42:0.21428571 43:0.035714286 45:0.79 47:0.395 48:0.895 49:0.25112666 50:0.45554326 51:0.3943662 52:0.81690141 53:0.6056338 54:0.28873239 55:0.35 56:0.169 57:0.2595 58:0.5905 59:0.48792957 60:0.53101737 61:0.20639535 62:0.36918605 63:0.2877907 64:0.41860465 65:0.26086957 66:0.21428571 67:0.54120879 68:0.2 69:0.2 70:0.28833012 71:0.24626815 72:0.53929208 73:0.38461538 
1 4:1 33:1 41:0.21428571 42:0.17857143 43:0.035714286 46:0.86525 47:0.432625 48:0.067375 49:0.25112666 50:0.45554326 51:0.81690141 52:0.54929577 53:0.68309859 54:0.63380282 55:0.169 56:0.224 57:0.1965 58:0.4725 59:0.44092587 60:0.53101737 61:0.36918605 62:0.12790698 63:0.24854651 64:0.62063953 65:0.26086957 66:0.17857143 67:0.45879121 68:0.2 69:0.2 70:0.28833012 71:0.22693649 72:0.49757576 73:0.38461538 
1 6:1 24:1 41:0.25 42:0.14285714 43:0.10714286 45:0.86525 47:0.432625 48:0.932625 49:0.32054754 50:0.45554326 51:0.54929577 52:1 53:0.77464789 54:0.27464789 55:0.224 56:0.976 57:0.6 58:0.124 59:0.40173246 60:0.53101737 61:0.12790698 62:0.35465116 63:0.24127907 64:0.38662791 65:0.26086957 66:0.14285714 67:0.37637363 68:0.2 69:0.2 70:0.28833012 71:0.1835215 72:0.40388942 73:0.30769231 
1 10:1 26:1 41:0.28571429 42:0.10714286 43:0.17857143 46:0.784 47:0.392 48:0.108 49:0.32054754 50:0.45554326 51:1 52:0.45070423 53:0.72535211 54:0.77464789 55:0.976 56:0.251 57:0.6135 58:0.8625 59:0.4693269 60:0.53101737 61:0.35465116 62:0.2994186 63:0.32703488 64:0.52761628 65:0.26086957 66:0.10714286 67:0.29395604 68:0.2 69:0.2 70:0.28833012 71:0.14518325 72:0.32115827 73:0.23076923 
-1 19:1 30:1 41:0.32142857 42:0.071428571 43:0.25 45:0.784 46:0.78 47:0.782 48:0.502 49:0.38344955 50:0.45554326 51:0.45070423 52:0.73239437 53:0.5915493 54:0.35915493 55:0.251 56:0.392 57:0.3215 58:0.4295 59:0.43396762 60:0.53101737 61:0.2994186 62:0.095930233 63:0.19767442 64:0.60174419 65:0.26086957 66:0.071428571 67:0.21153846 68:0.2 69:0.2 70:0.28833012 71:0.1061863 72:0.23700573 73:0.15384615 
-1 20:1 30:1 41:0.071428571 42:0.35714286 43:0.28571429 45:0.784 47:0.392 48:0.892 49:0.062902013 50:0.3301322 51:0.45070423 52:0.98591549 53:0.71830986 54:0.23239437 55:0.251 56:0.802 57:0.5265 58:0.2245 59:0.4860835 60:0.41516749 61:0.2994186 62:0.36918605 63:0.33430233 64:0.46511628 65:0.30434783 66:0.35714286 67:0.80612245 68:0.2 69:0.2 70:0.29177876 71:0.37550086 72:0.81344402 73:0.15384615 
-1 6:1 40:1 41:0.10714286 42:0.32142857 43:0.21428571 48:0.5 49:0.062902013 50:0.3301322 51:0.98591549 52:1 53:0.99295775 54:0.49295775 55:0.802 56:0.976 57:0.889 58:0.413 59:0.52896904 60:0.41516749 61:0.36918605 62:0.35465116 63:0.3619186 64:0.50726744 65:0.30434783 66:0.32142857 67:0.72959184 68:0.2 69:0.2 70:0.29177876 71:0.34191425 72:0.74136187 73:0.23076923 
1 3:1 23:1 41:0.17857143 42:0.25 43:0.071428571 45:0.86494 46:0.86494 47:0.86494 48:0.5 49:0.13229802 50:0.3301322 51:0.52112676 52:0.52112676 53:0.52112676 54:0.5 55:0.121 56:0.121 57:0.121 58:0.5 59:0.54274354 60:0.41516749 64:0.5 65:0.30434783 66:0.25 67:0.57653061 68:0.2 69:0.2 70:0.29177876 71:0.26491266 72:0.57610433 73:0.38461538 
1 10:1 23:1 41:0.21428571 42:0.21428571 45:0.86494 46:0.784 47:0.82447 48:0.54047 49:0.20169402 50:0.3301322 51:0.52112676 52:0.45070423 53:0.48591549 54:0.53521127 55:0.121 56:0.251 57:0.186 58:0.435 59:0.4889236 60:0.41516749 62:0.2994186 63:0.1497093 64:0.3502907 65:0.30434783 66:0.21428571 67:0.5 68:0.2 69:0.2 70:0.29177876 71:0.22624932 72:0.49312673 73:0.46153846 
-1 5:1 30:1 41:0.25 42:0.17857143 43:0.071428571 45:0.784 47:0.392 48:0.892 49:0.26459604 50:0.3301322 51:0.45070423 53:0.22535211 54:0.72535211 55:0.251 56:0.008 57:0.1295 58:0.6215 59:0.45356433 60:0.41516749 61:0.2994186 62:0.50290698 63:0.40116279 64:0.39825581 65:0.30434783 66:0.17857143 67:0.42346939 68:0.2 69:0.2 70:0.29177876 71:0.18725238 72:0.40943316 73:0.38461538 
-1 20:1 32:1 41:0.32142857 42:0.10714286 43:0.21428571 48:0.5 49:0.26459604 50:0.3301322 51:1 52:0.98591549 53:0.99295775 54:0.50704225 55:0.976 56:0.802 57:0.889 58:0.587 59:0.45129225 60:0.41516749 61:0.35174419 62:0.36918605 63:0.36046512 64:0.49127907 65:0.30434783 66:0.10714286 67:0.27040816 68:0.2 69:0.2 70:0.29177876 71:0.11601087 72:0.25653766 73:0.23076923 
-1 13:1 40:1 41:0.35714286 42:0.071428571 43:0.28571429 48:0.5 49:0.26459604 50:0.3301322 51:0.98591549 52:0.81690141 53:0.90140845 54:0.58450704 55:0.802 56:0.169 57:0.4855 58:0.8165 59:0.49417779 60:0.41516749 61:0.36918605 62:0.36918605 63:0.36918605 64:0.5 65:0.30434783 66:0.071428571 67:0.19387755 68:0.2 69:0.2 70:0.29177876 71:0.082424259 72:0.18445551 73:0.15384615 
-1 1:1 40:1 42:0.35714286 43:0.35714286 44:1 46:0.79 47:0.395 48:0.105 50:0.26033978 51:0.98591549 52:0.3943662 53:0.69014085 54:0.79577465 55:0.802 56:0.35 57:0.576 58:0.726 59:0.51917069 60:0.53365385 61:0.36918605 62:0.20639535 63:0.2877907 64:0.58139535 65:0.2173913 66:0.35714286 67:0.94642857 68:0.2 69:0.2 70:0.19481527 71:0.36227521 72:0.93590138 
-1 13:1 33:1 41:0.071428571 42:0.28571429 43:0.21428571 48:0.5 49:0.063383406 50:0.26033978 51:0.81690141 52:0.81690141 53:0.81690141 54:0.5 55:0.169 56:0.169 57:0.169 58:0.5 59:0.45086623 60:0.53365385 61:0.36918605 62:0.36918605 63:0.36918605 64:0.5 65:0.2173913 66:0.28571429 67:0.76785714 68:0.2 69:0.2 70:0.19481527 71:0.29919496 72:0.77600112 73:0.15384615 
-1 20:1 33:1 41:0.10714286 42:0.25 43:0.14285714 48:0.5 49:0.063383406 50:0.26033978 51:0.81690141 52:0.98591549 53:0.90140845 54:0.41549296 55:0.169 56:0.802 57:0.4855 58:0.1835 59:0.40386254 60:0.53365385 61:0.36918605 62:0.36918605 63:0.36918605 64:0.5 65:0.2173913 66:0.25 67:0.67857143 68:0.2 69:0.2 70:0.19481527 71:0.27986329 72:0.72699786 73:0.23076923 
1 20:1 40:1 41:0.14285714 42:0.21428571 43:0.071428571 48:0.5 49:0.063383406 50:0.26033978 51:0.98591549 52:0.98591549 53:0.98591549 54:0.5 55:0.802 56:0.802 57:0.802 58:0.5 59:0.44674808 60:0.53365385 61:0.36918605 62:0.36918605 63:0.36918605 64:0.5 65:0.2173913 66:0.21428571 67:0.58928571 68:0.2 69:0.2 70:0.19481527 71:0.24627668 72:0.64186016 73:0.30769231 
-1 12:1 30:1 41:0.21428571 42:0.14285714 43:0.071428571 45:0.784 47:0.392 48:0.892 49:0.12628542 50:0.26033978 51:0.45070423 52:1 53:0.72535211 54:0.22535211 55:0.251 56:0.976 57:0.6135 58:0.1375 59:0.45427435 60:0.53365385 61:0.2994186 62:0.35174419 63:0.3255814 64:0.47383721 65:0.2173913 66:0.14285714 67:0.41071429 68:0.2 69:0.2 70:0.19481527 71:0.17369313 72:0.45787029 73:0.30769231 
-1 3:1 32:1 41:0.25 42:0.10714286 43:0.14285714 46:0.86494 47:0.43247 48:0.06753 49:0.12628542 50:0.26033978 51:1 52:0.52112676 53:0.76056338 54:0.73943662 55:0.976 56:0.121 57:0.5485 58:0.9275 59:0.52186879 60:0.53365385 61:0.35174419 63:0.17587209 64:0.67587209 65:0.2173913 66:0.10714286 67:0.32142857 68:0.2 69:0.2 70:0.19481527 71:0.13535487 72:0.36068779 73:0.23076923 
-1 19:1 23:1 41:0.28571429 42:0.071428571 43:0.21428571 45:0.86494 46:0.78 47:0.82247 48:0.54247 49:0.19568142 50:0.26033978 51:0.52112676 52:0.73239437 53:0.62676056 54:0.3943662 55:0.121 56:0.392 57:0.2565 58:0.3645 59:0.46804885 60:0.53365385 62:0.095930233 63:0.047965116 64:0.45203488 65:0.2173913 66:0.071428571 67:0.23214286 68:0.2 69:0.2 70:0.19481527 71:0.096691537 72:0.26268126 73:0.15384615 
1 15:1 23:1 41:0.14285714 42:0.21428571 43:0.071428571 45:0.86494 46:0.79 47:0.82747 48:0.53747 49:0.13229802 50:0.46150312 51:0.52112676 52:0.76056338 53:0.64084507 54:0.38028169 55:0.121 56:0.7 57:0.4105 58:0.2105 59:0.45058222 60:0.53489454 62:0.52325581 63:0.26162791 64:0.23837209 65:0.2173913 66:0.21428571 67:0.58928571 68:0.2 69:0.2 70:0.27923496 71:0.29337952 72:0.6510619 73:0.30769231 
1 7:1 24:1 42:0.28571429 43:0.28571429 44:1 45:0.86525 46:1 47:0.932625 48:0.432625 49:0.069420876 50:0.42773677 51:0.54929577 52:0.53521127 53:0.54225352 54:0.50704225 55:0.224 56:0.223 57:0.2235 58:0.5005 59:0.43709174 60:0.43889578 61:0.12790698 62:1 63:0.56395349 64:0.063953488 65:0.13043478 66:0.28571429 67:0.92857143 68:0.4 69:0.4 70:0.19177264 71:0.35005243 72:0.91036364 
-1 3:1 24:1 41:0.071428571 42:0.21428571 43:0.14285714 45:0.86525 46:0.86494 47:0.865095 48:0.500155 49:0.21907391 50:0.42773677 51:0.54929577 52:0.52112676 53:0.53521127 54:0.51408451 55:0.224 56:0.121 57:0.1725 58:0.5515 59:0.35856291 60:0.43889578 61:0.12790698 63:0.063953488 64:0.56395349 65:0.13043478 66:0.21428571 67:0.71428571 68:0.4 69:0.2 70:0.19177264 71:0.25371536 72:0.66476585 73:0.076923077 
1 11:1 23:1 41:0.10714286 42:0.17857143 43:0.071428571 45:0.86494 47:0.43247 48:0.93247 49:0.28846992 50:0.42773677 51:0.52112676 52:0.94366197 53:0.73239437 54:0.28873239 55:0.121 56:0.516 57:0.3185 58:0.3025 59:0.30474297 60:0.43889578 62:0.39534884 63:0.19767442 64:0.30232558 65:0.13043478 66:0.17857143 67:0.60714286 68:0.4 69:0.2 70:0.19177264 71:0.21505203 72:0.56619913 73:0.15384615 
-1 13:1 39:1 41:0.10714286 42:0.35714286 43:0.25 45:0.78 47:0.39 48:0.89 49:0.24952202 50:0.44929467 51:0.73239437 52:0.81690141 53:0.77464789 54:0.45774648 55:0.392 56:0.169 57:0.2805 58:0.6115 59:0.36466913 60:0.44277295 61:0.095930233 62:0.36918605 63:0.23255814 64:0.36337209 65:0.34782609 66:0.35714286 67:0.75 68:0.2 69:0.2 70:0.32195316 71:0.36838641 72:0.75964533 73:0.23076923 
1 12:1 33:1 41:0.14285714 42:0.32142857 43:0.17857143 48:0.5 49:0.24952202 50:0.44929467 51:0.81690141 52:1 53:0.9084507 54:0.4084507 55:0.169 56:0.976 57:0.5725 58:0.0965 59:0.31766544 60:0.44277295 61:0.36918605 62:0.35174419 63:0.36046512 64:0.50872093 65:0.34782609 66:0.32142857 67:0.67857143 68:0.2 69:0.2 70:0.32195316 71:0.34905474 72:0.72004621 73:0.30769231 
-1 1:1 40:1 41:0.35714286 42:0.10714286 43:0.25 46:0.79 47:0.395 48:0.105 49:0.3823263 50:0.44929467 51:0.98591549 52:0.3943662 53:0.69014085 54:0.79577465 55:0.802 56:0.35 57:0.576 58:0.726 59:0.50312411 60:0.44277295 61:0.36918605 62:0.20639535 63:0.2877907 64:0.58139535 65:0.34782609 66:0.10714286 67:0.25 68:0.2 69:0.2 70:0.32195316 71:0.11125922 72:0.23294428 73:0.23076923 
-1 11:1 21:1 41:0.39285714 42:0.071428571 43:0.32142857 45:0.79 47:0.395 48:0.895 49:0.44570971 50:0.44929467 51:0.3943662 52:0.94366197 53:0.66901408 54:0.22535211 55:0.35 56:0.516 57:0.433 58:0.417 59:0.48182335 60:0.44277295 61:0.20639535 62:0.39534884 63:0.30087209 64:0.40552326 65:0.34782609 66:0.071428571 67:0.17857143 68:0.2 69:0.2 70:0.32195316 71:0.067510634 72:0.14332938 73:0.15384615 
-1 10:1 36:1 41:0.035714286 42:0.35714286 43:0.32142857 46:0.784 47:0.392 48:0.108 50:0.39275726 51:0.97183099 52:0.45070423 53:0.71126761 54:0.76056338 55:1 56:0.251 57:0.6255 58:0.8745 59:0.61488214 60:0.5530397 61:0.18895349 62:0.2994186 63:0.24418605 64:0.44476744 65:0.26086957 66:0.35714286 67:0.87087912 68:0.2 69:0.2 70:0.31590604 71:0.40295678 72:0.83854966 73:0.076923077 
-1 15:1 30:1 41:0.071428571 42:0.32142857 43:0.25 45:0.784 46:0.79 47:0.787 48:0.497 49:0.062902013 50:0.39275726 51:0.45070423 52:0.76056338 53:0.6056338 54:0.34507042 55:0.251 56:0.7 57:0.4755 58:0.2755 59:0.57952286 60:0.5530397 61:0.2994186 62:0.52325581 63:0.41133721 64:0.3880814 65:0.26086957 66:0.32142857 67:0.78846154 68:0.2 69:0.2 70:0.31590604 71:0.36395984 72:0.7579322 73:0.15384615 
1 19:1 32:1 41:0.14285714 42:0.25 43:0.10714286 46:0.78 47:0.39 48:0.11 49:0.12628542 50:0.39275726 51:1 52:0.73239437 53:0.86619718 54:0.63380282 55:0.976 56:0.392 57:0.684 58:0.792 59:0.67551832 60:0.5530397 61:0.35174419 62:0.095930233 63:0.22383721 64:0.62790698 65:0.26086957 66:0.25 67:0.62362637 68:0.2 69:0.2 70:0.31590604 71:0.27033913 72:0.56439232 73:0.30769231 
-1 19:1 30:1 41:0.21428571 42:0.17857143 43:0.035714286 45:0.784 46:0.78 47:0.782 48:0.502 49:0.25176852 50:0.39275726 51:0.45070423 52:0.73239437 53:0.5915493 54:0.35915493 55:0.251 56:0.392 57:0.3215 58:0.4295 59:0.62482249 60:0.5530397 61:0.2994186 62:0.095930233 63:0.19767442 64:0.60174419 65:0.26086957 66:0.17857143 67:0.45879121 68:0.2 69:0.2 70:0.31590604 71:0.19708456 72:0.41295487 73:0.38461538 
-1 3:1 33:1 41:0.28571429 42:0.10714286 43:0.17857143 46:0.86494 47:0.43247 48:0.06753 49:0.3143496 50:0.39275726 51:0.81690141 52:0.52112676 53:0.66901408 54:0.64788732 55:0.169 56:0.121 57:0.145 58:0.524 59:0.56248225 60:0.5530397 61:0.36918605 63:0.18459302 64:0.68459302 65:0.26086957 66:0.10714286 67:0.29395604 68:0.2 69:0.2 70:0.31590604 71:0.14349527 72:0.30217098 73:0.23076923 
-1 12:1 23:1 41:0.32142857 42:0.071428571 43:0.25 45:0.86494 47:0.43247 48:0.93247 49:0.38374561 50:0.39275726 51:0.52112676 52:1 53:0.76056338 54:0.26056338 55:0.121 56:0.976 57:0.5485 58:0.0725 59:0.50866231 60:0.5530397 62:0.35174419 63:0.17587209 64:0.32412791 65:0.26086957 66:0.071428571 67:0.21153846 68:0.2 69:0.2 70:0.31590604 71:0.10483193 72:0.22224318 73:0.15384615 
-1 11:1 30:1 41:0.071428571 42:0.35714286 43:0.28571429 45:0.784 47:0.392 48:0.892 49:0.12628542 50:0.26036485 51:0.45070423 52:0.94366197 53:0.6971831 54:0.25352113 55:0.251 56:0.516 57:0.3835 58:0.3675 59:0.37262141 60:0.53520471 61:0.2994186 62:0.39534884 63:0.34738372 64:0.45203488 65:0.30434783 66:0.35714286 67:0.80612245 68:0.2 69:0.2 70:0.29134089 71:0.36974595 72:0.8016813 73:0.15384615 
-1 20:1 31:1 41:0.10714286 42:0.32142857 43:0.21428571 48:0.5 49:0.12628542 50:0.26036485 51:0.94366197 52:0.98591549 53:0.96478873 54:0.47887324 55:0.516 56:0.802 57:0.659 58:0.357 59:0.3748935 60:0.53520471 61:0.39534884 62:0.36918605 63:0.38226744 64:0.5130814 65:0.30434783 66:0.32142857 67:0.72959184 68:0.2 69:0.2 70:0.29134089 71:0.34566264 72:0.7499589 73:0.23076923 
1 4:1 40:1 41:0.14285714 42:0.28571429 43:0.14285714 46:0.86525 47:0.432625 48:0.067375 49:0.12628542 50:0.26036485 51:0.98591549 52:0.54929577 53:0.76760563 54:0.71830986 55:0.802 56:0.224 57:0.513 58:0.789 59:0.41777904 60:0.53520471 61:0.36918605 62:0.12790698 63:0.24854651 64:0.62063953 65:0.30434783 66:0.28571429 67:0.65306122 68:0.2 69:0.2 70:0.29134089 71:0.31207603 72:0.6778268 73:0.30769231 
1 16:1 33:1 41:0.28571429 42:0.14285714 43:0.14285714 48:0.5 49:0.1957063 50:0.26036485 51:0.81690141 52:0.97183099 53:0.8943662 54:0.42253521 55:0.169 56:1 57:0.5845 58:0.0845 59:0.44206191 60:0.53520471 61:0.36918605 62:0.18895349 63:0.27906977 64:0.59011628 65:0.30434783 66:0.14285714 67:0.34693878 68:0.2 69:0.2 70:0.29134089 71:0.17740451 72:0.38860025 73:0.30769231 
1 11:1 32:1 41:0.035714286 42:0.35714286 43:0.32142857 48:0.5 49:0.069396004 50:0.3294043 51:1 52:0.94366197 53:0.97183099 54:0.52816901 55:0.976 56:0.516 57:0.746 58:0.73 59:0.49005964 60:0.59367246 61:0.35174419 62:0.39534884 63:0.37354651 64:0.47819767 65:0.26086957 66:0.35714286 67:0.87087912 68:0.2 69:0.2 70:0.2560216 71:0.36702686 72:0.84578737 73:0.076923077 
1 3:1 31:1 41:0.32142857 42:0.071428571 43:0.25 46:0.86494 47:0.43247 48:0.06753 49:0.19447794 50:0.3294043 51:0.94366197 52:0.52112676 53:0.73239437 54:0.71126761 55:0.516 56:0.121 57:0.3185 58:0.6975 59:0.66444192 60:0.59367246 61:0.39534884 63:0.19767442 64:0.69767442 65:0.26086957 66:0.071428571 67:0.21153846 68:0.2 69:0.2 70:0.2560216 71:0.10175593 72:0.24235021 73:0.15384615 
1 3:1 36:1 42:0.17857143 43:0.17857143 44:1 46:0.86494 47:0.43247 48:0.06753 50:0.13928721 51:0.97183099 52:0.52112676 53:0.74647887 54:0.72535211 55:1 56:0.121 57:0.5605 58:0.9395 59:0.5472877 60:0.62344913 61:0.18895349 63:0.094476744 64:0.59447674 66:0.17857143 67:0.88265306 68:0.2 69:0.2 70:0.018511458 71:0.20725888 72:0.83301593 
1 10:1 23:1 41:0.035714286 42:0.14285714 43:0.10714286 45:0.86494 46:0.784 47:0.82447 48:0.54047 49:0.069396004 50:0.13928721 51:0.52112676 52:0.45070423 53:0.48591549 54:0.53521127 55:0.121 56:0.251 57:0.186 58:0.435 59:0.49346776 60:0.62344913 62:0.2994186 63:0.1497093 64:0.3502907 66:0.14285714 67:0.72959184 68:0.2 69:0.2 70:0.018511458 71:0.16859554 72:0.68688542 73:0.076923077 
1 20:1 31:1 41:0.10714286 42:0.071428571 43:0.035714286 48:0.5 49:0.13229802 50:0.13928721 51:0.94366197 52:0.98591549 53:0.96478873 54:0.47887324 55:0.516 56:0.802 57:0.659 58:0.357 59:0.46038057 60:0.62344913 61:0.39534884 62:0.36918605 63:0.38226744 64:0.5130814 66:0.071428571 67:0.42346939 68:0.2 69:0.2 70:0.018511458 71:0.10551529 72:0.44846961 73:0.15384615 
1 6:1 40:1 41:0.14285714 42:0.035714286 43:0.10714286 48:0.5 49:0.13229802 50:0.13928721 51:0.98591549 52:1 53:0.99295775 54:0.49295775 55:0.802 56:0.976 57:0.889 58:0.413 59:0.50326612 60:0.62344913 61:0.36918605 62:0.35465116 63:0.3619186 64:0.50726744 66:0.035714286 67:0.27040816 68:0.2 69:0.2 70:0.018511458 71:0.071928676 72:0.3215269 73:0.076923077 
-1 7:1 26:1 41:0.17857143 43:0.17857143 44:1 46:1 47:0.5 49:0.13229802 50:0.13928721 51:1 52:0.53521127 53:0.76760563 54:0.73239437 55:0.976 56:0.223 57:0.5995 58:0.8765 59:0.57086055 60:0.62344913 61:0.35465116 62:1 63:0.67732558 64:0.17732558 67:0.11734694 68:0.2 69:0.2 70:0.018511458 71:0.033590418 72:0.17662504 
1 3:1 21:1 41:0.035714286 42:0.25 43:0.21428571 45:0.79 46:0.86494 47:0.82747 48:0.46253 49:0.063383406 50:0.33808327 51:0.3943662 52:0.52112676 53:0.45774648 54:0.43661972 55:0.35 56:0.121 57:0.2355 58:0.6145 59:0.52598694 60:0.53644541 61:0.20639535 63:0.10319767 64:0.60319767 65:0.13043478 66:0.25 67:0.82142857 68:0.2 69:0.2 70:0.1564064 71:0.27202741 72:0.76548117 73:0.076923077 
1 13:1 37:1 41:0.10714286 42:0.17857143 43:0.071428571 45:0.83 47:0.415 48:0.915 49:0.1993721 50:0.33808327 51:0.91549296 52:0.81690141 53:0.86619718 54:0.54929577 55:0.823 56:0.169 57:0.496 58:0.827 59:0.51803465 60:0.53644541 61:0.15988372 62:0.36918605 63:0.26453488 64:0.39534884 65:0.13043478 66:0.17857143 67:0.60714286 68:0.2 69:0.2 70:0.1564064 71:0.18893815 72:0.53858185 73:0.23076923 
-1 17:1 24:1 41:0.21428571 42:0.071428571 43:0.14285714 45:0.86525 46:0.83 47:0.847625 48:0.517625 49:0.26879298 50:0.33808327 51:0.54929577 52:0.91549296 53:0.73239437 54:0.31690141 55:0.224 56:0.823 57:0.5235 58:0.2005 59:0.43410963 60:0.53644541 61:0.12790698 62:0.15988372 63:0.14389535 64:0.48401163 65:0.13043478 66:0.071428571 67:0.28571429 68:0.2 69:0.2 70:0.1564064 71:0.10210818 72:0.30146744 73:0.15384615 
-1 20:1 37:1 41:0.25 42:0.035714286 43:0.21428571 45:0.83 47:0.415 48:0.915 49:0.33538567 50:0.33808327 51:0.91549296 52:0.98591549 53:0.95070423 54:0.46478873 55:0.823 56:0.802 57:0.8125 58:0.5105 59:0.47997728 60:0.53644541 61:0.15988372 62:0.36918605 63:0.26453488 64:0.39534884 65:0.13043478 66:0.035714286 67:0.17857143 68:0.2 69:0.2 70:0.1564064 71:0.057682261 72:0.18014957 73:0.076923077 
1 13:1 31:1 41:0.035714286 42:0.21428571 43:0.17857143 48:0.5 49:0.063383406 50:0.12730117 51:0.94366197 52:0.81690141 53:0.88028169 54:0.56338028 55:0.516 56:0.169 57:0.3425 58:0.6735 59:0.50695825 60:0.57227047 61:0.39534884 62:0.36918605 63:0.38226744 64:0.5130814 65:0.086956522 66:0.21428571 67:0.79761905 68:0.2 69:0.2 70:0.062054171 71:0.21201905 72:0.75379985 73:0.076923077 
1 20:1 33:1 41:0.071428571 42:0.17857143 43:0.10714286 48:0.5 49:0.063383406 50:0.12730117 51:0.81690141 52:0.98591549 53:0.90140845 54:0.41549296 55:0.169 56:0.802 57:0.4855 58:0.1835 59:0.45995456 60:0.57227047 61:0.36918605 62:0.36918605 63:0.36918605 64:0.5 65:0.086956522 66:0.17857143 67:0.67857143 68:0.2 69:0.2 70:0.062054171 71:0.19268738 72:0.68863702 73:0.15384615 
-1 6:1 30:1 41:0.17857143 42:0.071428571 43:0.10714286 45:0.784 47:0.392 48:0.892 49:0.12628542 50:0.12730117 51:0.45070423 52:1 53:0.72535211 54:0.22535211 55:0.251 56:0.976 57:0.6135 58:0.1375 59:0.42047714 60:0.57227047 61:0.2994186 62:0.35465116 63:0.32703488 64:0.47238372 65:0.086956522 66:0.071428571 67:0.32142857 68:0.2 69:0.2 70:0.062054171 71:0.10077217 72:0.37881087 73:0.15384615 
-1 18:1 33:1 41:0.14285714 42:0.28571429 43:0.14285714 46:0.775 47:0.3875 48:0.1125 49:0.069396004 50:0.47173574 51:0.81690141 52:0.6056338 53:0.71126761 54:0.6056338 55:0.169 56:0.215 57:0.192 58:0.477 59:0.41607498 60:0.34879032 61:0.36918605 62:0.15697674 63:0.2630814 64:0.60610465 65:0.30434783 66:0.28571429 67:0.65306122 68:0.4 69:0.4 70:0.31591234 71:0.32833664 72:0.68428219 73:0.23076923 
-1 20:1 39:1 41:0.21428571 42:0.21428571 45:0.78 47:0.39 48:0.89 49:0.19415701 50:0.47173574 51:0.73239437 52:0.98591549 53:0.85915493 54:0.37323944 55:0.392 56:0.802 57:0.597 58:0.295 59:0.36026697 60:0.34879032 61:0.095930233 62:0.36918605 63:0.23255814 64:0.36337209 65:0.30434783 66:0.21428571 67:0.5 68:0.4 69:0.4 70:0.31591234 71:0.26457303 72:0.55246644 73:0.076923077 
-1 3:1 28:1 41:0.28571429 42:0.14285714 43:0.14285714 45:0.92784 46:0.86494 47:0.89639 48:0.53145 49:0.26859962 50:0.47173574 51:0.56338028 52:0.52112676 53:0.54225352 54:0.52112676 55:0.037 56:0.121 57:0.079 58:0.458 59:0.33740415 60:0.34879032 61:0.078488372 63:0.039244186 64:0.53924419 65:0.30434783 66:0.14285714 67:0.34693878 68:0.4 69:0.2 70:0.31591234 71:0.18452011 72:0.3869765 
-1 20:1 23:1 41:0.32142857 42:0.10714286 43:0.21428571 45:0.86494 47:0.43247 48:0.93247 49:0.33799562 50:0.47173574 51:0.52112676 52:0.98591549 53:0.75352113 54:0.26760563 55:0.121 56:0.802 57:0.4615 58:0.1595 59:0.28358421 60:0.34879032 62:0.36918605 63:0.18459302 64:0.31540698 65:0.30434783 66:0.10714286 67:0.27040816 68:0.4 69:0.2 70:0.31591234 71:0.14585677 72:0.30704946 73:0.076923077 
-1 1:1 40:1 41:0.35714286 42:0.071428571 43:0.28571429 46:0.79 47:0.395 48:0.105 49:0.33799562 50:0.47173574 51:0.98591549 52:0.3943662 53:0.69014085 54:0.79577465 55:0.802 56:0.35 57:0.576 58:0.726 59:0.32646975 60:0.34879032 61:0.36918605 62:0.20639535 63:0.2877907 64:0.58139535 65:0.30434783 66:0.071428571 67:0.19387755 68:0.4 69:0.2 70:0.31591234 71:0.11227016 72:0.23761732 73:0.15384615 
1 17:1 21:1 41:0.39285714 42:0.035714286 43:0.35714286 45:0.79 46:0.83 47:0.81 48:0.48 49:0.40137903 50:0.47173574 51:0.3943662 52:0.91549296 53:0.65492958 54:0.23943662 55:0.35 56:0.823 57:0.5865 58:0.2635 59:0.30516899 60:0.34879032 61:0.20639535 62:0.15988372 63:0.18313953 64:0.52325581 65:0.30434783 66:0.035714286 67:0.11734694 68:0.4 69:0.2 70:0.31591234 71:0.068521573 72:0.14717776 73:0.076923077 
-1 19:1 40:1 41:0.071428571 42:0.42857143 43:0.35714286 46:0.78 47:0.39 48:0.11 49:0.066592693 50:0.40512343 51:0.98591549 52:0.73239437 53:0.85915493 54:0.62676056 55:0.802 56:0.392 57:0.597 58:0.705 59:0.60792389 60:0.71836228 61:0.36918605 62:0.095930233 63:0.23255814 64:0.63662791 65:0.39130435 66:0.42857143 67:0.83482143 68:0.4 69:0.4 70:0.42626783 71:0.46640543 72:0.82327565 73:0.15384615 
1 8:1 26:1 41:0.17857143 42:0.32142857 43:0.14285714 46:0.92784 47:0.46392 48:0.03608 49:0.12917378 50:0.40512343 51:1 52:0.56338028 53:0.78169014 54:0.71830986 55:0.976 56:0.037 57:0.5065 58:0.9695 59:0.7277762 60:0.71836228 61:0.35465116 62:0.078488372 63:0.21656977 64:0.6380814 65:0.39130435 66:0.32142857 67:0.63392857 68:0.4 69:0.4 70:0.42626783 71:0.35547129 72:0.62695039 
1 10:1 30:1 41:0.39285714 42:0.10714286 43:0.28571429 45:0.784 46:0.784 47:0.784 48:0.5 49:0.33311109 50:0.40512343 51:0.45070423 52:0.45070423 53:0.45070423 54:0.5 55:0.251 56:0.251 57:0.251 58:0.5 59:0.67253621 60:0.71836228 61:0.2994186 62:0.2994186 63:0.2994186 64:0.5 65:0.39130435 66:0.10714286 67:0.23214286 68:0.4 69:0.2 70:0.42626783 71:0.13025728 72:0.22837881 73:0.23076923 
1 13:1 30:1 41:0.42857143 42:0.071428571 43:0.35714286 45:0.784 47:0.392 48:0.892 49:0.3960131 50:0.40512343 51:0.45070423 52:0.81690141 53:0.63380282 54:0.31690141 55:0.251 56:0.169 57:0.21 58:0.541 59:0.63717694 60:0.71836228 61:0.2994186 62:0.36918605 63:0.33430233 64:0.46511628 65:0.39130435 66:0.071428571 67:0.16517857 68:0.4 69:0.2 70:0.42626783 71:0.091260343 72:0.15936413 73:0.15384615 
-1 5:1 31:1 41:0.071428571 42:0.42857143 43:0.35714286 48:0.5 49:0.066592693 50:0.45560311 51:0.94366197 53:0.47183099 54:0.97183099 55:0.516 56:0.008 57:0.262 58:0.754 59:0.59201931 60:0.57273573 61:0.39534884 62:0.50290698 63:0.44912791 64:0.44622093 65:0.39130435 66:0.42857143 67:0.83482143 68:0.2 69:0.2 70:0.43701821 71:0.47961715 72:0.83429087 73:0.15384615 
-1 11:1 26:1 41:0.28571429 42:0.21428571 43:0.071428571 48:0.5 49:0.19287811 50:0.45560311 51:1 52:0.94366197 53:0.97183099 54:0.52816901 55:0.976 56:0.516 57:0.746 58:0.73 59:0.66827606 60:0.57273573 61:0.35465116 62:0.39534884 63:0.375 64:0.47965116 65:0.39130435 66:0.21428571 67:0.43303571 68:0.2 69:0.2 70:0.43701821 71:0.24895359 72:0.4317189 73:0.46153846 
1 10:1 31:1 41:0.32142857 42:0.17857143 43:0.14285714 46:0.784 47:0.392 48:0.108 49:0.19287811 50:0.45560311 51:0.94366197 52:0.45070423 53:0.6971831 54:0.74647887 55:0.516 56:0.251 57:0.3835 58:0.6325 59:0.67054814 60:0.57273573 61:0.39534884 62:0.2994186 63:0.34738372 64:0.54796512 65:0.39130435 66:0.17857143 67:0.36607143 68:0.2 69:0.2 70:0.43701821 71:0.22487028 72:0.38968683 73:0.38461538 
1 15:1 21:1 41:0.39285714 42:0.10714286 43:0.28571429 45:0.79 46:0.79 47:0.79 48:0.5 49:0.31916353 50:0.45560311 51:0.3943662 52:0.76056338 53:0.57746479 54:0.31690141 55:0.35 56:0.7 57:0.525 58:0.325 59:0.6138881 60:0.57273573 61:0.20639535 62:0.52325581 63:0.36482558 64:0.34156977 65:0.39130435 66:0.10714286 67:0.23214286 68:0.2 69:0.2 70:0.43701821 71:0.14212475 72:0.24527289 73:0.23076923 
-1 4:1 35:1 41:0.42857143 42:0.071428571 43:0.35714286 45:0.79 46:0.86525 47:0.827625 48:0.462375 49:0.38254694 50:0.45560311 51:0.76056338 52:0.54929577 53:0.65492958 54:0.6056338 55:0.7 56:0.224 57:0.462 58:0.738 59:0.64228912 60:0.57273573 61:0.52325581 62:0.12790698 63:0.3255814 64:0.69767442 65:0.39130435 66:0.071428571 67:0.16517857 68:0.2 69:0.2 70:0.43701821 71:0.086842301 72:0.14878967 73:0.15384615 
-1 10:1 31:1 41:0.035714286 42:0.39285714 43:0.35714286 46:0.784 47:0.392 48:0.108 50:0.45705972 51:0.94366197 52:0.45070423 53:0.6971831 54:0.74647887 55:0.516 56:0.251 57:0.3835 58:0.6325 59:0.48082931 60:0.51876551 61:0.39534884 62:0.2994186 63:0.34738372 64:0.54796512 65:0.30434783 66:0.39285714 67:0.88265306 68:0.2 69:0.2 70:0.28483484 71:0.41853655 72:0.91639348 73:0.076923077 
-1 17:1 30:1 41:0.071428571 42:0.35714286 43:0.28571429 45:0.784 46:0.83 47:0.807 48:0.477 49:0.062902013 50:0.45705972 51:0.45070423 52:0.91549296 53:0.68309859 54:0.26760563 55:0.251 56:0.823 57:0.537 58:0.214 59:0.44547004 60:0.51876551 61:0.2994186 62:0.15988372 63:0.22965116 64:0.56976744 65:0.30434783 66:0.35714286 67:0.80612245 68:0.2 69:0.2 70:0.28483484 71:0.3795396 72:0.8317706 73:0.15384615 
1 19:1 37:1 41:0.10714286 42:0.32142857 43:0.21428571 45:0.83 46:0.78 47:0.805 48:0.525 49:0.12949471 50:0.45705972 51:0.91549296 52:0.73239437 53:0.82394366 54:0.5915493 55:0.823 56:0.392 57:0.6075 58:0.7155 59:0.49133769 60:0.51876551 61:0.15988372 62:0.095930233 63:0.12790698 64:0.53197674 65:0.30434783 66:0.32142857 67:0.72959184 68:0.2 69:0.2 70:0.28483484 71:0.33511368 72:0.73536691 73:0.23076923 
1 13:1 39:1 41:0.14285714 42:0.28571429 43:0.14285714 45:0.78 47:0.39 48:0.89 49:0.19207579 50:0.45705972 51:0.73239437 52:0.81690141 53:0.77464789 54:0.45774648 55:0.392 56:0.169 57:0.2805 58:0.6115 59:0.47600114 60:0.51876551 61:0.095930233 62:0.36918605 63:0.23255814 64:0.36337209 65:0.30434783 66:0.28571429 67:0.65306122 68:0.2 69:0.2 70:0.28483484 71:0.30085605 72:0.66102828 73:0.30769231 
1 10:1 31:1 41:0.21428571 42:0.21428571 46:0.784 47:0.392 48:0.108 49:0.19207579 50:0.45705972 51:0.94366197 52:0.45070423 53:0.6971831 54:0.74647887 55:0.516 56:0.251 57:0.3835 58:0.6325 59:0.43126953 60:0.51876551 61:0.39534884 62:0.2994186 63:0.34738372 64:0.54796512 65:0.30434783 66:0.21428571 67:0.5 68:0.2 69:0.2 70:0.28483484 71:0.25744107 72:0.56681831 73:0.46153846 
1 11:1 21:1 41:0.32142857 42:0.10714286 43:0.21428571 45:0.79 47:0.395 48:0.895 49:0.31836121 50:0.45705972 51:0.3943662 52:0.94366197 53:0.66901408 54:0.22535211 55:0.35 56:0.516 57:0.433 58:0.417 59:0.44220392 60:0.51876551 61:0.20639535 62:0.39534884 63:0.30087209 64:0.40552326 65:0.30434783 66:0.10714286 67:0.27040816 68:0.2 69:0.2 70:0.28483484 71:0.13635728 72:0.30406801 73:0.23076923 
-1 1:1 31:1 41:0.071428571 42:0.46428571 43:0.39285714 46:0.79 47:0.395 48:0.105 49:0.062581085 50:0.59806395 51:0.94366197 52:0.3943662 53:0.66901408 54:0.77464789 55:0.516 56:0.35 57:0.433 58:0.583 59:0.53081511 60:0.34506824 61:0.39534884 62:0.20639535 63:0.30087209 64:0.59447674 65:0.43478261 66:0.46428571 67:0.84663866 68:0.2 69:0.2 70:0.48010731 71:0.52369462 72:0.86086557 73:0.15384615 
1 20:1 23:1 41:0.21428571 42:0.32142857 43:0.10714286 45:0.86494 47:0.43247 48:0.93247 49:0.26478137 50:0.59806395 51:0.52112676 52:0.98591549 53:0.75352113 54:0.26760563 55:0.121 56:0.802 57:0.4615 58:0.1595 59:0.3694973 60:0.34506824 62:0.36918605 63:0.18459302 64:0.31540698 65:0.43478261 66:0.32142857 67:0.59453782 68:0.2 69:0.2 70:0.48010731 71:0.37853605 72:0.6208256 73:0.46153846 
1 1:1 40:1 41:0.25 42:0.28571429 43:0.035714286 46:0.79 47:0.395 48:0.105 49:0.26478137 50:0.59806395 51:0.98591549 52:0.3943662 53:0.69014085 54:0.79577465 55:0.802 56:0.35 57:0.576 58:0.726 59:0.41238285 60:0.34506824 61:0.36918605 62:0.20639535 63:0.2877907 64:0.58139535 65:0.43478261 66:0.28571429 67:0.53151261 68:0.2 69:0.2 70:0.48010731 71:0.34494944 72:0.56528545 73:0.53846154 
1 1:1 36:1 41:0.32142857 42:0.21428571 43:0.10714286 46:0.79 47:0.395 48:0.105 49:0.32816478 50:0.59806395 51:0.97183099 52:0.3943662 53:0.68309859 54:0.78873239 55:1 56:0.35 57:0.675 58:0.825 59:0.46208464 60:0.34506824 61:0.18895349 62:0.20639535 63:0.19767442 64:0.49127907 65:0.43478261 66:0.21428571 67:0.40546218 68:0.2 69:0.2 70:0.48010731 71:0.25134107 72:0.41049094 73:0.46153846 
1 6:1 21:1 41:0.35714286 42:0.17857143 43:0.17857143 45:0.79 47:0.395 48:0.895 49:0.39154818 50:0.59806395 51:0.3943662 52:1 53:0.6971831 54:0.1971831 55:0.35 56:0.976 57:0.663 58:0.187 59:0.44078387 60:0.34506824 61:0.20639535 62:0.35465116 63:0.28052326 64:0.42587209 65:0.43478261 66:0.17857143 67:0.34243697 68:0.2 69:0.2 70:0.48010731 71:0.20759248 72:0.33814654 73:0.38461538 
1 4:1 26:1 41:0.39285714 42:0.14285714 43:0.25 46:0.86525 47:0.432625 48:0.067375 49:0.39154818 50:0.59806395 51:1 52:0.54929577 53:0.77464789 54:0.72535211 55:0.976 56:0.224 57:0.6 58:0.876 59:0.5083783 60:0.34506824 61:0.35465116 62:0.12790698 63:0.24127907 64:0.61337209 65:0.43478261 66:0.14285714 67:0.27941176 68:0.2 69:0.2 70:0.48010731 71:0.16925422 72:0.27474887 73:0.30769231 
1 10:1 24:1 41:0.42857143 42:0.10714286 43:0.32142857 45:0.86525 46:0.784 47:0.824625 48:0.540625 49:0.46096906 50:0.59806395 51:0.54929577 52:0.45070423 53:0.5 54:0.54929577 55:0.224 56:0.251 57:0.2375 58:0.4865 59:0.46918489 60:0.34506824 61:0.12790698 62:0.2994186 63:0.21366279 64:0.41424419 65:0.43478261 66:0.10714286 67:0.21638655 68:0.2 69:0.2 70:0.48010731 71:0.12583924 72:0.20295614 73:0.23076923 
-1 13:1 30:1 41:0.46428571 42:0.071428571 43:0.39285714 45:0.784 47:0.392 48:0.892 49:0.52387107 50:0.59806395 51:0.45070423 52:0.81690141 53:0.63380282 54:0.31690141 55:0.251 56:0.169 57:0.21 58:0.541 59:0.43382562 60:0.34506824 61:0.2994186 62:0.36918605 63:0.33430233 64:0.46511628 65:0.43478261 66:0.071428571 67:0.15336134 68:0.2 69:0.2 70:0.48010731 71:0.086842301 72:0.13846925 73:0.15384615 
1 11:1 40:1 41:0.17857143 42:0.14285714 43:0.035714286 48:0.5 49:0.13884175 50:0.20929153 51:0.98591549 52:0.94366197 53:0.96478873 54:0.52112676 55:0.802 56:0.516 57:0.659 58:0.643 59:0.50426015 60:0.59088089 61:0.36918605 62:0.39534884 63:0.38226744 64:0.4869186 65:0.17391304 66:0.14285714 67:0.4512987 68:0.2 69:0.2 70:0.16292467 71:0.15909225 72:0.4505428 73:0.30769231 
1 12:1 30:1 41:0.28571429 42:0.035714286 43:0.25 45:0.784 47:0.392 48:0.892 49:0.20174377 50:0.20929153 51:0.45070423 52:1 53:0.72535211 54:0.22535211 55:0.251 56:0.976 57:0.6135 58:0.1375 59:0.47344504 60:0.59088089 61:0.2994186 62:0.35174419 63:0.3255814 64:0.47383721 65:0.17391304 66:0.035714286 67:0.15909091 68:0.2 69:0.2 70:0.16292467 71:0.071928676 72:0.21559907 73:0.076923077 
1 16:1 24:1 41:0.17857143 42:0.28571429 43:0.10714286 45:0.86525 47:0.432625 48:0.932625 49:0.26360276 50:0.40563134 51:0.54929577 52:0.97183099 53:0.76056338 54:0.28873239 55:0.224 56:1 57:0.612 58:0.112 59:0.33797217 60:0.41315136 61:0.12790698 62:0.18895349 63:0.15843023 64:0.46947674 65:0.34782609 66:0.28571429 67:0.60714286 68:0.2 69:0.2 70:0.33187341 71:0.30020856 72:0.61013783 73:0.38461538 
1 11:1 35:1 41:0.21428571 42:0.46428571 43:0.25 45:0.79 47:0.395 48:0.895 49:0.32765851 50:0.71639823 51:0.76056338 52:0.94366197 53:0.85211268 54:0.4084507 55:0.7 56:0.516 57:0.608 58:0.592 59:0.36694121 60:0.26442308 61:0.52325581 62:0.39534884 63:0.45930233 64:0.56395349 65:0.60869565 66:0.46428571 67:0.67857143 68:0.2 69:0.2 70:0.58052853 71:0.4358672 72:0.63239978 73:0.46153846 
-1 20:1 30:1 41:0.32142857 42:0.35714286 43:0.035714286 45:0.784 47:0.392 48:0.892 49:0.39056053 50:0.71639823 51:0.45070423 52:0.98591549 53:0.71830986 54:0.23239437 55:0.251 56:0.802 57:0.5265 58:0.2245 59:0.3361261 60:0.26442308 61:0.2994186 62:0.36918605 63:0.33430233 64:0.46511628 65:0.60869565 66:0.35714286 67:0.5255102 68:0.2 69:0.2 70:0.58052853 71:0.34870363 72:0.50397749 73:0.69230769 
-1 19:1 21:1 41:0.42857143 42:0.25 43:0.17857143 45:0.79 46:0.78 47:0.785 48:0.505 49:0.52333994 50:0.71639823 51:0.3943662 52:0.73239437 53:0.56338028 54:0.33098592 55:0.35 56:0.392 57:0.371 58:0.479 59:0.30389094 60:0.26442308 61:0.20639535 62:0.095930233 63:0.15116279 64:0.55523256 65:0.60869565 66:0.25 67:0.37244898 68:0.2 69:0.2 70:0.58052853 71:0.23270509 72:0.33307125 73:0.53846154 
1 11:1 33:1 41:0.53571429 42:0.14285714 43:0.39285714 48:0.5 49:0.64850211 50:0.71639823 51:0.81690141 52:0.94366197 53:0.88028169 54:0.43661972 55:0.169 56:0.516 57:0.3425 58:0.3265 59:0.22621414 60:0.26442308 61:0.36918605 62:0.39534884 63:0.38226744 64:0.4869186 65:0.60869565 66:0.14285714 67:0.21938776 68:0.2 69:0.2 70:0.58052853 71:0.14485817 72:0.20364214 73:0.30769231 
1 15:1 31:1 41:0.14285714 42:0.28571429 43:0.14285714 46:0.79 47:0.395 48:0.105 49:0.13229802 50:0.51421422 51:0.94366197 52:0.76056338 53:0.85211268 54:0.5915493 55:0.516 56:0.7 57:0.608 58:0.408 59:0.52456688 60:0.55753722 61:0.39534884 62:0.52325581 63:0.45930233 64:0.43604651 65:0.30434783 66:0.28571429 67:0.65306122 68:0.2 69:0.2 70:0.36975674 71:0.35511278 72:0.67994588 73:0.30769231 
1 10:1 35:1 41:0.17857143 42:0.25 43:0.071428571 45:0.79 46:0.784 47:0.787 48:0.503 49:0.19568142 50:0.51421422 51:0.76056338 52:0.45070423 53:0.6056338 54:0.65492958 55:0.7 56:0.251 57:0.4755 58:0.7245 59:0.55296791 60:0.55753722 61:0.52325581 62:0.2994186 63:0.41133721 64:0.6119186 65:0.30434783 66:0.25 67:0.57653061 68:0.2 69:0.2 70:0.36975674 71:0.29983033 72:0.57432617 73:0.38461538 
-1 11:1 36:1 41:0.35714286 42:0.071428571 43:0.28571429 48:0.5 49:0.44753017 50:0.51421422 51:0.97183099 52:0.94366197 53:0.95774648 54:0.51408451 55:1 56:0.516 57:0.758 58:0.742 59:0.55523999 60:0.55753722 61:0.18895349 62:0.39534884 63:0.29215116 64:0.39680233 65:0.30434783 66:0.071428571 67:0.19387755 68:0.2 69:0.2 70:0.36975674 71:0.082436595 72:0.15898522 73:0.15384615 
-1 19:1 31:1 41:0.39285714 42:0.035714286 43:0.35714286 46:0.78 47:0.39 48:0.11 49:0.44753017 50:0.51421422 51:0.94366197 52:0.73239437 53:0.83802817 54:0.6056338 55:0.516 56:0.392 57:0.454 58:0.562 59:0.55751207 60:0.55753722 61:0.39534884 62:0.095930233 63:0.24563953 64:0.6497093 65:0.30434783 66:0.035714286 67:0.11734694 68:0.2 69:0.2 70:0.36975674 71:0.05835328 72:0.11297292 73:0.076923077 
-1 16:1 30:1 41:0.071428571 42:0.28571429 43:0.21428571 45:0.784 47:0.392 48:0.892 49:0.12508194 50:0.26912065 51:0.45070423 52:0.97183099 53:0.71126761 54:0.23943662 55:0.251 56:1 57:0.6255 58:0.1255 59:0.4027265 60:0.54513027 61:0.2994186 62:0.18895349 63:0.24418605 64:0.55523256 65:0.2173913 66:0.28571429 67:0.76785714 68:0.2 69:0.2 70:0.19822974 71:0.30596262 72:0.78782688 73:0.15384615 
-1 20:1 36:1 41:0.10714286 42:0.25 43:0.14285714 48:0.5 49:0.12508194 50:0.26912065 51:0.97183099 52:0.98591549 53:0.97887324 54:0.49295775 55:1 56:0.802 57:0.901 58:0.599 59:0.47372905 60:0.54513027 61:0.18895349 62:0.36918605 63:0.27906977 64:0.40988372 65:0.2173913 66:0.25 67:0.67857143 68:0.2 69:0.2 70:0.19822974 71:0.25610284 72:0.66223981 73:0.23076923 
-1 13:1 24:1 41:0.32142857 42:0.035714286 43:0.28571429 45:0.86525 47:0.432625 48:0.932625 49:0.26109551 50:0.26912065 51:0.54929577 52:0.81690141 53:0.68309859 54:0.36619718 55:0.224 56:0.169 57:0.1965 58:0.5275 59:0.54615166 60:0.54513027 61:0.12790698 62:0.36918605 63:0.24854651 64:0.37936047 65:0.2173913 66:0.035714286 67:0.14285714 68:0.2 69:0.2 70:0.19822974 71:0.052922086 72:0.15046706 73:0.076923077 
-1 10:1 26:1 41:0.071428571 42:0.5 43:0.42857143 46:0.784 47:0.392 48:0.108 49:0.062581085 50:0.59112386 51:1 52:0.45070423 53:0.72535211 54:0.77464789 55:0.976 56:0.251 57:0.6135 58:0.8625 59:0.53081511 60:0.39640199 61:0.35465116 62:0.2994186 63:0.32703488 64:0.52761628 65:0.47826087 66:0.5 67:0.85714286 68:0.2 69:0.2 70:0.47363434 71:0.51860069 72:0.85959902 73:0.15384615 
1 3:1 21:1 41:0.21428571 42:0.35714286 43:0.14285714 45:0.79 46:0.86494 47:0.82747 48:0.46253 49:0.1888665 50:0.59112386 51:0.3943662 52:0.52112676 53:0.45774648 54:0.43661972 55:0.35 56:0.121 57:0.2355 58:0.6145 59:0.49474581 60:0.39640199 61:0.20639535 63:0.10319767 64:0.60319767 65:0.47826087 66:0.35714286 67:0.61904762 68:0.2 69:0.2 70:0.47363434 71:0.37818523 72:0.62555641 73:0.46153846 
1 17:1 23:1 41:0.25 42:0.32142857 43:0.071428571 45:0.86494 46:0.83 47:0.84747 48:0.51747 49:0.25826251 50:0.59112386 51:0.52112676 52:0.91549296 53:0.71830986 54:0.3028169 55:0.121 56:0.823 57:0.472 58:0.149 59:0.44092587 60:0.39640199 62:0.15988372 63:0.07994186 64:0.42005814 65:0.47826087 66:0.32142857 67:0.55952381 68:0.2 69:0.2 70:0.47363434 71:0.3395219 72:0.56111287 73:0.53846154 
1 18:1 23:1 41:0.32142857 42:0.25 43:0.071428571 45:0.86494 46:0.775 47:0.81997 48:0.54497 49:0.39425121 50:0.59112386 51:0.52112676 52:0.6056338 53:0.56338028 54:0.45774648 55:0.121 56:0.215 57:0.168 58:0.453 59:0.43297359 60:0.39640199 62:0.15697674 63:0.078488372 64:0.42151163 65:0.47826087 66:0.25 67:0.44047619 68:0.2 69:0.2 70:0.47363434 71:0.25643264 72:0.42262081 73:0.53846154 
-1 12:1 26:1 41:0.035714286 42:0.39285714 43:0.35714286 48:0.5 50:0.25907162 51:1 52:1 53:1 54:0.5 55:0.976 56:0.976 57:0.976 58:0.5 59:0.58676512 60:0.65648263 61:0.35465116 62:0.35174419 63:0.35319767 64:0.50145349 65:0.30434783 66:0.39285714 67:0.88265306 68:0.2 69:0.2 70:0.28578776 71:0.39552822 72:0.86507473 73:0.076923077 
1 20:1 21:1 41:0.17857143 42:0.25 43:0.071428571 45:0.79 47:0.395 48:0.895 49:0.063383406 50:0.25907162 51:0.3943662 52:0.98591549 53:0.69014085 54:0.20422535 55:0.35 56:0.802 57:0.576 58:0.274 59:0.58832718 60:0.65648263 61:0.20639535 62:0.36918605 63:0.2877907 64:0.41860465 65:0.30434783 66:0.25 67:0.57653061 68:0.2 69:0.2 70:0.28578776 71:0.27002639 72:0.59315168 73:0.38461538 
1 19:1 39:1 41:0.25 42:0.17857143 43:0.071428571 45:0.78 46:0.78 47:0.78 48:0.5 49:0.12596449 50:0.25907162 51:0.73239437 52:0.73239437 53:0.73239437 54:0.5 55:0.392 56:0.392 57:0.392 58:0.5 59:0.61587617 60:0.65648263 61:0.095930233 62:0.095930233 63:0.095930233 64:0.5 65:0.30434783 66:0.17857143 67:0.42346939 68:0.2 69:0.2 70:0.28578776 71:0.20218215 72:0.44615452 73:0.38461538 
-1 19:1 40:1 41:0.35714286 42:0.071428571 43:0.28571429 46:0.78 47:0.39 48:0.11 49:0.18854558 50:0.25907162 51:0.98591549 52:0.73239437 53:0.85915493 54:0.62676056 55:0.802 56:0.392 57:0.597 58:0.705 59:0.57355865 60:0.65648263 61:0.36918605 62:0.095930233 63:0.23255814 64:0.63662791 65:0.30434783 66:0.071428571 67:0.19387755 68:0.2 69:0.2 70:0.28578776 71:0.10143466 72:0.22786634 73:0.15384615 
-1 19:1 31:1 41:0.035714286 42:0.35714286 43:0.32142857 46:0.78 47:0.39 48:0.11 50:0.32377361 51:0.94366197 52:0.73239437 53:0.83802817 54:0.6056338 55:0.516 56:0.392 57:0.454 58:0.562 59:0.54615166 60:0.62375931 61:0.39534884 62:0.095930233 63:0.24563953 64:0.6497093 65:0.26086957 66:0.35714286 67:0.87087912 68:0.2 69:0.2 70:0.28273827 71:0.4026317 72:0.88500729 73:0.076923077 
1 5:1 32:1 41:0.10714286 42:0.28571429 43:0.17857143 48:0.5 49:0.062581085 50:0.32377361 51:1 53:0.5 54:1 55:0.976 56:0.008 57:0.492 58:0.984 59:0.59840954 60:0.62375931 61:0.35174419 62:0.50290698 63:0.42732558 64:0.4244186 65:0.26086957 66:0.28571429 67:0.70604396 68:0.2 69:0.2 70:0.28273827 71:0.33003581 72:0.72694522 73:0.23076923 
1 19:1 25:1 41:0.14285714 42:0.25 43:0.10714286 46:0.78 47:0.39 48:0.11 49:0.062581085 50:0.32377361 52:0.73239437 53:0.36619718 54:0.13380282 55:0.008 56:0.392 57:0.2 58:0.308 59:0.52854303 60:0.62375931 61:0.50290698 62:0.095930233 63:0.2994186 64:0.70348837 65:0.26086957 66:0.25 67:0.62362637 68:0.2 69:0.2 70:0.28273827 71:0.29713256 72:0.65530539 73:0.30769231 
-1 1:1 21:1 41:0.25 42:0.14285714 43:0.10714286 45:0.79 46:0.79 47:0.79 48:0.5 49:0.25192898 50:0.32377361 51:0.3943662 52:0.3943662 53:0.3943662 54:0.5 55:0.35 56:0.35 57:0.35 58:0.5 59:0.52030673 60:0.62375931 61:0.20639535 62:0.20639535 63:0.20639535 64:0.5 65:0.26086957 66:0.14285714 67:0.37637363 68:0.2 69:0.2 70:0.28273827 71:0.16384389 72:0.36509773 73:0.30769231 
-1 11:1 21:1 41:0.28571429 42:0.10714286 43:0.17857143 45:0.79 47:0.395 48:0.895 49:0.31531239 50:0.32377361 51:0.3943662 52:0.94366197 53:0.66901408 54:0.22535211 55:0.35 56:0.516 57:0.433 58:0.417 59:0.49900596 60:0.62375931 61:0.20639535 62:0.39534884 63:0.30087209 64:0.40552326 65:0.26086957 66:0.10714286 67:0.29395604 68:0.2 69:0.2 70:0.28273827 71:0.12009531 72:0.2698445 73:0.23076923 
-1 6:1 31:1 41:0.32142857 42:0.071428571 43:0.25 48:0.5 49:0.31531239 50:0.32377361 51:0.94366197 52:1 53:0.97183099 54:0.47183099 55:0.516 56:0.976 57:0.746 58:0.27 59:0.50127805 60:0.62375931 61:0.39534884 62:0.35465116 63:0.375 64:0.52034884 65:0.26086957 66:0.071428571 67:0.21153846 68:0.2 69:0.2 70:0.28273827 71:0.096011991 72:0.21740822 73:0.15384615 
-1 11:1 26:1 41:0.35714286 42:0.035714286 43:0.32142857 48:0.5 49:0.31531239 50:0.32377361 51:1 52:0.94366197 53:0.97183099 54:0.52816901 55:0.976 56:0.516 57:0.746 58:0.73 59:0.56887248 60:0.62375931 61:0.35465116 62:0.39534884 63:0.375 64:0.47965116 65:0.26086957 66:0.035714286 67:0.12912088 68:0.2 69:0.2 70:0.28273827 71:0.057673733 72:0.13393483 73:0.076923077 
-1 19:1 39:1 41:0.071428571 42:0.5 43:0.42857143 45:0.78 46:0.78 47:0.78 48:0.5 49:0.18806418 50:0.51975999 51:0.73239437 52:0.73239437 53:0.73239437 54:0.5 55:0.392 56:0.392 57:0.392 58:0.5 59:0.41025277 60:0.42261166 61:0.095930233 62:0.095930233 63:0.095930233 64:0.5 65:0.47826087 66:0.5 67:0.85714286 68:0.2 69:0.2 70:0.45425899 71:0.49252016 72:0.83718812 73:0.15384615 
-1 20:1 33:1 41:0.25 42:0.32142857 43:0.071428571 48:0.5 49:0.31354728 50:0.51975999 51:0.81690141 52:0.98591549 53:0.90140845 54:0.41549296 55:0.169 56:0.802 57:0.4855 58:0.1835 59:0.44774212 60:0.42261166 61:0.36918605 62:0.36918605 63:0.36918605 64:0.5 65:0.47826087 66:0.32142857 67:0.55952381 68:0.2 69:0.2 70:0.45425899 71:0.32325741 72:0.54818565 73:0.53846154 
1 1:1 33:1 41:0.32142857 42:0.25 43:0.071428571 46:0.79 47:0.395 48:0.105 49:0.31354728 50:0.51975999 51:0.81690141 52:0.3943662 53:0.6056338 54:0.71126761 55:0.169 56:0.35 57:0.2595 58:0.4095 59:0.44362397 60:0.42261166 61:0.36918605 62:0.20639535 63:0.2877907 64:0.58139535 65:0.47826087 66:0.25 67:0.44047619 68:0.2 69:0.2 70:0.45425899 71:0.27033913 72:0.45783197 73:0.53846154 
1 11:1 31:1 41:0.42857143 42:0.14285714 43:0.28571429 48:0.5 49:0.44031409 50:0.51975999 51:0.94366197 52:0.94366197 53:0.94366197 54:0.5 55:0.516 56:0.516 57:0.516 58:0.5 59:0.40329452 60:0.42261166 61:0.39534884 62:0.39534884 63:0.39534884 64:0.5 65:0.47826087 66:0.14285714 67:0.26190476 68:0.2 69:0.2 70:0.45425899 71:0.15875864 72:0.26731731 73:0.30769231 
1 6:1 31:1 41:0.46428571 42:0.10714286 43:0.35714286 48:0.5 49:0.44031409 50:0.51975999 51:0.94366197 52:1 53:0.97183099 54:0.47183099 55:0.516 56:0.976 57:0.746 58:0.27 59:0.4055666 60:0.42261166 61:0.39534884 62:0.35465116 63:0.375 64:0.52034884 65:0.47826087 66:0.10714286 67:0.20238095 68:0.2 69:0.2 70:0.45425899 71:0.13467533 72:0.226197 73:0.23076923 
1 4:1 26:1 41:0.5 42:0.071428571 43:0.42857143 46:0.86525 47:0.432625 48:0.067375 49:0.44031409 50:0.51975999 51:1 52:0.54929577 53:0.77464789 54:0.72535211 55:0.976 56:0.224 57:0.6 58:0.876 59:0.47316103 60:0.42261166 61:0.35465116 62:0.12790698 63:0.24127907 64:0.61337209 65:0.47826087 66:0.071428571 67:0.14285714 68:0.2 69:0.2 70:0.45425899 71:0.096337069 72:0.16073752 73:0.15384615 
-1 11:1 26:1 41:0.035714286 42:0.42857143 43:0.39285714 48:0.5 49:0.062902013 50:0.25379356 51:1 52:0.94366197 53:0.97183099 54:0.52816901 55:0.976 56:0.516 57:0.746 58:0.73 59:0.50852031 60:0.54373449 61:0.35465116 62:0.39534884 63:0.375 64:0.47965116 65:0.34782609 66:0.42857143 67:0.89285714 68:0.2 69:0.2 70:0.27497265 71:0.38160688 72:0.85042104 73:0.076923077 
-1 11:1 30:1 41:0.10714286 42:0.35714286 43:0.25 45:0.784 47:0.392 48:0.892 49:0.12580403 50:0.25379356 51:0.45070423 52:0.94366197 53:0.6971831 54:0.25352113 55:0.251 56:0.516 57:0.3835 58:0.3675 59:0.47543312 60:0.54373449 61:0.2994186 62:0.39534884 63:0.34738372 64:0.45203488 65:0.34782609 66:0.35714286 67:0.75 68:0.2 69:0.2 70:0.27497265 71:0.31852663 72:0.71134443 73:0.23076923 
1 19:1 40:1 41:0.17857143 42:0.28571429 43:0.10714286 46:0.78 47:0.39 48:0.11 49:0.12580403 50:0.25379356 51:0.98591549 52:0.73239437 53:0.85915493 54:0.62676056 55:0.802 56:0.392 57:0.597 58:0.705 59:0.52059074 60:0.54373449 61:0.36918605 62:0.095930233 63:0.23255814 64:0.63662791 65:0.34782609 66:0.28571429 67:0.60714286 68:0.2 69:0.2 70:0.27497265 71:0.2608567 72:0.58419627 73:0.38461538 
1 11:1 39:1 41:0.21428571 42:0.25 43:0.035714286 45:0.78 47:0.39 48:0.89 49:0.18838511 50:0.25379356 51:0.73239437 52:0.94366197 53:0.83802817 54:0.3943662 55:0.392 56:0.516 57:0.454 58:0.438 59:0.50525419 60:0.54373449 61:0.095930233 62:0.39534884 63:0.24563953 64:0.3502907 65:0.34782609 66:0.25 67:0.53571429 68:0.2 69:0.2 70:0.27497265 71:0.22659907 72:0.50866654 73:0.46153846 
1 11:1 31:1 41:0.25 42:0.21428571 43:0.035714286 48:0.5 49:0.18838511 50:0.25379356 51:0.94366197 52:0.94366197 53:0.94366197 54:0.5 55:0.516 56:0.516 57:0.516 58:0.5 59:0.50752627 60:0.54373449 61:0.39534884 62:0.39534884 63:0.39534884 64:0.5 65:0.34782609 66:0.21428571 67:0.46428571 68:0.2 69:0.2 70:0.27497265 71:0.20251576 72:0.45556869 73:0.46153846 
1 13:1 31:1 41:0.28571429 42:0.17857143 43:0.10714286 48:0.5 49:0.18838511 50:0.25379356 51:0.94366197 52:0.81690141 53:0.88028169 54:0.56338028 55:0.516 56:0.169 57:0.3425 58:0.6735 59:0.50979835 60:0.54373449 61:0.39534884 62:0.36918605 63:0.38226744 64:0.5130814 65:0.34782609 66:0.17857143 67:0.39285714 68:0.2 69:0.2 70:0.27497265 71:0.17843244 72:0.40247084 73:0.38461538 
1 1:1 40:1 41:0.35714286 42:0.10714286 43:0.25 46:0.79 47:0.395 48:0.105 49:0.18838511 50:0.25379356 51:0.98591549 52:0.3943662 53:0.69014085 54:0.79577465 55:0.802 56:0.35 57:0.576 58:0.726 59:0.5056802 60:0.54373449 61:0.36918605 62:0.20639535 63:0.2877907 64:0.58139535 65:0.34782609 66:0.10714286 67:0.25 68:0.2 69:0.2 70:0.27497265 71:0.12551416 72:0.28579891 73:0.23076923 
-1 11:1 40:1 41:0.42857143 42:0.035714286 43:0.39285714 48:0.5 49:0.25176852 50:0.25379356 51:0.98591549 52:0.94366197 53:0.96478873 54:0.52112676 55:0.802 56:0.516 57:0.659 58:0.643 59:0.52726498 60:0.54373449 61:0.36918605 62:0.39534884 63:0.38226744 64:0.4869186 65:0.34782609 66:0.035714286 67:0.10714286 68:0.2 69:0.2 70:0.27497265 71:0.048178966 72:0.11529362 73:0.076923077 
1 19:1 21:1 41:0.10714286 42:0.5 43:0.39285714 45:0.79 46:0.78 47:0.785 48:0.505 49:0.12676681 50:0.64711696 51:0.3943662 52:0.73239437 53:0.56338028 54:0.33098592 55:0.35 56:0.392 57:0.371 58:0.479 59:0.5194547 60:0.32258065 61:0.20639535 62:0.095930233 63:0.15116279 64:0.55523256 65:0.52173913 66:0.5 67:0.81015038 68:0.2 69:0.2 70:0.54604798 71:0.51759577 72:0.78395009 73:0.23076923 
1 5:1 39:1 41:0.14285714 42:0.46428571 43:0.32142857 45:0.78 47:0.39 48:0.89 49:0.1893479 50:0.64711696 51:0.73239437 53:0.36619718 54:0.86619718 55:0.392 56:0.008 57:0.2 58:0.692 59:0.50411815 60:0.32258065 61:0.095930233 62:0.50290698 63:0.2994186 64:0.29651163 65:0.52173913 66:0.46428571 67:0.7537594 68:0.2 69:0.2 70:0.54604798 71:0.48333814 72:0.73151369 73:0.30769231 
-1 1:1 25:1 41:0.17857143 42:0.42857143 43:0.25 46:0.79 47:0.395 48:0.105 49:0.1893479 50:0.64711696 52:0.3943662 53:0.1971831 54:0.3028169 55:0.008 56:0.35 57:0.179 58:0.329 59:0.43425163 60:0.32258065 61:0.50290698 62:0.20639535 63:0.35465116 64:0.64825581 65:0.52173913 66:0.42857143 67:0.69736842 68:0.2 69:0.2 70:0.54604798 71:0.45043488 72:0.68115036 73:0.38461538 
1 6:1 40:1 41:0.42857143 42:0.17857143 43:0.25 48:0.5 49:0.51099381 50:0.64711696 51:0.98591549 52:1 53:0.99295775 54:0.49295775 55:0.802 56:0.976 57:0.889 58:0.413 59:0.28301619 60:0.32258065 61:0.36918605 62:0.35465116 63:0.3619186 64:0.50726744 65:0.52173913 66:0.17857143 67:0.30263158 68:0.2 69:0.2 70:0.54604798 71:0.19810152 72:0.29491662 73:0.38461538 
1 13:1 26:1 41:0.46428571 42:0.14285714 43:0.32142857 48:0.5 49:0.51099381 50:0.64711696 51:1 52:0.81690141 53:0.9084507 54:0.5915493 55:0.976 56:0.169 57:0.5725 58:0.9035 59:0.35061062 60:0.32258065 61:0.35465116 62:0.36918605 63:0.3619186 64:0.49273256 65:0.52173913 66:0.14285714 67:0.2462406 68:0.2 69:0.2 70:0.54604798 71:0.15976327 72:0.23623421 73:0.30769231 
-1 11:1 21:1 41:0.071428571 42:0.39285714 43:0.32142857 45:0.79 47:0.395 48:0.895 49:0.12676681 50:0.31695888 51:0.3943662 52:0.94366197 53:0.66901408 54:0.22535211 55:0.35 56:0.516 57:0.433 58:0.417 59:0.38667992 60:0.43377792 61:0.20639535 62:0.39534884 63:0.30087209 64:0.40552326 65:0.34782609 66:0.39285714 67:0.82142857 68:0.2 69:0.2 70:0.30514706 71:0.37585914 72:0.79636649 73:0.15384615 
1 12:1 39:1 41:0.14285714 42:0.32142857 43:0.17857143 45:0.78 47:0.39 48:0.89 49:0.1893479 50:0.31695888 51:0.73239437 52:1 53:0.86619718 54:0.36619718 55:0.392 56:0.976 57:0.684 58:0.208 59:0.37361545 60:0.43377792 61:0.095930233 62:0.35174419 63:0.22383721 64:0.37209302 65:0.34782609 66:0.32142857 67:0.67857143 68:0.2 69:0.2 70:0.30514706 71:0.31751819 72:0.67374997 73:0.30769231 
1 11:1 32:1 41:0.17857143 42:0.28571429 43:0.10714286 48:0.5 49:0.1893479 50:0.31695888 51:1 52:0.94366197 53:0.97183099 54:0.52816901 55:0.976 56:0.516 57:0.746 58:0.73 59:0.44120988 60:0.43377792 61:0.35174419 62:0.39534884 63:0.37354651 64:0.47819767 65:0.34782609 66:0.28571429 67:0.60714286 68:0.2 69:0.2 70:0.30514706 71:0.27917994 72:0.59317356 73:0.38461538 
1 18:1 25:1 41:0.25 42:0.21428571 43:0.035714286 46:0.775 47:0.3875 48:0.1125 49:0.1893479 50:0.31695888 52:0.6056338 53:0.3028169 54:0.1971831 55:0.008 56:0.215 57:0.1115 58:0.3965 59:0.37361545 60:0.43377792 61:0.50290698 62:0.15697674 63:0.32994186 64:0.67296512 65:0.34782609 66:0.21428571 67:0.46428571 68:0.2 69:0.2 70:0.30514706 71:0.22219337 72:0.47340356 73:0.46153846 
-1 10:1 32:1 41:0.32142857 42:0.14285714 43:0.17857143 46:0.784 47:0.392 48:0.108 49:0.25152782 50:0.31695888 51:1 52:0.45070423 53:0.72535211 54:0.77464789 55:0.976 56:0.251 57:0.6135 58:0.8625 59:0.40073843 60:0.43377792 61:0.35174419 62:0.2994186 63:0.3255814 64:0.52616279 65:0.34782609 66:0.14285714 67:0.32142857 68:0.2 69:0.2 70:0.30514706 71:0.15434913 72:0.33081375 73:0.30769231 
-1 12:1 30:1 41:0.35714286 42:0.10714286 43:0.25 45:0.784 47:0.392 48:0.892 49:0.31442983 50:0.31695888 51:0.45070423 52:1 53:0.72535211 54:0.22535211 55:0.251 56:0.976 57:0.6135 58:0.1375 59:0.36537915 60:0.43377792 61:0.2994186 62:0.35174419 63:0.3255814 64:0.47383721 65:0.34782609 66:0.10714286 67:0.25 68:0.2 69:0.2 70:0.30514706 71:0.11535219 72:0.24885297 73:0.23076923 
-1 10:1 32:1 41:0.071428571 42:0.39285714 43:0.32142857 46:0.784 47:0.392 48:0.108 50:0.33341825 51:1 52:0.45070423 53:0.72535211 54:0.77464789 55:0.976 56:0.251 57:0.6135 58:0.8625 59:0.58903721 60:0.36848635 61:0.35174419 62:0.2994186 63:0.3255814 64:0.52616279 65:0.34782609 66:0.39285714 67:0.82142857 68:0.2 69:0.2 70:0.35470504 71:0.4256797 72:0.83344072 73:0.15384615 
-1 12:1 25:1 41:0.14285714 42:0.32142857 43:0.17857143 48:0.5 49:0.062902013 50:0.33341825 52:1 53:0.5 55:0.008 56:0.976 57:0.492 58:0.016 59:0.48381142 60:0.36848635 61:0.50290698 62:0.35174419 63:0.42732558 64:0.5755814 65:0.34782609 66:0.32142857 67:0.67857143 68:0.2 69:0.2 70:0.35470504 71:0.3537795 72:0.69309805 73:0.30769231 
1 13:1 39:1 41:0.21428571 42:0.25 43:0.035714286 45:0.78 47:0.39 48:0.89 49:0.1254831 50:0.33341825 51:0.73239437 52:0.81690141 53:0.77464789 54:0.45774648 55:0.392 56:0.169 57:0.2805 58:0.6115 59:0.5360693 60:0.36848635 61:0.095930233 62:0.36918605 63:0.23255814 64:0.36337209 65:0.34782609 66:0.25 67:0.53571429 68:0.2 69:0.2 70:0.35470504 71:0.28118362 72:0.55139746 73:0.46153846 
-1 13:1 24:1 41:0.42857143 42:0.035714286 43:0.39285714 45:0.86525 47:0.432625 48:0.932625 49:0.32488007 50:0.33341825 51:0.54929577 52:0.81690141 53:0.68309859 54:0.36619718 55:0.224 56:0.169 57:0.1965 58:0.5275 59:0.38440784 60:0.36848635 61:0.12790698 62:0.36918605 63:0.24854651 64:0.37936047 65:0.34782609 66:0.035714286 67:0.10714286 68:0.2 69:0.2 70:0.35470504 71:0.052922086 72:0.10585164 73:0.076923077 
-1 12:1 30:1 41:0.071428571 42:0.42857143 43:0.35714286 45:0.784 47:0.392 48:0.892 49:0.19450281 50:0.57202706 51:0.45070423 52:1 53:0.72535211 54:0.22535211 55:0.251 56:0.976 57:0.6135 58:0.1375 59:0.36126101 60:0.41888958 61:0.2994186 62:0.35174419 63:0.3255814 64:0.47383721 65:0.39130435 66:0.42857143 67:0.83482143 70:0.40852546 71:0.45212422 72:0.81803443 73:0.15384615 
-1 11:1 32:1 41:0.10714286 42:0.39285714 43:0.28571429 48:0.5 49:0.19450281 50:0.57202706 51:1 52:0.94366197 53:0.97183099 54:0.52816901 55:0.976 56:0.516 57:0.746 58:0.73 59:0.42885544 60:0.41888958 61:0.35174419 62:0.39534884 63:0.37354651 64:0.47819767 65:0.39130435 66:0.39285714 67:0.76785714 70:0.40852546 71:0.41378597 72:0.74857838 73:0.23076923 
1 16:1 38:1 41:0.35714286 42:0.14285714 43:0.21428571 45:0.775 47:0.3875 48:0.8875 49:0.51505035 50:0.57202706 51:0.6056338 52:0.97183099 53:0.78873239 54:0.31690141 55:0.215 56:1 57:0.6075 58:0.1075 59:0.27066174 60:0.41888958 61:0.15697674 62:0.18895349 63:0.17296512 64:0.48401163 65:0.39130435 66:0.14285714 67:0.29910714 70:0.40852546 71:0.17569521 72:0.31723787 73:0.38461538 
-1 1:1 40:1 41:0.42857143 42:0.071428571 43:0.35714286 46:0.79 47:0.395 48:0.105 49:0.51505035 50:0.57202706 51:0.98591549 52:0.3943662 53:0.69014085 54:0.79577465 55:0.802 56:0.35 57:0.576 58:0.726 59:0.38454984 60:0.41888958 61:0.36918605 62:0.20639535 63:0.2877907 64:0.58139535 65:0.39130435 66:0.071428571 67:0.16517857 70:0.40852546 71:0.092248824 72:0.16606102 73:0.23076923 
1 5:1 21:1 41:0.10714286 42:0.39285714 43:0.28571429 45:0.79 47:0.395 48:0.895 49:0.13277941 50:0.324233 51:0.3943662 53:0.1971831 54:0.6971831 55:0.35 56:0.008 57:0.179 58:0.671 59:0.53635331 60:0.55676179 61:0.20639535 62:0.50290698 63:0.35465116 64:0.35174419 65:0.39130435 66:0.39285714 67:0.76785714 68:0.2 69:0.2 70:0.37411901 71:0.37787737 72:0.71873124 73:0.23076923 
-0.6818184722986268 13:1 35:1 41:0.39285714 42:0.10714286 43:0.28571429 45:0.79 47:0.395 48:0.895 49:0.2587439 50:0.324233 51:0.76056338 52:0.81690141 53:0.78873239 54:0.47183099 55:0.7 56:0.169 57:0.4345 58:0.7655 59:0.55623402 60:0.55676179 61:0.52325581 62:0.36918605 63:0.44622093 64:0.57703488 65:0.39130435 66:0.10714286 67:0.23214286 68:0.2 69:0.2 70:0.37411901 71:0.12076252 72:0.23049972 73:0.23076923 
-1 10:1 32:1 41:0.46428571 42:0.035714286 43:0.42857143 46:0.784 47:0.392 48:0.108 49:0.2587439 50:0.324233 51:1 52:0.45070423 53:0.72535211 54:0.77464789 55:0.976 56:0.251 57:0.6135 58:0.8625 59:0.57682477 60:0.55676179 61:0.35174419 62:0.2994186 63:0.3255814 64:0.52616279 65:0.39130435 66:0.035714286 67:0.098214286 68:0.2 69:0.2 70:0.37411901 71:0.063092591 72:0.12099117 73:0.076923077 
-1 20:1 24:1 41:0.035714286 42:0.53571429 43:0.5 45:0.86525 47:0.432625 48:0.932625 49:0.13200196 50:0.26556204 51:0.54929577 52:0.98591549 53:0.76760563 54:0.28169014 55:0.224 56:0.802 57:0.513 58:0.211 59:0.42175518 60:0.5189206 61:0.12790698 62:0.36918605 63:0.24854651 64:0.37936047 65:0.47826087 66:0.53571429 67:0.91666667 68:0.2 69:0.2 70:0.41894374 71:0.49456824 72:0.88199721 73:0.076923077 
-1 20:1 40:1 41:0.10714286 42:0.46428571 43:0.35714286 48:0.5 49:0.13200196 50:0.26556204 51:0.98591549 52:0.98591549 53:0.98591549 54:0.5 55:0.802 56:0.802 57:0.802 58:0.5 59:0.50752627 60:0.5189206 61:0.36918605 62:0.36918605 63:0.36918605 64:0.5 65:0.47826087 66:0.46428571 67:0.79761905 68:0.2 69:0.2 70:0.41894374 71:0.42739502 72:0.76197126 73:0.23076923 
1 13:1 32:1 41:0.17857143 42:0.39285714 43:0.21428571 48:0.5 49:0.13200196 50:0.26556204 51:1 52:0.81690141 53:0.9084507 54:0.5915493 55:0.976 56:0.169 57:0.5725 58:0.9035 59:0.61800625 60:0.5189206 61:0.35174419 62:0.36918605 63:0.36046512 64:0.49127907 65:0.47826087 66:0.39285714 67:0.67857143 68:0.2 69:0.2 70:0.41894374 71:0.35547015 72:0.633455 73:0.38461538 
1 13:1 31:1 41:0.25 42:0.32142857 43:0.071428571 48:0.5 49:0.13200196 50:0.26556204 51:0.94366197 52:0.81690141 53:0.88028169 54:0.56338028 55:0.516 56:0.169 57:0.3425 58:0.6735 59:0.57327464 60:0.5189206 61:0.39534884 62:0.36918605 63:0.38226744 64:0.5130814 65:0.47826087 66:0.32142857 67:0.55952381 68:0.2 69:0.2 70:0.41894374 71:0.31205517 72:0.55588056 73:0.53846154 
-1 13:1 31:1 41:0.35714286 42:0.21428571 43:0.14285714 48:0.5 49:0.13200196 50:0.26556204 51:0.94366197 52:0.81690141 53:0.88028169 54:0.56338028 55:0.516 56:0.169 57:0.3425 58:0.6735 59:0.45867651 60:0.5189206 61:0.39534884 62:0.36918605 63:0.38226744 64:0.5130814 65:0.47826087 66:0.21428571 67:0.38095238 68:0.2 69:0.2 70:0.41894374 71:0.23573693 72:0.41951417 73:0.46153846 
-1 11:1 38:1 41:0.46428571 42:0.10714286 43:0.35714286 45:0.775 47:0.3875 48:0.8875 49:0.25756529 50:0.26556204 51:0.6056338 52:0.94366197 53:0.77464789 54:0.33098592 55:0.215 56:0.516 57:0.3655 58:0.3495 59:0.39960239 60:0.5189206 61:0.15697674 62:0.39534884 63:0.27616279 64:0.38081395 65:0.47826087 66:0.10714286 67:0.20238095 68:0.2 69:0.2 70:0.41894374 71:0.13161683 72:0.23347107 73:0.23076923 
1 11:1 31:1 41:0.5 42:0.071428571 43:0.42857143 48:0.5 49:0.25756529 50:0.26556204 51:0.94366197 52:0.94366197 53:0.94366197 54:0.5 55:0.516 56:0.516 57:0.516 58:0.5 59:0.40187447 60:0.5189206 61:0.39534884 62:0.39534884 63:0.39534884 64:0.5 65:0.47826087 66:0.071428571 67:0.14285714 68:0.2 69:0.2 70:0.41894374 71:0.10753351 72:0.1904387 73:0.15384615 
1 1:1 21:1 41:0.17857143 42:0.46428571 43:0.28571429 45:0.79 46:0.79 47:0.79 48:0.5 49:0.18894674 50:0.7105241 51:0.3943662 52:0.3943662 53:0.3943662 54:0.5 55:0.35 56:0.35 57:0.35 58:0.5 59:0.37759159 60:0.34522333 61:0.20639535 62:0.20639535 63:0.20639535 64:0.5 65:0.56521739 66:0.46428571 67:0.71428571 68:0.2 69:0.2 70:0.59778507 71:0.50337402 72:0.71752287 73:0.38461538 
-1 12:1 21:1 41:0.21428571 42:0.42857143 43:0.21428571 45:0.79 47:0.395 48:0.895 49:0.25233014 50:0.7105241 51:0.3943662 52:1 53:0.6971831 54:0.1971831 55:0.35 56:0.976 57:0.663 58:0.187 59:0.35629083 60:0.34522333 61:0.20639535 62:0.35174419 63:0.27906977 64:0.42732558 65:0.56521739 66:0.42857143 67:0.66071429 68:0.2 69:0.2 70:0.59778507 71:0.45962543 72:0.65425138 73:0.46153846 
-1 4:1 38:1 41:0.35714286 42:0.28571429 43:0.071428571 45:0.775 46:0.86525 47:0.820125 48:0.454875 49:0.44608599 50:0.7105241 51:0.6056338 52:0.54929577 53:0.57746479 54:0.52816901 55:0.215 56:0.224 57:0.2195 58:0.4955 59:0.28912241 60:0.34522333 61:0.15697674 62:0.12790698 63:0.14244186 64:0.51453488 65:0.56521739 66:0.28571429 67:0.44642857 68:0.2 69:0.2 70:0.59778507 71:0.32361188 72:0.45754148 73:0.61538462 
-1 1:1 24:1 41:0.39285714 42:0.25 43:0.14285714 45:0.86525 46:0.79 47:0.827625 48:0.537625 49:0.51550687 50:0.7105241 51:0.54929577 52:0.3943662 53:0.47183099 54:0.57746479 55:0.224 56:0.35 57:0.287 58:0.437 59:0.249929 60:0.34522333 61:0.12790698 62:0.20639535 63:0.16715116 64:0.46075581 65:0.56521739 66:0.25 67:0.39285714 68:0.2 69:0.2 70:0.59778507 71:0.2801969 72:0.39475247 73:0.53846154 
-1 12:1 21:1 41:0.42857143 42:0.21428571 43:0.21428571 45:0.79 47:0.395 48:0.895 49:0.57889028 50:0.7105241 51:0.3943662 52:1 53:0.6971831 54:0.1971831 55:0.35 56:0.976 57:0.663 58:0.187 59:0.22862823 60:0.34522333 61:0.20639535 62:0.35174419 63:0.27906977 64:0.42732558 65:0.56521739 66:0.21428571 67:0.33928571 68:0.2 69:0.2 70:0.59778507 71:0.23644831 72:0.33148098 73:0.46153846 
1 1:1 32:1 41:0.5 42:0.14285714 43:0.35714286 46:0.79 47:0.395 48:0.105 49:0.57889028 50:0.7105241 51:1 52:0.3943662 53:0.6971831 54:0.8028169 55:0.976 56:0.35 57:0.663 58:0.813 59:0.3638171 60:0.34522333 61:0.35174419 62:0.20639535 63:0.27906977 64:0.57267442 65:0.56521739 66:0.14285714 67:0.23214286 68:0.2 69:0.2 70:0.59778507 71:0.15977179 72:0.2205874 73:0.30769231 
-1 10:1 32:1 41:0.035714286 42:0.46428571 43:0.42857143 46:0.784 47:0.392 48:0.108 50:0.32942938 51:1 52:0.45070423 53:0.72535211 54:0.77464789 55:0.976 56:0.251 57:0.6135 58:0.8625 59:0.61147401 60:0.5189206 61:0.35174419 62:0.2994186 63:0.3255814 64:0.52616279 65:0.39130435 66:0.46428571 67:0.90178571 68:0.2 69:0.2 70:0.33575507 71:0.43009859 72:0.86699938 73:0.076923077 
-1 11:1 23:1 41:0.10714286 42:0.39285714 43:0.28571429 45:0.86494 47:0.43247 48:0.93247 49:0.13229802 50:0.32942938 51:0.52112676 52:0.94366197 53:0.73239437 54:0.28873239 55:0.121 56:0.516 57:0.3185 58:0.3025 59:0.5222948 60:0.5189206 62:0.39534884 63:0.19767442 64:0.30232558 65:0.39130435 66:0.39285714 67:0.76785714 68:0.2 69:0.2 70:0.33575507 71:0.35243831 72:0.71116608 73:0.23076923 
1 11:1 31:1 41:0.14285714 42:0.35714286 43:0.21428571 48:0.5 49:0.13229802 50:0.32942938 51:0.94366197 52:0.94366197 53:0.94366197 54:0.5 55:0.516 56:0.516 57:0.516 58:0.5 59:0.52456688 60:0.5189206 61:0.39534884 62:0.39534884 63:0.39534884 64:0.5 65:0.39130435 66:0.35714286 67:0.70089286 68:0.2 69:0.2 70:0.33575507 71:0.328355 72:0.66284044 73:0.30769231 
1 11:1 31:1 41:0.17857143 42:0.32142857 43:0.14285714 48:0.5 49:0.13229802 50:0.32942938 51:0.94366197 52:0.94366197 53:0.94366197 54:0.5 55:0.516 56:0.516 57:0.516 58:0.5 59:0.52683897 60:0.5189206 61:0.39534884 62:0.39534884 63:0.39534884 64:0.5 65:0.39130435 66:0.32142857 67:0.63392857 68:0.2 69:0.2 70:0.33575507 71:0.30427168 72:0.61451479 73:0.38461538 
1 11:1 31:1 41:0.32142857 42:0.17857143 43:0.14285714 48:0.5 49:0.19520003 50:0.32942938 51:0.94366197 52:0.94366197 53:0.94366197 54:0.5 55:0.516 56:0.516 57:0.516 58:0.5 59:0.56361829 60:0.5189206 61:0.39534884 62:0.39534884 63:0.39534884 64:0.5 65:0.39130435 66:0.17857143 67:0.36607143 68:0.2 69:0.2 70:0.33575507 71:0.17876986 72:0.36268251 73:0.38461538 
1 1:1 33:1 41:0.035714286 42:0.67857143 43:0.64285714 46:0.79 47:0.395 48:0.105 49:0.062179924 50:0.57651496 51:0.81690141 52:0.3943662 53:0.6056338 54:0.71126761 55:0.169 56:0.35 57:0.2595 58:0.4095 59:0.38881 60:0.35127171 61:0.36918605 62:0.20639535 63:0.2877907 64:0.58139535 65:0.65217391 66:0.67857143 67:0.93831169 68:0.2 69:0.2 70:0.57149715 71:0.64345587 72:0.94801416 73:0.076923077 
-1 11:1 30:1 41:0.17857143 42:0.53571429 43:0.35714286 45:0.784 47:0.392 48:0.892 49:0.31442983 50:0.57651496 51:0.45070423 52:0.94366197 53:0.6971831 54:0.25352113 55:0.251 56:0.516 57:0.3835 58:0.3675 59:0.29551264 60:0.35127171 61:0.2994186 62:0.39534884 63:0.34738372 64:0.45203488 65:0.65217391 66:0.53571429 67:0.74350649 68:0.2 69:0.2 70:0.57149715 71:0.48270413 72:0.70882553 73:0.38461538 
1 11:1 26:1 41:0.28571429 42:0.42857143 43:0.14285714 48:0.5 49:0.37701092 50:0.57651496 51:1 52:0.94366197 53:0.97183099 54:0.52816901 55:0.976 56:0.516 57:0.746 58:0.73 59:0.3500426 60:0.35127171 61:0.35465116 62:0.39534884 63:0.375 64:0.47965116 65:0.65217391 66:0.42857143 67:0.5974026 68:0.2 69:0.2 70:0.57149715 71:0.38602492 72:0.56497287 73:0.61538462 
1 20:1 31:1 41:0.42857143 42:0.28571429 43:0.14285714 48:0.5 49:0.43991293 50:0.57651496 51:0.94366197 52:0.98591549 53:0.96478873 54:0.47887324 55:0.516 56:0.802 57:0.659 58:0.357 59:0.38682193 60:0.35127171 61:0.39534884 62:0.36918605 63:0.38226744 64:0.5130814 65:0.65217391 66:0.28571429 67:0.4025974 68:0.2 69:0.2 70:0.57149715 71:0.2605231 72:0.37823393 73:0.61538462 
1 13:1 40:1 41:0.46428571 42:0.25 43:0.21428571 48:0.5 49:0.43991293 50:0.57651496 51:0.98591549 52:0.81690141 53:0.90140845 54:0.58450704 55:0.802 56:0.169 57:0.4855 58:0.8165 59:0.42970747 60:0.35127171 61:0.36918605 62:0.36918605 63:0.36918605 64:0.5 65:0.65217391 66:0.25 67:0.3538961 68:0.2 69:0.2 70:0.57149715 71:0.22693649 72:0.32825914 73:0.53846154 
1 19:1 33:1 41:0.5 42:0.21428571 43:0.28571429 46:0.78 47:0.39 48:0.11 49:0.43991293 50:0.57651496 51:0.81690141 52:0.73239437 53:0.77464789 54:0.54225352 55:0.169 56:0.392 57:0.2805 58:0.3885 59:0.38270378 60:0.35127171 61:0.36918605 62:0.095930233 63:0.23255814 64:0.63662791 65:0.65217391 66:0.21428571 67:0.30519481 68:0.2 69:0.2 70:0.57149715 71:0.20760482 72:0.29949482 73:0.46153846 
-1 12:1 24:1 41:0.035714286 42:0.39285714 43:0.35714286 45:0.86525 47:0.432625 48:0.932625 49:0.13232289 50:0.53212858 51:0.54929577 52:1 53:0.77464789 54:0.27464789 55:0.224 56:0.976 57:0.6 58:0.124 59:0.40173246 60:0.49984491 61:0.12790698 62:0.35174419 63:0.23982558 64:0.3880814 65:0.30434783 66:0.39285714 67:0.88265306 68:0.2 69:0.2 70:0.3680511 71:0.44977871 72:0.86299659 73:0.076923077 
1 1:1 32:1 41:0.10714286 42:0.32142857 43:0.21428571 46:0.79 47:0.395 48:0.105 49:0.13232289 50:0.53212858 51:1 52:0.3943662 53:0.6971831 54:0.8028169 55:0.976 56:0.35 57:0.663 58:0.813 59:0.53692133 60:0.49984491 61:0.35174419 62:0.20639535 63:0.27906977 64:0.57267442 65:0.30434783 66:0.32142857 67:0.72959184 68:0.2 69:0.2 70:0.3680511 71:0.37310219 72:0.71614988 73:0.23076923 
1 3:1 21:1 41:0.14285714 42:0.28571429 43:0.14285714 45:0.79 46:0.86494 47:0.82747 48:0.46253 49:0.1957063 50:0.53212858 51:0.3943662 52:0.52112676 53:0.45774648 54:0.43661972 55:0.35 56:0.121 57:0.2355 58:0.6145 59:0.51562056 60:0.49984491 61:0.20639535 63:0.10319767 64:0.60319767 65:0.30434783 66:0.28571429 67:0.65306122 68:0.2 69:0.2 70:0.3680511 71:0.3293536 72:0.63236496 73:0.30769231 
-1 4:1 32:1 41:0.21428571 42:0.21428571 46:0.86525 47:0.432625 48:0.067375 49:0.2651023 50:0.53212858 51:1 52:0.54929577 53:0.77464789 54:0.72535211 55:0.976 56:0.224 57:0.6 58:0.876 59:0.52939506 60:0.49984491 61:0.35174419 62:0.12790698 63:0.23982558 64:0.6119186 65:0.30434783 66:0.21428571 67:0.5 68:0.2 69:0.2 70:0.3680511 71:0.25235201 72:0.48489568 73:0.46153846 
-1 17:1 33:1 41:0.32142857 42:0.10714286 43:0.21428571 46:0.83 47:0.415 48:0.085 49:0.39790658 50:0.53212858 51:0.81690141 52:0.91549296 53:0.86619718 54:0.45070423 55:0.169 56:0.823 57:0.496 58:0.173 59:0.42189719 60:0.49984491 61:0.36918605 62:0.15988372 63:0.26453488 64:0.60465116 65:0.30434783 66:0.10714286 67:0.27040816 68:0.2 69:0.2 70:0.3680511 71:0.14585677 72:0.28094177 73:0.23076923 
-1 20:1 21:1 41:0.39285714 42:0.035714286 43:0.35714286 45:0.79 47:0.395 48:0.895 49:0.52788268 50:0.53212858 51:0.3943662 52:0.98591549 53:0.69014085 54:0.20422535 55:0.35 56:0.802 57:0.576 58:0.274 59:0.44646407 60:0.49984491 61:0.20639535 62:0.36918605 63:0.2877907 64:0.41860465 65:0.30434783 66:0.035714286 67:0.11734694 68:0.2 69:0.2 70:0.3680511 71:0.057682261 72:0.11207473 73:0.076923077 
-1 16:1 21:1 41:0.10714286 42:0.35714286 43:0.25 45:0.79 47:0.395 48:0.895 49:0.19255718 50:0.60362024 51:0.3943662 52:0.97183099 53:0.68309859 54:0.21126761 55:0.35 56:1 57:0.675 58:0.175 59:0.55310991 60:0.5755273 61:0.20639535 62:0.18895349 63:0.19767442 64:0.50872093 65:0.34782609 66:0.35714286 67:0.75 68:0.2 69:0.2 70:0.44691513 71:0.43348268 72:0.74369946 73:0.23076923 
-1 3:1 35:1 41:0.21428571 42:0.25 43:0.035714286 45:0.79 46:0.86494 47:0.82747 48:0.46253 49:0.32533659 50:0.60362024 51:0.76056338 52:0.52112676 53:0.64084507 54:0.61971831 55:0.7 56:0.121 57:0.4105 58:0.7895 59:0.59869355 60:0.5755273 61:0.52325581 63:0.26162791 64:0.76162791 65:0.34782609 66:0.25 67:0.53571429 68:0.2 69:0.2 70:0.44691513 71:0.28967712 72:0.49587319 73:0.46153846 
-1 18:1 23:1 41:0.25 42:0.21428571 43:0.035714286 45:0.86494 46:0.775 47:0.81997 48:0.54497 49:0.3947326 50:0.60362024 51:0.52112676 52:0.6056338 53:0.56338028 54:0.45774648 55:0.121 56:0.215 57:0.168 58:0.453 59:0.54487362 60:0.5755273 62:0.15697674 63:0.078488372 64:0.42151163 65:0.34782609 66:0.21428571 67:0.46428571 68:0.2 69:0.2 70:0.44691513 71:0.25101378 72:0.42924302 73:0.46153846 
-1 11:1 31:1 41:0.035714286 42:0.42857143 43:0.39285714 48:0.5 50:0.19550192 51:0.94366197 52:0.94366197 53:0.94366197 54:0.5 55:0.516 56:0.516 57:0.516 58:0.5 59:0.54615166 60:0.6898263 61:0.39534884 62:0.39534884 63:0.39534884 64:0.5 65:0.34782609 66:0.42857143 67:0.89285714 68:0.2 69:0.2 70:0.30346222 71:0.41894051 72:0.88935693 73:0.076923077 
-1 10:1 31:1 41:0.071428571 42:0.39285714 43:0.32142857 46:0.784 47:0.392 48:0.108 50:0.19550192 51:0.94366197 52:0.45070423 53:0.6971831 54:0.74647887 55:0.516 56:0.251 57:0.3835 58:0.6325 59:0.54842374 60:0.6898263 61:0.39534884 62:0.2994186 63:0.34738372 64:0.54796512 65:0.34782609 66:0.39285714 67:0.82142857 68:0.2 69:0.2 70:0.30346222 71:0.3948572 72:0.83860805 73:0.15384615 
-1 20:1 30:1 41:0.10714286 42:0.35714286 43:0.25 45:0.784 47:0.392 48:0.892 49:0.062902013 50:0.19550192 51:0.45070423 52:0.98591549 53:0.71830986 54:0.23239437 55:0.251 56:0.802 57:0.5265 58:0.2245 59:0.51306447 60:0.6898263 61:0.2994186 62:0.36918605 63:0.33430233 64:0.46511628 65:0.34782609 66:0.35714286 67:0.75 68:0.2 69:0.2 70:0.30346222 71:0.35586026 72:0.75643284 73:0.23076923 
1 13:1 39:1 41:0.17857143 42:0.28571429 43:0.10714286 45:0.78 47:0.39 48:0.89 49:0.1254831 50:0.19550192 51:0.73239437 52:0.81690141 53:0.77464789 54:0.45774648 55:0.392 56:0.169 57:0.2805 58:0.6115 59:0.54061346 60:0.6898263 61:0.095930233 62:0.36918605 63:0.23255814 64:0.36337209 65:0.34782609 66:0.28571429 67:0.60714286 68:0.2 69:0.2 70:0.30346222 71:0.28801602 72:0.61346998 73:0.38461538 
-1 12:1 32:1 41:0.35714286 42:0.10714286 43:0.25 48:0.5 49:0.18806418 50:0.19550192 51:1 52:1 53:1 54:0.5 55:0.976 56:0.976 57:0.976 58:0.5 59:0.51888668 60:0.6898263 61:0.35174419 62:0.35174419 63:0.35174419 64:0.5 65:0.34782609 66:0.10714286 67:0.25 68:0.2 69:0.2 70:0.30346222 71:0.1295986 72:0.27964935 73:0.23076923 
-1 20:1 32:1 41:0.39285714 42:0.071428571 43:0.32142857 48:0.5 49:0.18806418 50:0.19550192 51:1 52:0.98591549 53:0.99295775 54:0.50704225 55:0.976 56:0.802 57:0.889 58:0.587 59:0.58648111 60:0.6898263 61:0.35174419 62:0.36918605 63:0.36046512 64:0.49127907 65:0.34782609 66:0.071428571 67:0.17857143 68:0.2 69:0.2 70:0.30346222 71:0.091260343 72:0.19886214 73:0.15384615 
-1 11:1 40:1 41:0.42857143 42:0.035714286 43:0.39285714 48:0.5 49:0.18806418 50:0.19550192 51:0.98591549 52:0.94366197 53:0.96478873 54:0.52112676 55:0.802 56:0.516 57:0.659 58:0.643 59:0.62936666 60:0.6898263 61:0.36918605 62:0.39534884 63:0.38226744 64:0.4869186 65:0.34782609 66:0.035714286 67:0.10714286 68:0.2 69:0.2 70:0.30346222 71:0.057673733 72:0.1280877 73:0.076923077 
1 12:1 24:1 41:0.035714286 42:0.39285714 43:0.35714286 45:0.86525 47:0.432625 48:0.932625 49:0.069420876 50:0.39291821 51:0.54929577 52:1 53:0.77464789 54:0.27464789 55:0.224 56:0.976 57:0.6 58:0.124 59:0.50468617 60:0.61460918 61:0.12790698 62:0.35174419 63:0.23982558 64:0.3880814 65:0.30434783 66:0.39285714 67:0.88265306 68:0.2 69:0.2 70:0.33230817 71:0.42230931 72:0.85597554 73:0.076923077 
1 20:1 32:1 41:0.071428571 42:0.35714286 43:0.28571429 48:0.5 49:0.069420876 50:0.39291821 51:1 52:0.98591549 53:0.99295775 54:0.50704225 55:0.976 56:0.802 57:0.889 58:0.587 59:0.5722806 60:0.61460918 61:0.35174419 62:0.36918605 63:0.36046512 64:0.49127907 65:0.30434783 66:0.35714286 67:0.80612245 68:0.2 69:0.2 70:0.33230817 71:0.38397105 72:0.77865179 73:0.15384615 
1 13:1 40:1 41:0.10714286 42:0.32142857 43:0.21428571 48:0.5 49:0.069420876 50:0.39291821 51:0.98591549 52:0.81690141 53:0.90140845 54:0.58450704 55:0.802 56:0.169 57:0.4855 58:0.8165 59:0.61516615 60:0.61460918 61:0.36918605 62:0.36918605 63:0.36918605 64:0.5 65:0.30434783 66:0.32142857 67:0.72959184 68:0.2 69:0.2 70:0.33230817 71:0.35038444 72:0.71091156 73:0.23076923 
1 10:1 33:1 41:0.14285714 42:0.28571429 43:0.14285714 46:0.784 47:0.392 48:0.108 49:0.069420876 50:0.39291821 51:0.81690141 52:0.45070423 53:0.63380282 54:0.68309859 55:0.169 56:0.251 57:0.21 58:0.459 59:0.56816245 60:0.61460918 61:0.36918605 62:0.2994186 63:0.33430233 64:0.53488372 65:0.30434783 66:0.28571429 67:0.65306122 68:0.2 69:0.2 70:0.33230817 71:0.33105277 72:0.67192187 73:0.30769231 
-1 10:1 30:1 41:0.17857143 42:0.25 43:0.071428571 45:0.784 46:0.784 47:0.784 48:0.5 49:0.13232289 50:0.39291821 51:0.45070423 52:0.45070423 53:0.45070423 54:0.5 55:0.251 56:0.251 57:0.251 58:0.5 59:0.53280318 60:0.61460918 61:0.2994186 62:0.2994186 63:0.2994186 64:0.5 65:0.30434783 66:0.25 67:0.57653061 68:0.2 69:0.2 70:0.33230817 71:0.29205583 72:0.59326964 73:0.38461538 
-1 12:1 30:1 41:0.21428571 42:0.21428571 45:0.784 47:0.392 48:0.892 49:0.1952249 50:0.39291821 51:0.45070423 52:1 53:0.72535211 54:0.22535211 55:0.251 56:0.976 57:0.6135 58:0.1375 59:0.49744391 60:0.61460918 61:0.2994186 62:0.35174419 63:0.3255814 64:0.47383721 65:0.30434783 66:0.21428571 67:0.5 68:0.2 69:0.2 70:0.33230817 71:0.25305889 72:0.51461741 73:0.46153846 
1 20:1 36:1 41:0.28571429 42:0.14285714 43:0.14285714 48:0.5 49:0.1952249 50:0.39291821 51:0.97183099 52:0.98591549 53:0.97887324 54:0.49295775 55:1 56:0.802 57:0.901 58:0.599 59:0.6360409 60:0.61460918 61:0.18895349 62:0.36918605 63:0.27906977 64:0.40988372 65:0.30434783 66:0.14285714 67:0.34693878 68:0.2 69:0.2 70:0.33230817 71:0.16486085 72:0.33673237 73:0.30769231 
1 19:1 40:1 41:0.32142857 42:0.10714286 43:0.21428571 46:0.78 47:0.39 48:0.11 49:0.1952249 50:0.39291821 51:0.98591549 52:0.73239437 53:0.85915493 54:0.62676056 55:0.802 56:0.392 57:0.597 58:0.705 59:0.67892644 60:0.61460918 61:0.36918605 62:0.095930233 63:0.23255814 64:0.63662791 65:0.30434783 66:0.10714286 67:0.27040816 68:0.2 69:0.2 70:0.33230817 71:0.13127424 72:0.26899213 73:0.23076923 
1 3:1 39:1 41:0.35714286 42:0.071428571 43:0.28571429 45:0.78 46:0.86494 47:0.82247 48:0.45753 49:0.25780599 50:0.39291821 51:0.73239437 52:0.52112676 53:0.62676056 54:0.6056338 55:0.392 56:0.121 57:0.2565 58:0.6355 59:0.66358989 60:0.61460918 61:0.095930233 63:0.047965116 64:0.54796512 65:0.30434783 66:0.071428571 67:0.19387755 68:0.2 69:0.2 70:0.33230817 71:0.097016615 72:0.19989854 73:0.15384615 
-1 3:1 30:1 41:0.071428571 42:0.39285714 43:0.32142857 45:0.784 46:0.86494 47:0.82447 48:0.45953 49:0.062902013 50:0.39760991 51:0.45070423 52:0.52112676 53:0.48591549 54:0.46478873 55:0.251 56:0.121 57:0.186 58:0.565 59:0.39619426 60:0.51628412 61:0.2994186 63:0.1497093 64:0.6497093 65:0.34782609 66:0.39285714 67:0.82142857 68:0.2 69:0.2 70:0.36330109 71:0.44604066 72:0.86193585 73:0.15384615 
-1 11:1 23:1 41:0.10714286 42:0.35714286 43:0.25 45:0.86494 47:0.43247 48:0.93247 49:0.13229802 50:0.39760991 51:0.52112676 52:0.94366197 53:0.73239437 54:0.28873239 55:0.121 56:0.516 57:0.3185 58:0.3025 59:0.34237433 60:0.51628412 62:0.39534884 63:0.19767442 64:0.30232558 65:0.34782609 66:0.35714286 67:0.75 68:0.2 69:0.2 70:0.36330109 71:0.40737733 72:0.78739021 73:0.23076923 
1 5:1 31:1 41:0.14285714 42:0.32142857 43:0.17857143 48:0.5 49:0.13229802 50:0.39760991 51:0.94366197 53:0.47183099 54:0.97183099 55:0.516 56:0.008 57:0.262 58:0.754 59:0.34464641 60:0.51628412 61:0.39534884 62:0.50290698 63:0.44912791 64:0.44622093 65:0.34782609 66:0.32142857 67:0.67857143 68:0.2 69:0.2 70:0.36330109 71:0.38329401 72:0.74095588 73:0.30769231 
-1 11:1 37:1 41:0.21428571 42:0.25 43:0.035714286 45:0.83 47:0.415 48:0.915 49:0.19889071 50:0.39760991 51:0.91549296 52:0.94366197 53:0.92957746 54:0.48591549 55:0.823 56:0.516 57:0.6695 58:0.6535 59:0.32064754 60:0.51628412 61:0.15988372 62:0.39534884 63:0.27761628 64:0.38226744 65:0.34782609 66:0.25 67:0.53571429 68:0.2 69:0.2 70:0.36330109 71:0.30596483 72:0.59185977 73:0.46153846 
-1 1:1 31:1 41:0.10714286 42:0.42857143 43:0.32142857 46:0.79 47:0.395 48:0.105 50:0.3917099 51:0.94366197 52:0.3943662 53:0.66901408 54:0.77464789 55:0.516 56:0.35 57:0.433 58:0.583 59:0.4360977 60:0.54466501 61:0.39534884 62:0.20639535 63:0.30087209 64:0.59447674 65:0.43478261 66:0.42857143 67:0.78361345 68:0.2 69:0.2 70:0.40469228 71:0.46944398 72:0.85402674 73:0.23076923 
-1 12:1 21:1 41:0.14285714 42:0.39285714 43:0.25 45:0.79 47:0.395 48:0.895 49:0.063383406 50:0.3917099 51:0.3943662 52:1 53:0.6971831 54:0.1971831 55:0.35 56:0.976 57:0.663 58:0.187 59:0.41479693 60:0.54466501 61:0.20639535 62:0.35174419 63:0.27906977 64:0.42732558 65:0.43478261 66:0.39285714 67:0.72058824 68:0.2 69:0.2 70:0.40469228 71:0.42569539 72:0.77436132 73:0.30769231 
-1 1:1 37:1 41:0.28571429 42:0.25 43:0.035714286 45:0.83 46:0.79 47:0.81 48:0.52 49:0.1299761 50:0.3917099 51:0.91549296 52:0.3943662 53:0.65492958 54:0.76056338 55:0.823 56:0.35 57:0.5865 58:0.7365 59:0.52414087 60:0.54466501 61:0.15988372 62:0.20639535 63:0.18313953 64:0.47674419 65:0.43478261 66:0.25 67:0.46848739 68:0.2 69:0.2 70:0.40469228 71:0.29001293 72:0.5272859 73:0.53846154 
-1 10:1 21:1 41:0.32142857 42:0.21428571 43:0.10714286 45:0.79 46:0.784 47:0.787 48:0.503 49:0.19335951 50:0.3917099 51:0.3943662 52:0.45070423 53:0.42253521 54:0.47183099 55:0.35 56:0.251 57:0.3005 58:0.5495 59:0.5028401 60:0.54466501 61:0.20639535 62:0.2994186 63:0.25290698 64:0.45348837 65:0.43478261 66:0.21428571 67:0.40546218 68:0.2 69:0.2 70:0.40469228 71:0.24626434 72:0.44762047 73:0.46153846 
-1 12:1 30:1 41:0.35714286 42:0.17857143 43:0.17857143 45:0.784 47:0.392 48:0.892 49:0.25626152 50:0.3917099 51:0.45070423 52:1 53:0.72535211 54:0.22535211 55:0.251 56:0.976 57:0.6135 58:0.1375 59:0.46748083 60:0.54466501 61:0.2994186 62:0.35174419 63:0.3255814 64:0.47383721 65:0.43478261 66:0.17857143 67:0.34243697 68:0.2 69:0.2 70:0.40469228 71:0.2072674 72:0.37660772 73:0.38461538 
-1 11:1 32:1 41:0.39285714 42:0.14285714 43:0.25 48:0.5 49:0.25626152 50:0.3917099 51:1 52:0.94366197 53:0.97183099 54:0.52816901 55:0.976 56:0.516 57:0.746 58:0.73 59:0.53507526 60:0.54466501 61:0.35174419 62:0.39534884 63:0.37354651 64:0.47819767 65:0.43478261 66:0.14285714 67:0.27941176 68:0.2 69:0.2 70:0.40469228 71:0.16892915 72:0.30679441 73:0.30769231 
1 17:1 31:1 41:0.10714286 42:0.39285714 43:0.28571429 46:0.83 47:0.415 48:0.085 49:0.13229802 50:0.34026292 51:0.94366197 52:0.91549296 53:0.92957746 54:0.51408451 55:0.516 56:0.823 57:0.6695 58:0.3465 59:0.45697245 60:0.5683933 61:0.39534884 62:0.15988372 63:0.27761628 64:0.61773256 65:0.39130435 66:0.39285714 67:0.76785714 68:0.2 69:0.2 70:0.37798702 71:0.3999279 72:0.75625102 73:0.23076923 
1 13:1 37:1 41:0.14285714 42:0.35714286 43:0.21428571 45:0.83 47:0.415 48:0.915 49:0.19889071 50:0.34026292 51:0.91549296 52:0.81690141 53:0.86619718 54:0.54929577 55:0.823 56:0.169 57:0.496 58:0.827 59:0.5028401 60:0.5683933 61:0.15988372 62:0.36918605 63:0.26453488 64:0.39534884 65:0.39130435 66:0.35714286 67:0.70089286 68:0.2 69:0.2 70:0.37798702 71:0.35550198 72:0.67234544 73:0.30769231 
1 5:1 33:1 41:0.17857143 42:0.32142857 43:0.14285714 48:0.5 49:0.19889071 50:0.34026292 51:0.81690141 53:0.4084507 54:0.9084507 55:0.169 56:0.008 57:0.0885 58:0.5805 59:0.45583641 60:0.5683933 61:0.36918605 62:0.50290698 63:0.43604651 64:0.43313953 65:0.39130435 66:0.32142857 67:0.63392857 68:0.2 69:0.2 70:0.37798702 71:0.33617031 72:0.63583444 73:0.38461538 
-1 12:1 25:1 41:0.21428571 42:0.28571429 43:0.071428571 48:0.5 49:0.19889071 50:0.34026292 52:1 53:0.5 55:0.008 56:0.976 57:0.492 58:0.016 59:0.38596989 60:0.5683933 61:0.50290698 62:0.35174419 63:0.42732558 64:0.5755814 65:0.39130435 66:0.28571429 67:0.56696429 68:0.2 69:0.2 70:0.37798702 71:0.30326706 72:0.57369128 73:0.46153846 
-1 6:1 32:1 41:0.25 42:0.25 48:0.5 49:0.19889071 50:0.34026292 51:1 52:1 53:1 54:0.5 55:0.976 56:0.976 57:0.976 58:0.5 59:0.45356433 60:0.5683933 61:0.35174419 62:0.35465116 63:0.35319767 64:0.49854651 65:0.39130435 66:0.25 67:0.5 68:0.2 69:0.2 70:0.37798702 71:0.2649288 72:0.50128324 73:0.53846154 
-1 11:1 23:1 41:0.32142857 42:0.17857143 43:0.14285714 45:0.86494 47:0.43247 48:0.93247 49:0.26828671 50:0.34026292 51:0.52112676 52:0.94366197 53:0.73239437 54:0.28873239 55:0.121 56:0.516 57:0.3185 58:0.3025 59:0.46733882 60:0.5683933 62:0.39534884 63:0.19767442 64:0.30232558 65:0.39130435 66:0.17857143 67:0.36607143 68:0.2 69:0.2 70:0.37798702 71:0.18792721 72:0.3558532 73:0.38461538 
-1 11:1 31:1 41:0.35714286 42:0.14285714 43:0.21428571 48:0.5 49:0.26828671 50:0.34026292 51:0.94366197 52:0.94366197 53:0.94366197 54:0.5 55:0.516 56:0.516 57:0.516 58:0.5 59:0.46961091 60:0.5683933 61:0.39534884 62:0.39534884 63:0.39534884 64:0.5 65:0.39130435 66:0.14285714 67:0.29910714 68:0.2 69:0.2 70:0.37798702 71:0.16384389 72:0.31036794 73:0.30769231 
-1 5:1 33:1 41:0.21428571 42:0.5 43:0.28571429 48:0.5 49:0.12580403 50:0.59286838 51:0.81690141 53:0.4084507 54:0.9084507 55:0.169 56:0.008 57:0.0885 58:0.5805 59:0.42431128 60:0.33405707 61:0.36918605 62:0.50290698 63:0.43604651 64:0.43313953 65:0.65217391 66:0.5 67:0.69480519 68:0.2 69:0.2 70:0.61932753 71:0.51726848 72:0.71999124 73:0.46153846 
-1 18:1 25:1 41:0.25 42:0.46428571 43:0.21428571 46:0.775 47:0.3875 48:0.1125 49:0.12580403 50:0.59286838 52:0.6056338 53:0.3028169 54:0.1971831 55:0.008 56:0.215 57:0.1115 58:0.3965 59:0.35444476 60:0.33405707 61:0.50290698 62:0.15697674 63:0.32994186 64:0.67296512 65:0.65217391 66:0.46428571 67:0.6461039 68:0.2 69:0.2 70:0.61932753 71:0.48436522 72:0.67347282 73:0.53846154 
-1 19:1 38:1 41:0.28571429 42:0.42857143 43:0.14285714 45:0.775 46:0.78 47:0.7775 48:0.4975 49:0.18798395 50:0.59286838 51:0.6056338 52:0.73239437 53:0.66901408 54:0.43661972 55:0.215 56:0.392 57:0.3035 58:0.4115 59:0.3139733 60:0.33405707 61:0.15697674 62:0.095930233 63:0.12645349 64:0.53052326 65:0.65217391 66:0.42857143 67:0.5974026 68:0.2 69:0.2 70:0.61932753 71:0.45485924 72:0.63175745 73:0.61538462 
-1 13:1 32:1 41:0.39285714 42:0.32142857 43:0.071428571 48:0.5 49:0.31346705 50:0.59286838 51:1 52:0.81690141 53:0.9084507 54:0.5915493 55:0.976 56:0.169 57:0.5725 58:0.9035 59:0.33087191 60:0.33405707 61:0.35174419 62:0.36918605 63:0.36046512 64:0.49127907 65:0.65217391 66:0.32142857 67:0.4512987 68:0.2 69:0.2 70:0.61932753 71:0.34326641 72:0.47398822 73:0.69230769 
1 12:1 21:1 41:0.46428571 42:0.25 43:0.21428571 45:0.79 47:0.395 48:0.895 49:0.37685045 50:0.59286838 51:0.3943662 52:1 53:0.6971831 54:0.1971831 55:0.35 56:0.976 57:0.663 58:0.187 59:0.26256745 60:0.33405707 61:0.20639535 62:0.35174419 63:0.27906977 64:0.42732558 65:0.65217391 66:0.25 67:0.3538961 68:0.2 69:0.2 70:0.61932753 71:0.28018616 72:0.38480576 73:0.53846154 
1 11:1 32:1 41:0.5 42:0.21428571 43:0.28571429 48:0.5 49:0.37685045 50:0.59286838 51:1 52:0.94366197 53:0.97183099 54:0.52816901 55:0.976 56:0.516 57:0.746 58:0.73 59:0.33016189 60:0.33405707 61:0.35174419 62:0.39534884 63:0.37354651 64:0.47819767 65:0.65217391 66:0.21428571 67:0.30519481 68:0.2 69:0.2 70:0.61932753 71:0.2418479 72:0.33060337 73:0.46153846 
1 12:1 31:1 41:0.53571429 42:0.17857143 43:0.35714286 48:0.5 49:0.37685045 50:0.59286838 51:0.94366197 52:1 53:0.97183099 54:0.47183099 55:0.516 56:0.976 57:0.746 58:0.27 59:0.33243397 60:0.33405707 61:0.39534884 62:0.35174419 63:0.37354651 64:0.52180233 65:0.65217391 66:0.17857143 67:0.25649351 68:0.2 69:0.2 70:0.61932753 71:0.21776458 72:0.29655453 73:0.38461538 
1 13:1 32:1 41:0.57142857 42:0.14285714 43:0.42857143 48:0.5 49:0.37685045 50:0.59286838 51:1 52:0.81690141 53:0.9084507 54:0.5915493 55:0.976 56:0.169 57:0.5725 58:0.9035 59:0.4000284 60:0.33405707 61:0.35174419 62:0.36918605 63:0.36046512 64:0.49127907 65:0.65217391 66:0.14285714 67:0.20779221 68:0.2 69:0.2 70:0.61932753 71:0.17942633 72:0.24235215 73:0.30769231 
-1 6:1 30:1 41:0.25 42:0.28571429 43:0.035714286 45:0.784 47:0.392 48:0.892 49:0.25826251 50:0.53113379 51:0.45070423 52:1 53:0.72535211 54:0.22535211 55:0.251 56:0.976 57:0.6135 58:0.1375 59:0.37560352 60:0.57893921 61:0.2994186 62:0.35465116 63:0.32703488 64:0.47238372 65:0.43478261 66:0.28571429 67:0.53151261 68:0.2 69:0.2 70:0.46028936 71:0.34327494 72:0.57761898 73:0.53846154 
1 12:1 21:1 41:0.32142857 42:0.21428571 43:0.10714286 45:0.79 47:0.395 48:0.895 49:0.32164591 50:0.53113379 51:0.3943662 52:1 53:0.6971831 54:0.1971831 55:0.35 56:0.976 57:0.663 58:0.187 59:0.42189719 60:0.57893921 61:0.20639535 62:0.35174419 63:0.27906977 64:0.42732558 65:0.43478261 66:0.21428571 67:0.40546218 68:0.2 69:0.2 70:0.46028936 71:0.26118809 72:0.43851774 73:0.46153846 
1 11:1 32:1 41:0.35714286 42:0.17857143 43:0.17857143 48:0.5 49:0.32164591 50:0.53113379 51:1 52:0.94366197 53:0.97183099 54:0.52816901 55:0.976 56:0.516 57:0.746 58:0.73 59:0.48949162 60:0.57893921 61:0.35174419 62:0.39534884 63:0.37354651 64:0.47819767 65:0.43478261 66:0.17857143 67:0.34243697 68:0.2 69:0.2 70:0.46028936 71:0.22284984 72:0.37355118 73:0.38461538 
1 6:1 31:1 41:0.39285714 42:0.14285714 43:0.25 48:0.5 49:0.32164591 50:0.53113379 51:0.94366197 52:1 53:0.97183099 54:0.47183099 55:0.516 56:0.976 57:0.746 58:0.27 59:0.4917637 60:0.57893921 61:0.39534884 62:0.35465116 63:0.375 64:0.52034884 65:0.43478261 66:0.14285714 67:0.27941176 68:0.2 69:0.2 70:0.46028936 71:0.19876652 72:0.33274051 73:0.30769231 
1 1:1 26:1 41:0.42857143 42:0.10714286 43:0.32142857 46:0.79 47:0.395 48:0.105 49:0.32164591 50:0.53113379 51:1 52:0.3943662 53:0.6971831 54:0.8028169 55:0.976 56:0.35 57:0.663 58:0.813 59:0.55935814 60:0.57893921 61:0.35465116 62:0.20639535 63:0.28052326 64:0.57412791 65:0.43478261 66:0.10714286 67:0.21638655 68:0.2 69:0.2 70:0.46028936 71:0.16042826 72:0.26777396 73:0.23076923 
1 3:1 21:1 41:0.46428571 42:0.071428571 43:0.39285714 45:0.79 46:0.86494 47:0.82747 48:0.46253 49:0.38502932 50:0.53113379 51:0.3943662 52:0.52112676 53:0.45774648 54:0.43661972 55:0.35 56:0.121 57:0.2355 58:0.6145 59:0.53805737 60:0.57893921 61:0.20639535 63:0.10319767 64:0.60319767 65:0.43478261 66:0.071428571 67:0.15336134 68:0.2 69:0.2 70:0.46028936 71:0.11667968 72:0.19363926 73:0.15384615 
1 17:1 23:1 41:0.5 42:0.035714286 43:0.46428571 45:0.86494 46:0.83 47:0.84747 48:0.51747 49:0.45442533 50:0.53113379 51:0.52112676 52:0.91549296 53:0.71830986 54:0.3028169 55:0.121 56:0.823 57:0.472 58:0.149 59:0.48423743 60:0.57893921 62:0.15988372 63:0.07994186 64:0.42005814 65:0.43478261 66:0.035714286 67:0.090336134 68:0.2 69:0.2 70:0.46028936 71:0.07801634 72:0.12812185 73:0.076923077 
-1 5:1 31:1 41:0.10714286 42:0.53571429 43:0.42857143 48:0.5 49:0.063383406 50:0.26766647 51:0.94366197 53:0.47183099 54:0.97183099 55:0.516 56:0.008 57:0.262 58:0.754 59:0.46180062 60:0.22084367 61:0.39534884 62:0.50290698 63:0.44912791 64:0.44622093 65:0.56521739 66:0.53571429 67:0.82142857 68:0.2 69:0.2 70:0.47409957 71:0.49964747 72:0.8275079 73:0.23076923 
-1 11:1 31:1 41:0.17857143 42:0.46428571 43:0.28571429 48:0.5 49:0.063383406 50:0.26766647 51:0.94366197 52:0.94366197 53:0.94366197 54:0.5 55:0.516 56:0.516 57:0.516 58:0.5 59:0.39420619 60:0.22084367 61:0.39534884 62:0.39534884 63:0.39534884 64:0.5 65:0.56521739 66:0.46428571 67:0.71428571 68:0.2 69:0.2 70:0.47409957 71:0.4426609 72:0.73257769 73:0.38461538 
-1 13:1 33:1 41:0.32142857 42:0.32142857 48:0.5 49:0.12596449 50:0.26766647 51:0.81690141 52:0.81690141 53:0.81690141 54:0.5 55:0.169 56:0.169 57:0.169 58:0.5 59:0.28713434 60:0.22084367 61:0.36918605 62:0.36918605 63:0.36918605 64:0.5 65:0.56521739 66:0.32142857 67:0.5 68:0.2 69:0.2 70:0.47409957 71:0.34565662 72:0.57098458 73:0.69230769 
-1 6:1 33:1 41:0.35714286 42:0.28571429 43:0.071428571 48:0.5 49:0.12596449 50:0.26766647 51:0.81690141 52:1 53:0.9084507 54:0.4084507 55:0.169 56:0.976 57:0.5725 58:0.0965 59:0.24013064 60:0.22084367 61:0.36918605 62:0.35465116 63:0.3619186 64:0.50726744 65:0.56521739 66:0.28571429 67:0.44642857 68:0.2 69:0.2 70:0.47409957 71:0.32632495 72:0.53878122 73:0.61538462 
1 5:1 26:1 41:0.39285714 42:0.25 43:0.14285714 48:0.5 49:0.12596449 50:0.26766647 51:1 53:0.5 54:1 55:0.976 56:0.008 57:0.492 58:0.984 59:0.30772508 60:0.22084367 61:0.35465116 62:0.50290698 63:0.42877907 64:0.42587209 65:0.56521739 66:0.25 67:0.39285714 68:0.2 69:0.2 70:0.47409957 71:0.28798669 72:0.47491602 73:0.53846154 
-1 15:1 39:1 41:0.21428571 42:0.42857143 43:0.21428571 45:0.78 46:0.79 47:0.785 48:0.495 49:0.26397905 50:0.65894044 51:0.73239437 52:0.76056338 53:0.74647887 54:0.48591549 55:0.392 56:0.7 57:0.546 58:0.346 59:0.50596421 60:0.56947891 61:0.095930233 62:0.52325581 63:0.30959302 64:0.28633721 65:0.56521739 66:0.42857143 67:0.66071429 68:0.2 69:0.2 70:0.62066538 71:0.47488165 72:0.65907981 73:0.46153846 
1 12:1 35:1 41:0.25 42:0.39285714 43:0.14285714 45:0.79 47:0.395 48:0.895 49:0.32736246 50:0.65894044 51:0.76056338 52:1 53:0.88028169 54:0.38028169 55:0.7 56:0.976 57:0.838 58:0.362 59:0.53436524 60:0.56947891 61:0.52325581 62:0.35174419 63:0.4375 64:0.58575581 65:0.56521739 66:0.39285714 67:0.60714286 68:0.2 69:0.2 70:0.62066538 71:0.4195992 72:0.58103062 73:0.53846154 
