svm_type c_svc
kernel_type rbf
gamma 0.0131579
nr_class 2
total_sv 4178
rho -4.59534
label 0 1
nr_sv 2088 2090
SV
1 18:1 36:1 41:0.028571429 42:0.34285714 43:0.31428571 45:0.20116618 46:0.27405248 47:0.23760933 48:0.46355685 49:0.3492187 50:0.029457576 51:0.27100206 52:1 53:0.97183099 54:0.98591549 55:0.51408451 56:0.976 57:1 58:0.988 59:0.488 60:0.48744693 61:0.60924544 62:0.57734833 63:0.35174419 64:0.18895349 65:0.27034884 66:0.58139535 67:0.26666667 68:0.34285714 69:0.88761905 70:0.16666667 71:0.16666667 72:0.35874669 73:0.42507673 74:0.88885089 75:0.0625 
1 11:1 25:1 41:0.51428571 42:0.085714286 43:0.42857143 45:0.34110787 46:0.303207 47:0.32215743 48:0.51895044 49:0.090849539 50:0.51934691 51:0.54133321 53:0.76056338 54:0.38028169 55:0.11971831 56:0.008 57:0.7 58:0.354 59:0.154 60:0.56599594 61:0.47429519 62:0.53398712 63:0.50290698 64:0.52325581 65:0.5130814 66:0.48982558 67:0.53333333 68:0.085714286 69:0.1552795 70:0.16666667 71:0.16666667 72:0.66144726 73:0.13877498 74:0.18710555 75:0.1875 
1 7:1 38:1 41:0.25714286 42:0.25714286 45:0.27405248 46:0.26239067 47:0.26822157 48:0.5058309 49:0.26056636 50:0.2661839 51:0.44400249 52:0.97183099 53:0.73239437 54:0.85211268 55:0.61971831 56:1 57:0.392 58:0.696 59:0.804 60:0.42320473 61:0.32483416 62:0.2466109 63:0.18895349 64:0.095930233 65:0.14244186 66:0.54651163 67:0.43333333 68:0.25714286 69:0.5 70:0.5 71:0.16666667 72:0.53988266 73:0.28310315 74:0.45184137 75:0.1875 
1 7:1 29:1 41:0.028571429 42:0.37142857 43:0.34285714 45:0.17201166 46:0.26239067 47:0.21720117 48:0.4548105 49:0.3789014 50:0.029730838 51:0.3060654 52:0.45070423 53:0.73239437 54:0.5915493 55:0.35915493 56:0.251 57:0.392 58:0.3215 59:0.4295 60:0.44674174 61:0.49160448 62:0.42582444 63:0.2994186 64:0.095930233 65:0.19767442 66:0.60174419 67:0.3 68:0.37142857 69:0.89642857 70:0.33333333 71:0.33333333 72:0.35944656 73:0.42450709 74:0.88662518 75:0.0625 
1 8:1 24:1 41:0.65714286 42:0.2 43:0.45714286 45:0.29446064 46:0.17492711 47:0.23469388 48:0.55976676 49:0.20080519 50:0.65799973 51:0.83214326 52:0.52112676 53:0.98591549 54:0.75352113 55:0.26760563 56:0.121 57:0.802 58:0.4615 59:0.1595 60:0.43372716 61:0.44941957 62:0.3731372 64:0.36918605 65:0.18459302 66:0.31540698 67:0.83333333 68:0.2 69:0.23571429 70:0.33333333 71:0.16666667 72:0.8337606 73:0.19030511 74:0.2120382 75:0.1875 
1 9:1 26:1 41:0.028571429 42:0.25714286 43:0.22857143 45:0.33527697 46:0.17201166 47:0.25364431 48:0.58163265 49:0.26206755 50:0.029266293 51:0.16876727 52:0.54929577 53:0.45070423 54:0.5 55:0.54929577 56:0.224 57:0.251 58:0.2375 59:0.4865 60:0.38757615 61:0.46569237 62:0.3401596 63:0.12790698 64:0.2994186 65:0.21366279 66:0.41424419 67:0.16666667 68:0.25714286 69:0.85238095 70:0.33333333 71:0.33333333 72:0.17790685 73:0.28366426 74:0.85900011 75:0.0625 
1 7:1 25:1 41:0.17142857 42:0.51428571 43:0.34285714 45:0.34110787 46:0.26239067 47:0.30174927 48:0.5393586 49:0.52185602 50:0.1714032 51:0.63903133 53:0.73239437 54:0.36619718 55:0.13380282 56:0.008 57:0.392 58:0.2 59:0.308 60:0.3990216 61:0.45781509 62:0.34477454 63:0.50290698 64:0.095930233 65:0.2994186 66:0.70348837 67:0.63333333 68:0.51428571 69:0.74395604 70:0.33333333 71:0.33333333 72:0.75998747 73:0.63610618 74:0.78850741 75:0.375 
1 14:1 24:1 41:0.31428571 42:0.057142857 43:0.25714286 45:0.29446064 46:0.20116618 47:0.24781341 48:0.54664723 49:0.060620948 50:0.32089083 51:0.27392534 52:0.52112676 53:1 54:0.76056338 55:0.26056338 56:0.121 57:0.976 58:0.5485 59:0.0725 60:0.48523168 61:0.24170813 62:0.2341121 64:0.35465116 65:0.17732558 66:0.32267442 67:0.26666667 68:0.057142857 69:0.18285714 70:0.66666667 71:0.16666667 72:0.3243116 73:0.091639808 74:0.21322059 75:0.125 
1 5:1 36:1 41:0.17142857 42:0.57142857 43:0.4 45:0.20116618 46:0.34110787 47:0.27113703 48:0.43002915 49:0.58113954 50:0.17148518 51:0.70851903 52:1 54:0.5 55:1 56:0.976 57:0.008 58:0.492 59:0.984 60:0.45597194 61:0.55120232 62:0.49072205 63:0.35174419 64:0.50290698 65:0.42732558 66:0.4244186 67:0.7 68:0.57142857 69:0.76428571 70:0.16666667 71:0.16666667 72:0.79939443 73:0.66337786 74:0.7906548 75:0.375 
1 20:1 32:1 41:0.085714286 42:0.4 43:0.31428571 46:0.10787172 47:0.05393586 48:0.44606414 49:0.40342545 50:0.08521656 51:0.39964218 52:0.81690141 53:0.94366197 54:0.88028169 55:0.43661972 56:0.169 57:0.516 58:0.3425 59:0.3265 60:0.51098394 61:0.50145108 62:0.50187482 63:0.36918605 64:0.39534884 65:0.38226744 66:0.4869186 67:0.4 68:0.4 69:0.80601504 70:0.16666667 71:0.16666667 72:0.43775932 73:0.4522863 74:0.83363796 75:0.1875 
1 1:1 40:1 41:0.17142857 42:0.11428571 43:0.057142857 45:0.10787172 46:1 47:0.55393586 48:0.05393586 49:0.12069601 50:0.17080202 51:0.16876727 52:0.94366197 53:0.53521127 54:0.73943662 55:0.70422535 56:0.516 57:0.223 58:0.3695 59:0.6465 60:0.41868193 61:0.43076285 62:0.3401596 63:0.39534884 64:1 65:0.69767442 66:0.19767442 67:0.16666667 68:0.11428571 69:0.41190476 70:0.33333333 71:0.33333333 72:0.17790685 73:0.145796 74:0.45553504 
1 9:1 30:1 41:0.54285714 42:0.028571429 43:0.51428571 45:0.39067055 46:0.17201166 47:0.28134111 48:0.60932945 49:0.031074719 50:0.54678235 51:0.50344244 52:0.70422535 53:0.45070423 54:0.57746479 55:0.62676056 56:0.988 57:0.251 58:0.6195 59:0.8685 60:0.43215802 61:0.46133914 62:0.38255937 63:0.29360465 64:0.2994186 65:0.29651163 66:0.49709302 67:0.5 68:0.028571429 69:0.067532468 70:0.16666667 71:0.16666667 72:0.5975987 73:0.05445147 74:0.078087132 75:0.0625 
1 9:1 29:1 41:0.31428571 42:0.48571429 43:0.17142857 45:0.17201166 46:0.17201166 47:0.17201166 48:0.5 49:0.49262368 50:0.31896434 51:0.77733583 52:0.45070423 53:0.45070423 54:0.45070423 55:0.5 56:0.251 57:0.251 58:0.251 59:0.5 60:0.4631715 61:0.5556592 62:0.50235554 63:0.2994186 64:0.2994186 65:0.2994186 66:0.5 67:0.76666667 68:0.48571429 69:0.60571429 70:0.16666667 71:0.16666667 72:0.96590497 73:0.58662433 74:0.59816384 75:0.6875 
1 8:1 36:1 41:0.22857143 42:0.11428571 43:0.11428571 45:0.20116618 46:0.17492711 47:0.18804665 48:0.51311953 49:0.11662914 50:0.23318759 51:0.2369451 52:1 53:0.98591549 54:0.99295775 55:0.50704225 56:0.976 57:0.802 58:0.889 59:0.587 60:0.50239985 61:0.44983416 62:0.44505336 63:0.35174419 64:0.36918605 65:0.36046512 66:0.49127907 67:0.23333333 68:0.11428571 69:0.34897959 70:0.33333333 71:0.16666667 72:0.2715274 73:0.12911935 74:0.3283799 75:0.25 
1 15:1 34:1 41:0.28571429 43:0.28571429 44:1 45:0.20116618 46:0.55685131 47:0.37900875 48:0.32215743 49:0.0026066189 50:0.28898757 51:0.16871935 52:1 53:0.43661972 54:0.71830986 55:0.78169014 56:0.976 58:0.488 59:0.988 60:0.45514122 61:0.74170813 62:0.66657052 63:0.35465116 64:0.53488372 65:0.44476744 66:0.40988372 67:0.16666667 69:0.05952381 70:0.16666667 71:0.16666667 72:0.23715583 73:0.020795526 74:0.074647081 
1 7:1 40:1 41:0.057142857 42:0.51428571 43:0.45714286 45:0.10787172 46:0.26239067 47:0.1851312 48:0.42274052 49:0.52403958 50:0.059174751 51:0.51037523 52:0.94366197 53:0.73239437 54:0.83802817 55:0.6056338 56:0.516 57:0.392 58:0.454 59:0.562 60:0.46677128 61:0.44890133 62:0.40707624 63:0.39534884 64:0.095930233 65:0.24563953 66:0.6497093 67:0.5 68:0.51428571 69:0.88441558 70:0.5 71:0.33333333 72:0.63557758 73:0.63202254 74:0.89753585 75:0.125 
1 14:1 22:1 41:0.31428571 42:0.4 43:0.085714286 45:0.14285714 46:0.20116618 47:0.17201166 48:0.47084548 49:0.40941658 50:0.31509769 51:0.67542052 52:0.6056338 53:1 54:0.8028169 55:0.3028169 56:0.215 57:0.976 58:0.5955 59:0.1195 60:0.43335795 61:0.56737148 62:0.48216518 63:0.15697674 64:0.35465116 65:0.25581395 66:0.40116279 67:0.66666667 68:0.4 69:0.55873016 70:0.33333333 71:0.33333333 72:0.75577683 73:0.47806175 74:0.59312271 75:0.625 
1 20:1 40:1 41:0.28571429 42:0.54285714 43:0.25714286 45:0.10787172 46:0.10787172 47:0.10787172 48:0.5 49:0.54808598 50:0.28830441 51:0.80640884 52:0.94366197 53:0.94366197 54:0.94366197 55:0.5 56:0.516 57:0.516 58:0.516 59:0.5 60:0.47793982 61:0.44154229 62:0.41188347 63:0.39534884 64:0.39534884 65:0.39534884 66:0.5 67:0.8 68:0.54285714 69:0.65345622 70:0.16666667 71:0.16666667 72:0.92904543 73:0.60039358 74:0.63265903 75:0.625 
1 17:1 25:1 41:0.6 42:0.14285714 43:0.45714286 45:0.34110787 46:0.37317784 47:0.35714286 48:0.48396501 49:0.14770386 50:0.60068315 51:0.70297599 53:0.3943662 54:0.1971831 55:0.3028169 56:0.008 57:0.35 58:0.179 59:0.329 60:0.4128669 61:0.35385572 62:0.2627632 63:0.50290698 64:0.20639535 65:0.35465116 66:0.64825581 67:0.7 68:0.14285714 69:0.19795918 70:0.16666667 71:0.16666667 72:0.66711176 73:0.16334705 74:0.21961121 75:0.3125 
1 5:1 40:1 41:0.028571429 42:0.37142857 43:0.34285714 45:0.10787172 46:0.34110787 47:0.2244898 48:0.38338192 49:0.38445582 50:0.029143326 51:0.31188 52:0.94366197 54:0.47183099 55:0.97183099 56:0.516 57:0.008 58:0.262 59:0.754 60:0.3669928 61:0.57960199 62:0.42438227 63:0.39534884 64:0.50290698 65:0.44912791 66:0.44622093 67:0.3 68:0.37142857 69:0.89642857 70:0.33333333 71:0.33333333 72:0.37254851 73:0.44467571 74:0.90823864 75:0.0625 
1 8:1 37:1 41:0.14285714 42:0.28571429 43:0.14285714 45:0.37317784 46:0.17492711 47:0.27405248 48:0.59912536 49:0.29108154 50:0.14575762 51:0.3389243 52:0.3943662 53:0.98591549 54:0.69014085 55:0.20422535 56:0.35 57:0.802 58:0.576 59:0.274 60:0.40225217 61:0.55545191 62:0.43870782 63:0.20639535 64:0.36918605 65:0.2877907 66:0.41860465 67:0.33333333 68:0.28571429 69:0.65546218 70:0.33333333 71:0.33333333 72:0.4203957 73:0.34134009 74:0.64732567 75:0.3125 
1 1:1 34:1 41:0.28571429 43:0.28571429 44:1 45:0.20116618 46:1 47:0.60058309 48:0.10058309 49:0.0046809962 50:0.28710206 51:0.16894299 52:1 53:0.53521127 54:0.76760563 55:0.73239437 56:0.976 57:0.223 58:0.5995 59:0.8765 60:0.47572457 61:0.55856136 62:0.51812326 63:0.35465116 64:1 65:0.67732558 66:0.17732558 67:0.16666667 69:0.05952381 70:0.16666667 71:0.16666667 72:0.20556955 73:0.028989896 74:0.10475508 
1 4:1 36:1 41:0.68571429 42:0.11428571 43:0.57142857 45:0.20116618 46:0.29446064 47:0.24781341 48:0.45335277 49:0.11706585 50:0.69176117 51:0.77359787 52:1 53:0.52112676 54:0.76056338 55:0.73943662 56:0.976 57:0.121 58:0.5485 59:0.9275 60:0.46566365 61:0.30845771 62:0.27564657 63:0.35174419 65:0.17587209 66:0.67587209 67:0.76666667 68:0.11428571 69:0.14761905 70:0.16666667 71:0.16666667 72:0.86104552 73:0.1417025 74:0.15059659 75:0.25 
1 4:1 40:1 41:0.6 42:0.028571429 43:0.57142857 45:0.10787172 46:0.29446064 47:0.20116618 48:0.40670554 49:0.031647902 50:0.59993168 51:0.56625294 52:0.94366197 53:0.52112676 54:0.73239437 55:0.71126761 56:0.516 57:0.121 58:0.3185 59:0.6975 60:0.42015876 61:0.62956053 62:0.52610326 63:0.39534884 65:0.19767442 66:0.69767442 67:0.56666667 68:0.028571429 69:0.05952381 70:0.16666667 71:0.16666667 72:0.64902391 73:0.054163555 74:0.071198726 75:0.0625 
1 12:1 40:1 41:0.14285714 42:0.028571429 43:0.11428571 45:0.10787172 47:0.05393586 48:0.55393586 49:0.03234391 50:0.14787539 51:0.03854571 52:0.94366197 53:0.81690141 54:0.88028169 55:0.56338028 56:0.516 57:0.169 58:0.3425 59:0.6735 60:0.4451726 61:0.42931177 62:0.36640708 63:0.39534884 64:0.36918605 65:0.38226744 66:0.5130814 67:0.033333333 68:0.028571429 69:0.23571429 70:0.33333333 71:0.16666667 72:0.042141396 73:0.04567391 74:0.25251399 75:0.0625 
1 6:1 32:1 41:0.51428571 42:0.2 43:0.31428571 46:0.33527697 47:0.16763848 48:0.33236152 49:0.20839304 50:0.5196065 51:0.67922238 52:0.81690141 53:0.54929577 54:0.68309859 55:0.63380282 56:0.169 57:0.224 58:0.1965 59:0.4725 60:0.42477386 61:0.38868159 62:0.30747044 63:0.36918605 64:0.12790698 65:0.24854651 66:0.62063953 67:0.66666667 68:0.2 69:0.28465608 70:0.5 71:0.33333333 72:0.79512967 73:0.26670744 74:0.31366518 75:0.3125 
1 5:1 36:1 41:0.028571429 42:0.48571429 43:0.45714286 45:0.20116618 46:0.34110787 47:0.27113703 48:0.43002915 49:0.50003412 50:0.029307282 51:0.44735707 52:1 54:0.5 55:1 56:0.976 57:0.008 58:0.492 59:0.984 60:0.34050212 61:0.54840381 62:0.36784925 63:0.35174419 64:0.50290698 65:0.42732558 66:0.4244186 67:0.43333333 68:0.48571429 69:0.92285714 70:0.5 71:0.5 72:0.60652209 73:0.63320608 74:0.93067322 75:0.0625 
1 16:1 40:1 41:0.057142857 42:0.37142857 43:0.31428571 45:0.10787172 46:0.20116618 47:0.15451895 48:0.45335277 49:0.37681337 50:0.057343899 51:0.33590518 52:0.94366197 53:1 54:0.97183099 55:0.47183099 56:0.516 57:0.976 58:0.746 59:0.27 60:0.5961787 61:0.58126036 62:0.66464763 63:0.39534884 64:0.35174419 65:0.37354651 66:0.52180233 67:0.33333333 68:0.37142857 69:0.84201681 70:0.33333333 71:0.33333333 72:0.36654419 73:0.4189326 74:0.86474906 75:0.125 
1 16:1 36:1 41:0.37142857 42:0.22857143 43:0.14285714 45:0.20116618 46:0.20116618 47:0.20116618 48:0.5 49:0.23080177 50:0.37330236 51:0.53440041 52:1 53:1 54:1 55:0.5 56:0.976 57:0.976 58:0.976 59:0.5 60:0.56645745 61:0.39002902 62:0.45630228 63:0.35174419 64:0.35174419 65:0.35174419 66:0.5 67:0.53333333 68:0.22857143 69:0.38509317 72:0.61288677 73:0.27166876 74:0.39417151 75:0.5625 
1 18:1 22:1 41:0.14285714 42:0.34285714 43:0.2 45:0.14285714 46:0.27405248 47:0.20845481 48:0.43440233 49:0.34782668 50:0.14395409 51:0.40323637 52:0.6056338 53:0.97183099 54:0.78873239 55:0.31690141 56:0.215 57:1 58:0.6075 59:0.1075 60:0.43012738 61:0.57970564 62:0.49024132 63:0.15697674 64:0.18895349 65:0.17296512 66:0.48401163 67:0.4 68:0.34285714 69:0.69473684 70:0.33333333 71:0.33333333 72:0.45871664 73:0.39989571 74:0.71496497 75:0.3125 
1 16:1 37:1 41:0.057142857 42:0.42857143 43:0.37142857 45:0.37317784 46:0.20116618 47:0.28717201 48:0.58600583 49:0.43268509 50:0.060827982 51:0.40537691 52:0.3943662 53:1 54:0.6971831 55:0.1971831 56:0.35 57:0.976 58:0.663 59:0.187 60:0.4314196 61:0.49637231 62:0.41428709 63:0.20639535 64:0.35174419 65:0.27906977 66:0.42732558 67:0.4 68:0.42857143 69:0.86165414 70:0.33333333 71:0.16666667 72:0.48171435 73:0.48184913 74:0.83290312 75:0.0625 
1 4:1 22:1 42:0.22857143 43:0.22857143 44:1 45:0.14285714 46:0.29446064 47:0.21865889 48:0.42419825 49:0.235087 50:0.00066949037 51:0.10375234 52:0.6056338 53:0.52112676 54:0.56338028 55:0.54225352 56:0.215 57:0.121 58:0.168 59:0.547 60:0.31262692 61:0.49906716 62:0.29304875 63:0.15697674 65:0.078488372 66:0.57848837 67:0.1 68:0.22857143 69:0.92285714 70:0.33333333 71:0.33333333 72:0.099556838 73:0.24765255 74:0.92680322 
1 9:1 36:1 41:0.028571429 42:0.22857143 43:0.2 45:0.20116618 46:0.17201166 47:0.18658892 48:0.51457726 49:0.23929034 50:0.029457576 51:0.14232999 52:1 53:0.45070423 54:0.72535211 55:0.77464789 56:0.976 57:0.251 58:0.6135 59:0.8625 60:0.37760753 61:0.60924544 62:0.46293626 63:0.35174419 64:0.2994186 65:0.3255814 66:0.52616279 67:0.13333333 68:0.22857143 69:0.83636364 70:0.5 71:0.5 72:0.20984227 73:0.30211467 74:0.84816651 75:0.0625 
1 9:1 29:1 41:0.11428571 42:0.51428571 43:0.4 45:0.17201166 46:0.17201166 47:0.17201166 48:0.5 49:0.51781644 50:0.11385435 51:0.5670197 52:0.45070423 53:0.45070423 54:0.45070423 55:0.5 56:0.251 57:0.251 58:0.251 59:0.5 60:0.50498431 61:0.55078773 62:0.54139025 63:0.2994186 64:0.2994186 65:0.2994186 66:0.5 67:0.56666667 68:0.51428571 69:0.80833333 70:0.16666667 71:0.16666667 72:0.62424726 73:0.57319656 74:0.82449618 75:0.25 
1 16:1 34:1 41:0.48571429 42:0.028571429 43:0.45714286 45:0.20116618 46:0.20116618 47:0.20116618 48:0.5 49:0.031211191 50:0.48652821 51:0.43315602 52:1 53:1 54:1 55:0.5 56:0.976 57:0.976 58:0.976 59:0.5 60:0.49907698 61:0.63712687 62:0.61532545 63:0.35465116 64:0.35174419 65:0.35319767 66:0.50145349 67:0.43333333 68:0.028571429 69:0.077142857 70:0.16666667 71:0.16666667 72:0.47397988 73:0.053882999 74:0.096410542 75:0.0625 
1 6:1 32:1 41:0.085714286 42:0.42857143 43:0.34285714 46:0.33527697 47:0.16763848 48:0.33236152 49:0.43346298 50:0.085694767 51:0.43536046 52:0.81690141 53:0.54929577 54:0.68309859 55:0.63380282 56:0.169 57:0.224 58:0.1965 59:0.4725 60:0.42431235 61:0.44662106 62:0.36073454 63:0.36918605 64:0.12790698 65:0.24854651 66:0.62063953 67:0.43333333 68:0.42857143 69:0.81714286 70:0.16666667 71:0.16666667 72:0.48878781 73:0.50788536 74:0.86913335 75:0.1875 
1 8:1 25:1 41:0.4 42:0.17142857 43:0.22857143 45:0.34110787 46:0.17492711 47:0.25801749 48:0.58309038 49:0.17548959 50:0.40154393 51:0.50267568 53:0.98591549 54:0.49295775 55:0.0070422535 56:0.008 57:0.802 58:0.405 59:0.103 60:0.53249031 61:0.3585199 62:0.39169311 63:0.50290698 64:0.36918605 65:0.43604651 66:0.56686047 67:0.5 68:0.17142857 69:0.30779221 70:0.16666667 71:0.16666667 72:0.53915017 73:0.19527629 74:0.31177658 75:0.375 
1 5:1 40:1 41:0.028571429 42:0.37142857 43:0.34285714 45:0.10787172 46:0.34110787 47:0.2244898 48:0.38338192 49:0.37558512 50:0.029799153 51:0.30226354 52:0.94366197 54:0.47183099 55:0.97183099 56:0.516 57:0.008 58:0.262 59:0.754 60:0.42098948 61:0.47927032 62:0.38755889 63:0.39534884 64:0.50290698 65:0.44912791 66:0.44622093 67:0.3 68:0.37142857 69:0.89642857 70:0.16666667 71:0.16666667 72:0.28641126 73:0.37823605 74:0.90207402 75:0.0625 
1 5:1 24:1 41:0.25714286 42:0.028571429 43:0.22857143 45:0.29446064 46:0.34110787 47:0.31778426 48:0.47667638 49:0.031866257 50:0.26181172 51:0.17119535 52:0.52112676 54:0.26056338 55:0.76056338 56:0.121 57:0.008 58:0.0645 59:0.5565 60:0.40972863 61:0.34711857 62:0.25324488 64:0.50290698 65:0.25145349 66:0.24854651 67:0.16666667 68:0.028571429 69:0.14761905 70:0.16666667 71:0.16666667 72:0.2239836 73:0.049192372 74:0.15283281 75:0.0625 
1 6:1 38:1 41:0.14285714 42:0.028571429 43:0.11428571 45:0.27405248 46:0.33527697 47:0.30466472 48:0.46938776 49:0.031838963 50:0.14485585 51:0.03442437 52:0.97183099 53:0.54929577 54:0.76056338 55:0.71126761 56:1 57:0.224 58:0.612 59:0.888 60:0.42966587 61:0.57649254 62:0.48678012 63:0.18895349 64:0.12790698 65:0.15843023 66:0.53052326 67:0.033333333 68:0.028571429 69:0.23571429 70:0.16666667 71:0.16666667 72:0.087521778 73:0.05826442 74:0.26105446 75:0.0625 
1 15:1 28:1 41:0.17142857 42:0.54285714 43:0.37142857 45:0.17492711 46:0.55685131 47:0.36588921 48:0.3090379 49:0.55465029 50:0.17294712 51:0.67922238 52:0.98591549 53:0.43661972 54:0.71126761 55:0.77464789 56:0.802 58:0.401 59:0.901 60:0.31567288 61:0.51119403 62:0.30747044 63:0.36918605 64:0.53488372 65:0.45203488 66:0.41715116 67:0.66666667 68:0.54285714 69:0.75449735 70:0.5 71:0.5 72:0.79512967 73:0.6382042 74:0.76352067 
1 8:1 25:1 41:0.028571429 42:0.14285714 43:0.11428571 45:0.34110787 46:0.17492711 47:0.25801749 48:0.58309038 49:0.1477448 50:0.030236371 51:0.036085686 53:0.98591549 54:0.49295775 55:0.0070422535 56:0.008 57:0.802 58:0.405 59:0.103 60:0.53018276 61:0.52694859 62:0.54552447 63:0.50290698 64:0.36918605 65:0.43604651 66:0.56686047 67:0.033333333 68:0.14285714 69:0.76428571 70:0.16666667 71:0.16666667 72:0.064863818 73:0.18298434 74:0.77480343 75:0.0625 
1 6:1 27:1 41:0.54285714 42:0.085714286 43:0.45714286 45:0.26239067 46:0.33527697 47:0.29883382 48:0.46355685 49:0.092555442 50:0.54879082 51:0.57775435 52:0.73239437 53:0.54929577 54:0.64084507 55:0.5915493 56:0.392 57:0.224 58:0.308 59:0.584 60:0.41092856 61:0.50590796 62:0.40178829 63:0.095930233 64:0.12790698 65:0.1119186 66:0.48401163 67:0.56666667 68:0.085714286 69:0.14761905 70:0.5 71:0.16666667 72:0.66364395 73:0.14168449 74:0.19059906 75:0.0625 
1 10:1 24:1 41:0.085714286 42:0.51428571 43:0.42857143 45:0.29446064 46:0.39067055 47:0.3425656 48:0.45189504 49:0.51844422 50:0.086582867 51:0.53587003 52:0.52112676 53:0.70422535 54:0.61267606 55:0.4084507 56:0.121 57:0.988 58:0.5545 59:0.0665 60:0.36939265 61:0.51077944 62:0.36304202 64:0.29360465 65:0.14680233 66:0.35319767 67:0.53333333 68:0.51428571 69:0.8447205 70:0.33333333 71:0.33333333 72:0.58307663 73:0.55969242 74:0.84616425 75:0.1875 
1 17:1 22:1 41:0.17142857 42:0.17142857 45:0.14285714 46:0.37317784 47:0.25801749 48:0.38483965 49:0.17499829 50:0.17680011 51:0.23934122 52:0.6056338 53:0.3943662 54:0.5 55:0.6056338 56:0.215 57:0.35 58:0.2825 59:0.4325 60:0.53313642 61:0.41397181 62:0.44380348 63:0.15697674 64:0.20639535 65:0.18168605 66:0.4752907 67:0.23333333 68:0.17142857 69:0.5 70:0.33333333 71:0.16666667 72:0.32183772 73:0.22278889 74:0.5027793 75:0.3125 
1 20:1 40:1 41:0.028571429 42:0.34285714 43:0.31428571 45:0.10787172 46:0.10787172 47:0.10787172 48:0.5 49:0.35081542 50:0.029143326 51:0.27250363 52:0.94366197 53:0.94366197 54:0.94366197 55:0.5 56:0.516 57:0.516 58:0.516 59:0.5 60:0.45015691 61:0.57960199 62:0.51100856 63:0.39534884 64:0.39534884 65:0.39534884 66:0.5 67:0.26666667 68:0.34285714 69:0.88761905 70:0.33333333 71:0.33333333 72:0.34453341 73:0.42154144 74:0.90319774 75:0.0625 
1 11:1 40:1 41:0.057142857 42:0.42857143 43:0.37142857 45:0.10787172 46:0.303207 47:0.20553936 48:0.40233236 49:0.43301262 50:0.056838366 51:0.40109583 52:0.94366197 53:0.76056338 54:0.85211268 55:0.5915493 56:0.516 57:0.7 58:0.608 59:0.408 60:0.28530552 61:0.54529436 62:0.30747044 63:0.39534884 64:0.52325581 65:0.45930233 66:0.43604651 67:0.4 68:0.42857143 69:0.86165414 70:0.16666667 71:0.16666667 72:0.44591838 73:0.48857896 74:0.88930923 75:0.125 
1 12:1 37:1 41:0.4 42:0.11428571 43:0.28571429 45:0.37317784 47:0.18658892 48:0.68658892 49:0.11688843 50:0.40696817 51:0.44042427 52:0.3943662 53:0.81690141 54:0.6056338 55:0.28873239 56:0.35 57:0.169 58:0.2595 59:0.5905 60:0.49861547 61:0.62914594 62:0.60744159 63:0.20639535 64:0.36918605 65:0.2877907 66:0.41860465 67:0.43333333 68:0.11428571 69:0.23571429 70:0.33333333 71:0.16666667 72:0.5356444 73:0.1414113 74:0.22675541 75:0.25 
1 2:1 24:1 41:0.28571429 42:0.028571429 43:0.25714286 45:0.29446064 46:0.14285714 47:0.21865889 48:0.57580175 49:0.030938246 50:0.28733434 51:0.19994888 52:0.52112676 53:0.6056338 54:0.56338028 55:0.45774648 56:0.121 57:0.215 58:0.168 59:0.453 60:0.42883515 61:0.50487148 62:0.4194789 64:0.15697674 65:0.078488372 66:0.42151163 67:0.2 68:0.028571429 69:0.13406593 70:0.16666667 71:0.16666667 72:0.24489779 73:0.046260386 74:0.13752935 75:0.0625 
1 17:1 27:1 41:0.11428571 42:0.31428571 43:0.2 45:0.26239067 46:0.37317784 47:0.31778426 48:0.44460641 49:0.3204913 50:0.1163137 51:0.3389243 52:0.73239437 53:0.3943662 54:0.56338028 55:0.66901408 56:0.392 57:0.35 58:0.371 59:0.521 60:0.38840687 61:0.57099917 62:0.43870782 63:0.095930233 64:0.20639535 65:0.15116279 66:0.44476744 67:0.33333333 68:0.31428571 69:0.71764706 70:0.33333333 71:0.33333333 72:0.4203957 73:0.3790969 74:0.71831039 75:0.25 
1 8:1 26:1 41:0.42857143 42:0.028571429 43:0.4 45:0.33527697 46:0.17492711 47:0.25510204 48:0.58017493 49:0.033162743 50:0.43208089 51:0.3717832 52:0.54929577 53:0.98591549 54:0.76760563 55:0.28169014 56:0.224 57:0.802 58:0.513 59:0.211 60:0.50359978 61:0.50393864 62:0.49649072 63:0.12790698 64:0.36918605 65:0.24854651 66:0.37936047 67:0.36666667 68:0.028571429 69:0.088888889 70:0.33333333 71:0.16666667 72:0.45972163 73:0.057976505 74:0.10632079 75:0.0625 
1 5:1 36:1 41:0.085714286 42:0.51428571 43:0.42857143 45:0.20116618 46:0.34110787 47:0.27113703 48:0.43002915 49:0.51848516 50:0.086582867 51:0.53591796 52:1 54:0.5 55:1 56:0.976 57:0.008 58:0.492 59:0.984 60:0.49649252 61:0.57566335 62:0.55561965 63:0.35174419 64:0.50290698 65:0.42732558 66:0.4244186 67:0.53333333 68:0.51428571 69:0.8447205 70:0.16666667 71:0.16666667 72:0.63164461 73:0.57901722 74:0.82568131 75:0.1875 
1 16:1 29:1 41:0.057142857 42:0.51428571 43:0.45714286 45:0.17201166 46:0.20116618 47:0.18658892 48:0.48542274 49:0.51752985 50:0.057371226 51:0.50064695 52:0.45070423 53:1 54:0.72535211 55:0.22535211 56:0.251 57:0.976 58:0.6135 59:0.1375 60:0.43788075 61:0.47491708 62:0.40111528 63:0.2994186 64:0.35174419 65:0.3255814 66:0.47383721 67:0.5 68:0.51428571 69:0.88441558 70:0.16666667 71:0.16666667 72:0.50903707 73:0.5313517 74:0.88424285 75:0.125 
1 16:1 29:1 41:0.4 42:0.085714286 43:0.31428571 45:0.17201166 46:0.20116618 47:0.18658892 48:0.48542274 49:0.090658478 50:0.40409892 51:0.40636731 52:0.45070423 53:1 54:0.72535211 55:0.22535211 56:0.251 57:0.976 58:0.6135 59:0.1375 60:0.45837179 61:0.45449834 62:0.40351889 63:0.2994186 64:0.35174419 65:0.3255814 66:0.47383721 67:0.4 68:0.085714286 69:0.19398496 70:0.16666667 71:0.16666667 72:0.49480151 73:0.12091026 74:0.20629618 75:0.1875 
1 2:1 24:1 41:0.057142857 42:0.45714286 43:0.4 45:0.29446064 46:0.14285714 47:0.21865889 48:0.57580175 49:0.45888775 50:0.058532586 51:0.43336368 52:0.52112676 53:0.6056338 54:0.56338028 55:0.45774648 56:0.121 57:0.215 58:0.168 59:0.453 60:0.14565258 61:0.56996269 62:0.18488607 64:0.15697674 65:0.078488372 66:0.42151163 67:0.43333333 68:0.45714286 69:0.87 70:0.5 71:0.5 72:0.39489643 73:0.42156038 74:0.83074284 75:0.125 
1 12:1 23:1 41:0.25714286 42:0.028571429 43:0.22857143 45:0.3090379 47:0.15451895 48:0.65451895 49:0.03234391 50:0.26134718 51:0.17121132 52:0.91549296 53:0.81690141 54:0.86619718 55:0.54929577 56:0.823 57:0.169 58:0.496 59:0.827 60:0.4451726 61:0.54716003 62:0.47572349 63:0.15988372 64:0.36918605 65:0.26453488 66:0.39534884 67:0.16666667 68:0.028571429 69:0.14761905 70:0.16666667 71:0.16666667 72:0.22894687 73:0.04567391 74:0.1416879 75:0.0625 
1 11:1 22:1 41:0.54285714 42:0.057142857 43:0.48571429 45:0.14285714 46:0.303207 47:0.22303207 48:0.41982507 49:0.059856704 50:0.54482853 51:0.53484769 52:0.6056338 53:0.76056338 54:0.68309859 55:0.42253521 56:0.215 57:0.7 58:0.4575 59:0.2575 60:0.47507846 61:0.48186153 62:0.44630324 63:0.15697674 64:0.52325581 65:0.34011628 66:0.31686047 67:0.53333333 68:0.057142857 69:0.10931677 70:0.16666667 71:0.16666667 72:0.5792156 73:0.089291403 74:0.13367003 75:0.125 
1 14:1 32:1 41:0.11428571 42:0.4 43:0.28571429 46:0.20116618 47:0.10058309 48:0.39941691 49:0.40289321 50:0.11459216 51:0.43336368 52:0.81690141 53:1 54:0.9084507 55:0.4084507 56:0.169 57:0.976 58:0.5725 59:0.0965 60:0.20251061 61:0.50611526 62:0.18488607 63:0.36918605 64:0.35465116 65:0.3619186 66:0.50726744 67:0.43333333 68:0.4 69:0.76428571 70:0.5 71:0.5 72:0.39489643 73:0.37941151 74:0.74840486 75:0.1875 
1 6:1 32:1 41:0.31428571 42:0.057142857 43:0.25714286 46:0.33527697 47:0.16763848 48:0.33236152 49:0.062517912 50:0.31776199 51:0.27248766 52:0.81690141 53:0.54929577 54:0.68309859 55:0.63380282 56:0.169 57:0.224 58:0.1965 59:0.4725 60:0.49418497 61:0.28026534 62:0.27920392 63:0.36918605 64:0.12790698 65:0.24854651 66:0.62063953 67:0.26666667 68:0.057142857 69:0.18285714 70:0.5 71:0.16666667 72:0.30872853 73:0.099546263 74:0.2378773 75:0.125 
1 2:1 27:1 41:0.085714286 42:0.31428571 43:0.22857143 45:0.26239067 46:0.14285714 47:0.20262391 48:0.55976676 49:0.31845786 50:0.087307009 51:0.30263095 52:0.73239437 53:0.6056338 54:0.66901408 55:0.56338028 56:0.392 57:0.215 58:0.3035 59:0.5885 60:0.38656083 61:0.58685738 62:0.45149505 63:0.095930233 64:0.15697674 65:0.12645349 66:0.46947674 67:0.3 68:0.31428571 69:0.76428571 70:0.16666667 71:0.16666667 72:0.31442517 73:0.32934553 74:0.7471956 75:0.1875 
1 13:1 32:1 41:0.37142857 42:0.28571429 43:0.085714286 46:0.6122449 47:0.30612245 48:0.19387755 49:0.29266462 50:0.37245525 51:0.60582099 52:0.81690141 53:0.56338028 54:0.69014085 55:0.62676056 56:0.169 57:0.037 58:0.103 59:0.566 60:0.4175743 61:0.56094527 62:0.45976348 63:0.36918605 64:0.078488372 65:0.22383721 66:0.64534884 67:0.6 68:0.28571429 69:0.43657143 70:0.33333333 71:0.33333333 72:0.70182832 73:0.35098606 74:0.45966441 
1 14:1 37:1 42:0.22857143 43:0.22857143 44:1 45:0.37317784 46:0.20116618 47:0.28717201 48:0.58600583 49:0.23458205 50:0.0017488728 51:0.10442325 52:0.3943662 53:1 54:0.6971831 55:0.1971831 56:0.35 57:0.976 58:0.663 59:0.187 60:0.45080303 61:0.5130597 62:0.44995673 63:0.20639535 64:0.35465116 65:0.28052326 66:0.42587209 67:0.1 68:0.22857143 69:0.92285714 70:0.33333333 71:0.33333333 72:0.17083292 73:0.29421886 74:0.90517311 
1 8:1 27:1 41:0.085714286 42:0.22857143 43:0.14285714 45:0.26239067 46:0.17492711 47:0.21865889 48:0.54373178 49:0.23117025 50:0.087143052 51:0.20026837 52:0.73239437 53:0.98591549 54:0.85915493 55:0.37323944 56:0.392 57:0.802 58:0.597 59:0.295 60:0.72853978 61:0.66542289 62:0.8805884 63:0.095930233 64:0.36918605 65:0.23255814 66:0.36337209 67:0.2 68:0.22857143 69:0.7032967 70:0.16666667 71:0.16666667 72:0.25776545 73:0.27493453 74:0.69873347 75:0.1875 
1 6:1 25:1 41:0.057142857 42:0.34285714 43:0.28571429 45:0.34110787 46:0.33527697 47:0.33819242 48:0.50291545 49:0.34629819 50:0.058628228 51:0.30168847 53:0.54929577 54:0.27464789 55:0.22535211 56:0.008 57:0.224 58:0.116 59:0.392 60:0.33357947 61:0.54021559 62:0.35304298 63:0.50290698 64:0.12790698 65:0.31540698 66:0.6875 67:0.3 68:0.34285714 69:0.83035714 70:0.16666667 71:0.16666667 72:0.32007215 73:0.36884415 74:0.82669164 75:0.125 
1 17:1 26:1 41:0.11428571 42:0.51428571 43:0.4 45:0.33527697 46:0.37317784 47:0.35422741 48:0.48104956 49:0.51935858 50:0.11892335 51:0.5747512 52:0.54929577 53:0.3943662 54:0.47183099 55:0.57746479 56:0.224 57:0.35 58:0.287 59:0.437 60:0.3989293 61:0.52228441 62:0.40448034 63:0.12790698 64:0.20639535 65:0.16715116 66:0.46075581 67:0.56666667 68:0.51428571 69:0.80833333 70:0.5 71:0.33333333 72:0.66501447 73:0.55417361 74:0.76018665 75:0.1875 
1 13:1 36:1 41:0.057142857 42:0.42857143 43:0.37142857 45:0.20116618 46:0.6122449 47:0.40670554 48:0.29446064 49:0.43608325 50:0.057275584 51:0.40520119 52:1 53:0.56338028 54:0.78169014 55:0.71830986 56:0.976 57:0.037 58:0.5065 59:0.9695 60:0.47932435 61:0.59297264 62:0.5537929 63:0.35174419 64:0.078488372 65:0.21511628 66:0.63662791 67:0.4 68:0.42857143 69:0.86165414 70:0.33333333 71:0.33333333 72:0.48210424 73:0.50615787 74:0.87433506 
1 20:1 32:1 41:0.14285714 42:0.37142857 43:0.22857143 46:0.10787172 47:0.05393586 48:0.44606414 49:0.37726373 50:0.14519743 51:0.43914634 52:0.81690141 53:0.94366197 54:0.88028169 55:0.43661972 56:0.169 57:0.516 58:0.3425 59:0.3265 60:0.52685989 61:0.48362355 62:0.50187482 63:0.36918605 64:0.39534884 65:0.38226744 66:0.4869186 67:0.43333333 68:0.37142857 69:0.71142857 70:0.16666667 71:0.16666667 72:0.52740758 73:0.43675243 74:0.70909461 75:0.3125 
1 17:1 24:1 41:0.45714286 42:0.4 43:0.057142857 45:0.29446064 46:0.37317784 47:0.33381924 48:0.4606414 49:0.40521324 50:0.46175707 51:0.84196738 52:0.52112676 53:0.3943662 54:0.45774648 55:0.56338028 56:0.121 57:0.35 58:0.2355 59:0.3855 60:0.4863393 61:0.60043532 62:0.56802231 64:0.20639535 65:0.10319767 66:0.39680233 67:0.83333333 68:0.4 69:0.46696429 70:0.33333333 71:0.33333333 72:0.99786754 73:0.46341266 74:0.45690481 75:0.5625 
1 11:1 29:1 41:0.085714286 42:0.48571429 43:0.4 45:0.17201166 46:0.303207 47:0.23760933 48:0.43440233 49:0.49456158 50:0.087689575 51:0.50920912 52:0.45070423 53:0.76056338 54:0.6056338 55:0.34507042 56:0.251 57:0.7 58:0.4755 59:0.2755 60:0.37373085 61:0.50735904 62:0.36438804 63:0.2994186 64:0.52325581 65:0.41133721 66:0.3880814 67:0.5 68:0.48571429 69:0.83636364 70:0.16666667 71:0.16666667 72:0.61960948 73:0.57260062 74:0.82817998 75:0.1875 
1 17:1 27:1 41:0.31428571 42:0.28571429 43:0.028571429 45:0.26239067 46:0.37317784 47:0.31778426 48:0.44460641 49:0.2903173 50:0.31892335 51:0.54048657 52:0.73239437 53:0.3943662 54:0.56338028 55:0.66901408 56:0.392 57:0.35 58:0.371 59:0.521 60:0.46224848 61:0.66915423 62:0.60667244 63:0.095930233 64:0.20639535 65:0.15116279 66:0.44476744 67:0.53333333 68:0.28571429 69:0.47701863 70:0.33333333 71:0.16666667 72:0.60088052 73:0.32494282 74:0.47929493 75:0.625 
1 20:1 23:1 41:0.22857143 42:0.057142857 43:0.17142857 45:0.3090379 46:0.10787172 47:0.20845481 48:0.60058309 49:0.062108495 50:0.23232682 51:0.17212185 52:0.91549296 53:0.94366197 54:0.92957746 55:0.48591549 56:0.823 57:0.516 58:0.6695 59:0.6535 60:0.43178881 61:0.34649668 62:0.27564657 63:0.15988372 64:0.39534884 65:0.27761628 66:0.38226744 67:0.16666667 68:0.057142857 69:0.23571429 70:0.33333333 71:0.16666667 72:0.20304482 73:0.078171621 74:0.24160415 75:0.0625 
1 20:1 24:1 41:0.42857143 42:0.057142857 43:0.37142857 45:0.29446064 46:0.10787172 47:0.20116618 48:0.59329446 49:0.059242579 50:0.43470419 51:0.40537691 52:0.52112676 53:0.94366197 54:0.73239437 55:0.28873239 56:0.121 57:0.516 58:0.3185 59:0.3025 60:0.43363485 61:0.49388474 62:0.41428709 64:0.39534884 65:0.19767442 66:0.30232558 67:0.4 68:0.057142857 69:0.13834586 70:0.33333333 71:0.16666667 72:0.48171435 73:0.075236349 74:0.1318396 75:0.125 
1 2:1 37:1 41:0.37142857 42:0.028571429 43:0.34285714 45:0.37317784 46:0.14285714 47:0.25801749 48:0.61516035 49:0.033012624 50:0.37516054 51:0.30505902 52:0.3943662 53:0.6056338 54:0.5 55:0.3943662 56:0.35 57:0.215 58:0.2825 59:0.5675 60:0.4494185 61:0.50725539 62:0.44313047 63:0.20639535 64:0.15697674 65:0.18168605 66:0.5247093 67:0.3 68:0.028571429 69:0.10357143 70:0.16666667 71:0.16666667 72:0.34171741 73:0.054454757 74:0.12689266 75:0.0625 
1 20:1 37:1 41:0.4 42:0.085714286 43:0.31428571 45:0.37317784 46:0.10787172 47:0.24052478 48:0.63265306 49:0.092528147 50:0.41292526 51:0.4188751 52:0.3943662 53:0.94366197 54:0.66901408 55:0.22535211 56:0.35 57:0.516 58:0.433 59:0.417 60:0.4172051 61:0.34494196 62:0.25901356 63:0.20639535 64:0.39534884 65:0.30087209 66:0.40552326 67:0.4 68:0.085714286 69:0.19398496 70:1 71:0.33333333 72:0.52746075 73:0.12501112 74:0.20286725 75:0.0625 
1 16:1 36:1 41:0.34285714 42:0.028571429 43:0.31428571 45:0.20116618 46:0.20116618 47:0.20116618 48:0.5 49:0.031211191 50:0.34823063 51:0.27146531 52:1 53:1 54:1 55:0.5 56:0.976 57:0.976 58:0.976 59:0.5 60:0.49907698 61:0.50114013 62:0.48918373 63:0.35174419 64:0.35174419 65:0.35174419 66:0.5 67:0.26666667 68:0.028571429 69:0.11238095 70:0.33333333 71:0.16666667 72:0.34880916 73:0.053882999 74:0.12378362 75:0.0625 
1 4:1 25:1 41:0.45714286 42:0.17142857 43:0.28571429 45:0.34110787 46:0.29446064 47:0.31778426 48:0.52332362 49:0.1725145 50:0.46476295 51:0.57310586 53:0.52112676 54:0.26056338 55:0.23943662 56:0.008 57:0.121 58:0.0645 59:0.4435 60:0.55722725 61:0.38650498 62:0.4434189 63:0.50290698 65:0.25145349 66:0.75145349 67:0.56666667 68:0.17142857 69:0.2797619 70:0.16666667 72:0.69370817 73:0.20227937 74:0.26462895 75:0.4375 
1 17:1 29:1 41:0.057142857 42:0.34285714 43:0.28571429 45:0.17201166 46:0.37317784 47:0.27259475 48:0.39941691 49:0.35067895 50:0.058423282 51:0.30657657 52:0.45070423 53:0.3943662 54:0.42253521 55:0.52816901 56:0.251 57:0.35 58:0.3005 59:0.4505 60:0.39643714 61:0.60395937 62:0.47764638 63:0.2994186 64:0.20639535 65:0.25290698 66:0.54651163 67:0.3 68:0.34285714 69:0.83035714 70:0.33333333 71:0.33333333 72:0.41330887 73:0.42243266 74:0.80861255 75:0.125 
1 5:1 32:1 41:0.057142857 42:0.45714286 43:0.4 46:0.34110787 47:0.17055394 48:0.32944606 49:0.46156261 50:0.057343899 51:0.43510487 52:0.81690141 54:0.4084507 55:0.9084507 56:0.169 57:0.008 58:0.0885 59:0.5805 60:0.39422189 61:0.51658375 62:0.39428901 63:0.36918605 64:0.50290698 65:0.43604651 66:0.43313953 67:0.43333333 68:0.45714286 69:0.87 70:0.16666667 71:0.16666667 72:0.46824806 73:0.4923948 74:0.86754377 75:0.125 
1 8:1 26:1 41:0.22857143 42:0.028571429 43:0.2 45:0.33527697 46:0.17492711 47:0.25510204 48:0.58017493 49:0.031088366 50:0.22882908 51:0.13172314 52:0.54929577 53:0.98591549 54:0.76760563 55:0.28169014 56:0.224 57:0.802 58:0.513 59:0.211 60:0.48301643 61:0.38246269 62:0.362369 63:0.12790698 64:0.36918605 65:0.24854651 66:0.37936047 67:0.13333333 68:0.028571429 69:0.16363636 70:0.16666667 71:0.16666667 72:0.12190832 73:0.049782134 74:0.20564498 75:0.0625 
1 8:1 37:1 41:0.54285714 42:0.028571429 43:0.51428571 45:0.37317784 46:0.17492711 47:0.27405248 48:0.59912536 49:0.031088366 50:0.54379014 51:0.49996006 52:0.3943662 53:0.98591549 54:0.69014085 55:0.20422535 56:0.35 57:0.802 58:0.576 59:0.274 60:0.48301643 61:0.31104892 62:0.29612537 63:0.20639535 64:0.36918605 65:0.2877907 66:0.41860465 67:0.5 68:0.028571429 69:0.067532468 70:0.33333333 71:0.16666667 72:0.50617626 73:0.049782134 74:0.083975895 75:0.0625 
1 1:1 37:1 41:0.22857143 43:0.22857143 44:1 45:0.37317784 46:1 47:0.68658892 48:0.18658892 49:0.0046809962 50:0.2330373 51:0.10573314 52:0.3943662 53:0.53521127 54:0.46478873 55:0.42957746 56:0.35 57:0.223 58:0.2865 59:0.5635 60:0.47572457 61:0.45957711 62:0.42630516 63:0.20639535 64:1 65:0.60319767 66:0.10319767 67:0.1 69:0.077142857 70:0.16666667 71:0.16666667 72:0.17365243 73:0.028989896 74:0.11518606 
1 2:1 28:1 41:0.45714286 42:0.028571429 43:0.42857143 45:0.17492711 46:0.14285714 47:0.15889213 48:0.51603499 49:0.029273286 50:0.46746823 51:0.4086037 52:0.98591549 53:0.6056338 54:0.79577465 55:0.69014085 56:0.802 57:0.215 58:0.5085 59:0.7935 60:0.51892191 61:0.63101161 62:0.63032401 63:0.36918605 64:0.15697674 65:0.2630814 66:0.60610465 67:0.4 68:0.028571429 69:0.082706767 70:0.5 72:0.49098902 73:0.04186832 74:0.072938622 75:0.125 
1 9:1 22:1 41:0.42857143 42:0.057142857 43:0.37142857 45:0.14285714 46:0.17201166 47:0.1574344 48:0.48542274 49:0.06081201 50:0.43083755 51:0.40269325 52:0.6056338 53:0.45070423 54:0.52816901 55:0.57746479 56:0.215 57:0.251 58:0.233 59:0.482 60:0.4221894 61:0.23237977 62:0.15979233 63:0.15697674 64:0.2994186 65:0.22819767 66:0.42877907 67:0.4 68:0.057142857 69:0.13834586 70:0.16666667 71:0.16666667 72:0.43487933 73:0.079329855 74:0.15073974 75:0.125 
1 19:1 32:1 41:0.37142857 42:0.34285714 43:0.028571429 46:0.10204082 47:0.051020408 48:0.44897959 49:0.34403275 50:0.36985927 51:0.66291273 52:0.81690141 53:0.30985915 54:0.56338028 55:0.75352113 56:0.169 57:0.75 58:0.4595 59:0.2095 60:0.46870962 61:0.23818408 62:0.2136333 63:0.36918605 64:0.51162791 65:0.44040698 66:0.42877907 67:0.66666667 68:0.34285714 69:0.48042328 70:0.16666667 71:0.16666667 72:0.64509468 73:0.36035338 74:0.50405387 75:0.75 
1 20:1 29:1 41:0.34285714 42:0.51428571 43:0.17142857 45:0.17201166 46:0.10787172 47:0.13994169 48:0.53206997 49:0.52221085 50:0.34422735 51:0.84150413 52:0.45070423 53:0.94366197 54:0.6971831 55:0.25352113 56:0.251 57:0.516 58:0.3835 59:0.3675 60:0.52685989 61:0.39282753 62:0.41765215 63:0.2994186 64:0.39534884 65:0.34738372 66:0.45203488 67:0.83333333 68:0.51428571 69:0.59910714 70:0.33333333 71:0.33333333 72:0.96770596 73:0.61883767 74:0.63074624 75:0.375 
1 16:1 29:1 41:0.37142857 42:0.028571429 43:0.34285714 45:0.17201166 46:0.20116618 47:0.18658892 48:0.48542274 49:0.031211191 50:0.37301544 51:0.30044248 52:0.45070423 53:1 54:0.72535211 55:0.22535211 56:0.251 57:0.976 58:0.6135 59:0.1375 60:0.49907698 61:0.32327944 62:0.3241996 63:0.2994186 64:0.35174419 65:0.3255814 66:0.47383721 67:0.3 68:0.028571429 69:0.10357143 70:0.16666667 71:0.16666667 72:0.34308275 73:0.053882999 74:0.12530872 75:0.0625 
1 17:1 36:1 41:0.51428571 42:0.028571429 43:0.48571429 45:0.20116618 46:0.37317784 47:0.28717201 48:0.41399417 49:0.034090754 50:0.52452521 51:0.48095078 52:1 53:0.3943662 54:0.6971831 55:0.8028169 56:0.976 57:0.35 58:0.663 59:0.813 60:0.46187927 61:0.513267 62:0.46168638 63:0.35174419 64:0.20639535 65:0.27906977 66:0.57267442 67:0.46666667 68:0.028571429 69:0.072108844 70:0.5 71:0.16666667 72:0.59590905 73:0.066746705 74:0.096676571 75:0.0625 
1 20:1 38:1 41:0.57142857 42:0.028571429 43:0.54285714 45:0.27405248 46:0.10787172 47:0.1909621 48:0.58309038 49:0.032848857 50:0.57544747 51:0.53903292 52:0.97183099 53:0.94366197 54:0.95774648 55:0.51408451 56:1 57:0.516 58:0.758 59:0.742 60:0.4772014 61:0.50248756 62:0.46764734 63:0.18895349 64:0.39534884 65:0.29215116 66:0.39680233 67:0.53333333 68:0.028571429 69:0.063354037 70:0.16666667 71:0.16666667 72:0.59659259 73:0.049774775 74:0.071242623 75:0.0625 
1 12:1 37:1 41:0.45714286 42:0.028571429 43:0.42857143 45:0.37317784 47:0.18658892 48:0.68658892 49:0.030269533 50:0.46409346 51:0.40582419 52:0.3943662 53:0.81690141 54:0.6056338 55:0.28873239 56:0.35 57:0.169 58:0.2595 59:0.5905 60:0.42458926 61:0.24740879 62:0.17623305 63:0.20639535 64:0.36918605 65:0.2877907 66:0.41860465 67:0.4 68:0.028571429 69:0.082706767 70:0.33333333 71:0.16666667 72:0.45614759 73:0.03747954 74:0.070428943 75:0.0625 
1 17:1 23:1 41:0.34285714 42:0.22857143 43:0.11428571 45:0.3090379 46:0.37317784 47:0.34110787 48:0.46793003 49:0.23520983 50:0.34500615 51:0.50647753 52:0.91549296 53:0.3943662 54:0.65492958 55:0.76056338 56:0.823 57:0.35 58:0.5865 59:0.7365 60:0.3119808 61:0.46652156 62:0.26218633 63:0.15988372 64:0.20639535 65:0.18313953 66:0.47674419 67:0.5 68:0.22857143 69:0.4038961 70:0.16666667 71:0.16666667 72:0.58946311 73:0.27284093 74:0.40783518 75:0.5 
1 17:1 32:1 41:0.34285714 42:0.51428571 43:0.17142857 46:0.37317784 47:0.18658892 48:0.31341108 49:0.52257932 50:0.34456893 51:0.84233479 52:0.81690141 53:0.3943662 54:0.6056338 55:0.71126761 56:0.169 57:0.35 58:0.2595 59:0.4095 60:0.34991693 61:0.58758292 62:0.41399865 63:0.36918605 64:0.20639535 65:0.2877907 66:0.58139535 67:0.83333333 68:0.51428571 69:0.59910714 70:0.33333333 71:0.33333333 72:0.99326231 73:0.58432621 74:0.58194868 75:0.5 
1 20:1 32:1 41:0.14285714 42:0.45714286 43:0.31428571 46:0.10787172 47:0.05393586 48:0.44606414 49:0.46356875 50:0.14324361 51:0.53788278 52:0.81690141 53:0.94366197 54:0.88028169 55:0.43661972 56:0.169 57:0.516 58:0.3425 59:0.3265 60:0.49206203 61:0.54021559 62:0.51812326 63:0.36918605 64:0.39534884 65:0.38226744 66:0.4869186 67:0.53333333 68:0.45714286 69:0.75279503 70:0.16666667 71:0.16666667 72:0.63521556 73:0.54068419 74:0.76750352 75:0.3125 
1 16:1 25:1 41:0.085714286 42:0.42857143 43:0.34285714 45:0.34110787 46:0.20116618 47:0.27113703 48:0.56997085 49:0.42988741 50:0.087388988 51:0.43315602 53:1 54:0.5 56:0.008 57:0.976 58:0.492 59:0.016 60:0.52538305 61:0.60758706 62:0.61532545 63:0.50290698 64:0.35174419 65:0.42732558 66:0.5755814 67:0.43333333 68:0.42857143 69:0.81714286 70:0.16666667 71:0.16666667 72:0.47397988 73:0.45874951 74:0.80184153 75:0.1875 
1 1:1 32:1 41:0.14285714 42:0.17142857 43:0.028571429 46:1 47:0.5 49:0.18079836 50:0.14221888 51:0.20569959 52:0.81690141 53:0.53521127 54:0.67605634 55:0.64084507 56:0.169 57:0.223 58:0.196 59:0.473 60:0.53867454 61:0.44786484 62:0.48101144 63:0.36918605 64:1 65:0.68459302 66:0.18459302 67:0.2 68:0.17142857 69:0.54065934 70:0.33333333 71:0.33333333 72:0.24846922 73:0.24972486 74:0.64873832 
1 5:1 37:1 41:0.22857143 42:0.68571429 43:0.45714286 45:0.37317784 46:0.34110787 47:0.35714286 48:0.51603499 49:0.68928011 50:0.23198524 51:0.90583218 52:0.3943662 54:0.1971831 55:0.6971831 56:0.35 57:0.008 58:0.179 59:0.671 60:0.27589071 61:0.57846186 62:0.32842996 63:0.20639535 64:0.50290698 65:0.35465116 66:0.35174419 67:0.9 68:0.68571429 69:0.7487395 70:0.16666667 71:0.16666667 72:0.9900604 73:0.69174777 74:0.69329411 75:0.5 
1 1:1 37:1 41:0.25714286 42:0.028571429 43:0.22857143 45:0.37317784 46:1 47:0.68658892 48:0.18658892 49:0.034950529 50:0.26062304 51:0.17341576 52:0.3943662 53:0.53521127 54:0.46478873 55:0.42957746 56:0.35 57:0.223 58:0.2865 59:0.5635 60:0.42957356 61:0.5064262 62:0.42169022 63:0.20639535 64:1 65:0.60319767 66:0.10319767 67:0.16666667 68:0.028571429 69:0.14761905 70:0.33333333 71:0.33333333 72:0.26015259 73:0.066469436 74:0.18216047 
1 20:1 40:1 41:0.085714286 42:0.4 43:0.31428571 45:0.10787172 46:0.10787172 47:0.10787172 48:0.5 49:0.41456158 50:0.08503894 51:0.41246945 52:0.94366197 53:0.94366197 54:0.94366197 55:0.5 56:0.516 57:0.516 58:0.516 59:0.5 60:0.21940188 61:0.54695274 62:0.2403615 63:0.39534884 64:0.39534884 65:0.39534884 66:0.5 67:0.4 68:0.4 69:0.80601504 70:0.33333333 71:0.33333333 72:0.44453266 73:0.46664978 74:0.85132441 75:0.1875 
1 12:1 32:1 41:0.68571429 42:0.31428571 43:0.37142857 48:0.5 49:0.31518253 50:0.68706107 51:1 52:0.81690141 53:0.81690141 54:0.81690141 55:0.5 56:0.169 57:0.169 58:0.169 59:0.5 60:0.30201218 61:0.58685738 62:0.36342659 63:0.36918605 64:0.36918605 65:0.36918605 66:0.5 67:1 68:0.31428571 69:0.31428571 70:0.33333333 71:0.16666667 72:0.99715733 73:0.28746328 74:0.27842239 75:0.6875 
1 2:1 26:1 41:0.25714286 42:0.028571429 43:0.22857143 45:0.33527697 46:0.14285714 47:0.23906706 48:0.59620991 49:0.030938246 50:0.26145648 51:0.16969377 52:0.54929577 53:0.6056338 54:0.57746479 55:0.47183099 56:0.224 57:0.215 58:0.2195 59:0.5045 60:0.42883515 61:0.51907131 62:0.43265071 63:0.12790698 64:0.15697674 65:0.14244186 66:0.48546512 67:0.16666667 68:0.028571429 69:0.14761905 70:0.33333333 71:0.16666667 72:0.2427939 73:0.046260386 74:0.13825972 75:0.0625 
1 12:1 24:1 41:0.42857143 42:0.028571429 43:0.4 45:0.29446064 47:0.14723032 48:0.64723032 49:0.030269533 50:0.43276404 51:0.36919538 52:0.52112676 53:0.81690141 54:0.66901408 55:0.35211268 56:0.121 57:0.169 58:0.145 59:0.476 60:0.42458926 61:0.44506633 62:0.35958081 64:0.36918605 65:0.18459302 66:0.31540698 67:0.36666667 68:0.028571429 69:0.088888889 70:0.33333333 71:0.16666667 72:0.38886847 73:0.03747954 74:0.081527219 75:0.0625 
1 12:1 37:1 41:0.057142857 42:0.42857143 43:0.37142857 45:0.37317784 47:0.18658892 48:0.68658892 49:0.42669396 50:0.061169559 51:0.3987636 52:0.3943662 53:0.81690141 54:0.6056338 55:0.28873239 56:0.35 57:0.169 58:0.2595 59:0.5905 60:0.38674543 61:0.48196517 62:0.354389 63:0.20639535 64:0.36918605 65:0.2877907 66:0.41860465 67:0.4 68:0.42857143 69:0.86165414 70:0.16666667 72:0.44163675 73:0.4326523 74:0.79302358 75:0.0625 
1 4:1 34:1 41:0.17142857 42:0.14285714 43:0.028571429 45:0.20116618 46:0.29446064 47:0.24781341 48:0.45335277 49:0.14878199 50:0.17301544 51:0.20422996 52:1 53:0.52112676 54:0.76056338 55:0.73943662 56:0.976 57:0.121 58:0.5485 59:0.9275 60:0.42292782 61:0.60706882 62:0.50812422 63:0.35465116 65:0.17732558 66:0.67732558 67:0.2 68:0.14285714 69:0.45934066 70:0.16666667 71:0.16666667 72:0.24812406 73:0.18794488 74:0.4935037 75:0.3125 
1 16:1 40:1 41:0.57142857 42:0.085714286 43:0.48571429 45:0.10787172 46:0.20116618 47:0.15451895 48:0.45335277 49:0.087983623 50:0.57338434 51:0.60115653 52:0.94366197 53:1 54:0.97183099 55:0.47183099 56:0.516 57:0.976 58:0.746 59:0.27 60:0.54448957 61:0.47678275 62:0.51389289 63:0.39534884 64:0.35174419 65:0.37354651 66:0.52180233 67:0.6 68:0.085714286 69:0.14057143 70:0.33333333 71:0.16666667 72:0.63630157 73:0.10775535 74:0.14915178 75:0.1875 
1 12:1 40:1 41:0.057142857 42:0.4 43:0.34285714 45:0.10787172 47:0.05393586 48:0.55393586 49:0.41109519 50:0.057849433 51:0.37662338 52:0.94366197 53:0.81690141 54:0.88028169 55:0.56338028 56:0.516 57:0.169 58:0.3425 59:0.6735 60:0.37529998 61:0.55254975 62:0.40794154 63:0.39534884 64:0.36918605 65:0.38226744 66:0.5130814 67:0.36666667 68:0.4 69:0.85238095 70:0.5 71:0.5 72:0.48241565 73:0.49999323 74:0.86333324 75:0.125 
1 4:1 30:1 41:0.085714286 42:0.45714286 43:0.37142857 45:0.39067055 46:0.29446064 47:0.3425656 48:0.54810496 49:0.47271238 50:0.087061074 51:0.48289963 52:0.70422535 53:0.52112676 54:0.61267606 55:0.5915493 56:0.988 57:0.121 58:0.5545 59:0.9335 60:0.31742662 61:0.64344942 62:0.43197769 63:0.29360465 65:0.14680233 66:0.64680233 67:0.46666667 68:0.45714286 69:0.82721088 70:0.5 71:0.5 72:0.64019379 73:0.5863604 74:0.82790157 75:0.1875 
1 20:1 34:1 41:0.45714286 42:0.028571429 43:0.42857143 45:0.20116618 46:0.10787172 47:0.15451895 48:0.54664723 49:0.032848857 50:0.46097828 51:0.40520119 52:1 53:0.94366197 54:0.97183099 55:0.52816901 56:0.976 57:0.516 58:0.746 59:0.73 60:0.4772014 61:0.59535655 62:0.5537929 63:0.35465116 64:0.39534884 65:0.375 66:0.47965116 67:0.4 68:0.028571429 69:0.082706767 70:0.33333333 71:0.16666667 72:0.48210424 73:0.049774775 74:0.087874461 75:0.0625 
1 12:1 28:1 41:0.65714286 42:0.057142857 43:0.6 45:0.17492711 47:0.087463557 48:0.58746356 49:0.059160696 50:0.66168876 51:0.67066021 52:0.98591549 53:0.81690141 54:0.90140845 55:0.58450704 56:0.802 57:0.169 58:0.4855 59:0.8165 60:0.41462064 61:0.52643035 62:0.4246707 63:0.36918605 64:0.36918605 65:0.36918605 66:0.5 67:0.66666667 68:0.057142857 69:0.088888889 70:0.16666667 71:0.16666667 72:0.72811158 73:0.067045266 74:0.079239185 75:0.125 
1 2:1 36:1 42:0.25714286 43:0.25714286 44:1 45:0.20116618 46:0.14285714 47:0.17201166 48:0.52915452 49:0.25871034 50:0.00094275174 51:0.13172314 52:1 53:0.6056338 54:0.8028169 55:0.6971831 56:0.976 57:0.215 58:0.5955 59:0.8805 60:0.30893483 61:0.57794362 62:0.362369 63:0.35174419 64:0.15697674 65:0.25436047 66:0.59738372 67:0.13333333 68:0.25714286 69:0.93246753 70:0.16666667 71:0.16666667 72:0.12190832 73:0.25848731 74:0.90649302 
1 20:1 40:1 41:0.34285714 42:0.028571429 43:0.31428571 45:0.10787172 46:0.10787172 47:0.10787172 48:0.5 49:0.032848857 50:0.34614018 51:0.27093816 52:0.94366197 53:0.94366197 54:0.94366197 55:0.5 56:0.516 57:0.516 58:0.516 59:0.5 60:0.4772014 61:0.53689884 62:0.49956735 63:0.39534884 64:0.39534884 65:0.39534884 66:0.5 67:0.26666667 68:0.028571429 69:0.11238095 70:0.33333333 71:0.16666667 72:0.29705757 73:0.049774775 74:0.12926918 75:0.0625 
1 14:1 27:1 41:0.22857143 42:0.42857143 43:0.2 45:0.26239067 46:0.20116618 47:0.23177843 48:0.53061224 49:0.42910952 50:0.23328324 51:0.60281785 52:0.73239437 53:1 54:0.86619718 55:0.36619718 56:0.392 57:0.976 58:0.684 59:0.208 60:0.37834595 61:0.4871476 62:0.35044707 63:0.095930233 64:0.35465116 65:0.2252907 66:0.37063953 67:0.6 68:0.42857143 69:0.648 70:0.33333333 71:0.16666667 72:0.6575349 73:0.44349363 74:0.61252177 75:0.375 
1 9:1 32:1 41:0.25714286 42:0.11428571 43:0.14285714 46:0.17201166 47:0.086005831 48:0.41399417 49:0.11579666 50:0.26320536 51:0.27106596 52:0.81690141 53:0.45070423 54:0.63380282 55:0.68309859 56:0.169 57:0.251 58:0.21 59:0.459 60:0.48910836 61:0.42640962 62:0.40947986 63:0.36918605 64:0.2994186 65:0.33430233 66:0.53488372 67:0.26666667 68:0.11428571 69:0.32380952 70:0.16666667 72:0.33989373 73:0.15220058 74:0.33591005 75:0.3125 
1 13:1 32:1 41:0.028571429 42:0.4 43:0.37142857 46:0.6122449 47:0.30612245 48:0.19387755 49:0.40262027 50:0.028924716 51:0.33288606 52:0.81690141 53:0.56338028 54:0.69014085 55:0.62676056 56:0.169 57:0.037 58:0.103 59:0.566 60:0.33847148 61:0.48310531 62:0.30516297 63:0.36918605 64:0.078488372 65:0.22383721 66:0.64534884 67:0.33333333 68:0.4 69:0.90420168 70:0.33333333 71:0.33333333 72:0.32112609 73:0.40983479 74:0.91540021 
1 6:1 32:1 41:0.14285714 42:0.45714286 43:0.31428571 46:0.33527697 47:0.16763848 48:0.33236152 49:0.46004777 50:0.14379014 51:0.53440041 52:0.81690141 53:0.54929577 54:0.68309859 55:0.63380282 56:0.169 57:0.224 58:0.1965 59:0.4725 60:0.48200111 61:0.48486733 62:0.45630228 63:0.36918605 64:0.12790698 65:0.24854651 66:0.62063953 67:0.53333333 68:0.45714286 69:0.75279503 72:0.61288677 73:0.52195435 74:0.76068842 75:0.3125 
1 5:1 26:1 41:0.057142857 42:0.48571429 43:0.42857143 45:0.33527697 46:0.34110787 47:0.33819242 48:0.49708455 49:0.49267827 50:0.05957098 51:0.47412981 52:0.54929577 54:0.27464789 55:0.77464789 56:0.224 57:0.008 58:0.116 59:0.608 60:0.30164298 61:0.41386816 62:0.20257668 63:0.12790698 64:0.50290698 65:0.31540698 66:0.3125 67:0.46666667 68:0.48571429 69:0.87755102 70:0.33333333 71:0.16666667 72:0.55826154 73:0.56027344 74:0.87390555 75:0.0625 
1 14:1 25:1 41:0.028571429 42:0.31428571 43:0.28571429 45:0.34110787 46:0.20116618 47:0.27113703 48:0.56997085 49:0.31612419 50:0.029293619 51:0.23207297 53:1 54:0.5 56:0.008 57:0.976 58:0.492 59:0.016 60:0.45246446 61:0.44330431 62:0.38698202 63:0.50290698 64:0.35465116 65:0.42877907 66:0.57412791 67:0.23333333 68:0.31428571 69:0.87755102 70:0.16666667 71:0.16666667 72:0.21623415 73:0.32438617 74:0.89614678 75:0.0625 
1 4:1 22:1 41:0.45714286 42:0.028571429 43:0.42857143 45:0.14285714 46:0.29446064 47:0.21865889 48:0.42419825 49:0.031647902 50:0.46050007 51:0.40323637 52:0.6056338 53:0.52112676 54:0.56338028 55:0.54225352 56:0.215 57:0.121 58:0.168 59:0.547 60:0.42015876 61:0.59089967 62:0.49024132 63:0.15697674 65:0.078488372 66:0.57848837 67:0.4 68:0.028571429 69:0.082706767 70:0.33333333 71:0.16666667 72:0.45871664 73:0.054163555 74:0.099735624 75:0.0625 
1 8:1 32:1 41:0.057142857 42:0.28571429 43:0.22857143 46:0.17492711 47:0.087463557 48:0.41253644 49:0.29311498 50:0.058409619 51:0.23918148 52:0.81690141 53:0.98591549 54:0.90140845 55:0.41549296 56:0.169 57:0.802 58:0.4855 59:0.1835 60:0.44295736 61:0.49917081 62:0.42890107 63:0.36918605 64:0.36918605 65:0.36918605 66:0.5 67:0.23333333 68:0.28571429 69:0.80204082 70:0.16666667 71:0.16666667 72:0.33034123 73:0.37119992 74:0.81673099 75:0.125 
1 14:1 40:1 41:0.028571429 42:0.22857143 43:0.2 45:0.10787172 46:0.20116618 47:0.15451895 48:0.45335277 49:0.23466394 50:0.028706107 51:0.13603617 52:0.94366197 53:1 54:0.97183099 55:0.47183099 56:0.516 57:0.976 58:0.746 59:0.27 60:0.49030829 61:0.53192371 62:0.50860494 63:0.39534884 64:0.35465116 65:0.375 66:0.52034884 67:0.13333333 68:0.22857143 69:0.83636364 70:0.16666667 71:0.16666667 72:0.16940454 73:0.28922638 74:0.89341996 75:0.0625 
1 8:1 28:1 41:0.48571429 42:0.028571429 43:0.45714286 45:0.17492711 46:0.17492711 47:0.17492711 48:0.5 49:0.031088366 50:0.48831808 51:0.43510487 52:0.98591549 53:0.98591549 54:0.98591549 55:0.5 56:0.802 57:0.802 58:0.802 59:0.5 60:0.48301643 61:0.41687396 62:0.39428901 63:0.36918605 64:0.36918605 65:0.36918605 66:0.5 67:0.43333333 68:0.028571429 69:0.077142857 70:0.16666667 71:0.16666667 72:0.46824806 73:0.049782134 74:0.090256126 75:0.0625 
1 8:1 27:1 41:0.45714286 42:0.028571429 43:0.42857143 45:0.26239067 46:0.17492711 47:0.21865889 48:0.54373178 49:0.031088366 50:0.46121055 51:0.40341209 52:0.73239437 53:0.98591549 54:0.85915493 55:0.37323944 56:0.392 57:0.802 58:0.597 59:0.295 60:0.48301643 61:0.43988391 62:0.41563311 63:0.095930233 64:0.36918605 65:0.23255814 66:0.36337209 67:0.4 68:0.028571429 69:0.082706767 70:0.16666667 71:0.16666667 72:0.45830656 73:0.049782134 74:0.092012305 75:0.0625 
1 20:1 40:1 41:0.2 42:0.028571429 43:0.17142857 45:0.10787172 46:0.10787172 47:0.10787172 48:0.5 49:0.032848857 50:0.20314251 51:0.10375234 52:0.94366197 53:0.94366197 54:0.94366197 55:0.5 56:0.516 57:0.516 58:0.516 59:0.5 60:0.4772014 61:0.31426202 62:0.29304875 63:0.39534884 64:0.39534884 65:0.39534884 66:0.5 67:0.1 68:0.028571429 69:0.18285714 70:0.33333333 71:0.16666667 72:0.099556838 73:0.049774775 74:0.22074914 75:0.0625 
1 6:1 40:1 41:0.42857143 42:0.31428571 43:0.11428571 45:0.10787172 46:0.33527697 47:0.22157434 48:0.38629738 49:0.31654725 50:0.43142506 51:0.7027204 52:0.94366197 53:0.54929577 54:0.74647887 55:0.6971831 56:0.516 57:0.224 58:0.37 59:0.646 60:0.50341517 61:0.5627073 62:0.55081242 63:0.39534884 64:0.12790698 65:0.26162791 66:0.63372093 67:0.7 68:0.31428571 69:0.4244898 70:0.16666667 71:0.16666667 72:0.82802321 73:0.35186473 74:0.4030603 75:0.6875 
1 16:1 38:1 41:0.17142857 42:0.42857143 43:0.25714286 45:0.27405248 46:0.20116618 47:0.23760933 48:0.53644315 49:0.43224838 50:0.17682744 51:0.54048657 52:0.97183099 53:1 54:0.98591549 55:0.48591549 56:1 57:0.976 58:0.988 59:0.512 60:0.51107624 61:0.61432421 62:0.60667244 63:0.18895349 64:0.35174419 65:0.27034884 66:0.41860465 67:0.53333333 68:0.42857143 69:0.7068323 70:0.33333333 71:0.16666667 72:0.60088052 73:0.45815238 74:0.67709395 75:0.375 
1 16:1 36:1 41:0.028571429 42:0.4 43:0.37142857 45:0.20116618 46:0.20116618 47:0.20116618 48:0.5 49:0.40955305 50:0.029867468 51:0.34210316 52:1 53:1 54:1 55:0.5 56:0.976 57:0.976 58:0.976 59:0.5 60:0.5230755 61:0.56674959 62:0.57504086 63:0.35174419 64:0.35174419 65:0.35174419 66:0.5 67:0.33333333 68:0.4 69:0.90420168 70:0.33333333 71:0.33333333 72:0.48171435 73:0.52604167 74:0.90909791 75:0.0625 
1 20:1 38:1 41:0.31428571 42:0.65714286 43:0.34285714 45:0.27405248 46:0.10787172 47:0.1909621 48:0.58309038 49:0.66130331 50:0.31281596 51:0.96758838 52:0.97183099 53:0.94366197 54:0.95774648 55:0.51408451 56:1 57:0.516 58:0.758 59:0.742 60:0.41858963 61:0.41220978 62:0.32285357 63:0.18895349 64:0.39534884 65:0.29215116 66:0.39680233 67:0.96666667 68:0.65714286 69:0.67619048 70:0.33333333 71:0.33333333 72:1 73:0.69293466 74:0.68873204 75:0.6875 
1 12:1 22:1 41:0.22857143 42:0.22857143 45:0.14285714 47:0.071428571 48:0.57142857 49:0.23129307 50:0.23247711 51:0.37032955 52:0.6056338 53:0.81690141 54:0.71126761 55:0.3943662 56:0.215 57:0.169 58:0.192 59:0.523 60:0.32887207 61:0.28949005 62:0.11556581 63:0.15697674 64:0.36918605 65:0.2630814 66:0.39389535 67:0.36666667 68:0.22857143 69:0.5 70:0.16666667 71:0.16666667 72:0.35623087 73:0.23186422 74:0.4914313 75:0.5 
1 7:1 34:1 41:0.42857143 42:0.028571429 43:0.4 45:0.20116618 46:0.26239067 47:0.23177843 48:0.46938776 49:0.031497782 50:0.43086487 51:0.36841265 52:1 53:0.73239437 54:0.86619718 55:0.63380282 56:0.976 57:0.392 58:0.684 59:0.792 60:0.4451726 61:0.52352819 62:0.45380252 63:0.35465116 64:0.095930233 65:0.2252907 66:0.62936047 67:0.36666667 68:0.028571429 69:0.088888889 70:0.16666667 71:0.16666667 72:0.41615672 73:0.050361251 74:0.10112927 75:0.0625 
1 20:1 40:1 41:0.6 42:0.25714286 43:0.34285714 45:0.10787172 46:0.10787172 47:0.10787172 48:0.5 49:0.25780962 50:0.59979505 51:0.8308174 52:0.94366197 53:0.94366197 54:0.94366197 55:0.5 56:0.516 57:0.516 58:0.516 59:0.5 60:0.48237032 61:0.51679104 62:0.48629939 63:0.39534884 64:0.39534884 65:0.39534884 66:0.5 67:0.83333333 68:0.25714286 69:0.30178571 70:0.16666667 71:0.16666667 72:0.82027863 73:0.24182459 74:0.27607411 75:0.5625 
1 9:1 28:1 41:0.028571429 42:0.51428571 43:0.48571429 45:0.17492711 46:0.17201166 47:0.17346939 48:0.50145773 49:0.5285841 50:0.029457576 51:0.48095078 52:0.98591549 53:0.45070423 54:0.71830986 55:0.76760563 56:0.802 57:0.251 58:0.5265 59:0.7755 60:0.37640761 61:0.60924544 62:0.46168638 63:0.36918605 64:0.2994186 65:0.33430233 66:0.53488372 67:0.46666667 68:0.51428571 69:0.92789116 70:0.5 71:0.5 72:0.59590905 73:0.62092032 74:0.924345 75:0.0625 
1 18:1 31:1 41:0.11428571 42:0.51428571 43:0.4 45:0.303207 46:0.27405248 47:0.28862974 48:0.51457726 49:0.5182941 50:0.11858177 51:0.57310586 52:0.76056338 53:0.97183099 54:0.86619718 55:0.3943662 56:0.7 57:1 58:0.85 59:0.35 60:0.46981724 61:0.48466003 62:0.4434189 63:0.52325581 64:0.18895349 65:0.35610465 66:0.66715116 67:0.56666667 68:0.51428571 69:0.80833333 70:0.16666667 72:0.69370817 73:0.58751422 74:0.78084537 75:0.25 
1 18:1 22:1 41:0.54285714 42:0.057142857 43:0.48571429 45:0.14285714 46:0.27405248 47:0.20845481 48:0.43440233 49:0.061794609 50:0.5464681 51:0.53903292 52:0.6056338 53:0.97183099 54:0.78873239 55:0.31690141 56:0.215 57:1 58:0.6075 59:0.1075 60:0.52335241 61:0.45066335 62:0.46764734 63:0.15697674 64:0.18895349 65:0.17296512 66:0.48401163 67:0.53333333 68:0.057142857 69:0.10931677 70:0.16666667 71:0.16666667 72:0.59659259 73:0.092805792 74:0.13545882 75:0.125 
1 17:1 29:1 41:0.085714286 42:0.42857143 43:0.34285714 45:0.17201166 46:0.37317784 47:0.27259475 48:0.39941691 49:0.43642443 50:0.087839869 51:0.4413348 52:0.45070423 53:0.3943662 54:0.42253521 55:0.52816901 56:0.251 57:0.35 58:0.3005 59:0.4505 60:0.42311242 61:0.47927032 62:0.38977021 63:0.2994186 64:0.20639535 65:0.25290698 66:0.54651163 67:0.43333333 68:0.42857143 69:0.81714286 70:0.33333333 71:0.33333333 72:0.53772928 73:0.5011834 74:0.80269044 75:0.125 
1 12:1 23:1 41:0.085714286 42:0.51428571 43:0.42857143 45:0.3090379 47:0.15451895 48:0.65451895 49:0.52238826 50:0.086787813 51:0.54072619 52:0.91549296 53:0.81690141 54:0.86619718 55:0.54929577 56:0.823 57:0.169 58:0.496 59:0.827 60:0.39394499 61:0.58727197 62:0.4595712 63:0.15988372 64:0.36918605 65:0.26453488 66:0.39534884 67:0.53333333 68:0.51428571 69:0.8447205 70:0.33333333 71:0.33333333 72:0.6713422 73:0.6194158 74:0.84429191 75:0.1875 
1 8:1 33:1 41:0.31428571 42:0.028571429 43:0.28571429 45:0.6122449 46:0.17492711 47:0.39358601 48:0.71865889 49:0.033162743 50:0.31630004 51:0.23641795 52:0.56338028 53:0.98591549 54:0.77464789 55:0.28873239 56:0.037 57:0.802 58:0.4195 59:0.1175 60:0.50359978 61:0.37779851 62:0.37948274 63:0.078488372 64:0.36918605 65:0.22383721 66:0.35465116 67:0.23333333 68:0.028571429 69:0.12244898 70:0.33333333 71:0.16666667 72:0.25908974 73:0.057976505 74:0.16165926 
1 16:1 22:1 41:0.2 42:0.057142857 43:0.14285714 45:0.14285714 46:0.20116618 47:0.17201166 48:0.47084548 49:0.061617195 50:0.20419456 51:0.13865593 52:0.6056338 53:1 54:0.8028169 55:0.3028169 56:0.215 57:0.976 58:0.5955 59:0.1195 60:0.49335426 61:0.35447761 62:0.34717816 63:0.15697674 64:0.35174419 65:0.25436047 66:0.40261628 67:0.13333333 68:0.057142857 69:0.25974026 70:0.16666667 71:0.16666667 72:0.16376297 73:0.08754223 74:0.29583876 75:0.125 
1 14:1 24:1 41:0.45714286 42:0.085714286 43:0.37142857 45:0.29446064 46:0.20116618 47:0.24781341 48:0.54664723 49:0.088420334 50:0.45403744 51:0.46213319 52:0.52112676 53:1 54:0.76056338 55:0.26056338 56:0.121 57:0.976 58:0.5485 59:0.0725 60:0.5869485 61:0.44641376 62:0.52994904 64:0.35465116 65:0.17732558 66:0.32267442 67:0.46666667 68:0.085714286 69:0.17278912 70:0.16666667 71:0.16666667 72:0.467211 73:0.12005795 74:0.21402744 75:0.1875 
1 4:1 25:1 41:0.22857143 42:0.25714286 43:0.028571429 45:0.34110787 46:0.29446064 47:0.31778426 48:0.52332362 49:0.25909246 50:0.23116546 51:0.40133544 53:0.52112676 54:0.26056338 55:0.23943662 56:0.008 57:0.121 58:0.0645 59:0.4435 60:0.35167067 61:0.55659204 62:0.38707817 63:0.50290698 65:0.25145349 66:0.75145349 67:0.4 68:0.25714286 69:0.52781955 70:0.16666667 71:0.16666667 72:0.43671334 73:0.27751355 74:0.51408684 75:0.5 
1 3:1 32:1 41:0.57142857 42:0.31428571 43:0.25714286 46:0.3090379 47:0.15451895 48:0.34548105 49:0.31939952 50:0.57133488 51:0.86963467 52:0.81690141 53:0.91549296 54:0.86619718 55:0.45070423 56:0.169 57:0.823 58:0.496 59:0.173 60:0.40335979 61:0.46289386 62:0.35400442 63:0.36918605 64:0.15988372 65:0.26453488 66:0.60465116 67:0.86666667 68:0.31428571 69:0.35584416 70:0.33333333 71:0.16666667 72:0.93436722 73:0.35126432 74:0.36323059 75:0.6875 
1 16:1 32:1 41:0.4 42:0.085714286 43:0.31428571 46:0.20116618 47:0.10058309 48:0.39941691 49:0.087342204 50:0.4006285 51:0.39842814 52:0.81690141 53:1 54:0.9084507 55:0.4084507 56:0.169 57:0.976 58:0.5725 59:0.0965 60:0.44554181 61:0.58779022 62:0.51379675 63:0.36918605 64:0.35174419 65:0.36046512 66:0.50872093 67:0.4 68:0.085714286 69:0.19398496 70:0.16666667 71:0.16666667 72:0.43952935 73:0.10422296 74:0.19500896 75:0.1875 
1 17:1 40:1 41:0.57142857 42:0.057142857 43:0.51428571 45:0.10787172 46:0.37317784 47:0.24052478 48:0.36734694 49:0.060620948 50:0.57819374 51:0.5747512 52:0.94366197 53:0.3943662 54:0.66901408 55:0.77464789 56:0.516 57:0.35 58:0.433 59:0.583 60:0.48523168 61:0.42537313 62:0.40448034 63:0.39534884 64:0.20639535 65:0.30087209 66:0.59447674 67:0.56666667 68:0.057142857 69:0.10357143 70:0.5 71:0.16666667 72:0.66501447 73:0.091639808 74:0.12111684 75:0.125 
1 8:1 33:1 41:0.48571429 42:0.028571429 43:0.45714286 45:0.6122449 46:0.17492711 47:0.39358601 48:0.71865889 49:0.033162743 50:0.49191146 51:0.44173416 52:0.56338028 53:0.98591549 54:0.77464789 55:0.28873239 56:0.037 57:0.802 58:0.4195 59:0.1175 60:0.50359978 61:0.61401327 62:0.59859629 63:0.078488372 64:0.36918605 65:0.22383721 66:0.35465116 67:0.43333333 68:0.028571429 69:0.077142857 70:0.33333333 71:0.16666667 72:0.55543717 73:0.057976505 74:0.089541237 
1 16:1 32:1 41:0.085714286 42:0.37142857 43:0.28571429 46:0.20116618 47:0.10058309 48:0.39941691 49:0.374739 50:0.085079929 51:0.3659047 52:0.81690141 53:1 54:0.9084507 55:0.4084507 56:0.169 57:0.976 58:0.5725 59:0.0965 60:0.58824072 61:0.49771973 62:0.57888665 63:0.36918605 64:0.35174419 65:0.36046512 66:0.50872093 67:0.36666667 68:0.37142857 69:0.79365079 70:0.16666667 71:0.16666667 72:0.37007368 73:0.40458404 74:0.83054588 75:0.1875 
1 15:1 29:1 41:0.42857143 42:0.028571429 43:0.4 45:0.17201166 46:0.55685131 47:0.36443149 48:0.30758017 49:0.032876151 50:0.43408936 51:0.37379595 52:0.45070423 53:0.43661972 54:0.44366197 55:0.50704225 56:0.251 58:0.1255 59:0.6255 60:0.40899022 61:0.54747098 62:0.43832324 63:0.2994186 64:0.53488372 65:0.41715116 66:0.38226744 67:0.36666667 68:0.028571429 69:0.088888889 70:0.5 71:0.33333333 72:0.43071022 73:0.058275066 74:0.11288096 
1 17:1 32:1 41:0.34285714 42:0.25714286 43:0.085714286 46:0.37317784 47:0.18658892 48:0.31341108 49:0.26006141 50:0.34526575 51:0.53587003 52:0.81690141 53:0.3943662 54:0.6056338 55:0.71126761 56:0.169 57:0.35 58:0.2595 59:0.4095 60:0.46714048 61:0.40101575 62:0.36304202 63:0.36918605 64:0.20639535 65:0.2877907 66:0.58139535 67:0.53333333 68:0.25714286 69:0.4310559 70:0.33333333 71:0.16666667 72:0.58307663 73:0.29800394 74:0.44936303 75:0.125 
1 12:1 28:1 41:0.37142857 42:0.028571429 43:0.34285714 45:0.17492711 47:0.087463557 48:0.58746356 49:0.03234391 50:0.37704604 51:0.30648073 52:0.98591549 53:0.81690141 54:0.90140845 55:0.58450704 56:0.802 57:0.169 58:0.4855 59:0.8165 60:0.4451726 61:0.714034 62:0.6305163 63:0.36918605 64:0.36918605 65:0.36918605 66:0.5 67:0.3 68:0.028571429 69:0.10357143 70:0.33333333 71:0.16666667 72:0.39418771 73:0.04567391 74:0.096591507 75:0.0625 
1 12:1 27:1 41:0.45714286 42:0.057142857 43:0.4 45:0.26239067 47:0.13119534 48:0.63119534 49:0.058751279 50:0.46823337 51:0.44400249 52:0.73239437 53:0.81690141 54:0.77464789 55:0.45774648 56:0.392 57:0.169 58:0.2805 59:0.6115 60:0.45246446 61:0.29197761 62:0.2466109 63:0.095930233 64:0.36918605 65:0.23255814 66:0.36337209 67:0.43333333 68:0.057142857 69:0.13 70:0.5 71:0.16666667 72:0.53988266 73:0.066466149 74:0.10556404 75:0.125 
1 9:1 33:1 41:0.028571429 42:0.42857143 43:0.4 45:0.6122449 46:0.17201166 47:0.39212828 48:0.72011662 49:0.4373115 50:0.031370406 51:0.37635182 52:0.56338028 53:0.45070423 54:0.50704225 55:0.55633803 56:0.037 57:0.251 58:0.144 59:0.393 60:0.48218571 61:0.45480929 62:0.42861263 63:0.078488372 64:0.2994186 65:0.18895349 66:0.38953488 67:0.36666667 68:0.42857143 69:0.91111111 70:0.5 71:0.33333333 72:0.47463039 73:0.50908682 74:0.88872595 
1 3:1 38:1 41:0.54285714 42:0.085714286 43:0.45714286 45:0.27405248 46:0.3090379 47:0.29154519 48:0.48250729 49:0.086195838 50:0.55118186 51:0.57310586 52:0.97183099 53:0.91549296 54:0.94366197 55:0.52816901 56:1 57:0.823 58:0.9115 59:0.5885 60:0.57236478 61:0.36950663 62:0.4434189 63:0.18895349 64:0.15988372 65:0.1744186 66:0.51453488 67:0.56666667 68:0.085714286 69:0.14761905 70:0.16666667 72:0.69370817 73:0.10041546 74:0.12813086 75:0.25 
1 4:1 26:1 41:0.51428571 42:0.028571429 43:0.48571429 45:0.33527697 46:0.29446064 47:0.3148688 48:0.52040816 49:0.033722279 50:0.51833584 51:0.47328317 52:0.54929577 53:0.52112676 54:0.53521127 55:0.51408451 56:0.224 57:0.121 58:0.1725 59:0.5515 60:0.44074211 61:0.48704395 62:0.41534468 63:0.12790698 65:0.063953488 66:0.56395349 67:0.46666667 68:0.028571429 69:0.072108844 70:0.16666667 71:0.16666667 72:0.55121595 73:0.062357925 74:0.097102797 75:0.0625 
1 16:1 40:1 41:0.11428571 42:0.45714286 43:0.34285714 45:0.10787172 46:0.20116618 47:0.15451895 48:0.45335277 49:0.46315933 50:0.1135401 51:0.50267568 52:0.94366197 53:1 54:0.97183099 55:0.47183099 56:0.516 57:0.976 58:0.746 59:0.27 60:0.65959018 61:0.44776119 62:0.60686472 63:0.39534884 64:0.35174419 65:0.37354651 66:0.52180233 67:0.5 68:0.45714286 69:0.78831169 72:0.58631532 73:0.56237751 74:0.84683433 75:0.25 
1 14:1 25:1 41:0.22857143 42:0.057142857 43:0.17142857 45:0.34110787 46:0.20116618 47:0.27113703 48:0.56997085 49:0.062777209 50:0.23228583 51:0.17285666 53:1 54:0.5 56:0.008 57:0.976 58:0.492 59:0.016 60:0.56470371 61:0.3287728 62:0.39765407 63:0.50290698 64:0.35465116 65:0.42877907 66:0.57412791 67:0.16666667 68:0.057142857 69:0.23571429 70:0.5 71:0.16666667 72:0.19106316 73:0.11652266 74:0.35796397 75:0.125 
1 8:1 25:1 41:0.22857143 42:0.028571429 43:0.2 45:0.34110787 46:0.17492711 47:0.25801749 48:0.58309038 49:0.033162743 50:0.23350184 51:0.13961438 53:0.98591549 54:0.49295775 55:0.0070422535 56:0.008 57:0.802 58:0.405 59:0.103 60:0.50359978 61:0.42019071 62:0.41880588 63:0.50290698 64:0.36918605 65:0.43604651 66:0.56686047 67:0.13333333 68:0.028571429 69:0.16363636 70:0.33333333 71:0.16666667 72:0.16518243 73:0.057976505 74:0.20559851 75:0.0625 
1 8:1 27:1 41:0.14285714 42:0.42857143 43:0.28571429 45:0.26239067 46:0.17492711 47:0.21865889 48:0.54373178 49:0.43137496 50:0.14648176 51:0.50398556 52:0.73239437 53:0.98591549 54:0.85915493 55:0.37323944 56:0.392 57:0.802 58:0.597 59:0.295 60:0.41092856 61:0.44610282 62:0.34631285 63:0.095930233 64:0.36918605 65:0.23255814 66:0.36337209 67:0.5 68:0.42857143 69:0.74025974 70:0.33333333 71:0.16666667 72:0.54695659 73:0.45727588 74:0.72350512 75:0.3125 
1 7:1 32:1 41:0.45714286 42:0.057142857 43:0.4 46:0.26239067 47:0.13119534 48:0.36880466 49:0.059979529 50:0.45992622 51:0.43572786 52:0.81690141 53:0.73239437 54:0.77464789 55:0.54225352 56:0.169 57:0.392 58:0.2805 59:0.3885 60:0.47304781 61:0.4835199 62:0.44572637 63:0.36918605 64:0.095930233 65:0.23255814 66:0.63662791 67:0.43333333 68:0.057142857 69:0.13 70:0.33333333 71:0.16666667 72:0.43852906 73:0.07934786 74:0.14979263 75:0.125 
1 11:1 37:1 42:0.31428571 43:0.31428571 44:1 45:0.37317784 46:0.303207 47:0.33819242 48:0.53498542 49:0.32135107 50:0.0017488728 51:0.20598712 52:0.3943662 53:0.76056338 54:0.57746479 55:0.31690141 56:0.35 57:0.7 58:0.525 59:0.325 60:0.40391361 61:0.5130597 62:0.40111528 63:0.20639535 64:0.52325581 65:0.36482558 66:0.34156977 67:0.2 68:0.31428571 69:0.94725275 70:0.33333333 71:0.33333333 72:0.26901437 73:0.37529499 74:0.92594334 
1 13:1 33:1 42:0.34285714 43:0.34285714 44:1 45:0.6122449 46:0.6122449 47:0.6122449 48:0.5 49:0.34744456 50:0.0028692444 51:0.23783965 52:0.56338028 53:0.56338028 54:0.56338028 55:0.5 56:0.037 57:0.037 58:0.037 59:0.5 60:0.34530183 61:0.48061774 62:0.3099702 63:0.078488372 64:0.078488372 65:0.078488372 66:0.5 67:0.23333333 68:0.34285714 69:0.95306122 70:0.5 71:0.33333333 72:0.2955999 73:0.39490324 74:0.92489527 
1 7:1 37:1 41:0.17142857 42:0.17142857 45:0.37317784 46:0.26239067 47:0.31778426 48:0.55539359 49:0.17360628 50:0.17913649 51:0.24044344 52:0.3943662 53:0.73239437 54:0.56338028 55:0.33098592 56:0.35 57:0.392 58:0.371 59:0.479 60:0.45347979 61:0.49419569 62:0.43524661 63:0.20639535 64:0.095930233 65:0.15116279 66:0.55523256 67:0.23333333 68:0.17142857 69:0.5 70:0.5 71:0.16666667 72:0.30485461 73:0.19234102 74:0.45005075 75:0.125 
1 18:1 28:1 41:0.17142857 42:0.14285714 43:0.028571429 45:0.17492711 46:0.27405248 47:0.2244898 48:0.45043732 49:0.14572501 50:0.17268753 51:0.20026837 52:0.98591549 53:0.97183099 54:0.97887324 55:0.50704225 56:0.802 57:1 58:0.901 59:0.401 60:0.64491416 61:0.75932836 62:0.8805884 63:0.36918605 64:0.18895349 65:0.27906977 66:0.59011628 67:0.2 68:0.14285714 69:0.45934066 70:0.16666667 71:0.16666667 72:0.25776545 73:0.18797471 74:0.48367034 75:0.3125 
1 13:1 26:1 41:0.028571429 42:0.22857143 43:0.2 45:0.33527697 46:0.6122449 47:0.47376093 48:0.36151603 49:0.23781644 50:0.030072414 51:0.14132362 52:0.54929577 53:0.56338028 54:0.55633803 55:0.49295775 56:0.224 57:0.037 58:0.1305 59:0.5935 60:0.40566734 61:0.47419154 62:0.3668878 63:0.12790698 64:0.078488372 65:0.10319767 66:0.5247093 67:0.13333333 68:0.22857143 69:0.83636364 70:0.5 71:0.5 72:0.24383892 73:0.32113762 74:0.83657792 
1 3:1 32:1 41:0.37142857 42:0.028571429 43:0.34285714 46:0.3090379 47:0.15451895 48:0.34548105 49:0.031716138 50:0.37714169 51:0.30585773 52:0.81690141 53:0.91549296 54:0.86619718 55:0.45070423 56:0.169 57:0.823 58:0.496 59:0.173 60:0.48495477 61:0.50580431 62:0.47880012 63:0.36918605 64:0.15988372 65:0.26453488 66:0.60465116 67:0.3 68:0.028571429 69:0.10357143 70:0.33333333 71:0.16666667 72:0.38527204 73:0.059136901 74:0.12512682 75:0.0625 
1 7:1 28:1 41:0.34285714 42:0.11428571 43:0.22857143 45:0.17492711 46:0.26239067 47:0.21865889 48:0.45626822 49:0.12047765 50:0.34914606 51:0.37702273 52:0.98591549 53:0.73239437 54:0.85915493 55:0.62676056 56:0.802 57:0.392 58:0.597 59:0.705 60:0.48587779 61:0.63038972 62:0.59532737 63:0.36918605 64:0.095930233 65:0.23255814 66:0.63662791 67:0.36666667 68:0.11428571 69:0.26507937 70:0.33333333 71:0.16666667 72:0.51858066 73:0.15896563 74:0.26136504 75:0.25 
1 15:1 28:1 41:0.25714286 43:0.25714286 44:1 45:0.17492711 46:0.55685131 47:0.36588921 48:0.3090379 49:0.0026066189 50:0.2573439 51:0.13172314 52:0.98591549 53:0.43661972 54:0.71126761 55:0.77464789 56:0.802 58:0.401 59:0.901 60:0.45514122 61:0.41376451 62:0.362369 63:0.36918605 64:0.53488372 65:0.45203488 66:0.41715116 67:0.13333333 69:0.067532468 70:0.16666667 71:0.16666667 72:0.12190832 73:0.020795526 74:0.10830571 
1 11:1 36:1 41:0.11428571 42:0.48571429 43:0.37142857 45:0.20116618 46:0.303207 47:0.25218659 48:0.44897959 49:0.4937291 50:0.11655964 51:0.54198815 52:1 53:0.76056338 54:0.88028169 55:0.61971831 56:0.976 57:0.7 58:0.838 59:0.638 60:0.3621931 61:0.62862769 62:0.46485915 63:0.35174419 64:0.52325581 65:0.4375 66:0.41424419 67:0.53333333 68:0.48571429 69:0.79875776 70:0.16666667 71:0.16666667 72:0.67633914 73:0.57727212 74:0.78205879 75:0.25 
1 8:1 26:1 41:0.2 42:0.2 45:0.33527697 46:0.17492711 47:0.25510204 48:0.58017493 49:0.20619584 50:0.20263697 51:0.3060654 52:0.54929577 53:0.98591549 54:0.76760563 55:0.28169014 56:0.224 57:0.802 58:0.513 59:0.211 60:0.37640761 61:0.57058458 62:0.42582444 63:0.12790698 64:0.36918605 65:0.24854651 66:0.37936047 67:0.3 68:0.2 69:0.5 70:0.33333333 71:0.33333333 72:0.35944656 73:0.23274518 74:0.49050195 75:0.0625 
1 4:1 28:1 41:0.057142857 42:0.48571429 43:0.42857143 45:0.17492711 46:0.29446064 47:0.23469388 48:0.44023324 49:0.4917639 50:0.05765815 51:0.47082315 52:0.98591549 53:0.52112676 54:0.75352113 55:0.73239437 56:0.802 57:0.121 58:0.4615 59:0.8405 60:0.49686173 61:0.61090381 62:0.58869339 63:0.36918605 65:0.18459302 66:0.68459302 67:0.46666667 68:0.48571429 69:0.87755102 70:0.16666667 71:0.16666667 72:0.55337634 73:0.56501284 74:0.88683652 75:0.125 
1 20:1 28:1 41:0.6 42:0.11428571 43:0.48571429 45:0.17492711 46:0.10787172 47:0.14139942 48:0.5335277 49:0.11635619 50:0.59780025 51:0.66291273 52:0.98591549 53:0.94366197 54:0.96478873 55:0.52112676 56:0.802 57:0.516 58:0.659 59:0.643 60:0.48126269 61:0.22408789 62:0.2136333 63:0.36918605 64:0.39534884 65:0.38226744 66:0.4869186 67:0.66666667 68:0.11428571 69:0.16719577 70:0.16666667 71:0.16666667 72:0.64509468 73:0.13905225 74:0.1915423 75:0.25 
1 20:1 36:1 41:0.31428571 42:0.057142857 43:0.25714286 45:0.20116618 46:0.10787172 47:0.15451895 48:0.54664723 49:0.061016718 50:0.31793961 51:0.27093816 52:1 53:0.94366197 54:0.97183099 55:0.52816901 56:0.976 57:0.516 58:0.746 59:0.73 60:0.47867824 61:0.53524046 62:0.49956735 63:0.35174419 64:0.39534884 65:0.37354651 66:0.47819767 67:0.26666667 68:0.057142857 69:0.18285714 70:0.33333333 71:0.16666667 72:0.29705757 73:0.070559655 74:0.17703258 75:0.125 
1 15:1 22:1 41:0.28571429 42:0.028571429 43:0.25714286 45:0.14285714 46:0.55685131 47:0.34985423 48:0.29300292 49:0.03077448 50:0.29034021 51:0.20327151 52:0.6056338 53:0.43661972 54:0.52112676 55:0.58450704 56:0.215 58:0.1075 59:0.6075 60:0.45661805 61:0.57359038 62:0.51216229 63:0.15697674 64:0.53488372 65:0.34593023 66:0.31104651 67:0.2 68:0.028571429 69:0.13406593 70:0.33333333 71:0.16666667 72:0.25486859 73:0.041580405 74:0.12250993 
1 7:1 32:1 41:0.4 42:0.22857143 43:0.17142857 46:0.26239067 47:0.13119534 48:0.36880466 49:0.23672467 50:0.40635333 51:0.57997476 52:0.81690141 53:0.73239437 54:0.77464789 55:0.54225352 56:0.169 57:0.392 58:0.2805 59:0.3885 60:0.49695403 61:0.37873134 62:0.37342563 63:0.36918605 64:0.095930233 65:0.23255814 66:0.63662791 67:0.56666667 68:0.22857143 69:0.36785714 70:0.66666667 71:0.33333333 72:0.66536449 73:0.27051593 74:0.36811152 75:0.25 
1 7:1 32:1 41:0.48571429 42:0.028571429 43:0.45714286 46:0.26239067 47:0.13119534 48:0.36880466 49:0.031497782 50:0.48812679 51:0.43536046 52:0.81690141 53:0.73239437 54:0.77464789 55:0.54225352 56:0.169 57:0.392 58:0.2805 59:0.3885 60:0.4451726 61:0.42319652 62:0.36073454 63:0.36918605 64:0.095930233 65:0.23255814 66:0.63662791 67:0.43333333 68:0.028571429 69:0.077142857 70:0.16666667 71:0.16666667 72:0.48878781 73:0.050361251 74:0.087764923 75:0.0625 
1 15:1 30:1 41:0.54285714 42:0.028571429 43:0.51428571 45:0.39067055 46:0.55685131 47:0.47376093 48:0.41690962 49:0.031866257 50:0.54645443 51:0.50398556 52:0.70422535 53:0.43661972 54:0.57042254 55:0.63380282 56:0.988 58:0.494 59:0.994 60:0.40972863 61:0.44745025 62:0.34631285 63:0.29360465 64:0.53488372 65:0.41424419 66:0.37936047 67:0.5 68:0.028571429 69:0.067532468 70:0.33333333 71:0.16666667 72:0.54695659 73:0.049192372 74:0.076949447 
1 20:1 38:1 41:0.28571429 42:0.11428571 43:0.17142857 45:0.27405248 46:0.10787172 47:0.1909621 48:0.58309038 49:0.11710679 50:0.28702008 51:0.30044248 52:0.97183099 53:0.94366197 54:0.95774648 55:0.51408451 56:1 57:0.516 58:0.758 59:0.742 60:0.43215802 61:0.39842454 62:0.3241996 63:0.18895349 64:0.39534884 65:0.29215116 66:0.39680233 67:0.3 68:0.11428571 69:0.30178571 70:0.16666667 71:0.16666667 72:0.34308275 73:0.13672067 74:0.30108708 75:0.25 
1 2:1 36:1 41:0.22857143 42:0.028571429 43:0.2 45:0.20116618 46:0.14285714 47:0.17201166 48:0.52915452 49:0.033012624 50:0.23283235 51:0.13865593 52:1 53:0.6056338 54:0.8028169 55:0.6971831 56:0.976 57:0.215 58:0.5955 59:0.8805 60:0.4494185 61:0.40381426 62:0.34717816 63:0.35174419 64:0.15697674 65:0.25436047 66:0.59738372 67:0.13333333 68:0.028571429 69:0.16363636 70:0.16666667 71:0.16666667 72:0.16376297 73:0.054454757 74:0.19576083 75:0.0625 
1 9:1 36:1 41:0.48571429 42:0.31428571 43:0.17142857 45:0.20116618 46:0.17201166 47:0.18658892 48:0.51457726 49:0.31710679 50:0.48997131 51:0.77182473 52:1 53:0.45070423 54:0.72535211 55:0.77464789 56:0.976 57:0.251 58:0.6135 59:0.8625 60:0.43317334 61:0.46050995 62:0.3828478 63:0.35174419 64:0.2994186 65:0.3255814 66:0.52616279 67:0.76666667 68:0.31428571 69:0.39428571 70:0.33333333 71:0.16666667 72:0.86245353 73:0.33372813 74:0.3689161 75:0.5 
1 8:1 32:1 41:0.028571429 42:0.28571429 43:0.25714286 46:0.17492711 47:0.087463557 48:0.41253644 49:0.28904811 50:0.028924716 51:0.19994888 52:0.81690141 53:0.98591549 54:0.90140845 55:0.41549296 56:0.169 57:0.802 58:0.4855 59:0.1835 60:0.44821857 61:0.48310531 62:0.4194789 63:0.36918605 64:0.36918605 65:0.36918605 66:0.5 67:0.2 68:0.28571429 69:0.86593407 70:0.16666667 71:0.16666667 72:0.24489779 73:0.34688711 74:0.90005139 75:0.0625 
1 8:1 31:1 41:0.54285714 42:0.057142857 43:0.48571429 45:0.303207 46:0.17492711 47:0.23906706 48:0.56413994 49:0.06164449 50:0.55094958 51:0.54409674 52:0.76056338 53:0.98591549 54:0.87323944 55:0.38732394 56:0.7 57:0.802 58:0.751 59:0.449 60:0.53147499 61:0.40951493 62:0.43793866 63:0.52325581 64:0.36918605 65:0.44622093 66:0.57703488 67:0.53333333 68:0.057142857 69:0.10931677 70:0.33333333 71:0.16666667 72:0.6657043 73:0.086963114 74:0.11454247 75:0.125 
1 15:1 31:1 41:0.42857143 42:0.25714286 43:0.17142857 45:0.303207 46:0.55685131 47:0.43002915 48:0.37317784 49:0.26227226 50:0.43128843 51:0.63903133 52:0.76056338 53:0.43661972 54:0.59859155 55:0.66197183 56:0.7 58:0.35 59:0.85 60:0.37954587 61:0.47968491 62:0.34477454 63:0.52325581 64:0.53488372 65:0.52906977 66:0.49418605 67:0.63333333 68:0.25714286 69:0.37802198 70:0.33333333 71:0.33333333 72:0.75998747 73:0.32200681 74:0.39502277 
1 1:1 34:1 41:0.25714286 43:0.25714286 44:1 45:0.20116618 46:1 47:0.60058309 48:0.10058309 49:0.0046809962 50:0.26327367 51:0.14108401 52:1 53:0.53521127 54:0.76760563 55:0.73239437 56:0.976 57:0.223 58:0.5995 59:0.8765 60:0.47572457 61:0.56291459 62:0.52216133 63:0.35465116 64:1 65:0.67732558 66:0.17732558 67:0.13333333 69:0.067532468 70:0.5 71:0.16666667 72:0.20878085 73:0.028989896 74:0.1037846 
1 13:1 32:1 41:0.25714286 42:0.057142857 43:0.2 46:0.6122449 47:0.30612245 48:0.19387755 49:0.06174002 50:0.26197568 51:0.20635453 52:0.81690141 53:0.56338028 54:0.69014085 55:0.62676056 56:0.169 57:0.037 58:0.103 59:0.566 60:0.45634115 61:0.47533167 62:0.42072878 63:0.36918605 64:0.078488372 65:0.22383721 66:0.64534884 67:0.2 68:0.057142857 69:0.21538462 70:0.5 71:0.33333333 72:0.25025915 73:0.093985318 74:0.25546952 
1 9:1 40:1 41:0.028571429 42:0.37142857 43:0.34285714 45:0.10787172 46:0.17201166 47:0.13994169 48:0.46793003 49:0.37333333 50:0.029949447 51:0.29980352 52:0.94366197 53:0.45070423 54:0.6971831 55:0.74647887 56:0.516 57:0.251 58:0.3835 59:0.6325 60:0.42006646 61:0.51471808 62:0.4194789 63:0.39534884 64:0.2994186 65:0.34738372 66:0.54796512 67:0.3 68:0.37142857 69:0.89642857 70:0.16666667 71:0.16666667 72:0.35762829 73:0.42768558 74:0.89593713 75:0.0625 
1 17:1 26:1 41:0.22857143 42:0.057142857 43:0.17142857 45:0.33527697 46:0.37317784 47:0.35422741 48:0.48104956 49:0.060498124 50:0.22982648 51:0.16731362 52:0.54929577 53:0.3943662 54:0.47183099 55:0.57746479 56:0.224 57:0.35 58:0.287 59:0.437 60:0.46917113 61:0.51368159 62:0.46966638 63:0.12790698 64:0.20639535 65:0.16715116 66:0.46075581 67:0.16666667 68:0.057142857 69:0.23571429 70:0.16666667 71:0.16666667 72:0.19778 73:0.087538943 74:0.27103236 75:0.125 
1 9:1 27:1 41:0.028571429 42:0.34285714 43:0.31428571 45:0.26239067 46:0.17201166 47:0.21720117 48:0.5451895 49:0.34973729 50:0.030209045 51:0.27248766 52:0.73239437 53:0.45070423 54:0.5915493 55:0.64084507 56:0.392 57:0.251 58:0.3215 59:0.5705 60:0.23684696 61:0.56923715 62:0.27920392 63:0.095930233 64:0.2994186 65:0.19767442 66:0.39825581 67:0.26666667 68:0.34285714 69:0.88761905 70:0.5 71:0.5 72:0.30872853 73:0.37325015 74:0.85388746 75:0.0625 
1 14:1 25:1 41:0.45714286 42:0.057142857 43:0.4 45:0.34110787 46:0.20116618 47:0.27113703 48:0.56997085 49:0.062176731 50:0.4601175 51:0.43852335 53:1 54:0.5 56:0.008 57:0.976 58:0.492 59:0.016 60:0.50969171 61:0.65982587 62:0.64743775 63:0.50290698 64:0.35465116 65:0.42877907 66:0.57412791 67:0.43333333 68:0.057142857 69:0.13 70:0.16666667 71:0.16666667 72:0.52744834 73:0.091643095 74:0.14869023 75:0.125 
1 7:1 32:1 41:0.085714286 42:0.37142857 43:0.28571429 46:0.26239067 47:0.13119534 48:0.36880466 49:0.38343228 50:0.085544473 51:0.37662338 52:0.81690141 53:0.73239437 54:0.77464789 55:0.54225352 56:0.169 57:0.392 58:0.2805 59:0.3885 60:0.40585195 61:0.51824212 62:0.40794154 63:0.36918605 64:0.095930233 65:0.23255814 66:0.63662791 67:0.36666667 68:0.37142857 69:0.79365079 70:0.5 71:0.5 72:0.48241565 73:0.48330921 74:0.83459466 75:0.125 
1 6:1 40:1 41:0.17142857 42:0.51428571 43:0.34285714 45:0.10787172 46:0.33527697 47:0.22157434 48:0.38629738 49:0.52308427 50:0.17540648 51:0.64514944 52:0.94366197 53:0.54929577 54:0.74647887 55:0.6971831 56:0.516 57:0.224 58:0.37 59:0.646 60:0.61214694 61:0.4800995 62:0.58744352 63:0.39534884 64:0.12790698 65:0.26162791 66:0.63372093 67:0.63333333 68:0.51428571 69:0.74395604 70:0.16666667 71:0.16666667 72:0.85565869 73:0.66187172 74:0.74714507 75:0.375 
1 15:1 29:1 41:0.22857143 43:0.22857143 44:1 45:0.17201166 46:0.55685131 47:0.36443149 48:0.30758017 49:0.0026066189 50:0.23091952 51:0.10082906 52:0.45070423 53:0.43661972 54:0.44366197 55:0.50704225 56:0.251 58:0.1255 59:0.6255 60:0.45514122 61:0.52021144 62:0.46110951 63:0.2994186 64:0.53488372 65:0.41715116 66:0.38226744 67:0.1 69:0.077142857 70:0.16666667 71:0.16666667 72:0.12297117 73:0.020795526 74:0.10790221 
1 20:1 38:1 41:0.37142857 42:0.028571429 43:0.34285714 45:0.27405248 46:0.10787172 47:0.1909621 48:0.58309038 49:0.03077448 50:0.37645853 51:0.30395681 52:0.97183099 53:0.94366197 54:0.95774648 55:0.51408451 56:1 57:0.516 58:0.758 59:0.742 60:0.45661805 61:0.46237562 62:0.40899913 63:0.18895349 64:0.39534884 65:0.29215116 66:0.39680233 67:0.3 68:0.028571429 69:0.10357143 70:0.33333333 71:0.16666667 72:0.36296386 73:0.041580405 74:0.094865067 75:0.0625 
1 8:1 40:1 41:0.57142857 42:0.028571429 43:0.54285714 45:0.10787172 46:0.17492711 47:0.14139942 48:0.4664723 49:0.031088366 50:0.57450471 51:0.53587003 52:0.94366197 53:0.98591549 54:0.96478873 55:0.47887324 56:0.516 57:0.802 58:0.659 59:0.357 60:0.48301643 61:0.38318823 62:0.36304202 63:0.39534884 64:0.36918605 65:0.38226744 66:0.5130814 67:0.53333333 68:0.028571429 69:0.063354037 70:0.33333333 71:0.16666667 72:0.58307663 73:0.049782134 74:0.072981476 75:0.0625 
1 20:1 37:1 41:0.42857143 42:0.057142857 43:0.37142857 45:0.37317784 46:0.10787172 47:0.24052478 48:0.63265306 49:0.060034118 50:0.43164367 51:0.4027252 52:0.3943662 53:0.94366197 54:0.66901408 55:0.22535211 56:0.35 57:0.516 58:0.433 59:0.417 60:0.41120546 61:0.60769071 62:0.49649072 63:0.20639535 64:0.39534884 65:0.30087209 66:0.40552326 67:0.4 68:0.057142857 69:0.13834586 70:0.16666667 71:0.16666667 72:0.45550677 73:0.069977251 74:0.1286146 75:0.125 
1 2:1 37:1 41:0.085714286 42:0.51428571 43:0.42857143 45:0.37317784 46:0.14285714 47:0.25801749 48:0.61516035 49:0.52356192 50:0.088345402 51:0.54392102 52:0.3943662 53:0.6056338 54:0.5 55:0.3943662 56:0.35 57:0.215 58:0.2825 59:0.5675 60:0.53913605 61:0.57815091 62:0.60234593 63:0.20639535 64:0.15697674 65:0.18168605 66:0.5247093 67:0.53333333 68:0.51428571 69:0.8447205 70:0.33333333 71:0.33333333 72:0.67318077 73:0.60921602 74:0.8285838 75:0.1875 
1 8:1 29:1 41:0.17142857 42:0.57142857 43:0.4 45:0.17201166 46:0.17492711 47:0.17346939 48:0.49854227 49:0.57643125 50:0.17282416 51:0.70457341 52:0.45070423 53:0.98591549 54:0.71830986 55:0.23239437 56:0.251 57:0.802 58:0.5265 59:0.2245 60:0.5781798 61:0.47222222 62:0.54475531 63:0.2994186 64:0.36918605 65:0.33430233 66:0.46511628 67:0.7 68:0.57142857 69:0.76428571 70:0.16666667 71:0.16666667 72:0.80645007 73:0.63409441 74:0.75008967 75:0.375 
1 9:1 36:1 41:0.085714286 42:0.34285714 43:0.25714286 45:0.20116618 46:0.17201166 47:0.18658892 48:0.51457726 49:0.35178437 50:0.086678508 51:0.3409051 52:1 53:0.45070423 54:0.72535211 55:0.77464789 56:0.976 57:0.251 58:0.6135 59:0.8625 60:0.27902898 61:0.55317164 62:0.30823959 63:0.35174419 64:0.2994186 65:0.3255814 66:0.52616279 67:0.33333333 68:0.34285714 69:0.77983193 70:0.33333333 71:0.33333333 72:0.40232187 73:0.39608605 74:0.77178564 75:0.1875 
1 8:1 28:1 41:0.57142857 42:0.028571429 43:0.54285714 45:0.17492711 46:0.17492711 47:0.17492711 48:0.5 49:0.031088366 50:0.5813909 51:0.54392102 52:0.98591549 53:0.98591549 54:0.98591549 55:0.5 56:0.802 57:0.802 58:0.802 59:0.5 60:0.48301643 61:0.64116915 62:0.60234593 63:0.36918605 64:0.36918605 65:0.36918605 66:0.5 67:0.53333333 68:0.028571429 69:0.063354037 70:0.33333333 71:0.16666667 72:0.67318077 73:0.049782134 74:0.062410272 75:0.0625 
1 17:1 25:1 41:0.2 42:0.028571429 43:0.17142857 45:0.34110787 46:0.37317784 47:0.35714286 48:0.48396501 49:0.034090754 50:0.20359339 51:0.10573314 53:0.3943662 54:0.1971831 55:0.3028169 56:0.008 57:0.35 58:0.179 59:0.329 60:0.46187927 61:0.47512438 62:0.42630516 63:0.50290698 64:0.20639535 65:0.35465116 66:0.64825581 67:0.1 68:0.028571429 69:0.18285714 70:0.16666667 71:0.16666667 72:0.17365243 73:0.066746705 74:0.22676924 75:0.0625 
1 6:1 32:1 41:0.057142857 42:0.34285714 43:0.28571429 46:0.33527697 47:0.16763848 48:0.33236152 49:0.34801774 50:0.05681104 51:0.30157665 52:0.81690141 53:0.54929577 54:0.68309859 55:0.63380282 56:0.169 57:0.224 58:0.1965 59:0.4725 60:0.56590364 61:0.48072139 62:0.53985194 63:0.36918605 64:0.12790698 65:0.24854651 66:0.62063953 67:0.3 68:0.34285714 69:0.83035714 70:0.16666667 71:0.16666667 72:0.35092244 73:0.3996107 74:0.84740023 75:0.125 
1 12:1 40:1 41:0.42857143 42:0.48571429 43:0.057142857 45:0.10787172 47:0.05393586 48:0.55393586 49:0.48947117 50:0.43202623 51:0.90583218 52:0.94366197 53:0.81690141 54:0.88028169 55:0.56338028 56:0.516 57:0.169 58:0.3425 59:0.6735 60:0.32047259 61:0.52839967 62:0.32842996 63:0.39534884 64:0.36918605 65:0.38226744 66:0.5130814 67:0.9 68:0.48571429 69:0.53109244 70:0.16666667 71:0.16666667 72:0.9900604 73:0.49268311 74:0.48989761 75:0.9375 
1 11:1 36:1 41:0.14285714 42:0.6 43:0.45714286 45:0.20116618 46:0.303207 47:0.25218659 48:0.44897959 49:0.60391675 50:0.14372182 51:0.7027204 52:1 53:0.76056338 54:0.88028169 55:0.61971831 56:0.976 57:0.7 58:0.838 59:0.638 60:0.52870593 61:0.53430763 62:0.55081242 63:0.35174419 64:0.52325581 65:0.4375 66:0.41424419 67:0.7 68:0.6 69:0.80204082 70:0.16666667 71:0.16666667 72:0.82802321 73:0.69522062 74:0.80624341 75:0.3125 
1 17:1 38:1 41:0.42857143 42:0.2 43:0.22857143 45:0.27405248 46:0.37317784 47:0.32361516 48:0.45043732 49:0.20247015 50:0.43484083 51:0.57318573 52:0.97183099 53:0.3943662 54:0.68309859 55:0.78873239 56:1 57:0.35 58:0.675 59:0.825 60:0.53913605 61:0.29063018 62:0.3356408 63:0.18895349 64:0.20639535 65:0.19767442 66:0.49127907 67:0.56666667 68:0.2 69:0.32380952 70:0.33333333 72:0.65932904 73:0.24853101 74:0.34020832 75:0.1875 
1 17:1 40:1 41:0.028571429 42:0.48571429 43:0.45714286 45:0.10787172 46:0.37317784 47:0.24052478 48:0.36734694 49:0.4912999 50:0.029484902 51:0.43734126 52:0.94366197 53:0.3943662 54:0.66901408 55:0.77464789 56:0.516 57:0.35 58:0.433 59:0.583 60:0.2659221 61:0.58208955 62:0.3214114 63:0.39534884 64:0.20639535 65:0.30087209 66:0.59447674 67:0.43333333 68:0.48571429 69:0.92285714 70:0.16666667 71:0.16666667 72:0.53590958 73:0.56963223 74:0.9145717 75:0.0625 
1 20:1 36:1 41:0.11428571 42:0.51428571 43:0.4 45:0.20116618 46:0.10787172 47:0.15451895 48:0.54664723 49:0.52010918 50:0.11576718 51:0.57193975 52:1 53:0.94366197 54:0.97183099 55:0.52816901 56:0.976 57:0.516 58:0.746 59:0.73 60:0.35240908 61:0.56374378 62:0.3944813 63:0.35174419 64:0.39534884 65:0.37354651 66:0.47819767 67:0.56666667 68:0.51428571 69:0.80833333 70:0.33333333 71:0.33333333 72:0.66926116 73:0.59045351 74:0.80643552 75:0.25 
1 8:1 31:1 41:0.54285714 42:0.057142857 43:0.48571429 45:0.303207 46:0.17492711 47:0.23906706 48:0.56413994 49:0.061767315 50:0.5484629 51:0.54133321 52:0.76056338 53:0.98591549 54:0.87323944 55:0.38732394 56:0.7 57:0.802 58:0.751 59:0.449 60:0.54753554 61:0.49502488 62:0.53398712 63:0.52325581 64:0.36918605 65:0.44622093 66:0.57703488 67:0.53333333 68:0.057142857 69:0.10931677 70:0.16666667 71:0.16666667 72:0.66144726 73:0.091063978 74:0.1209288 75:0.125 
1 14:1 25:1 41:0.17142857 42:0.028571429 43:0.14285714 45:0.34110787 46:0.20116618 47:0.27113703 48:0.56997085 49:0.033285568 50:0.17458669 51:0.070877462 53:1 54:0.5 56:0.008 57:0.976 58:0.492 59:0.016 60:0.51966033 61:0.50456053 62:0.51379675 63:0.50290698 64:0.35465116 65:0.42877907 66:0.57412791 67:0.066666667 68:0.028571429 69:0.20634921 70:0.16666667 71:0.16666667 72:0.10562044 73:0.062077369 74:0.25962575 75:0.0625 
1 12:1 32:1 41:0.4 42:0.11428571 43:0.28571429 48:0.5 49:0.11931764 50:0.39849706 51:0.43336368 52:0.81690141 53:0.81690141 54:0.81690141 55:0.5 56:0.169 57:0.169 58:0.169 59:0.5 60:0.33348717 61:0.35903814 62:0.18488607 63:0.36918605 64:0.36918605 65:0.36918605 66:0.5 67:0.43333333 68:0.11428571 69:0.23571429 70:0.5 71:0.33333333 72:0.39489643 73:0.13320549 74:0.26744053 75:0.1875 
1 14:1 26:1 41:0.085714286 42:0.42857143 43:0.34285714 45:0.33527697 46:0.20116618 47:0.26822157 48:0.56705539 49:0.4341317 50:0.087566607 51:0.43833166 52:0.54929577 53:1 54:0.77464789 55:0.27464789 56:0.224 57:0.976 58:0.6 59:0.124 60:0.39551412 61:0.42485489 62:0.31054706 63:0.12790698 64:0.35465116 65:0.24127907 66:0.38662791 67:0.43333333 68:0.42857143 69:0.81714286 70:0.16666667 71:0.16666667 72:0.51501488 73:0.49588717 74:0.81861106 75:0.1875 
1 6:1 33:1 41:0.31428571 42:0.057142857 43:0.25714286 45:0.6122449 46:0.33527697 47:0.47376093 48:0.63848397 49:0.062995565 50:0.31729745 51:0.27250363 52:0.56338028 53:0.54929577 54:0.55633803 55:0.50704225 56:0.037 57:0.224 58:0.1305 59:0.4065 60:0.46870962 61:0.55876866 62:0.51100856 63:0.078488372 64:0.12790698 65:0.10319767 66:0.4752907 67:0.26666667 68:0.057142857 69:0.18285714 70:0.33333333 71:0.16666667 72:0.34453341 73:0.11416979 74:0.25253777 
1 16:1 25:1 41:0.11428571 42:0.22857143 43:0.11428571 45:0.34110787 46:0.20116618 47:0.27113703 48:0.56997085 49:0.23529171 50:0.11972947 51:0.243191 53:1 54:0.5 56:0.008 57:0.976 58:0.492 59:0.016 60:0.50655344 61:0.37945688 62:0.38409768 63:0.50290698 64:0.35174419 65:0.42732558 66:0.5755814 67:0.23333333 68:0.22857143 69:0.65102041 70:0.33333333 71:0.16666667 72:0.32185371 73:0.28836151 74:0.64700323 75:0.125 
1 17:1 22:1 41:0.57142857 42:0.028571429 43:0.54285714 45:0.14285714 46:0.37317784 47:0.25801749 48:0.38483965 49:0.032016377 50:0.57880858 51:0.54198815 52:0.6056338 53:0.3943662 54:0.5 55:0.6056338 56:0.215 57:0.35 58:0.2825 59:0.4325 60:0.44129592 61:0.539801 62:0.46485915 63:0.15697674 64:0.20639535 65:0.18168605 66:0.4752907 67:0.53333333 68:0.028571429 69:0.063354037 70:0.16666667 71:0.16666667 72:0.67633914 73:0.058552334 74:0.07404735 75:0.0625 
1 15:1 37:1 41:0.25714286 43:0.25714286 44:1 45:0.37317784 46:0.55685131 47:0.46501458 48:0.40816327 49:0.0026066189 50:0.25789042 51:0.1323621 52:0.3943662 53:0.43661972 54:0.41549296 55:0.47887324 56:0.35 58:0.175 59:0.675 60:0.45514122 61:0.6119403 62:0.54619748 63:0.20639535 64:0.53488372 65:0.37063953 66:0.33575581 67:0.13333333 69:0.067532468 70:0.16666667 71:0.16666667 72:0.17260598 73:0.020795526 74:0.091278439 
1 9:1 29:1 41:0.057142857 42:0.45714286 43:0.4 45:0.17201166 46:0.17201166 47:0.17201166 48:0.5 49:0.46444217 50:0.057931411 51:0.43916231 52:0.45070423 53:0.45070423 54:0.45070423 55:0.5 56:0.251 57:0.251 58:0.251 59:0.5 60:0.33717925 61:0.49326285 62:0.31323911 63:0.2994186 64:0.2994186 65:0.2994186 66:0.5 67:0.43333333 68:0.45714286 69:0.87 70:0.5 71:0.5 72:0.52529304 73:0.54067466 74:0.88031376 75:0.125 
1 8:1 31:1 41:0.62857143 42:0.11428571 43:0.51428571 45:0.303207 46:0.17492711 47:0.23906706 48:0.56413994 49:0.11766633 50:0.63449925 51:0.70735292 52:0.76056338 53:0.98591549 54:0.87323944 55:0.38732394 56:0.7 57:0.802 58:0.751 59:0.449 60:0.50803028 61:0.43563433 62:0.43774637 63:0.52325581 64:0.36918605 65:0.44622093 66:0.57703488 67:0.7 68:0.11428571 69:0.16020408 70:0.5 71:0.16666667 72:0.76286995 73:0.12033114 74:0.14187129 75:0.25 
1 8:1 32:1 41:0.028571429 42:0.28571429 43:0.25714286 46:0.17492711 47:0.087463557 48:0.41253644 49:0.29452064 50:0.028364531 51:0.20569959 52:0.81690141 53:0.98591549 54:0.90140845 55:0.41549296 56:0.169 57:0.802 58:0.4855 59:0.1835 60:0.52362932 61:0.46475954 62:0.48101144 63:0.36918605 64:0.36918605 65:0.36918605 66:0.5 67:0.2 68:0.28571429 69:0.86593407 70:0.33333333 71:0.33333333 72:0.24846922 73:0.35393718 74:0.91120194 75:0.0625 
1 12:1 25:1 41:0.51428571 42:0.11428571 43:0.4 45:0.34110787 47:0.17055394 48:0.67055394 49:0.11776186 50:0.52497609 51:0.57941566 53:0.81690141 54:0.4084507 55:0.091549296 56:0.008 57:0.169 58:0.0885 59:0.4195 60:0.4906775 61:0.54291045 62:0.51918085 63:0.50290698 64:0.36918605 65:0.43604651 66:0.56686047 67:0.56666667 68:0.11428571 69:0.19166667 70:0.33333333 71:0.16666667 72:0.72349156 73:0.13321285 74:0.16575658 75:0.0625 
1 4:1 29:1 41:0.22857143 42:0.51428571 43:0.28571429 45:0.17201166 46:0.29446064 47:0.23323615 48:0.43877551 49:0.52084613 50:0.22843285 51:0.70452549 52:0.45070423 53:0.52112676 54:0.48591549 55:0.46478873 56:0.251 57:0.121 58:0.186 59:0.565 60:0.63402252 61:0.56291459 62:0.68704932 63:0.2994186 65:0.1497093 66:0.6497093 67:0.7 68:0.51428571 69:0.68877551 70:0.16666667 71:0.16666667 72:0.87660288 73:0.64109321 74:0.70932712 75:0.5 
1 12:1 22:1 41:0.25714286 42:0.028571429 43:0.22857143 45:0.14285714 47:0.071428571 48:0.57142857 49:0.03234391 50:0.26018582 51:0.16985352 52:0.6056338 53:0.81690141 54:0.71126761 55:0.3943662 56:0.215 57:0.169 58:0.192 59:0.523 60:0.4451726 61:0.59245439 62:0.51773868 63:0.15697674 64:0.36918605 65:0.2630814 66:0.39389535 67:0.16666667 68:0.028571429 69:0.14761905 70:0.16666667 71:0.16666667 72:0.22044854 73:0.04567391 74:0.14484982 75:0.0625 
1 14:1 40:1 41:0.057142857 42:0.34285714 43:0.28571429 45:0.10787172 46:0.20116618 47:0.15451895 48:0.45335277 49:0.34848175 50:0.057316573 51:0.30271082 52:0.94366197 53:1 54:0.97183099 55:0.47183099 56:0.516 57:0.976 58:0.746 59:0.27 60:0.38877608 61:0.5166874 62:0.38871262 63:0.39534884 64:0.35465116 65:0.375 66:0.52034884 67:0.3 68:0.34285714 69:0.83035714 70:0.33333333 71:0.33333333 72:0.37004813 73:0.41130341 74:0.844227 75:0.125 
1 2:1 40:1 41:0.28571429 42:0.25714286 43:0.028571429 45:0.10787172 46:0.14285714 47:0.12536443 48:0.48250729 49:0.26572501 50:0.28729335 51:0.47472085 52:0.94366197 53:0.6056338 54:0.77464789 55:0.66901408 56:0.516 57:0.215 58:0.3655 59:0.6505 60:0.47184789 61:0.58074212 62:0.53466013 63:0.39534884 64:0.15697674 65:0.27616279 66:0.61918605 67:0.46666667 68:0.25714286 69:0.47482993 70:0.33333333 71:0.33333333 72:0.56786936 73:0.33079943 74:0.50895136 75:0.4375 
1 5:1 36:1 41:0.6 42:0.057142857 43:0.54285714 45:0.20116618 46:0.34110787 47:0.27113703 48:0.43002915 49:0.062272262 50:0.60311518 51:0.60582099 52:1 54:0.5 55:1 56:0.976 57:0.008 58:0.492 59:0.984 60:0.40400591 61:0.57618159 62:0.45976348 63:0.35174419 64:0.50290698 65:0.42732558 66:0.4244186 67:0.6 68:0.057142857 69:0.098285714 70:0.33333333 71:0.16666667 72:0.70182832 73:0.082851603 74:0.10340346 75:0.125 
1 20:1 22:1 41:0.54285714 42:0.11428571 43:0.42857143 45:0.14285714 46:0.10787172 47:0.12536443 48:0.51749271 49:0.11615148 50:0.54518377 51:0.60115653 52:0.6056338 53:0.94366197 54:0.77464789 55:0.33098592 56:0.215 57:0.516 58:0.3655 59:0.3495 60:0.5459664 61:0.47512438 62:0.51389289 63:0.15697674 64:0.39534884 65:0.27616279 66:0.38081395 67:0.6 68:0.11428571 69:0.18285714 70:0.33333333 71:0.16666667 72:0.63630157 73:0.12854023 74:0.17879193 75:0.25 
1 17:1 32:1 41:0.22857143 42:0.28571429 43:0.057142857 46:0.37317784 47:0.18658892 48:0.31341108 49:0.28914364 50:0.23529171 51:0.4413348 52:0.81690141 53:0.3943662 54:0.6056338 55:0.71126761 56:0.169 57:0.35 58:0.2595 59:0.4095 60:0.49455418 61:0.39904643 62:0.38977021 63:0.36918605 64:0.20639535 65:0.2877907 66:0.58139535 67:0.43333333 68:0.28571429 69:0.55285714 70:0.33333333 71:0.16666667 72:0.53772928 73:0.33958435 74:0.54368776 75:0.125 
1 16:1 32:1 41:0.28571429 42:0.2 43:0.085714286 46:0.20116618 47:0.10058309 48:0.39941691 49:0.20495394 50:0.2896024 51:0.40628744 52:0.81690141 53:1 54:0.9084507 55:0.4084507 56:0.169 57:0.976 58:0.5725 59:0.0965 60:0.51569134 61:0.56436567 62:0.56513797 63:0.36918605 64:0.35174419 65:0.36046512 66:0.50872093 67:0.4 68:0.2 69:0.41654135 70:0.16666667 71:0.16666667 72:0.53948505 73:0.26755764 74:0.42722412 75:0.4375 
1 14:1 27:1 41:0.45714286 42:0.057142857 43:0.4 45:0.26239067 46:0.20116618 47:0.23177843 48:0.53061224 49:0.059815763 50:0.46592431 51:0.44254884 52:0.73239437 53:1 54:0.86619718 55:0.36619718 56:0.392 57:0.976 58:0.684 59:0.208 60:0.54301274 61:0.48155058 62:0.51677723 63:0.095930233 64:0.35465116 65:0.2252907 66:0.37063953 67:0.43333333 68:0.057142857 69:0.13 70:0.5 71:0.16666667 72:0.5604353 73:0.086970473 74:0.13395334 75:0.125 
1 9:1 29:1 41:0.28571429 42:0.51428571 43:0.22857143 45:0.17201166 46:0.17201166 47:0.17201166 48:0.5 49:0.52109178 50:0.29046318 51:0.77733583 52:0.45070423 53:0.45070423 54:0.45070423 55:0.5 56:0.251 57:0.251 58:0.251 59:0.5 60:0.4401883 61:0.58146766 62:0.50235554 63:0.2994186 64:0.2994186 65:0.2994186 66:0.5 67:0.76666667 68:0.51428571 69:0.64095238 70:0.16666667 71:0.16666667 72:0.96590497 73:0.62028027 74:0.63323099 75:0.625 
1 14:1 37:1 41:0.057142857 42:0.37142857 43:0.31428571 45:0.37317784 46:0.20116618 47:0.28717201 48:0.58600583 49:0.37554418 50:0.062494876 51:0.34044185 52:0.3943662 53:1 54:0.6971831 55:0.1971831 56:0.35 57:0.976 58:0.663 59:0.187 60:0.29702788 61:0.45480929 62:0.23574656 63:0.20639535 64:0.35465116 65:0.28052326 66:0.42587209 67:0.33333333 68:0.37142857 69:0.84201681 70:0.33333333 71:0.16666667 72:0.38563186 73:0.40045643 74:0.80140657 75:0.125 
1 6:1 25:1 41:0.37142857 42:0.028571429 43:0.34285714 45:0.34110787 46:0.33527697 47:0.33819242 48:0.50291545 49:0.03391334 50:0.37218199 51:0.30263095 53:0.54929577 54:0.27464789 55:0.22535211 56:0.008 57:0.224 58:0.116 59:0.392 60:0.45024922 61:0.51533997 62:0.45149505 63:0.50290698 64:0.12790698 65:0.31540698 66:0.6875 67:0.3 68:0.028571429 69:0.10357143 70:0.16666667 71:0.16666667 72:0.31442517 73:0.06645879 74:0.1614215 75:0.0625 
1 9:1 37:1 41:0.028571429 42:0.37142857 43:0.34285714 45:0.37317784 46:0.17201166 47:0.27259475 48:0.60058309 49:0.37308768 50:0.031192786 51:0.30096963 52:0.3943662 53:0.45070423 54:0.42253521 55:0.47183099 56:0.35 57:0.251 58:0.3005 59:0.5495 60:0.49335426 61:0.49751244 62:0.47985771 63:0.20639535 64:0.2994186 65:0.25290698 66:0.45348837 67:0.3 68:0.37142857 69:0.89642857 70:0.16666667 71:0.16666667 72:0.32643683 73:0.38495641 74:0.85245412 75:0.0625 
1 14:1 26:1 41:0.17142857 42:0.51428571 43:0.34285714 45:0.33527697 46:0.20116618 47:0.26822157 48:0.56705539 49:0.52842033 50:0.17592567 51:0.65200236 52:0.54929577 53:1 54:0.77464789 55:0.27464789 56:0.224 57:0.976 58:0.6 59:0.124 60:0.28549012 61:0.44206053 62:0.2119027 63:0.12790698 64:0.35465116 65:0.24127907 66:0.38662791 67:0.63333333 68:0.51428571 69:0.74395604 70:0.83333333 71:0.66666667 72:0.8443715 73:0.65074418 74:0.74229523 75:0.125 
