svm_type c_svc
kernel_type rbf
gamma 2
nr_class 2
total_sv 548
rho 22.9038
label 2 1
probA -2.35358
probB 0.0605375
nr_sv 285 263
SV
65.43909753903048 1:0.39186745 2:0.2916658 3:-0.8341658 4:-0.54774312 
171.7253573949198 1:1.233922 2:1.272919 3:0.30060802 4:-0.33258683 
84.21170658164984 1:-0.41975426 2:-0.85016998 3:-1.0065246 4:-0.81692137 
194.0117205133309 1:0.083113043 2:-0.19859445 3:-0.84492767 4:-0.84982696 
71.17017897670044 1:-0.091940479 2:0.49040796 3:-0.66492253 4:-0.77585957 
194.0117205133309 1:1.2089802 2:-0.01442928 3:-0.94539798 4:-0.62250029 
194.0117205133309 1:0.9080037 2:-0.27015821 3:0.99430468 4:-0.20880911 
194.0117205133309 1:0.74294809 2:-0.17467556 3:0.99169371 4:0.10171287 
15.38464206530339 1:0.85668 2:0.47267153 3:-0.78761374 4:-0.71854343 
99.5151515648023 1:-1.957857 2:-0.97499652 3:-0.95189331 4:-0.82314176 
194.0117205133309 1:1.0308823 2:0.84289561 3:0.83168377 4:-0.002565063 
186.9820935101055 1:1.2536862 2:0.4316952 3:0.48746635 4:0.11404221 
94.48894434664473 1:1.1670188 2:-0.2562654 3:0.81330504 4:-0.32069955 
38.79067891168137 1:0.77217605 2:0.70131571 3:0.74845167 4:-0.033718404 
28.89782374195286 1:0.32739094 2:-0.70853404 3:-0.6422725 4:-0.51119117 
194.0117205133309 1:1.2583676 2:-0.045043592 3:-0.22947563 4:-0.60778265 
194.0117205133309 1:1.1888661 2:0.75836002 3:0.87333328 4:0.37947978 
106.1314452321124 1:1.2352029 2:0.30631044 3:0.60884489 4:0.13780057 
62.75152412363127 1:0.59302895 2:-0.65707023 3:-0.4738106 4:-0.48215192 
194.0117205133309 1:-0.20540126 2:-0.84882412 3:-0.18558248 4:-0.67251537 
194.0117205133309 1:1.1226709 2:-0.018274819 3:-0.97888359 4:-0.63214759 
35.9756223235669 1:-0.72183597 2:-0.039364555 3:-0.96804961 4:-0.6667344 
168.8619517719109 1:0.8176268 2:0.67634218 3:-0.40549135 4:-0.75482001 
51.93504478627556 1:-0.35883283 2:-0.1036417 3:-0.98649508 4:-0.59543867 
108.6092653776313 1:0.7652568 2:0.65837195 3:0.30035068 4:0.052910724 
194.0117205133309 1:1.2147938 2:1.1146734 3:0.42386975 4:0.13085136 
194.0117205133309 1:1.1315122 2:0.66073092 3:0.80399615 4:0.37369485 
126.1513878112834 1:1.2486457 2:0.44173024 3:-0.5562379 4:-0.76866416 
194.0117205133309 1:1.2509764 2:0.88392812 3:-0.10249361 4:-0.62584248 
55.96486775409664 1:1.2573423 2:0.13683539 3:-0.20903381 4:-0.55336795 
54.97701574972144 1:0.35811148 2:0.18904629 3:-0.91960596 4:-0.63857537 
176.3048047257827 1:1.2611238 2:0.43870346 3:-0.23265558 4:-0.56368721 
120.1539919679856 1:1.2241361 2:0.30620689 3:-0.80180191 4:-0.58404716 
194.0117205133309 1:-2.2239408 2:-1.1850031 3:-1.0677683 4:-0.83485085 
21.18481994179096 1:1.1842385 2:-0.41154431 3:0.72780438 4:-0.19284415 
194.0117205133309 1:-1.60266 2:-1.1089133 3:-0.62744729 4:-0.64052409 
27.14379792338197 1:0.66838068 2:-0.69818465 3:-0.1032305 4:-0.5389427 
187.3342096771381 1:-0.29716501 2:-0.51347368 3:-1.1491258 4:-0.63738757 
4.912649263006754 1:0.85505378 2:0.30798395 3:-0.22672583 4:-0.23339349 
25.56651852190343 1:-0.028439071 2:0.25339261 3:-0.77350215 4:-0.81381693 
179.369810216912 1:0.045784232 2:-0.26215005 3:0.76748118 4:-0.13143842 
194.0117205133309 1:-1.1964965 2:-0.62082203 3:-0.27101866 4:-0.57688225 
87.17670941419797 1:-0.7286746 2:-0.91623212 3:-1.0769344 4:-0.81119619 
194.0117205133309 1:1.2579747 2:0.73665937 3:-0.05206105 4:-0.20330131 
86.60586908014095 1:-1.8071718 2:-1.0221537 3:-1.0700812 4:-0.85848067 
194.0117205133309 1:1.2397001 2:-0.39741474 3:-0.51588057 4:-0.73484183 
194.0117205133309 1:0.17692102 2:-0.67315968 3:-1.0077018 4:-0.55277307 
194.0117205133309 1:-1.7820607 2:-0.91856159 3:-0.94426178 4:-0.86855905 
185.4171999236008 1:-0.67507893 2:-0.59464973 3:-1.150928 4:-0.75781621 
194.0117205133309 1:0.21252212 2:0.88008791 3:-0.40220762 4:-0.55980843 
119.1289675379378 1:1.238742 2:0.98988104 3:0.070775202 4:-0.13721247 
38.25517004855458 1:0.83966667 2:-0.21827933 3:0.81788835 4:-0.34104724 
46.02903372403077 1:1.1772469 2:0.62390824 3:-0.71162208 4:-0.61875855 
10.38272134761913 1:0.55957709 2:-0.06684227 3:1.0175949 4:-0.18668695 
194.0117205133309 1:1.0963402 2:1.3383752 3:0.33436303 4:-0.045495083 
194.0117205133309 1:-0.83679976 2:-0.12159217 3:-0.93585078 4:-0.58877036 
71.91240674851923 1:0.79768522 2:-0.51088993 3:-0.93340015 4:-0.56570466 
194.0117205133309 1:1.0542615 2:0.27315581 3:-0.91804754 4:-0.77827645 
173.1194844770396 1:1.2542976 2:-0.52824055 3:-0.041309877 4:-0.52883575 
159.3602077957745 1:-0.83195368 2:-0.28615799 3:-0.89557204 4:-0.87237485 
97.87111040189126 1:1.2572776 2:0.094905095 3:0.51624264 4:-0.32855776 
194.0117205133309 1:0.15814095 2:-0.80339767 3:-0.69269018 4:-0.56712839 
194.0117205133309 1:0.4676442 2:0.92486043 3:-0.54770837 4:-0.647051 
6.47564892653881 1:0.058491002 2:0.51814031 3:-0.75019234 4:-0.63277847 
194.0117205133309 1:-1.1749893 2:-0.99971903 3:-0.56405921 4:-0.84341606 
194.0117205133309 1:-0.69281895 2:-0.69872939 3:-1.1518559 4:-0.79395757 
158.2748790193452 1:0.32621941 2:-0.15624932 3:0.94727569 4:0.04421729 
38.66788029924323 1:-0.046139297 2:0.4294653 3:-0.4952005 4:-0.38964531 
194.0117205133309 1:1.2497234 2:0.37992203 3:1.0404162 4:0.40474379 
9.915404432333236 1:-2.0622321 2:-1.1279205 3:-0.85419781 4:-0.76695587 
90.58608489526746 1:0.83332243 2:-0.65197658 3:0.21705822 4:-0.47027731 
13.80360679030872 1:0.86526501 2:0.31544863 3:0.8694693 4:0.28647886 
164.0599081714545 1:1.2592371 2:0.27191998 3:0.85463892 4:-0.091583767 
154.7595657121334 1:1.227068 2:0.0072177238 3:-0.92635052 4:-0.65130932 
26.03655524046024 1:0.81585259 2:-0.24347583 3:0.78854688 4:0.012632435 
17.89411643333292 1:0.79710249 2:0.069618406 3:1.146529 4:-0.031518204 
194.0117205133309 1:0.89054963 2:-0.42596246 3:0.36063468 4:-0.56008006 
124.5318299277514 1:1.1454625 2:0.63152345 3:1.2927072 4:0.32590945 
194.0117205133309 1:0.71937602 2:1.1932367 3:-0.23906801 4:-0.43491054 
124.8517493262519 1:-1.1461468 2:-0.91716791 3:-0.25358033 4:-0.77399558 
194.0117205133309 1:0.6105224 2:-0.088268593 3:0.94543124 4:-0.25934922 
63.775445284778 1:-0.7759018 2:-0.92395924 3:-0.86679628 4:-0.53731072 
194.0117205133309 1:1.2548518 2:0.49766692 3:0.8537407 4:-0.024871853 
187.2355433935922 1:-1.6958742 2:-0.91160655 3:-0.58664337 4:-0.58927464 
0.9207389111363923 1:0.55058801 2:0.85788409 3:-0.25393679 4:-0.31653405 
50.50674713787487 1:0.45585743 2:-0.59735356 3:-0.059341256 4:-0.68646553 
14.47664137390891 1:0.00075372257 2:-0.042823764 3:-0.75459103 4:-0.82280883 
193.0593153752769 1:0.81595434 2:-0.33304146 3:-0.7617384 4:-0.86014673 
127.7851978737067 1:-1.3791072 2:-0.69153929 3:-1.0241638 4:-0.88253779 
194.0117205133309 1:1.2220031 2:1.2313977 3:0.46245171 4:-0.17453103 
186.7264802571241 1:-1.2538689 2:-0.65238214 3:-0.51240271 4:-0.79446351 
179.5712255283025 1:0.47695504 2:-0.26233663 3:1.0576765 4:-0.039438708 
16.45851773365344 1:-0.068767617 2:-0.19377416 3:0.69186895 4:-0.21753072 
39.83948708038231 1:1.2535078 2:0.52297942 3:0.61877862 4:-0.14620253 
42.76819377799022 1:0.23457269 2:0.72239017 3:-0.33787409 4:-0.70386521 
55.20814003064074 1:1.2466538 2:0.650754 3:0.36675217 4:-0.25805823 
194.0117205133309 1:-0.64331193 2:-0.31826145 3:-0.04415481 4:-0.66221706 
194.0117205133309 1:0.3412249 2:-0.76592226 3:-0.34465921 4:-0.48480926 
30.91856488786694 1:1.1035694 2:1.2728453 3:0.2949962 4:-0.34076361 
194.0117205133309 1:0.74785415 2:0.95250767 3:-0.31226146 4:-0.33013839 
194.0117205133309 1:1.0442524 2:0.60565607 3:-0.74013078 4:-0.71183084 
181.5095570417177 1:-1.0421777 2:-0.56395759 3:-0.37122465 4:-0.75932395 
194.0117205133309 1:1.1233566 2:-0.38280839 3:0.58775003 4:-0.44913216 
68.53751923623221 1:-1.224567 2:-0.6383177 3:-1.1642459 4:-0.79982635 
194.0117205133309 1:0.5168097 2:-0.63188105 3:0.35640387 4:-0.42452975 
125.0161317941433 1:0.462784 2:0.28884657 3:0.90261565 4:-0.026943495 
107.4283666665519 1:1.0319635 2:-0.58057681 3:-0.57187124 4:-0.75659289 
62.40672339671945 1:-2.0802956 2:-1.2272672 3:-0.87778259 4:-0.67818398 
57.12904576837423 1:-0.49926513 2:-0.36070296 3:-1.0820421 4:-0.83506457 
194.0117205133309 1:1.2435852 2:-0.41708438 3:-0.5689763 4:-0.48785017 
92.34905668492024 1:0.87896078 2:-0.060119192 3:1.0369943 4:-0.18826551 
61.29266322144615 1:0.26858433 2:-0.11127858 3:0.76004625 4:0.057543116 
194.0117205133309 1:1.2545141 2:0.3468859 3:-0.22196038 4:-0.32825811 
67.21992928344626 1:-0.33314905 2:0.16846972 3:-0.61976385 4:-0.46868148 
194.0117205133309 1:-1.1423528 2:-1.0909981 3:-1.0490541 4:-0.87193546 
176.3785988640103 1:1.2317717 2:1.0348529 3:-0.33713658 4:-0.69921571 
141.456426946018 1:1.2505515 2:-0.18547241 3:0.62335032 4:-0.38263831 
19.00580455995384 1:-0.28031976 2:-0.82286299 3:-0.37750759 4:-0.75631047 
194.0117205133309 1:-0.96644218 2:-0.33041914 3:-0.56748884 4:-0.77990193 
111.9462629986337 1:1.1244357 2:-0.38370386 3:0.3571946 4:-0.5547523 
194.0117205133309 1:1.2437649 2:-0.19807009 3:-0.74576058 4:-0.81119826 
194.0117205133309 1:1.221132 2:-0.026806156 3:-0.69139918 4:-0.47052492 
194.0117205133309 1:0.98946355 2:0.0098849051 3:-0.95066956 4:-0.8476202 
36.0991624918263 1:1.1751326 2:0.73828489 3:-0.60423326 4:-0.49447786 
194.0117205133309 1:1.2544187 2:0.28043818 3:0.95427394 4:-0.060762985 
172.1891860137499 1:0.95889977 2:0.50699333 3:1.0526179 4:0.028870169 
101.4718155411886 1:-1.5842828 2:-0.56065538 3:-1.1152704 4:-0.78022349 
173.5187979894865 1:1.2477679 2:1.3900003 3:-0.055517052 4:-0.59602809 
1.098648196736435 1:0.28296517 2:-0.44016508 3:0.35324927 4:-0.58917588 
136.9431835055498 1:0.081869568 2:-0.10034219 3:0.71755273 4:-0.34427245 
103.0989304603241 1:0.46436504 2:-0.59740633 3:-1.0502088 4:-0.63341905 
125.3513885052298 1:-2.180822 2:-1.2440499 3:-1.0909071 4:-0.7647609 
10.37272175218057 1:-0.097157602 2:-0.4241711 3:-0.61976944 4:-0.45822627 
120.6444389978216 1:1.260805 2:0.061869696 3:0.21663193 4:-0.10216753 
144.574322969476 1:-0.95192194 2:-0.74990001 3:0.0066907181 4:-0.69353806 
194.0117205133309 1:0.21622039 2:-0.77278142 3:-0.84080929 4:-0.83122685 
100.3711107590738 1:1.186176 2:1.0412623 3:0.81808562 4:0.15926414 
98.79734531549167 1:-0.90885666 2:-0.92255061 3:-0.31410107 4:-0.52765621 
194.0117205133309 1:1.2512622 2:0.22716372 3:1.2717157 4:0.17635559 
178.7616099402448 1:1.2612515 2:1.1192529 3:0.62098564 4:-0.0016622577 
53.07074505267406 1:-0.1906223 2:0.1033088 3:0.057719681 4:-0.37630872 
78.98896177200845 1:-0.48118078 2:-0.95862248 3:-0.78504262 4:-0.7338122 
194.0117205133309 1:1.2095256 2:-0.22013286 3:1.0920402 4:-0.12344069 
194.0117205133309 1:1.2528226 2:-0.14659466 3:0.99303502 4:-0.20957338 
36.74282403660587 1:1.2576508 2:0.71900086 3:0.99228452 4:0.17096043 
5.65572579718499 1:-0.020850294 2:-0.087429254 3:-0.84034777 4:-0.83812055 
8.315847198922956 1:0.92112438 2:1.0108757 3:-0.50551191 4:-0.58720616 
157.6489861133829 1:-0.99486836 2:-0.28424163 3:-1.0242781 4:-0.6104345 
13.37071883218419 1:-1.9470394 2:-1.0290079 3:-1.064941 4:-0.84952539 
194.0117205133309 1:-2.1233094 2:-1.0827459 3:-1.2009264 4:-0.79692284 
194.0117205133309 1:0.87189801 2:-0.26190681 3:0.73622344 4:-0.39134977 
194.0117205133309 1:-0.093741227 2:-0.82916017 3:-0.41058131 4:-0.49449978 
167.3445366543898 1:1.2588117 2:-0.013007429 3:-0.6659656 4:-0.49673941 
194.0117205133309 1:0.7159293 2:0.21733262 3:-0.70268201 4:-0.82506111 
93.35139549003864 1:0.28122183 2:-0.39517784 3:-1.1251886 4:-0.70458819 
194.0117205133309 1:1.2509526 2:0.89826817 3:0.21778901 4:-0.031863397 
140.2510766348992 1:0.53967014 2:0.90453847 3:-0.28898886 4:-0.68144717 
194.0117205133309 1:-1.156797 2:-1.0217914 3:-1.0888643 4:-0.68239754 
72.7099437669071 1:0.19023922 2:-0.71198056 3:-0.67715309 4:-0.82610527 
29.50425414698952 1:1.2547649 2:1.4573376 3:0.055840371 4:-0.26531351 
127.3712871558507 1:-1.6523055 2:-1.0437236 3:-1.1229806 4:-0.58978762 
194.0117205133309 1:-1.3286575 2:-0.83209444 3:-1.0922337 4:-0.8872721 
61.67974904041387 1:-0.0026934682 2:0.46032328 3:-0.56142213 4:-0.42159754 
114.5982671740038 1:-0.58567133 2:-0.97518955 3:-0.56237712 4:-0.69890269 
166.637101122541 1:-0.43546384 2:-0.38777231 3:0.3277825 4:-0.51860571 
194.0117205133309 1:0.94527491 2:-0.17755042 3:-0.9210087 4:-0.86128479 
194.0117205133309 1:1.2396598 2:0.12441538 3:-0.74464858 4:-0.78573804 
194.0117205133309 1:-0.27728549 2:-0.58493928 3:0.12363436 4:-0.67270132 
194.0117205133309 1:1.0768885 2:-0.41768735 3:0.49900808 4:-0.50660969 
153.150933957551 1:-0.061656352 2:-0.76396455 3:-0.084188062 4:-0.70540853 
194.0117205133309 1:1.2539576 2:-0.36763328 3:-0.36413458 4:-0.69638357 
194.0117205133309 1:1.2001593 2:-0.5487035 3:0.036410156 4:-0.60000035 
194.0117205133309 1:0.83313188 2:-0.23971054 3:0.65435472 4:-0.44985753 
194.0117205133309 1:1.2538094 2:0.78347209 3:-0.57865172 4:-0.6044186 
43.86250030420982 1:1.257769 2:-0.033437091 3:1.0254057 4:-0.1642142 
29.78687023998406 1:-1.1345376 2:-0.66220851 3:-1.1452154 4:-0.63077919 
194.0117205133309 1:1.2589803 2:0.28312241 3:-0.24815568 4:-0.34403194 
194.0117205133309 1:1.1669884 2:0.28152076 3:-0.79320685 4:-0.53854361 
194.0117205133309 1:0.73294327 2:-0.67688676 3:-0.26304154 4:-0.62117188 
31.10043259519678 1:-0.40589891 2:0.029642944 3:-0.49757551 4:-0.43627361 
69.82587697250003 1:1.2509727 2:0.80637655 3:0.55138389 4:0.20326836 
168.2305708178546 1:0.29770131 2:-0.74907644 3:-0.019653607 4:-0.38881662 
101.6628091284153 1:-1.9078119 2:-1.1467129 3:-0.79693565 4:-0.66170625 
194.0117205133309 1:-1.921982 2:-0.79610701 3:-1.0438671 4:-0.77261815 
194.0117205133309 1:0.86151425 2:-0.2741421 3:0.9044868 4:0.015499608 
194.0117205133309 1:1.2218467 2:-0.47385724 3:-0.50154554 4:-0.70757739 
194.0117205133309 1:0.52365762 2:0.8664216 3:-0.470573 4:-0.73029362 
194.0117205133309 1:-0.069109146 2:-0.15344096 3:0.683898 4:-0.24332127 
194.0117205133309 1:0.73327272 2:0.36805206 3:-0.46300164 4:-0.78761062 
194.0117205133309 1:1.0089093 2:0.22866722 3:1.2431617 4:0.066026358 
2.748592242102848 1:-1.7350288 2:-1.0091217 3:-0.85262841 4:-0.86567006 
194.0117205133309 1:-0.95509331 2:-0.40596506 3:-1.0455607 4:-0.8712167 
171.4450316437822 1:0.018519556 2:0.086058871 3:-0.9086402 4:-0.5894872 
194.0117205133309 1:-1.7819985 2:-0.90140042 3:-1.0242952 4:-0.86137905 
194.0117205133309 1:1.2195048 2:0.92691883 3:-0.26262844 4:-0.3027135 
86.70960901814408 1:0.85187731 2:-0.0890183 3:-0.69811812 4:-0.44215773 
184.8476061372352 1:1.2303314 2:0.13785087 3:-0.39103138 4:-0.35390124 
194.0117205133309 1:-2.1234142 2:-1.1421688 3:-0.89663942 4:-0.83808758 
194.0117205133309 1:1.0872883 2:-0.22221105 3:1.107499 4:-0.11749021 
31.47966991804253 1:0.068325177 2:-0.51901658 3:-0.94257944 4:-0.86526984 
4.315855701344563 1:-0.31239363 2:0.061021231 3:-0.15879023 4:-0.37378478 
194.0117205133309 1:1.1618109 2:0.070103236 3:-0.87923856 4:-0.82352108 
159.3830556097801 1:-2.101695 2:-1.0685306 3:-1.2140268 4:-0.59604702 
152.5709209722079 1:1.254307 2:0.068241659 3:0.016318234 4:-0.53847547 
80.33549565524375 1:-1.1464621 2:-0.73216029 3:-0.16695282 4:-0.54410423 
147.9398486331859 1:0.045805475 2:-0.39274355 3:0.54139017 4:-0.10696062 
81.05849894025781 1:-0.71167733 2:-0.59856098 3:0.038846935 4:-0.34602009 
194.0117205133309 1:1.2596717 2:0.4066593 3:-0.40791796 4:-0.69802906 
194.0117205133309 1:0.72465319 2:-0.54149739 3:0.34420081 4:-0.58815405 
194.0117205133309 1:1.0893791 2:1.4901777 3:0.070487511 4:-0.44221677 
194.0117205133309 1:1.2564645 2:-0.27953123 3:0.67033593 4:-0.088175478 
55.07360474027468 1:1.2508889 2:-0.46097726 3:-0.39505385 4:-0.62445733 
156.499073787904 1:-0.70817111 2:-0.956513 3:-0.73237905 4:-0.82309242 
51.46709040561693 1:0.15864491 2:-0.77488559 3:-1.0336857 4:-0.67578417 
97.03005853341607 1:1.2603282 2:0.53891652 3:1.3431614 4:0.408895 
194.0117205133309 1:1.2463324 2:0.68042874 3:-0.61059047 4:-0.74032359 
75.2378739879227 1:-0.1984093 2:-0.52588263 3:0.53895808 4:-0.43307323 
194.0117205133309 1:1.2490606 2:0.45554389 3:-0.66951211 4:-0.50685558 
194.0117205133309 1:-1.2817695 2:-0.32312996 3:-1.1312708 4:-0.67741721 
71.9177052589226 1:0.59981498 2:-0.33816063 3:0.5814654 4:-0.072887316 
194.0117205133309 1:0.70178546 2:0.65287126 3:-0.62462006 4:-0.49084109 
194.0117205133309 1:-1.7211774 2:-1.1001401 3:-0.64470352 4:-0.77320698 
144.5222560663701 1:0.2912423 2:0.55291571 3:0.065145833 4:-0.48970769 
14.23355536268079 1:0.09041394 2:0.65179618 3:-0.43365662 4:-0.73834377 
83.2215512229496 1:1.2075651 2:0.79735088 3:0.059287633 4:-0.098595032 
134.3117617173474 1:1.1993923 2:0.67381874 3:1.0388375 4:0.45677511 
48.32724833196465 1:1.1148819 2:-0.5605707 3:-0.896736 4:-0.62273017 
23.73228087131071 1:-1.0743795 2:-1.0665687 3:-0.67913031 4:-0.71987932 
59.88928376526811 1:-0.29059579 2:-0.89032879 3:-0.99592336 4:-0.68485128 
113.5518091691243 1:0.96726862 2:1.315861 3:-0.084670611 4:-0.60419215 
31.17574345676212 1:0.97103564 2:-0.61337121 3:-0.82238347 4:-0.78223893 
96.57071434353669 1:-1.4944682 2:-1.1708657 3:-1.0003814 4:-0.74280151 
194.0117205133309 1:1.2595874 2:1.0754622 3:0.54534028 4:-0.13783342 
13.81944733569253 1:-0.31217948 2:-0.27997469 3:-0.39796598 4:-0.75633484 
194.0117205133309 1:1.2319404 2:-0.25310842 3:0.63609346 4:-0.41096447 
2.667734674820474 1:-0.47104442 2:-0.14410837 3:0.052863412 4:-0.42154026 
125.6424568438892 1:0.64062654 2:-0.30849389 3:-1.0357867 4:-0.58853395 
194.0117205133309 1:-0.34564148 2:-0.70390256 3:0.15045478 4:-0.64724184 
135.8886915144177 1:-0.86617635 2:-0.82708603 3:-1.1028314 4:-0.60038319 
55.96425279438478 1:-1.8933564 2:-1.2460451 3:-0.94891944 4:-0.7794725 
194.0117205133309 1:1.1880056 2:0.30566991 3:-0.8586111 4:-0.66940797 
194.0117205133309 1:0.32095761 2:0.33266722 3:-0.82683067 4:-0.81249181 
194.0117205133309 1:0.83433455 2:-0.42809966 3:-0.96125407 4:-0.56099936 
10.53682196178812 1:0.65181112 2:-0.042886758 3:-0.74696438 4:-0.83727345 
183.8996648548078 1:-0.41324863 2:-0.89047084 3:-0.77320934 4:-0.53931412 
194.0117205133309 1:0.70845643 2:1.1132811 3:-0.11957662 4:-0.65114104 
194.0117205133309 1:1.2189646 2:-0.55259868 3:-0.92343265 4:-0.71647169 
60.61636153367931 1:0.32884279 2:-0.18376733 3:-1.0752157 4:-0.76469418 
40.08763577921707 1:1.2494175 2:1.3139631 3:-0.18162761 4:-0.43487721 
152.2315420502572 1:0.834735 2:0.42957505 3:-0.76240302 4:-0.77667604 
64.87813557771098 1:1.2315502 2:0.5455145 3:1.1056052 4:0.13029859 
194.0117205133309 1:-2.0658097 2:-1.0421234 3:-0.95435806 4:-0.63107465 
194.0117205133309 1:1.2396108 2:-0.057701258 3:0.78142385 4:0.064904878 
194.0117205133309 1:0.58011207 2:0.80055488 3:-0.63070404 4:-0.57092942 
80.12927643632682 1:1.1894977 2:0.69188984 3:0.22452826 4:-0.41084244 
134.9127994623761 1:1.2473068 2:-0.30331926 3:-0.35700488 4:-0.68673943 
31.79081224893322 1:0.72897642 2:-0.44216911 3:0.11321858 4:-0.62038051 
126.0870837251392 1:0.98796244 2:0.68147972 3:0.49737748 4:0.19973785 
76.42218576470746 1:-0.36956834 2:0.2327625 3:-0.63643753 4:-0.79194657 
194.0117205133309 1:-0.30489889 2:0.44763252 3:-0.80106085 4:-0.62577156 
43.88755654526273 1:1.2558298 2:0.021789232 3:-0.82143006 4:-0.76786913 
24.84800898338036 1:1.2244857 2:-0.19913752 3:1.1113921 4:-0.10040168 
135.5441232655452 1:-0.90143086 2:-0.076040505 3:-0.88334556 4:-0.74690192 
123.3048267331526 1:-0.51422874 2:-0.82443102 3:-0.051090878 4:-0.56916743 
0.5196992031629212 1:1.2578778 2:0.49342402 3:0.18697296 4:-0.32717175 
194.0117205133309 1:-1.4946256 2:-1.0928957 3:-1.1194237 4:-0.66626212 
172.2002487036749 1:-0.31229367 2:-0.48252365 3:-0.68714496 4:-0.82611341 
130.1720209127273 1:-0.23323907 2:-0.70198035 3:-0.88018043 4:-0.86126011 
78.36892043401633 1:0.80172877 2:-0.18731222 3:-1.0273735 4:-0.61626769 
194.0117205133309 1:0.78779296 2:1.0249456 3:-0.094880031 4:-0.67423511 
194.0117205133309 1:1.2222225 2:-0.43513786 3:-0.77024867 4:-0.53923496 
194.0117205133309 1:-0.58880323 2:-0.212705 3:-1.0170446 4:-0.8356387 
83.25035450730299 1:0.90912118 2:-0.62118712 3:-0.11370365 4:-0.57314061 
88.57278246005271 1:1.2534542 2:-0.24749208 3:0.22900469 4:-0.15797018 
194.0117205133309 1:1.2424053 2:0.54998937 3:1.2588645 4:0.22670282 
49.46886452234885 1:0.80930801 2:1.105637 3:0.036583014 4:-0.19942494 
115.391302026213 1:1.2320928 2:0.17110685 3:1.1510109 4:0.28408211 
194.0117205133309 1:-0.62422411 2:-0.40525121 3:-1.0989069 4:-0.65537496 
134.3660759282114 1:0.68532408 2:0.17557895 3:1.0734191 4:0.22746812 
194.0117205133309 1:1.2288968 2:-0.16268007 3:-0.97729147 4:-0.67626666 
194.0117205133309 1:1.1536062 2:1.1656761 3:0.37401431 4:0.095294958 
150.0960672414753 1:1.2606434 2:0.82590216 3:1.0534257 4:0.25347041 
26.38635908588807 1:1.2249642 2:0.85900616 3:-0.30548665 4:-0.73197058 
194.0117205133309 1:0.97295992 2:-0.48200633 3:0.72658834 4:-0.37251511 
109.991038123461 1:0.51823165 2:0.79967307 3:-0.54649 4:-0.48839256 
-194.0117205133309 1:-0.71168172 2:-0.63030203 3:-1.1119861 4:-0.84576951 
-194.0117205133309 1:1.2833226 2:0.54993188 3:-0.2243605 4:-0.55031937 
-194.0117205133309 1:0.99547315 2:-0.18544787 3:0.51343294 4:-0.49772271 
-194.0117205133309 1:1.2851192 2:0.060649333 3:-0.49212638 4:-0.56101704 
-83.7698549689779 1:0.98666986 2:-0.47477269 3:0.61674144 4:-0.15150916 
-194.0117205133309 1:1.2804481 2:0.016791317 3:-0.44688898 4:-0.48636595 
-194.0117205133309 1:1.1617295 2:1.1054968 3:0.35402775 4:0.13530365 
-67.57672763302591 1:0.96194879 2:0.098833724 3:0.79011274 4:0.24632349 
-139.0831169674014 1:0.56393245 2:0.84595097 3:-0.4854482 4:-0.77742405 
-194.0117205133309 1:-1.1054222 2:-0.14810402 3:-0.87739624 4:-0.75086513 
-194.0117205133309 1:1.3199731 2:0.76210741 3:0.3046673 4:-0.12965966 
-60.32024344635685 1:0.83622349 2:0.72446337 3:0.61438956 4:0.200686 
-194.0117205133309 1:0.96363759 2:1.3676542 3:-0.071517337 4:-0.61333123 
-194.0117205133309 1:1.1132935 2:-0.13684682 3:-1.0576864 4:-0.67170734 
-59.89579123755548 1:-2.250392 2:-1.1496728 3:-1.279379 4:-0.73126277 
-194.0117205133309 1:0.785919 2:0.4967379 3:-0.78542322 4:-0.6312733 
-49.72721064606007 1:-0.73288148 2:-0.41776627 3:-0.80602975 4:-0.42043252 
-177.3309228869772 1:-1.1690574 2:-0.49137329 3:-0.33443428 4:-0.6053059 
-50.92506791238721 1:1.1411765 2:0.56860381 3:1.3770665 4:0.29065943 
-40.94844471176298 1:1.0635998 2:-0.45105754 3:0.79681995 4:-0.1517584 
-194.0117205133309 1:0.90503285 2:-0.30987735 3:0.84333491 4:-0.001110363 
-194.0117205133309 1:1.1360383 2:1.1012641 3:0.57623684 4:-0.1739679 
-194.0117205133309 1:-0.76259706 2:-0.28586201 3:-1.097959 4:-0.80139758 
-124.2103095948722 1:0.94502492 2:-0.48843141 3:0.27931926 4:-0.60880071 
-194.0117205133309 1:1.3206917 2:1.1217071 3:0.34183281 4:-0.18487881 
-9.170787295142123 1:0.67424302 2:-0.3861861 3:0.76601323 4:-0.064000378 
-194.0117205133309 1:1.3203324 2:0.72821576 3:0.45399716 4:-0.052840239 
-194.0117205133309 1:-0.047770198 2:-0.85745714 3:-0.43843964 4:-0.55675791 
-194.0117205133309 1:0.43562006 2:-0.49788745 3:-0.93669265 4:-0.50750376 
-194.0117205133309 1:1.1204798 2:0.31139951 3:-0.854493 4:-0.59469407 
-194.0117205133309 1:1.3375796 2:0.18519889 3:0.85024537 4:0.032674674 
-194.0117205133309 1:-1.4121359 2:-0.83926552 3:-1.0018136 4:-0.88749957 
-7.336613379181524 1:1.2411387 2:-0.076748434 3:-0.91740724 4:-0.84986526 
-194.0117205133309 1:-0.039865206 2:-0.079360103 3:0.65547487 4:-0.29556634 
-194.0117205133309 1:1.2628415 2:-0.14876444 3:0.79748777 4:-0.2708368 
-194.0117205133309 1:-0.85257024 2:-0.093529154 3:-0.82636916 4:-0.82351293 
-45.45393644266639 1:-1.013365 2:-0.73659994 3:-0.26335524 4:-0.83885189 
-194.0117205133309 1:-0.051507103 2:-0.80111114 3:-0.059380476 4:-0.70686206 
-149.436897143914 1:1.330034 2:-0.33401277 3:-0.10543086 4:-0.60471051 
-194.0117205133309 1:-0.48671284 2:-0.5104955 3:0.17786904 4:-0.63483181 
-148.1200463469015 1:0.90133188 2:0.31112934 3:0.94704991 4:-0.17382944 
-9.333822965994564 1:1.0596832 2:0.33070184 3:0.63718247 4:-0.36371796 
-69.62386667473609 1:0.76888733 2:-0.18367674 3:-0.51184152 4:-0.81987411 
-63.13972621453607 1:0.99346097 2:1.0940294 3:0.31294244 4:-0.39520451 
-25.15998075621678 1:-1.6041553 2:-0.41194255 3:-1.008666 4:-0.66074105 
-117.3621282007331 1:0.60848786 2:-0.61973528 3:-1.0034454 4:-0.56394138 
-194.0117205133309 1:0.99953344 2:0.53062955 3:0.39868443 4:0.18969202 
-194.0117205133309 1:-0.35972993 2:0.16271453 3:-0.72449792 4:-0.46782849 
-194.0117205133309 1:1.3260815 2:1.1270205 3:-0.15940796 4:-0.41979559 
-120.2495931068543 1:0.24830768 2:-0.6635933 3:0.38483447 4:-0.40365077 
-17.9657791207262 1:1.0996034 2:0.81241955 3:1.120247 4:0.17684263 
-194.0117205133309 1:1.274699 2:0.61879587 3:0.92890269 4:0.29533949 
-70.68527859120644 1:0.50550737 2:-0.54123514 3:0.41674454 4:-0.20354366 
-194.0117205133309 1:1.2844006 2:-0.44256211 3:-0.55905333 4:-0.67380091 
-194.0117205133309 1:1.1483988 2:-0.58851534 3:-0.49677207 4:-0.72339596 
-3.370437392167486 1:0.023374729 2:-0.32443665 3:0.51009385 4:-0.033898464 
-194.0117205133309 1:1.2266223 2:-0.47099027 3:-0.32543326 4:-0.68234132 
-30.28011989131196 1:-0.52792659 2:0.22359342 3:-0.69070053 4:-0.50192923 
-194.0117205133309 1:-0.34837548 2:-0.51109589 3:0.21274074 4:-0.65944781 
-194.0117205133309 1:1.2167411 2:0.57022484 3:-0.47476312 4:-0.78506445 
-194.0117205133309 1:0.68904691 2:1.066682 3:-0.4053391 4:-0.48508378 
-141.9370609991517 1:1.2876345 2:1.4507773 3:0.38843488 4:-0.095985393 
-116.8013960762557 1:-0.10971659 2:0.25301221 3:-0.89281993 4:-0.83130841 
-194.0117205133309 1:0.86536417 2:-0.49140331 3:-0.92327532 4:-0.52738431 
-35.15449270776273 1:1.1600048 2:-0.37129659 3:-1.0453864 4:-0.84961048 
-194.0117205133309 1:0.7757503 2:-0.29525801 3:-0.94175355 4:-0.88519831 
-194.0117205133309 1:-0.13052109 2:-0.62228691 3:-1.0003763 4:-0.52798524 
-194.0117205133309 1:0.38420168 2:-0.073926632 3:0.84525125 4:-0.33148371 
-4.158570551310951 1:-1.1846518 2:-0.79453694 3:-0.45371234 4:-0.37332731 
-194.0117205133309 1:1.0552996 2:-0.087585357 3:-1.0094151 4:-0.6467258 
-67.6286010469863 1:0.30137892 2:-0.85400493 3:-0.63085826 4:-0.74536011 
-194.0117205133309 1:1.3081156 2:1.1328743 3:0.67356402 4:0.041259396 
-194.0117205133309 1:1.1863428 2:0.037684663 3:-0.78807707 4:-0.48497301 
-42.90291349771004 1:-0.67064763 2:-0.6737698 3:-1.2232155 4:-0.75360975 
-194.0117205133309 1:1.2244305 2:0.048101317 3:1.142285 4:-0.040073926 
-194.0117205133309 1:0.89816988 2:0.43717985 3:-0.75945672 4:-0.81662023 
-32.13273371515165 1:-1.5227698 2:-1.0946747 3:-0.81189494 4:-0.90697858 
-194.0117205133309 1:1.1298939 2:0.5512227 3:1.2071794 4:0.11796805 
-194.0117205133309 1:1.1320139 2:0.14530341 3:-0.87332836 4:-0.85483886 
-194.0117205133309 1:1.2122137 2:0.70705224 3:-0.69676896 4:-0.65601392 
-194.0117205133309 1:0.062935621 2:-0.83806475 3:-0.82686857 4:-0.69993723 
-194.0117205133309 1:1.1110657 2:-0.44283228 3:-0.70475374 4:-0.85507701 
-194.0117205133309 1:1.0514908 2:1.0086549 3:0.62690389 4:0.17911342 
-147.5568239407544 1:0.45430458 2:-0.65050494 3:0.32534062 4:-0.52675292 
-194.0117205133309 1:-1.779215 2:-0.90110502 3:-1.0529464 4:-0.86882919 
-194.0117205133309 1:1.2804481 2:-0.49839778 3:-0.53173087 4:-0.57407412 
-194.0117205133309 1:1.0908361 2:0.6320043 3:0.90805516 4:-0.081003667 
-194.0117205133309 1:1.0699597 2:0.90968168 3:-0.016930495 4:-0.10841939 
-136.2040079898264 1:-1.1821725 2:-0.92938308 3:-0.21971481 4:-0.53891276 
-194.0117205133309 1:1.2808074 2:0.29002585 3:-0.36341176 4:-0.38814288 
-141.128005628244 1:1.0797691 2:0.39923562 3:0.70329643 4:0.30979505 
-57.23946383387472 1:0.87822774 2:0.067853935 3:-0.29994004 4:-0.75718072 
-194.0117205133309 1:0.04274196 2:-0.50052914 3:-0.72560127 4:-0.86541745 
-52.92044257167763 1:-1.9241278 2:-1.1517051 3:-1.3059755 4:-0.71242219 
-194.0117205133309 1:-0.040080797 2:-0.69586391 3:-1.1043933 4:-0.79312301 
-80.71624876170101 1:0.13767373 2:-0.83725423 3:-0.79988873 4:-0.539774 
-194.0117205133309 1:-0.66277857 2:-1.007595 3:-0.77443907 4:-0.60032399 
-194.0117205133309 1:0.33080705 2:0.2634889 3:-0.93909389 4:-0.74668963 
-194.0117205133309 1:1.313146 2:0.72272225 3:-0.43591354 4:-0.61757374 
-10.20390031824945 1:-0.47198081 2:0.04035637 3:-0.21347216 4:-0.65126463 
-19.21894878605488 1:-1.5214044 2:-0.30333317 3:-1.083256 4:-0.73906363 
-194.0117205133309 1:1.2354615 2:-0.22630397 3:0.53579032 4:-0.041237017 
-50.88582221050453 1:1.3580608 2:0.13608752 3:0.95898352 4:0.066265862 
-194.0117205133309 1:-0.071664833 2:-0.20369953 3:0.68747205 4:-0.11429024 
-194.0117205133309 1:1.306319 2:0.31746338 3:-0.020008264 4:-0.32284361 
-194.0117205133309 1:0.9016912 2:-0.41641541 3:0.46851494 4:-0.54654209 
-146.1599898012785 1:-0.23565748 2:0.58091167 3:-0.62110231 4:-0.67770834 
-8.688282612052967 1:0.062145122 2:0.34784279 3:-0.29570085 4:-0.78079701 
-194.0117205133309 1:-1.2073247 2:-0.85121315 3:-0.4736888 4:-0.84528489 
-194.0117205133309 1:1.0274165 2:-0.46426597 3:0.53288676 4:-0.48718289 
-194.0117205133309 1:1.1392003 2:-0.28367061 3:0.80425305 4:-0.38434899 
-62.51144870130094 1:-0.68699659 2:-0.21894927 3:-0.02898025 4:-0.40229383 
-194.0117205133309 1:1.1744493 2:-0.075247476 3:-0.91671038 4:-0.58571612 
-194.0117205133309 1:0.32947758 2:0.90538894 3:-0.54308377 4:-0.5778154 
-194.0117205133309 1:1.2890717 2:0.1360575 3:0.75884144 4:-0.12334573 
-194.0117205133309 1:-0.32674455 2:-0.62730012 3:-0.75202362 4:-0.86819226 
-194.0117205133309 1:0.75429903 2:-0.24023287 3:1.121089 4:-0.00025189076 
-194.0117205133309 1:1.1796954 2:-0.59851173 3:-0.0034870338 4:-0.5452073 
-127.4926308120976 1:1.2540742 2:1.1151029 3:0.23480776 4:0.040733236 
-194.0117205133309 1:0.24090573 2:-0.68562738 3:-0.25627057 4:-0.36792725 
-3.794244763583229 1:1.0680913 2:1.1171142 3:-0.078195515 4:-0.7510083 
-54.32545759294941 1:-2.0067745 2:-0.88000154 3:-1.2779272 4:-0.57325719 
-2.039022232018388 1:1.3314712 2:-0.38006219 3:-0.54918124 4:-0.5412611 
-194.0117205133309 1:1.2811667 2:-0.3489323 3:0.44984508 4:-0.46629432 
-194.0117205133309 1:-0.81509339 2:-0.4437929 3:-1.1580452 4:-0.72127553 
-194.0117205133309 1:0.15567555 2:-0.10751809 3:-1.0233376 4:-0.60330372 
-108.3700105911711 1:1.0509159 2:0.72050083 3:0.93950066 4:0.41295019 
-194.0117205133309 1:-1.8773087 2:-0.92995345 3:-0.89358937 4:-0.55512958 
-62.00523935762099 1:0.78430207 2:-0.47114036 3:0.7016414 4:-0.3944845 
-194.0117205133309 1:1.2671533 2:0.46623842 3:-0.6676463 4:-0.5297825 
-73.05939673456136 1:-0.048488834 2:-0.35556654 3:0.79426482 4:-0.19379584 
-194.0117205133309 1:-0.63259587 2:-0.32128464 3:-1.0887431 4:-0.81055831 
-194.0117205133309 1:-2.2301013 2:-1.2545628 3:-1.1932247 4:-0.74753453 
-112.2806575252095 1:-1.3299599 2:-0.42911352 3:-1.1094455 4:-0.56944668 
-18.70723466476498 1:0.44643552 2:0.22287296 3:-0.91211986 4:-0.83386721 
-22.08357941590215 1:-1.1950001 2:-0.27142279 3:-1.1086209 4:-0.62371874 
-12.55602199004368 1:0.15632232 2:-0.015869546 3:0.89562794 4:-0.032126134 
-148.5125834810808 1:1.033453 2:1.4309647 3:0.1150361 4:-0.49937873 
-15.60152570239454 1:0.29232411 2:0.20825362 3:-0.095297456 4:-0.71313666 
-6.934031000849761 1:0.73169794 2:-0.6563887 3:-0.98882599 4:-0.79951171 
-169.6347430458687 1:0.63558042 2:1.1844172 3:-0.15496552 4:-0.62371874 
-194.0117205133309 1:-1.3008551 2:-0.69793524 3:-1.1575516 4:-0.83006224 
-194.0117205133309 1:-0.46738154 2:-0.96939864 3:-0.53178894 4:-0.59520362 
-194.0117205133309 1:1.2351381 2:0.6031859 3:-0.71787781 4:-0.65188494 
-194.0117205133309 1:1.1792283 2:1.0768285 3:-0.40586174 4:-0.71383811 
-194.0117205133309 1:1.2926649 2:0.42934485 3:-0.22874486 4:-0.49557099 
-194.0117205133309 1:-0.75426089 2:-0.83797469 3:-0.016059429 4:-0.50857823 
-50.20227389551225 1:0.13519443 2:-0.67728204 3:-0.082318564 4:-0.75803088 
-64.00426376541333 1:-0.77797586 2:-0.48813122 3:-0.12784631 4:-0.76862332 
-144.1326406316012 1:1.2153756 2:0.9721816 3:-0.13873465 4:-0.1856542 
-194.0117205133309 1:1.0635639 2:0.37254857 3:-0.86337788 4:-0.65039508 
-194.0117205133309 1:0.70417419 2:-0.30945708 3:0.79397446 4:-0.35374861 
-194.0117205133309 1:0.6986407 2:0.78330095 3:-0.50121451 4:-0.75173191 
-141.9150603412945 1:0.93737146 2:0.54254716 3:-0.45072168 4:-0.32253899 
-194.0117205133309 1:1.2897904 2:0.027898412 3:0.34726246 4:-0.25377813 
-95.71781851605596 1:-0.32311544 2:-0.59896202 3:0.10783528 4:-0.71179744 
-190.5931281512383 1:-2.1407677 2:-1.0292088 3:-0.99899424 4:-0.58984509 
-50.20670322182288 1:0.96446402 2:0.55869748 3:-0.11315432 4:-0.70026401 
-92.07678590977605 1:-0.50891868 2:-0.35139387 3:-0.7012114 4:-0.86378635 
-194.0117205133309 1:-0.92878155 2:-0.34091718 3:-1.0363311 4:-0.58622289 
-194.0117205133309 1:1.2786515 2:0.44531505 3:1.2293626 4:0.43302736 
-47.72619478647115 1:1.2772142 2:-0.16050193 3:0.41671551 4:-0.063003443 
-194.0117205133309 1:1.2994919 2:0.83127159 3:0.87780011 4:0.3058627 
-194.0117205133309 1:-1.1978028 2:-0.59046659 3:-0.2562996 4:-0.63760107 
-72.85735423247955 1:-0.49713306 2:-0.88894725 3:-1.1357256 4:-0.62899973 
-194.0117205133309 1:1.3045224 2:0.42652305 3:0.89583119 4:0.11184797 
-194.0117205133309 1:1.246816 2:-0.21603741 3:-0.92250007 4:-0.55975702 
-194.0117205133309 1:-2.1116845 2:-1.2119095 3:-0.95248799 4:-0.86035523 
-45.38313155580855 1:1.0321236 2:0.13836898 3:-0.67281463 4:-0.39830609 
-2.841032427134206 1:-0.013455347 2:-0.82566683 3:-0.67656022 4:-0.8326432 
-194.0117205133309 1:-1.0052444 2:-0.55732542 3:-0.3813267 4:-0.79832092 
-5.365680860821985 1:-1.8487789 2:-0.82512648 3:-0.92662312 4:-0.86298604 
-134.0475431448739 1:-2.0862412 2:-1.026297 3:-1.0414878 4:-0.87604312 
-167.4856591398703 1:-1.6756955 2:-1.0664687 3:-0.48138322 4:-0.70146338 
-42.03695690978343 1:-0.53270552 2:-0.14207016 3:-1.1222618 4:-0.70685153 
-194.0117205133309 1:-0.4152086 2:-0.85811756 3:-0.056273671 4:-0.6788022 
-88.86143830269005 1:-0.27187672 2:-0.66278278 3:-0.044252952 4:-0.28127693 
-36.83039370526245 1:-0.58078224 2:0.11408347 3:-1.030132 4:-0.65541022 
-60.9055602764986 1:-0.84552761 2:-0.047089489 3:-0.97726694 4:-0.6180279 
-26.22084157300259 1:1.2808074 2:0.79554877 3:0.59664884 4:-0.13760745 
-194.0117205133309 1:-0.51297897 2:-0.48885168 3:-1.0826692 4:-0.5668048 
-194.0117205133309 1:-1.7886291 2:-1.1884996 3:-0.83005668 4:-0.66262692 
-194.0117205133309 1:-1.6567594 2:-1.1643041 3:-1.1169686 4:-0.63372133 
-159.6260785656992 1:-0.73546856 2:-0.50272054 3:-0.67272752 4:-0.8733874 
-194.0117205133309 1:1.2601107 2:1.3630913 3:0.062220426 4:-0.52095131 
-194.0117205133309 1:-1.2395915 2:-0.92530047 3:-0.68878419 4:-0.87612897 
-91.56790405982761 1:1.0251169 2:-0.2980498 3:-0.31561924 4:-0.2591782 
-194.0117205133309 1:1.1138324 2:-0.28042854 3:0.95526697 4:-0.27911691 
-194.0117205133309 1:0.73079964 2:0.81575168 3:-0.21544658 4:-0.71137458 
-194.0117205133309 1:1.2822447 2:-0.070924714 3:-0.43327131 4:-0.63212346 
-194.0117205133309 1:0.75376005 2:0.26516998 3:-0.63692669 4:-0.8350303 
-70.09727225261423 1:-0.27748208 2:-0.45090744 3:0.59685209 4:-0.45660189 
-194.0117205133309 1:1.2453428 2:-0.1247491 3:1.1264025 4:0.032176206 
-194.0117205133309 1:1.0821765 2:0.87888201 3:-0.018062882 4:-0.66888546 
-84.73052978551607 1:0.89856513 2:-0.57347573 3:0.18675392 4:-0.61029888 
-194.0117205133309 1:0.96072711 2:-0.35475602 3:0.54830464 4:-0.52345472 
-117.904979486262 1:0.85224907 2:1.3166516 3:-0.13934439 4:-0.31885586 
-81.27972874615374 1:0.93266439 2:0.65277757 3:1.0823266 4:0.33236457 
-12.45317046702204 1:1.1848696 2:0.69690576 3:1.3640876 4:0.59912789 
-194.0117205133309 1:1.3081156 2:0.14854548 3:-0.83756237 4:-0.69785198 
-194.0117205133309 1:-0.70571705 2:-0.84692041 3:-1.0857873 4:-0.84052453 
-161.4523206424571 1:-0.64477675 2:-1.0211037 3:-0.85912126 4:-0.81764209 
-194.0117205133309 1:-1.1848674 2:-1.1114824 3:-1.1369422 4:-0.71429754 
-194.0117205133309 1:0.39458596 2:-0.45832218 3:-1.0652281 4:-0.82081843 
-76.41094417634046 1:-0.020318317 2:0.42961502 3:-0.0091489669 4:-0.4046477 
-194.0117205133309 1:1.0593239 2:-0.28520159 3:-0.82719377 4:-0.85572779 
-186.1271237515967 1:0.35071326 2:0.85324563 3:-0.1263655 4:-0.59069249 
-194.0117205133309 1:1.0665462 2:1.2910453 3:0.40849845 4:-0.14106903 
-194.0117205133309 1:1.1577411 2:-0.36006941 3:0.95729946 4:-0.24613496 
-194.0117205133309 1:0.50845378 2:0.84123796 3:-0.56918674 4:-0.52135285 
-194.0117205133309 1:0.83514554 2:-0.14678317 3:1.0509682 4:-0.20755909 
-194.0117205133309 1:0.51269373 2:0.15406901 3:1.0453062 4:0.04516406 
-194.0117205133309 1:0.63019066 2:-0.74080262 3:-0.43997852 4:-0.6229932 
-194.0117205133309 1:-1.8409458 2:-1.0602517 3:-0.69177485 4:-0.6321927 
-194.0117205133309 1:1.1983799 2:0.63674733 3:0.92750898 4:0.43599047 
-62.04420536451803 1:0.39447817 2:0.57010476 3:0.39162879 4:-0.27745535 
-26.33425557202664 1:0.91739338 2:1.0127375 3:-0.28600298 4:-0.26399672 
-125.9843505382691 1:1.1756351 2:0.43189648 3:-0.074508 4:-0.09501615 
-194.0117205133309 1:0.73478807 2:0.84054752 3:-0.44450807 4:-0.38235512 
-194.0117205133309 1:0.69041232 2:-0.7212001 3:-0.022621464 4:-0.4545831 
-173.0141004201879 1:1.237294 2:0.20990467 3:-0.92463128 4:-0.79328363 
-194.0117205133309 1:1.1724012 2:-0.53514125 3:-0.81353254 4:-0.53143852 
-194.0117205133309 1:-1.3880616 2:-0.70916241 3:-1.0675353 4:-0.89705354 
-194.0117205133309 1:1.282604 2:-0.075967936 3:-0.21643379 4:-0.57595723 
-194.0117205133309 1:-1.1298917 2:-0.97495519 3:-1.1111963 4:-0.61974208 
-16.86288717972791 1:-0.83931141 2:-0.030939172 3:-0.68622906 4:-0.79774491 
-111.7506391865326 1:1.0400286 2:0.12374964 3:1.3099363 4:0.18592582 
-80.30608658627283 1:-0.47108252 2:-0.18905017 3:0.14471044 4:-0.55454527 
-194.0117205133309 1:1.2241071 2:0.29257748 3:1.3164402 4:0.26077906 
-194.0117205133309 1:0.9532533 2:-0.03027875 3:-0.86977151 4:-0.51637925 
-4.879016211669234 1:1.1048136 2:1.4511376 3:-0.080518359 4:-0.6370943 
-67.38599771004681 1:1.3012885 2:-0.27577557 3:-0.75141388 4:-0.80272959 
-58.35145268449033 1:1.2154834 2:-0.37802088 3:0.42644242 4:-0.56005887 
-5.276831504951354 1:0.10547885 2:-0.39726317 3:0.16683553 4:-0.097342333 
-194.0117205133309 1:1.1428294 2:0.5440181 3:1.1382781 4:0.07773062 
-34.10803560801605 1:1.3250035 2:-0.33161124 3:-0.97186342 4:-0.65598345 
-18.0776067731303 1:-0.77420302 2:-1.0352457 3:-0.94592015 4:-0.86249865 
-194.0117205133309 1:1.1559445 2:0.033782171 3:-0.84780901 4:-0.86164571 
-194.0117205133309 1:0.83942142 2:-0.51412782 3:0.024387098 4:-0.65557637 
-194.0117205133309 1:-1.8968197 2:-0.83119036 3:-0.92477356 4:-0.8347063 
-46.50903638629381 1:0.43838681 2:0.070645718 3:1.1099974 4:0.031843894 
-194.0117205133309 1:-2.0636833 2:-1.005962 3:-1.0249956 4:-0.86867688 
-94.93873508641016 1:1.0522454 2:1.1066975 3:0.28495216 4:0.081635284 
-186.6051537298451 1:0.17978577 2:-0.32173493 3:0.70512567 4:-0.019858289 
-70.40552980842223 1:1.224646 2:0.80425433 3:1.2618824 4:0.23292025 
-194.0117205133309 1:0.38621386 2:-0.2164877 3:0.94231711 4:0.055714961 
-194.0117205133309 1:-1.8207162 2:-1.0868277 3:-1.0170515 4:-0.86402451 
-194.0117205133309 1:0.79770462 2:0.11018097 3:-0.71424837 4:-0.8560961 
-47.55480745608455 1:1.0879616 2:1.0367228 3:0.81276047 4:0.018496035 
-41.58005916676971 1:-1.286159 2:-0.85766727 3:-0.17061568 4:-0.69223868 
-130.8432193673144 1:1.3127867 2:-0.10352554 3:-0.67104346 4:-0.74738056 
-61.99558406263787 1:-1.6713837 2:-0.75542196 3:-1.2649222 4:-0.7778339 
-194.0117205133309 1:0.50892089 2:0.7559835 3:-0.42212166 4:-0.75517106 
-194.0117205133309 1:1.0032703 2:-0.11088024 3:0.96081276 4:-0.25712894 
-0.1284501767026593 1:1.2923056 2:0.73935288 3:0.11349721 4:-0.38947213 
-139.3765918659662 1:0.1599155 2:-0.85562597 3:-0.41352713 4:-0.55922256 
-62.3623508136268 1:0.28535335 2:0.83952687 3:-0.418318 4:-0.43630041 
-90.49985290542718 1:-2.1810257 2:-1.1261918 3:-0.88518939 4:-0.83122533 
-10.99033563907835 1:1.2786515 2:0.43690968 3:-0.25287341 4:-0.27706765 
-194.0117205133309 1:-1.3274806 2:-1.1271104 3:-0.75382383 4:-0.69871045 
-194.0117205133309 1:0.78548782 2:-0.11868522 3:0.95613803 4:0.13137129 
-194.0117205133309 1:-0.038895048 2:0.064341692 3:-0.7003113 4:-0.83341582 
-194.0117205133309 1:0.11155132 2:0.48905299 3:-0.72475924 4:-0.49997412 
