svm_type c_svc
kernel_type rbf
gamma 0.535887
nr_class 2
total_sv 999
rho 34.1652
label 2 1
probA -1.96574
probB -0.200573
nr_sv 491 508
SV
445.7218884076158 1:0.13460076 2:0.33295709 3:-1.1058079 4:-0.87604091 
445.7218884076158 1:1.2595179 2:0.34056213 3:-0.46469134 4:-0.18030433 
445.7218884076158 1:0.89310502 2:0.082516372 3:-1.0912235 4:-0.28150558 
445.7218884076158 1:1.0633479 2:-0.32232239 3:0.94237755 4:0.31477849 
445.7218884076158 1:1.2519921 2:-0.38936927 3:0.89259763 4:0.23693903 
372.9446705510528 1:-0.12397616 2:-0.99483309 3:0.14409419 4:-0.777527 
445.7218884076158 1:1.2296229 2:-0.039491278 3:0.036628492 4:-0.77241136 
445.7218884076158 1:1.2028921 2:-0.021058806 3:1.2743371 4:-0.30669162 
445.7218884076158 1:-0.21431683 2:-0.033971689 3:0.62892031 4:-0.14560994 
445.7218884076158 1:0.55766574 2:-0.36664583 3:-1.3113423 4:-0.84704041 
445.7218884076158 1:1.1524968 2:1.0052146 3:0.91938769 4:0.51835562 
445.7218884076158 1:1.2234797 2:-0.26944408 3:1.2852966 4:-0.031903913 
445.7218884076158 1:1.2580726 2:0.66825251 3:-0.25554321 4:-0.84454163 
445.7218884076158 1:1.182488 2:1.5568146 3:0.56184696 4:-0.39976141 
445.7218884076158 1:0.12049884 2:0.88904232 3:-0.3347593 4:-0.268866 
445.7218884076158 1:0.403118 2:0.12824323 3:1.102659 4:-0.38005373 
445.7218884076158 1:1.2512375 2:0.83382155 3:0.1625461 4:-0.70459808 
445.7218884076158 1:1.2390418 2:0.030370029 3:-0.22075228 4:-0.014086269 
445.7218884076158 1:-1.6588321 2:-1.1411886 3:-1.4005954 4:-0.76410006 
445.7218884076158 1:1.2314017 2:0.71535903 3:0.91778816 4:-0.20878851 
445.7218884076158 1:0.44947074 2:0.1292037 3:0.70660934 4:0.32961649 
445.7218884076158 1:0.49800675 2:-0.024115907 3:-0.64197342 4:-1.0922469 
72.35526872333719 1:0.61409583 2:0.39807259 3:1.0575749 4:0.22766813 
445.7218884076158 1:1.2326981 2:-0.70599109 3:-0.67588314 4:-0.50407134 
445.7218884076158 1:0.93863893 2:1.499415 3:-0.25922913 4:-0.72760732 
445.7218884076158 1:-2.103689 2:-1.0207919 3:-0.82554345 4:-0.49275432 
445.7218884076158 1:1.2599336 2:-0.17289943 3:0.14376436 4:-0.0040218794 
445.7218884076158 1:0.39756655 2:0.65502508 3:-0.32014941 4:-0.98751329 
445.7218884076158 1:1.2390175 2:0.29867074 3:1.0098279 4:0.47693051 
445.7218884076158 1:1.1385292 2:0.40398362 3:1.0145471 4:0.60261729 
445.7218884076158 1:0.39315443 2:0.43473528 3:-0.60476402 4:-1.0591718 
445.7218884076158 1:1.017931 2:-0.58891141 3:-1.0511326 4:-1.0512933 
445.7218884076158 1:-1.2178315 2:-0.88516551 3:-0.0056665452 4:-0.3997666 
445.7218884076158 1:1.2396177 2:0.76918635 3:-0.62814319 4:-0.19652976 
408.5990526417663 1:1.2601152 2:0.83948849 3:1.0150901 4:0.13015445 
445.7218884076158 1:-1.5730147 2:-0.70660001 3:-0.27178667 4:-0.74002116 
445.7218884076158 1:1.2586414 2:0.61550033 3:-0.31008692 4:-0.16609844 
445.7218884076158 1:1.2178907 2:-0.19116964 3:-0.46137815 4:-0.092837991 
445.7218884076158 1:-1.6733952 2:-1.4275187 3:-0.72188686 4:-0.84077538 
75.66847575274295 1:1.170076 2:0.032438159 3:1.2354735 4:0.37393529 
445.7218884076158 1:1.2395627 2:-0.606332 3:-0.3737055 4:-0.85898424 
445.7218884076158 1:-1.0281741 2:-0.8779564 3:0.11473643 4:-0.79620758 
445.7218884076158 1:-2.2185051 2:-0.90853111 3:-1.2169764 4:-0.69080079 
445.7218884076158 1:-1.1853382 2:-0.41160648 3:-0.84447816 4:-1.1042088 
76.59252701482013 1:1.2408917 2:1.4022282 3:0.0049706719 4:-0.099508553 
445.7218884076158 1:1.2605246 2:0.68282596 3:0.034246775 4:0.078907654 
445.7218884076158 1:-0.46169804 2:-0.0081063773 3:0.415419 4:-0.49624689 
445.7218884076158 1:1.2580915 2:0.42833125 3:0.02884481 4:0.080552775 
445.7218884076158 1:1.2562855 2:0.29763182 3:1.3874944 4:0.23816347 
445.7218884076158 1:0.17817317 2:1.0450602 3:-0.69707007 4:-0.50488046 
445.7218884076158 1:1.1245043 2:1.2350161 3:0.71291605 4:-0.3604482 
445.7218884076158 1:1.0182248 2:-0.47420907 3:-1.1292033 4:-0.28970436 
445.7218884076158 1:1.2601079 2:0.098442968 3:1.0547832 4:-0.29090423 
445.7218884076158 1:1.2220545 2:0.29956578 3:-0.32687822 4:-0.97357193 
445.7218884076158 1:1.2573476 2:1.2015239 3:0.52757976 4:-0.5006073 
445.7218884076158 1:-2.1718905 2:-0.9708688 3:-1.0771385 4:-0.91782049 
445.7218884076158 1:1.1957219 2:1.0367937 3:1.2053632 4:0.2169258 
304.4330874874001 1:1.1975856 2:-0.29644517 3:-1.1336624 4:-0.78103595 
445.7218884076158 1:-1.4364513 2:-1.236883 3:-1.3336975 4:-0.5393494 
445.7218884076158 1:1.2150039 2:1.6185207 3:0.16627291 4:-0.35066862 
445.7218884076158 1:-0.41794456 2:-1.1772947 3:-1.0416647 4:-0.62801311 
445.7218884076158 1:1.2181543 2:1.2394619 3:-0.5971956 4:-0.69183003 
445.7218884076158 1:-1.024147 2:-0.17852314 3:-1.2154393 4:-0.53784829 
167.4293947896157 1:-1.5729917 2:-1.1659434 3:-0.84133682 4:-0.34291547 
323.1976096599573 1:0.60166931 2:-0.12472109 3:-0.82307494 4:-1.0831681 
445.7218884076158 1:-0.44334374 2:-0.7900236 3:-0.24510057 4:-1.0099957 
130.1991754441389 1:1.2606855 2:0.87766189 3:-0.11301487 4:-0.069905293 
158.7212223406358 1:0.32727468 2:0.016094264 3:1.1193118 4:-0.26942395 
445.7218884076158 1:1.2095138 2:0.69502727 3:1.4341979 4:0.38687484 
445.7218884076158 1:1.2456396 2:0.76411055 3:1.2982635 4:0.45996094 
445.7218884076158 1:-1.9818847 2:-1.4605596 3:-1.0913595 4:-0.77943291 
445.7218884076158 1:0.94916451 2:0.42464153 3:-0.8206509 4:-0.18038059 
445.7218884076158 1:1.2541667 2:1.5508122 3:0.26497792 4:-0.47747261 
445.7218884076158 1:1.2159866 2:0.72650344 3:-0.6093092 4:-0.94801568 
445.7218884076158 1:-0.73331002 2:0.25184205 3:-0.68331572 4:-0.41827867 
309.0364952416677 1:1.2242381 2:0.65168119 3:1.3610628 4:0.25490226 
445.7218884076158 1:1.2357179 2:1.2552129 3:0.40970508 4:0.20089873 
445.7218884076158 1:1.0386307 2:-0.5939668 3:-0.4000812 4:-0.98097028 
445.7218884076158 1:1.171424 2:-0.73383958 3:-0.95545313 4:-0.82762542 
445.7218884076158 1:0.14557934 2:0.94774329 3:-0.78841511 4:-0.60076903 
236.0951266437912 1:1.2399581 2:0.67175784 3:-0.43525442 4:-0.9048701 
143.8270941658214 1:0.62923843 2:0.093795989 3:1.3509409 4:-0.084791433 
445.7218884076158 1:-0.99419029 2:-0.088764149 3:-1.2226854 4:-0.55071177 
421.9636354059874 1:0.19614742 2:-0.30879982 3:-0.72349286 4:-1.0926022 
445.7218884076158 1:0.27700817 2:-0.6778494 3:0.61013846 4:-0.73966712 
445.7218884076158 1:0.98914521 2:0.39273639 3:-0.90427595 4:-0.97402727 
219.4811330328824 1:1.2275864 2:0.88056726 3:1.0544978 4:0.067039199 
445.7218884076158 1:-1.1214358 2:-1.2452495 3:-0.41638144 4:-0.45963704 
445.7218884076158 1:0.31268883 2:-0.30697669 3:0.92287884 4:0.20871447 
213.9348288944565 1:-0.85948286 2:-0.39682588 3:-0.21973056 4:-0.15790649 
445.7218884076158 1:1.1952751 2:0.62596282 3:1.4401032 4:0.28428045 
445.7218884076158 1:-1.0202167 2:-1.1533489 3:-1.1488814 4:-0.39977605 
445.7218884076158 1:1.2463141 2:0.8633805 3:0.58891885 4:0.42321143 
226.0795113647039 1:0.14155753 2:0.12568844 3:-0.90551401 4:-0.21452501 
445.7218884076158 1:1.2605481 2:-0.021012312 3:-0.03371954 4:-0.77564264 
445.7218884076158 1:-0.61570447 2:-0.90744044 3:0.29442513 4:-0.57209883 
445.7218884076158 1:1.1204168 2:-0.78603411 3:-0.027428937 4:-0.56646052 
89.75759422945181 1:0.36789221 2:-0.97934424 3:-0.56371852 4:-0.7302786 
445.7218884076158 1:0.84774373 2:0.70885191 3:-0.88870308 4:-0.31732878 
445.7218884076158 1:1.2411033 2:-0.016253717 3:-1.1376299 4:-0.89944245 
445.7218884076158 1:1.1089186 2:0.019555046 3:1.3616697 4:0.3196094 
445.7218884076158 1:-1.6910437 2:-0.56061528 3:-1.0656738 4:-0.97123672 
60.81667704615243 1:1.2143642 2:-0.35015692 3:-0.73553456 4:-0.30289267 
445.7218884076158 1:-0.43556001 2:-0.65720319 3:-1.2653961 4:-0.97720792 
445.7218884076158 1:1.2004286 2:-0.78577458 3:-1.1151922 4:-0.72583676 
445.7218884076158 1:1.1888377 2:0.64397645 3:1.5502147 4:0.45373664 
445.7218884076158 1:1.2603192 2:0.3279471 3:0.12011671 4:0.1885104 
445.7218884076158 1:1.1998624 2:0.26592335 3:-0.62594345 4:-0.17280094 
182.4369213882038 1:1.2540955 2:1.4530671 3:0.32920794 4:-0.060420885 
445.7218884076158 1:0.10597405 2:0.87001307 3:-0.43152339 4:-0.91960822 
445.7218884076158 1:1.2396779 2:1.1832007 3:0.22943534 4:0.24811399 
445.7218884076158 1:1.2589362 2:0.13709767 3:-1.0448063 4:-0.73688487 
445.7218884076158 1:1.2472665 2:1.2182428 3:0.81419301 4:-0.208488 
445.7218884076158 1:0.68960269 2:0.46879783 3:1.1661684 4:-0.21682394 
445.7218884076158 1:1.2215196 2:1.2956963 3:0.077151938 4:0.072697308 
445.7218884076158 1:1.1841374 2:-0.36579116 3:0.80904222 4:0.3829532 
445.7218884076158 1:1.2597128 2:0.03620249 3:1.3936197 4:-0.13422689 
445.7218884076158 1:1.2015533 2:-0.3015064 3:1.3281586 4:-0.22502495 
445.7218884076158 1:0.52256619 2:-0.054850878 3:-0.51532402 4:-1.046787 
445.7218884076158 1:-0.067033875 2:-0.14958582 3:0.85392628 4:-0.29922143 
445.7218884076158 1:1.0319197 2:1.0648992 3:-0.46495759 4:-0.9263565 
445.7218884076158 1:0.0022600271 2:-0.79524377 3:-1.1924719 4:-0.40474843 
72.93663015467408 1:-0.9491102 2:-0.48552312 3:-0.42663965 4:-0.98952105 
445.7218884076158 1:1.1284414 2:-0.086468076 3:-1.1704104 4:-0.81430202 
445.7218884076158 1:1.2542541 2:0.31456506 3:0.55547981 4:-0.41079385 
445.7218884076158 1:1.2580779 2:0.58904066 3:0.49910242 4:0.38421719 
445.7218884076158 1:-1.170694 2:-1.1433134 3:-1.014016 4:-1.1002073 
445.7218884076158 1:1.2535756 2:0.39188443 3:-0.048151842 4:0.12561643 
445.7218884076158 1:1.151421 2:-0.57249076 3:0.85428884 4:0.20785151 
271.4366004377821 1:-0.50400759 2:-1.1162383 3:-0.73429636 4:-0.41367211 
445.7218884076158 1:-0.6759743 2:0.08831965 3:-0.26415028 4:-0.7757652 
445.7218884076158 1:1.2234033 2:1.2950965 3:-0.44743404 4:-0.68703958 
445.7218884076158 1:-0.42143246 2:-0.72906367 3:-1.4125056 4:-0.8142637 
223.6501313361175 1:0.82237254 2:0.47979078 3:1.1317092 4:-0.24913374 
445.7218884076158 1:1.2526389 2:-0.15901772 3:0.28778282 4:-0.66814972 
445.7218884076158 1:0.94843095 2:-0.68854324 3:0.85407281 4:-0.23230877 
445.7218884076158 1:-0.63720726 2:-1.1368392 3:-0.38595241 4:-1.0251199 
445.7218884076158 1:0.96033591 2:1.1667512 3:-0.65105116 4:-0.35295016 
445.7218884076158 1:1.2420053 2:0.6694047 3:1.1030336 4:0.6227341 
215.7394889235001 1:1.2528297 2:0.62988166 3:0.95942532 4:-0.1162811 
445.7218884076158 1:-2.0751066 2:-1.2900263 3:-0.88752376 4:-0.87277259 
445.7218884076158 1:0.37541434 2:1.2165509 3:-0.30618777 4:-0.88176926 
445.7218884076158 1:-1.1200908 2:-0.33121013 3:-1.2808684 4:-0.62919759 
445.7218884076158 1:-1.339516 2:-0.4544197 3:-1.1165087 4:-1.0580911 
445.7218884076158 1:1.22387 2:0.65714222 3:1.3784779 4:0.04997135 
445.7218884076158 1:0.60843365 2:1.3084207 3:-0.14298384 4:-0.67486412 
445.7218884076158 1:1.2525979 2:0.047859769 3:1.3931435 4:0.20176248 
445.7218884076158 1:0.44392443 2:-0.4775751 3:-1.2451728 4:-0.97911624 
445.7218884076158 1:0.75101428 2:-0.84562851 3:0.18458497 4:-0.60973634 
445.7218884076158 1:1.2389935 2:0.94776151 3:-0.39012348 4:-0.88670294 
445.7218884076158 1:0.21118159 2:-0.025514017 3:-1.2759592 4:-0.78537765 
445.7218884076158 1:1.1591494 2:0.7245065 3:-0.3485774 4:-0.98133082 
445.7218884076158 1:1.2433445 2:1.6035663 3:-0.14376112 4:-0.39960137 
445.7218884076158 1:0.94494336 2:1.1093582 3:0.71386924 4:-0.27357571 
445.7218884076158 1:1.2533853 2:-0.14815911 3:1.3824975 4:-0.0048433967 
445.7218884076158 1:0.51024608 2:0.28621464 3:0.51238532 4:0.37577881 
445.7218884076158 1:1.2351296 2:-0.7493684 3:0.50556242 4:-0.30099472 
445.7218884076158 1:-0.21740704 2:-1.1517677 3:-0.40319447 4:-0.72566192 
445.7218884076158 1:0.61118674 2:-0.92625303 3:0.049937131 4:-0.60970553 
445.7218884076158 1:0.8093892 2:1.4288438 3:-0.076041968 4:-0.2580082 
238.8513570533188 1:-1.428934 2:-1.1581875 3:-1.3685555 4:-0.72744021 
445.7218884076158 1:1.0200584 2:-0.66503935 3:0.12659554 4:-0.90797587 
445.7218884076158 1:0.99395998 2:-0.7780102 3:0.67728284 4:-0.2024648 
349.6640609494237 1:1.2534091 2:-0.073492155 3:-0.27509879 4:-0.86833791 
445.7218884076158 1:0.91843283 2:1.3242973 3:-0.23144929 4:-0.1141314 
83.21869430086616 1:-1.0775393 2:-0.25337877 3:-0.87593875 4:-1.0576875 
445.7218884076158 1:1.126939 2:1.4847118 3:-0.082621955 4:-0.77928878 
445.7218884076158 1:0.54446986 2:0.90613563 3:-0.16191014 4:-0.97091888 
445.7218884076158 1:1.2564629 2:-0.27990259 3:1.1132142 4:0.099534302 
445.7218884076158 1:1.2207995 2:0.88644518 3:1.1613267 4:0.1224044 
445.7218884076158 1:1.2550363 2:0.69428889 3:0.12045826 4:0.18203923 
445.7218884076158 1:-1.8274863 2:-0.71537234 3:-0.74903723 4:-0.87680602 
445.7218884076158 1:-1.5799459 2:-0.52485672 3:-1.28539 4:-0.62745877 
445.7218884076158 1:1.2253672 2:-0.71085326 3:-0.47869316 4:-0.46150615 
445.7218884076158 1:-0.46169934 2:-0.18729374 3:0.54203905 4:-0.22096606 
445.7218884076158 1:-2.0248343 2:-0.95489058 3:-1.058905 4:-0.41325907 
445.7218884076158 1:0.52789325 2:-0.19882469 3:1.3251086 4:0.040651705 
445.7218884076158 1:1.1747829 2:-0.3104489 3:-0.25601129 4:-1.0190674 
445.7218884076158 1:0.66918709 2:-0.92409155 3:-0.39153857 4:-0.6914762 
445.7218884076158 1:1.2393704 2:1.3212691 3:0.35506383 4:0.2419666 
318.447848912553 1:-0.26783032 2:-0.60210241 3:0.65539325 4:-0.39911919 
445.7218884076158 1:1.2533387 2:0.36602397 3:-0.46520225 4:-0.22468352 
445.7218884076158 1:-2.1754604 2:-1.2682253 3:-0.81007602 4:-0.63962705 
445.7218884076158 1:1.2081104 2:1.3040067 3:0.31758019 4:-0.65521301 
445.7218884076158 1:1.2566629 2:0.78132394 3:1.1638756 4:0.61171535 
445.7218884076158 1:1.1748893 2:1.472083 3:0.41692654 4:-0.014687059 
445.7218884076158 1:1.1896453 2:-0.53704356 3:-0.76955792 4:-0.34550517 
445.7218884076158 1:0.37440426 2:-0.75959899 3:-0.10303949 4:-0.96811913 
445.7218884076158 1:1.1834135 2:0.12925541 3:-1.2155584 4:-0.41496641 
445.7218884076158 1:1.1931542 2:-0.69521645 3:-0.96889302 4:-0.54882825 
445.7218884076158 1:-1.5727317 2:-1.339939 3:-1.3229145 4:-0.63560718 
445.7218884076158 1:1.2551335 2:0.33382551 3:-0.6357279 4:-0.28562115 
445.7218884076158 1:1.0896702 2:1.39644 3:-0.55892787 4:-0.47622293 
445.7218884076158 1:-0.78250525 2:0.056720014 3:-1.1076044 4:-0.30573353 
445.7218884076158 1:1.1532889 2:-0.64682134 3:-0.14445614 4:-0.18657312 
445.7218884076158 1:1.0319947 2:1.5814693 3:0.28089901 4:-0.43372404 
272.5362768596248 1:0.74839779 2:1.0549067 3:0.45272904 4:-0.013598901 
445.7218884076158 1:-1.5729041 2:-0.94077451 3:-0.51663702 4:-0.31018863 
445.7218884076158 1:-1.5329679 2:-0.4162151 3:-0.80266546 4:-0.8761953 
69.30956555351966 1:-0.5568115 2:0.071857778 3:-0.82139562 4:-1.0396875 
445.7218884076158 1:-1.9245752 2:-0.84352958 3:-0.74462924 4:-0.47892125 
445.7218884076158 1:1.2396504 2:-0.1734854 3:0.32693332 4:0.16807191 
16.62983979681201 1:0.062081522 2:0.22221856 3:0.62766393 4:-0.044685603 
445.7218884076158 1:-1.6015933 2:-0.47249425 3:-1.1410058 4:-0.88676453 
445.7218884076158 1:-2.0068138 2:-1.2711412 3:-1.2865402 4:-0.52907965 
445.7218884076158 1:1.2541974 2:0.53972147 3:0.23241266 4:-0.56561026 
445.7218884076158 1:0.23588659 2:-0.40083828 3:-1.3081812 4:-0.91486843 
445.7218884076158 1:0.3706615 2:-0.56250546 3:0.82153935 4:-0.65058276 
445.7218884076158 1:1.2255377 2:-0.19260319 3:-0.65723625 4:-0.20004363 
115.349581947341 1:1.2499115 2:-0.48324219 3:-0.16244738 4:-0.24420229 
445.7218884076158 1:0.7866757 2:0.27343535 3:1.4313413 4:0.17012231 
9.601985901340203 1:1.2471023 2:0.3010047 3:0.62319424 4:-0.42919113 
445.7218884076158 1:0.58656183 2:-0.9266204 3:-0.30901177 4:-0.21493424 
445.7218884076158 1:1.2479344 2:-0.004481893 3:-0.53170436 4:-0.19293654 
445.7218884076158 1:0.83158433 2:0.5005638 3:-0.58309902 4:-1.0442112 
445.7218884076158 1:1.2502671 2:1.0026222 3:0.0092071027 4:-0.76492721 
124.4759878518321 1:-0.94173888 2:-1.0997203 3:-0.41061355 4:-0.91985036 
445.7218884076158 1:0.12305705 2:-0.84011674 3:0.097238403 4:-0.92214513 
33.38552784258865 1:-1.6411454 2:-1.0914796 3:-0.71089042 4:-1.024037 
445.7218884076158 1:1.2352262 2:-0.038443029 3:1.3998329 4:0.28833118 
445.7218884076158 1:-0.6833169 2:-1.0416094 3:-0.77963088 4:-1.0541463 
445.7218884076158 1:1.2288921 2:0.47076181 3:-0.93403551 4:-0.8116505 
445.7218884076158 1:0.60413416 2:-0.55594736 3:-1.2633758 4:-0.37551729 
445.7218884076158 1:-0.42075017 2:-0.40782319 3:-1.3359212 4:-0.46008327 
445.7218884076158 1:1.2490189 2:-0.48165795 3:0.10826159 4:-0.064403359 
105.0461937284507 1:0.99452047 2:0.60378578 3:1.2230039 4:0.43351717 
445.7218884076158 1:-1.1245069 2:-1.3748158 3:-0.81288946 4:-0.69322217 
445.7218884076158 1:-0.4258766 2:-0.44373058 3:0.64152985 4:-0.38383163 
445.7218884076158 1:1.2597472 2:0.95837969 3:0.10361851 4:-0.78278821 
259.5468574119711 1:1.2504189 2:0.34756592 3:1.2517336 4:0.41282621 
445.7218884076158 1:0.60143831 2:0.98541102 3:-0.70803273 4:-0.96777426 
445.7218884076158 1:0.13850438 2:0.63023937 3:-0.8464775 4:-0.96614518 
445.7218884076158 1:1.195861 2:-0.5552469 3:1.0230294 4:-0.2525032 
445.7218884076158 1:0.084568167 2:0.78702647 3:-0.49032775 4:-1.0259787 
406.7495699500682 1:-1.5512536 2:-1.081013 3:-1.3506276 4:-0.89441206 
445.7218884076158 1:1.1496165 2:-0.26692178 3:-1.0145975 4:-0.9786782 
445.7218884076158 1:-0.32544886 2:0.0086926914 3:0.55302479 4:-0.41745741 
445.7218884076158 1:-1.4685986 2:-0.3778532 3:-1.0322906 4:-1.0401187 
445.7218884076158 1:1.2427034 2:0.20846422 3:-0.62098553 4:-0.1961686 
445.7218884076158 1:1.2320815 2:-0.6454272 3:-0.18304689 4:-0.35059195 
445.7218884076158 1:0.39891028 2:0.10657424 3:1.2359909 4:-0.063788025 
445.7218884076158 1:-0.35948817 2:-0.67734791 3:-0.48278172 4:-1.0613358 
445.7218884076158 1:-1.6443369 2:-1.301108 3:-1.1215164 4:-0.43635328 
4.803443889732401 1:1.0729581 2:-0.3104738 3:0.61477018 4:-0.69974423 
445.7218884076158 1:1.221323 2:0.87546502 3:0.27581422 4:0.31140827 
445.7218884076158 1:0.087497493 2:-0.70325225 3:-1.101659 4:-1.0748097 
355.0555627717331 1:0.19149879 2:0.27225732 3:0.021042847 4:0.10393542 
445.7218884076158 1:1.205184 2:0.71134814 3:-0.83506809 4:-0.54429169 
445.7218884076158 1:0.74318039 2:-0.39124816 3:1.280158 4:-0.024768222 
445.7218884076158 1:1.1177658 2:-0.80817412 3:-0.41986433 4:-0.67135379 
445.7218884076158 1:1.2458725 2:-0.057005303 3:1.2931151 4:0.14444483 
445.7218884076158 1:1.239381 2:0.33892227 3:-0.55187054 4:-1.0527318 
445.7218884076158 1:-1.852715 2:-1.2173263 3:-0.71874435 4:-0.42235001 
445.7218884076158 1:1.2173655 2:0.79429931 3:1.3415924 4:0.48108429 
445.7218884076158 1:-1.0994074 2:-0.84243114 3:-0.32717311 4:-1.0372813 
445.7218884076158 1:1.2467705 2:-0.68889129 3:-0.27070009 4:-0.6279786 
445.7218884076158 1:1.1120257 2:-0.37593643 3:0.97638111 4:-0.50643143 
445.7218884076158 1:1.2362492 2:0.30164107 3:0.4039092 4:0.35752946 
445.7218884076158 1:1.2166829 2:0.86336491 3:-0.62555383 4:-0.33348119 
445.7218884076158 1:-1.1957331 2:-0.81289064 3:-1.2367618 4:-0.38682498 
445.7218884076158 1:1.2576971 2:-0.08140107 3:0.2308466 4:0.046777447 
445.7218884076158 1:1.2449992 2:-0.31103932 3:0.80182765 4:-0.53873127 
445.7218884076158 1:1.1137869 2:-0.68130087 3:-0.4637855 4:-0.91904711 
445.7218884076158 1:1.2368588 2:0.47246938 3:-0.65947049 4:-1.0111686 
445.7218884076158 1:-1.4364612 2:-0.64556986 3:-1.3640924 4:-0.80705909 
445.7218884076158 1:0.52454045 2:-0.2095878 3:0.92045518 4:-0.65323089 
445.7218884076158 1:1.0588632 2:0.19256748 3:0.98166314 4:0.56829673 
346.4546625997171 1:1.2390874 2:-0.64375545 3:-0.79747238 4:-0.56317501 
445.7218884076158 1:1.2496943 2:0.023536243 3:-0.71662752 4:-0.26905605 
445.7218884076158 1:1.2442961 2:0.84486303 3:0.0082081545 4:-0.7466634 
373.2626920669477 1:1.223165 2:0.33647363 3:-0.21484455 4:-0.006565708 
445.7218884076158 1:1.2362747 2:1.2628641 3:0.27132633 4:0.19569088 
445.7218884076158 1:0.43491972 2:-0.51151029 3:1.0293812 4:-0.10320839 
445.7218884076158 1:-1.8634719 2:-0.88382768 3:-0.70328537 4:-0.8590237 
445.7218884076158 1:1.257756 2:0.50679732 3:-0.70129082 4:-0.89710582 
445.7218884076158 1:0.13804546 2:-0.52296036 3:-0.60245756 4:-1.0984606 
445.7218884076158 1:0.93642495 2:0.51212393 3:-1.0483589 4:-0.70342968 
445.7218884076158 1:1.2093343 2:-0.68777089 3:0.85698714 4:-0.15276335 
445.7218884076158 1:1.0093412 2:-0.57600386 3:-1.0952364 4:-0.97199253 
445.7218884076158 1:1.2505405 2:-0.31396448 3:0.37302114 4:-0.65912415 
445.7218884076158 1:1.2541048 2:-0.33602589 3:-0.60324328 4:-0.31444453 
445.7218884076158 1:1.2585597 2:1.2078853 3:-0.59197971 4:-0.44596238 
445.7218884076158 1:1.2486998 2:0.6754442 3:-0.84152533 4:-0.68948427 
445.7218884076158 1:-1.9529635 2:-1.0250773 3:-1.4076569 4:-0.86866852 
445.7218884076158 1:-0.85194114 2:-0.82591618 3:-0.2642059 4:-0.99757775 
445.7218884076158 1:1.2604016 2:1.0192468 3:0.97666123 4:0.27480774 
445.7218884076158 1:-2.1324186 2:-1.2029372 3:-1.2533025 4:-0.92847019 
445.7218884076158 1:-0.33127717 2:-0.54669538 3:-1.2652608 4:-1.0001846 
445.7218884076158 1:0.94118175 2:-0.67826953 3:-0.057492518 4:-0.065838362 
281.635085328116 1:1.2568687 2:0.15193538 3:0.42226584 4:0.19375025 
445.7218884076158 1:1.2522442 2:1.0631304 3:-0.26731693 4:-0.14516225 
208.6088585264898 1:-0.99156511 2:-0.25861243 3:-1.008769 4:-0.27497683 
445.7218884076158 1:-0.062475818 2:0.093242646 3:-1.0391825 4:-1.0749007 
445.7218884076158 1:1.195037 2:-0.65901581 3:0.71897994 4:-0.54141432 
445.7218884076158 1:-0.31116086 2:-0.92144892 3:0.097657428 4:-0.88523861 
445.7218884076158 1:1.2069106 2:-0.27987519 3:0.17230912 4:0.12540466 
445.7218884076158 1:-0.49144827 2:0.26235961 3:-1.1829383 4:-0.85029071 
114.5299987351763 1:1.2532461 2:0.35518275 3:0.023352812 4:-0.63944979 
445.7218884076158 1:1.2384577 2:-0.43435305 3:1.146586 4:-0.089270642 
439.0037356683618 1:-0.33175222 2:-0.5723073 3:-0.11989161 4:-0.97259183 
445.7218884076158 1:1.2532244 2:0.86299152 3:0.43757617 4:0.36162171 
445.7218884076158 1:1.1807203 2:0.079210483 3:1.435788 4:-0.047856106 
445.7218884076158 1:1.2480834 2:0.14994483 3:0.34638595 4:-0.60028887 
445.7218884076158 1:1.2582591 2:0.38904136 3:0.78241408 4:-0.28201828 
445.7218884076158 1:1.2473068 2:0.17680895 3:0.91726631 4:-0.37069783 
445.7218884076158 1:1.2503329 2:-0.31829812 3:-0.60599522 4:-1.0047431 
445.7218884076158 1:-1.766481 2:-0.66091619 3:-0.57548626 4:-0.70882855 
445.7218884076158 1:1.1509772 2:-0.091186063 3:-0.6267815 4:-1.099843 
445.7218884076158 1:1.0641249 2:-0.52743694 3:-1.0420546 4:-0.97917877 
445.7218884076158 1:1.166049 2:0.056396684 3:-0.60362766 4:-1.0713446 
445.7218884076158 1:1.2602436 2:0.73984489 3:1.1054115 4:0.072814261 
445.7218884076158 1:1.1349537 2:-0.68009616 3:0.49229402 4:-0.58227898 
445.7218884076158 1:1.2507739 2:1.341733 3:-0.1148055 4:-0.74574393 
445.7218884076158 1:1.1954436 2:-0.72615067 3:0.70409109 4:-0.43511964 
445.7218884076158 1:0.63563788 2:-0.57409785 3:0.83303077 4:0.080006059 
445.7218884076158 1:0.51386788 2:-0.17055549 3:1.3334183 4:-0.030506004 
445.7218884076158 1:0.91503083 2:-0.65672659 3:0.16219047 4:0.024525814 
445.7218884076158 1:-0.65524305 2:-0.23307615 3:0.30566716 4:-0.40336795 
445.7218884076158 1:-0.38930853 2:-0.45418425 3:-0.40900342 4:-1.0267938 
445.7218884076158 1:1.2589345 2:-0.39420882 3:1.0226357 4:-0.3242128 
445.7218884076158 1:-2.1181512 2:-0.89268655 3:-1.0612555 4:-0.45177989 
445.7218884076158 1:-0.76210074 2:0.28224035 3:-0.78867571 4:-0.51505233 
445.7218884076158 1:1.2314971 2:0.25086473 3:1.2551982 4:-0.18200274 
445.7218884076158 1:-0.31024141 2:0.26461021 3:-0.16438298 4:-0.13757109 
445.7218884076158 1:0.60670588 2:-0.53393419 3:1.0331206 4:-0.13780854 
275.6607619726872 1:0.55401816 2:-0.82635643 3:0.11991282 4:-0.17920856 
445.7218884076158 1:-0.026456322 2:-0.05875709 3:-0.69255799 4:-1.0873124 
445.7218884076158 1:1.2294309 2:0.29519985 3:-0.54385701 4:-1.0166728 
445.7218884076158 1:1.1808591 2:0.10317629 3:1.2063203 4:0.52097152 
445.7218884076158 1:1.2463281 2:-0.54421147 3:-0.12506298 4:-0.7816412 
42.77318931191034 1:0.41107126 2:-0.90109905 3:-1.1342868 4:-0.68761906 
445.7218884076158 1:1.086472 2:0.13517117 3:-1.1789504 4:-0.79762355 
445.7218884076158 1:1.139193 2:-0.78074585 3:-0.13614079 4:-0.68697793 
445.7218884076158 1:-0.21324976 2:-0.96408682 3:-0.82392666 4:-1.0991692 
445.7218884076158 1:0.58953786 2:-0.68958673 3:0.87501477 4:-0.33738385 
236.4646256553304 1:1.185306 2:-0.65941145 3:0.14244078 4:-0.17246608 
445.7218884076158 1:1.0963111 2:1.3347409 3:-0.35664526 4:-0.082895014 
445.7218884076158 1:0.71262556 2:-0.53390972 3:-1.0479848 4:-0.30476327 
445.7218884076158 1:0.79396925 2:-0.63742483 3:0.12147301 4:-0.90122304 
445.7218884076158 1:-0.087445333 2:0.59700319 3:-1.0355699 4:-0.86080534 
310.135643126154 1:1.1554135 2:-0.5805637 3:0.7275094 4:0.058683819 
445.7218884076158 1:-2.0750029 2:-1.3355324 3:-1.151929 4:-0.67333228 
445.7218884076158 1:1.2426235 2:1.2867181 3:0.7306323 4:0.11762266 
259.5623548661887 1:-1.7665676 2:-0.7870051 3:-0.93623213 4:-0.33087377 
445.7218884076158 1:-1.9137447 2:-0.93852322 3:-0.65615882 4:-0.80044416 
445.7218884076158 1:1.2604684 2:-0.20809067 3:-0.11579358 4:-0.7832979 
445.7218884076158 1:1.2463896 2:0.1221804 3:1.144117 4:-0.3126932 
341.0635298714034 1:-0.70838594 2:-0.56560573 3:-0.89487752 4:-1.1149051 
445.7218884076158 1:-0.36680171 2:0.39276788 3:-1.1337507 4:-0.34504807 
445.7218884076158 1:-1.5835301 2:-1.2828318 3:-0.77636162 4:-0.38942909 
445.7218884076158 1:1.2317729 2:-0.085325291 3:-0.47153815 4:-0.17154813 
445.7218884076158 1:1.1132997 2:-0.078188351 3:1.3188884 4:0.34901721 
445.7218884076158 1:1.2286451 2:-0.031102495 3:0.4465971 4:-0.64435023 
445.7218884076158 1:1.2115874 2:0.0047302836 3:-1.1553322 4:-0.81050191 
445.7218884076158 1:1.1679299 2:0.39974659 3:-0.84379965 4:-1.062716 
445.7218884076158 1:1.259779 2:0.44987992 3:1.1728705 4:0.64531915 
445.7218884076158 1:-0.6481104 2:-1.1019998 3:-0.27567839 4:-0.9275553 
445.7218884076158 1:0.374613 2:-0.75226137 3:-0.11804402 4:-0.94881747 
445.7218884076158 1:-2.0675514 2:-1.3158215 3:-1.2427173 4:-0.99798503 
265.2969340722798 1:1.126993 2:1.0232764 3:-0.30648111 4:-0.91713798 
445.7218884076158 1:1.2578313 2:1.5965889 3:0.13236722 4:-0.47419005 
445.7218884076158 1:1.1885478 2:0.057561105 3:0.21991649 4:-0.74812482 
445.7218884076158 1:0.38079621 2:-0.16793718 3:1.2165667 4:-0.0058398511 
445.7218884076158 1:-1.3972875 2:-1.3838047 3:-1.1989118 4:-0.63612361 
445.7218884076158 1:1.1536867 2:1.1242912 3:0.19951306 4:-0.8091693 
380.0399153919009 1:-1.2350247 2:-0.42346577 3:-0.52009012 4:-0.30734957 
445.7218884076158 1:1.2360496 2:-0.51915117 3:0.54050341 4:-0.00072812812 
445.7218884076158 1:0.059754265 2:0.32030585 3:-1.1798277 4:-0.76401744 
445.7218884076158 1:-0.19989282 2:-0.7232128 3:0.64990451 4:-0.0720775 
445.7218884076158 1:-0.94117382 2:-0.14755021 3:-0.92870345 4:-1.1161534 
445.7218884076158 1:-1.5262353 2:-0.53374394 3:-1.2921985 4:-0.61241268 
445.7218884076158 1:-0.51120146 2:-0.29336585 3:-1.2528343 4:-0.36227766 
445.7218884076158 1:-0.34634703 2:-0.393247 3:0.48606579 4:-0.70912826 
445.7218884076158 1:1.141431 2:0.63156338 3:1.2820227 4:0.50547419 
445.7218884076158 1:-0.98775294 2:-0.033946098 3:-1.0977343 4:-0.88197362 
445.7218884076158 1:0.88000067 2:-0.20760745 3:0.46954282 4:-0.77499765 
445.7218884076158 1:1.1916609 2:1.1712046 3:-0.45476693 4:-0.78835286 
445.7218884076158 1:-0.43902807 2:-1.1869856 3:-1.0949098 4:-0.64296446 
445.7218884076158 1:-1.902985 2:-1.4647306 3:-0.86029016 4:-0.48956296 
445.7218884076158 1:0.12621273 2:-0.31812361 3:0.93416689 4:-0.42037794 
445.7218884076158 1:1.2554332 2:1.1592385 3:-0.6394801 4:-0.67879528 
445.7218884076158 1:1.2079163 2:-0.63029458 3:-1.0334663 4:-0.51108916 
445.7218884076158 1:-1.3505308 2:-0.45118864 3:-0.28393762 4:-0.71562991 
445.7218884076158 1:1.2463783 2:0.4511686 3:0.39431604 4:-0.5032048 
445.7218884076158 1:1.2538587 2:1.426718 3:0.5908955 4:0.14844535 
445.7218884076158 1:-0.13369945 2:-0.74421778 3:-1.1381877 4:-1.0974556 
445.7218884076158 1:-0.49573698 2:-0.35108559 3:-1.1339451 4:-1.0652173 
445.7218884076158 1:0.96722276 2:1.635735 3:-0.43031153 4:-0.52338341 
445.7218884076158 1:0.7736404 2:-0.92895482 3:-0.77102915 4:-0.68369843 
445.7218884076158 1:0.25533401 2:-0.25559441 3:1.2355825 4:-0.044274171 
445.7218884076158 1:1.0804113 2:0.41919847 3:1.0019787 4:0.61918946 
445.7218884076158 1:1.253073 2:0.85359878 3:1.0911588 4:0.15687455 
445.7218884076158 1:1.2441731 2:0.84716534 3:-0.76089598 4:-0.5165494 
445.7218884076158 1:-1.7623416 2:-1.1324678 3:-0.92099129 4:-1.1142169 
445.7218884076158 1:0.38566322 2:-0.97341041 3:-0.93406069 4:-0.70510125 
445.7218884076158 1:1.2096047 2:0.25664342 3:0.45691577 4:0.38358811 
445.7218884076158 1:-1.0738594 2:-0.80895783 3:-1.2776562 4:-0.33298804 
445.7218884076158 1:-0.052006957 2:-0.49028004 3:0.49714714 4:-0.77930837 
445.7218884076158 1:1.0062604 2:0.64974263 3:-1.0000203 4:-0.6563551 
445.7218884076158 1:-0.57895075 2:-0.73615374 3:-1.3346511 4:-0.54838561 
445.7218884076158 1:0.21060916 2:-0.16631397 3:-1.3104334 4:-0.81315637 
445.7218884076158 1:1.1867224 2:0.085537741 3:-0.2399856 4:0.03551087 
445.7218884076158 1:1.1973154 2:1.4229123 3:0.56951298 4:-0.01536662 
445.7218884076158 1:1.2473228 2:1.1342934 3:-0.3236017 4:-0.13554126 
445.7218884076158 1:1.0589117 2:-0.3319652 3:1.2321795 4:0.14844215 
179.789176283293 1:0.052475756 2:0.58289519 3:-0.97147155 4:-0.41182066 
445.7218884076158 1:-0.12320304 2:-0.69334667 3:-1.3757885 4:-0.53392604 
444.8941749918395 1:1.25915 2:0.76882217 3:0.079568361 4:-0.64219156 
445.7218884076158 1:1.2184864 2:-0.69570005 3:-1.1470404 4:-0.71504429 
445.7218884076158 1:0.10481613 2:0.054366232 3:0.86912398 4:0.066161577 
445.7218884076158 1:0.67884489 2:0.054674967 3:1.2475061 4:0.31752619 
445.7218884076158 1:0.8463947 2:1.2287747 3:-0.64477485 4:-0.46024074 
445.7218884076158 1:-2.1288465 2:-1.5437226 3:-0.97532469 4:-0.84402939 
445.7218884076158 1:-0.037236101 2:0.85834093 3:-0.75563883 4:-0.6206401 
445.7218884076158 1:1.2170527 2:0.84932845 3:1.2317636 4:0.43420793 
397.1871795473925 1:-0.038331539 2:-0.098668717 3:0.43619231 4:-0.72089989 
67.99010560577791 1:1.253134 2:0.54904291 3:1.0530803 4:0.53321692 
445.7218884076158 1:1.2580407 2:-0.35584748 3:-1.0872638 4:-0.60496468 
445.7218884076158 1:-0.69647933 2:-0.6635014 3:-1.1945955 4:-1.1134161 
263.8396001989877 1:-0.75550452 2:-0.28884067 3:0.21904673 4:-0.38710554 
445.7218884076158 1:-0.48912522 2:-0.85114247 3:-1.2444162 4:-0.39326595 
445.7218884076158 1:-1.1778373 2:-0.52479871 3:-0.68188079 4:-1.0767422 
263.5127090168955 1:0.94208659 2:0.10650293 3:-1.0662466 4:-0.31748539 
445.7218884076158 1:-1.0852746 2:-1.2120205 3:-1.3187809 4:-0.9672677 
326.1673983594225 1:0.31762699 2:0.8324111 3:0.19401321 4:-0.38567003 
445.7218884076158 1:-0.91490185 2:0.14396192 3:-0.98516847 4:-0.79038923 
445.7218884076158 1:0.29876355 2:-0.79068166 3:0.13548962 4:-0.84803288 
445.7218884076158 1:1.2607432 2:-0.54244524 3:0.019618543 4:-0.61602705 
445.7218884076158 1:0.85223604 2:1.4670929 3:0.093706564 4:-0.58478307 
445.7218884076158 1:0.66718954 2:1.2183111 3:-0.71153836 4:-0.49486969 
445.7218884076158 1:-1.6588188 2:-0.92733051 3:-1.2932419 4:-0.3763653 
445.7218884076158 1:1.2397129 2:1.5741626 3:0.1552278 4:-0.36398128 
445.7218884076158 1:-0.48642934 2:-0.92384103 3:-0.32050077 4:-1.0026448 
445.7218884076158 1:0.6183238 2:-0.94128623 3:-0.45257114 4:-0.56031545 
445.7218884076158 1:-2.0606456 2:-1.0856536 3:-0.79108309 4:-0.82751664 
445.7218884076158 1:0.930503 2:1.2412514 3:0.42047198 4:0.2167376 
445.7218884076158 1:-2.0498573 2:-0.84849453 3:-1.2605716 4:-0.38007208 
203.3279128401769 1:0.16711101 2:0.65016837 3:-0.018308217 4:-0.79062209 
445.7218884076158 1:-1.4361067 2:-0.34412164 3:-0.83192389 4:-0.33799087 
445.7218884076158 1:-0.49593442 2:-0.6849289 3:-1.3456154 4:-0.60164258 
445.7218884076158 1:1.2607251 2:-0.64466291 3:-0.073619644 4:-0.38933025 
445.7218884076158 1:-1.6837528 2:-0.70948885 3:-1.3795738 4:-0.82538127 
445.7218884076158 1:1.240009 2:0.77663113 3:-0.027990554 4:-0.81887934 
445.7218884076158 1:0.65766356 2:-0.78097 3:0.5123843 4:-0.59233751 
445.7218884076158 1:1.2585465 2:0.90906246 3:0.055322245 4:-0.68898538 
445.7218884076158 1:1.2368758 2:0.037699987 3:-0.2107329 4:-0.89853296 
29.61356163762449 1:1.1994242 2:0.37186976 3:0.10160586 4:0.22539398 
445.7218884076158 1:1.2556442 2:-0.034557846 3:0.92843029 4:-0.40673823 
232.6402807810522 1:-2.110726 2:-1.3546667 3:-0.99712413 4:-0.70125504 
445.7218884076158 1:1.2577756 2:1.2695606 3:-0.34693392 4:-0.316559 
445.7218884076158 1:1.1210909 2:-0.3963531 3:-0.046271227 4:-0.90307825 
445.7218884076158 1:1.2584644 2:1.4581198 3:0.40628709 4:-0.029446052 
282.5448261568565 1:1.0593484 2:-0.68854973 3:0.32221449 4:-0.67295 
445.7218884076158 1:0.71442078 2:-0.47372621 3:0.94324312 4:0.19023431 
445.7218884076158 1:-0.25961375 2:-1.0578586 3:-1.0550966 4:-0.96156755 
445.7218884076158 1:-0.98729879 2:-0.46607608 3:-1.2265329 4:-1.0243002 
445.7218884076158 1:1.1892002 2:-0.21454182 3:-0.66742167 4:-1.0860011 
445.7218884076158 1:1.2332556 2:1.6523024 3:0.10916351 4:-0.50638642 
44.84797397363756 1:-1.085667 2:-0.98490562 3:-0.12896737 4:-0.79929049 
267.6042097478863 1:1.2404407 2:1.24656 3:-0.41018461 4:-0.68170668 
14.15480650140337 1:-0.59700216 2:-0.61939282 3:-1.3126601 4:-0.52322075 
445.7218884076158 1:1.2310482 2:-0.21259368 3:0.74757023 4:-0.64408311 
445.7218884076158 1:1.2527343 2:-0.7249489 3:0.15525897 4:-0.3390424 
445.7218884076158 1:0.74323825 2:0.57038451 3:1.1220535 4:0.14650008 
31.68884716231461 1:0.67270704 2:0.85374228 3:-0.31494066 4:-0.020275258 
445.7218884076158 1:1.1271866 2:0.19066809 3:1.3950901 4:0.42048326 
265.3106375490084 1:0.75435235 2:0.55283767 3:0.88870771 4:0.36911326 
445.7218884076158 1:-2.0642436 2:-0.93314594 3:-1.3449606 4:-0.71869963 
445.7218884076158 1:1.2500852 2:1.3153915 3:0.60873964 4:-0.4942105 
445.7218884076158 1:1.1925377 2:-0.43951278 3:-0.019423276 4:-0.84156712 
445.7218884076158 1:-0.46478415 2:-0.54613467 3:0.30887852 4:-0.83665156 
445.7218884076158 1:-2.0893732 2:-0.91876152 3:-1.2407424 4:-1.0154712 
445.7218884076158 1:1.260014 2:0.51439907 3:1.4042605 4:0.051452374 
297.2510237022392 1:0.6494789 2:0.53220042 3:0.15826497 4:-0.80948306 
445.7218884076158 1:0.85104035 2:0.52874152 3:1.266773 4:0.2882593 
445.7218884076158 1:0.67511029 2:-0.83956906 3:0.30540343 4:-0.082991291 
445.7218884076158 1:-0.45394302 2:-0.41666167 3:0.045400039 4:-0.89983942 
445.7218884076158 1:1.1252988 2:1.7149569 3:0.0045963728 4:-0.47637574 
445.7218884076158 1:0.32173142 2:-0.12084239 3:-1.2382108 4:-0.91003593 
31.73383178156969 1:1.2221786 2:-0.18669776 3:-0.52761679 4:-0.20747231 
445.7218884076158 1:0.22903497 2:-0.17506283 3:-1.0983194 4:-1.0406839 
445.7218884076158 1:1.2502675 2:0.18503461 3:0.96937696 4:0.41967975 
377.8160621236885 1:1.2600936 2:0.86721606 3:1.0738262 4:0.39983405 
445.7218884076158 1:1.2600854 2:0.42059454 3:0.84030003 4:-0.23661889 
445.7218884076158 1:0.16668991 2:-0.79980681 3:-0.96225867 4:-1.0745587 
445.7218884076158 1:-1.3508735 2:-1.1934243 3:-0.41943219 4:-0.80249382 
445.7218884076158 1:1.1353918 2:-0.4844483 3:-1.114035 4:-0.42316522 
37.8393421967342 1:1.1844954 2:0.80146192 3:1.147648 4:0.5344341 
445.7218884076158 1:0.39695085 2:-0.58219108 3:-1.3628396 4:-0.76517873 
445.7218884076158 1:0.88115297 2:1.3506148 3:0.16834084 4:-0.65328225 
445.7218884076158 1:1.2204708 2:0.44598444 3:1.3605157 4:0.43791413 
-445.7218884076158 1:-2.1974046 2:-1.3379874 3:-0.9672582 4:-0.94083712 
-445.7218884076158 1:1.0020507 2:0.82688354 3:1.2100547 4:0.1358488 
-445.7218884076158 1:1.2931362 2:0.57296056 3:0.24106244 4:-0.60905288 
-445.7218884076158 1:0.7561614 2:-0.12212726 3:1.3600089 4:0.27395812 
-445.7218884076158 1:0.2288715 2:-0.99330082 3:-0.40584331 4:-0.86231015 
-75.69412060108277 1:0.90469932 2:-0.56513362 3:1.1514308 4:-0.16741395 
-445.7218884076158 1:0.21635285 2:0.13847869 3:0.98775546 4:-0.26593376 
-445.7218884076158 1:1.2970819 2:0.69925375 3:1.0794309 4:-0.0044064384 
-445.7218884076158 1:0.98687763 2:-0.87893597 3:-0.67215366 4:-0.50461252 
-445.7218884076158 1:1.224194 2:0.39427291 3:0.88791066 4:0.58467657 
-445.7218884076158 1:-0.64972978 2:-0.89898487 3:-1.0062871 4:-0.27396721 
-445.7218884076158 1:1.1143957 2:1.3649365 3:-0.56773515 4:-0.33427311 
-445.7218884076158 1:1.2665924 2:0.68395719 3:1.4279816 4:0.53955719 
-445.7218884076158 1:1.1878576 2:0.71297611 3:-0.87331319 4:-0.39378117 
-445.7218884076158 1:1.315017 2:0.9123661 3:-0.029418898 4:-0.25990867 
-445.7218884076158 1:1.180576 2:-0.76597901 3:0.59015969 4:-0.078110593 
-445.7218884076158 1:1.2567281 2:1.1423195 3:-0.49674207 4:-0.67631376 
-445.7218884076158 1:1.3594958 2:-0.18004629 3:-0.67793551 4:-0.85612824 
-445.7218884076158 1:1.1795716 2:-0.36693171 3:0.46583551 4:-0.7685939 
-445.7218884076158 1:1.1069347 2:1.3104332 3:0.074683192 4:-0.82582673 
-445.7218884076158 1:1.1702095 2:-0.049832422 3:1.0915699 4:0.51952859 
-114.2968984696055 1:-0.79686877 2:-0.68230828 3:0.13693158 4:-0.11087717 
-445.7218884076158 1:0.98659067 2:-0.7845428 3:0.31326367 4:-0.61490189 
-445.7218884076158 1:1.3132234 2:-0.52384774 3:-0.42796393 4:-0.60755348 
-445.7218884076158 1:-1.8142155 2:-0.95675242 3:-0.96868497 4:-0.33394297 
-445.7218884076158 1:1.3433543 2:0.23168379 3:1.0930369 4:-0.047214824 
-445.7218884076158 1:-0.76777816 2:-1.0458675 3:-0.024039762 4:-0.78369789 
-445.7218884076158 1:1.269462 2:-0.54101554 3:-0.05464618 4:-0.83440491 
-445.7218884076158 1:-0.73578206 2:-0.5032048 3:-0.69623032 4:-1.1169293 
-445.7218884076158 1:1.1894717 2:0.0018788795 3:-0.50491145 4:-0.071040057 
-445.7218884076158 1:0.86144003 2:1.3258189 3:0.45829896 4:-0.34181135 
-445.7218884076158 1:-0.25182319 2:0.51269506 3:-0.64287045 4:-0.22873779 
-445.7218884076158 1:-1.7919401 2:-1.3170563 3:-1.3052232 4:-0.91609025 
-445.7218884076158 1:-1.7892499 2:-0.69451583 3:-0.59644305 4:-0.63463887 
-445.7218884076158 1:1.3175279 2:1.4805964 3:0.54724167 4:-0.088785178 
-300.4660452910917 1:1.1506603 2:0.29839463 3:1.5897296 4:0.1756584 
-445.7218884076158 1:1.1275959 2:0.24365372 3:1.224121 4:0.59232485 
-445.7218884076158 1:0.95649569 2:0.57126754 3:0.75029684 4:-0.57282807 
-445.7218884076158 1:1.3315172 2:-0.045585027 3:-0.6705428 4:-0.71856008 
-445.7218884076158 1:1.1525256 2:1.6141369 3:0.40292551 4:-0.39433141 
-445.7218884076158 1:1.0957433 2:0.10488565 3:1.4234079 4:-0.064299662 
-445.7218884076158 1:-1.5055894 2:-1.3472574 3:-0.58079465 4:-0.54021281 
-445.7218884076158 1:1.2723316 2:-0.35255591 3:0.54022291 4:0.07268167 
-445.7218884076158 1:0.98067211 2:-0.1141077 3:-1.092544 4:-1.0263053 
-445.7218884076158 1:1.2891905 2:1.061322 3:-0.31088863 4:-0.10798843 
-445.7218884076158 1:0.96818933 2:-0.65043796 3:-0.40161479 4:-1.0143377 
-445.7218884076158 1:1.2784295 2:1.3591446 3:-0.034078897 4:-0.13786626 
-34.41613096799025 1:-1.7913304 2:-1.0155566 3:-0.75361736 4:-1.0821818 
-445.7218884076158 1:-0.60288348 2:0.32684922 3:-1.0946039 4:-0.56636554 
-445.7218884076158 1:0.86685641 2:1.2896121 3:-0.20710296 4:-0.067931222 
-445.7218884076158 1:1.2755599 2:0.63806749 3:1.3176662 4:0.48777995 
-107.7544825567727 1:-0.98177894 2:-0.21500563 3:-1.2972293 4:-0.74495052 
-445.7218884076158 1:-1.0182947 2:-0.15485894 3:-0.68259551 4:-1.0073222 
-445.7218884076158 1:-0.099841744 2:-0.61847853 3:0.76968474 4:-0.44720912 
-445.7218884076158 1:0.00088138759 2:-0.26457838 3:-0.56552021 4:-1.0843002 
-445.7218884076158 1:-0.64872542 2:0.033392775 3:-0.050590254 4:-0.27355453 
-445.7218884076158 1:-0.092488382 2:-0.55408445 3:-1.1157454 4:-1.1094185 
-445.7218884076158 1:1.2985167 2:-0.49569018 3:-1.0794822 4:-0.68975879 
-445.7218884076158 1:1.2420214 2:0.53262515 3:1.3716877 4:0.58134764 
-445.7218884076158 1:0.42386115 2:-0.10879103 3:1.0545488 4:0.23857792 
-445.7218884076158 1:-1.3375382 2:-0.85520402 3:-1.3752095 4:-0.90292859 
-445.7218884076158 1:1.2577325 2:-0.57086611 3:-0.090890621 4:-0.65833479 
-163.8813194215852 1:1.2540737 2:0.46567669 3:1.2406036 4:-0.24662047 
-39.70388206346419 1:1.0540623 2:-0.46135459 3:-1.3584105 4:-0.54233947 
-445.7218884076158 1:0.00055855704 2:0.26174228 3:-0.54426256 4:-1.0688111 
-11.11365483507933 1:-0.091735111 2:-0.20368914 3:-1.3428283 4:-0.79725021 
-284.1256327117998 1:-1.7851966 2:-0.48223514 3:-0.99557777 4:-0.76959533 
-445.7218884076158 1:-1.2942789 2:-0.33770487 3:-1.2439011 4:-0.43438861 
-445.7218884076158 1:-1.882799 2:-0.82110605 3:-1.4039462 4:-0.83989627 
-445.7218884076158 1:-0.86616973 2:-1.2418798 3:-0.66499107 4:-0.90727271 
-445.7218884076158 1:1.2931362 2:0.46677566 3:0.60646969 4:-0.14389135 
-445.7218884076158 1:1.2737664 2:-0.063762693 3:1.1694092 4:0.085529688 
-445.7218884076158 1:-0.33306888 2:-0.54971824 3:0.072036773 4:-0.92614857 
-445.7218884076158 1:1.3512457 2:-0.073148547 3:1.2975879 4:-0.038438555 
-445.7218884076158 1:-1.6145268 2:-1.0969402 3:-0.78700539 4:-0.26700672 
-445.7218884076158 1:1.1152566 2:0.21617931 3:-0.43219244 4:-1.1084006 
-445.7218884076158 1:-0.065908666 2:-0.5117293 3:0.78726042 4:-0.51901221 
-234.26995340723 1:0.17790014 2:0.11305372 3:-1.2736676 4:-0.63081747 
-445.7218884076158 1:-1.6191899 2:-1.2124347 3:-1.2565493 4:-0.46153177 
-445.7218884076158 1:1.2225439 2:-0.4615922 3:0.26861972 4:0.12547684 
-445.7218884076158 1:1.1340166 2:-0.52539225 3:-1.1969789 4:-0.67315266 
-445.7218884076158 1:-1.1364865 2:-0.88547043 3:0.098961215 4:-0.54860116 
-445.7218884076158 1:1.1748009 2:-0.19629332 3:-0.30936406 4:0.011220273 
-445.7218884076158 1:1.2866796 2:0.86522892 3:0.29353058 4:0.33709773 
-445.7218884076158 1:0.91452772 2:0.33792809 3:0.20107849 4:0.31665645 
-445.7218884076158 1:-0.95089482 2:-0.47887881 3:-1.1967546 4:-0.30530317 
-23.09328467620193 1:0.54711068 2:0.1026283 3:1.2699443 4:-0.30134147 
-445.7218884076158 1:0.10831222 2:0.90315846 3:-0.35616541 4:-0.93777506 
-445.7218884076158 1:1.1145392 2:1.0121948 3:0.5473855 4:0.48048932 
-445.7218884076158 1:-0.57210697 2:-0.67794207 3:0.2069754 4:-0.86606826 
-445.7218884076158 1:1.2240146 2:0.69901614 3:-0.73503489 4:-0.93438835 
-445.7218884076158 1:1.2723316 2:0.79275587 3:-0.63248613 4:-0.63131819 
-445.7218884076158 1:0.31560531 2:1.000403 3:-0.48512084 4:-0.95765785 
-445.7218884076158 1:-2.1367985 2:-1.4132138 3:-1.2027493 4:-0.83659485 
-445.7218884076158 1:0.84085061 2:-0.87388662 3:-0.24288715 4:-0.76003772 
-445.7218884076158 1:1.1098043 2:0.68576902 3:-0.15477864 4:0.20344533 
-43.89954167010579 1:1.2841687 2:-0.0018635812 3:1.2396256 4:-0.33881256 
-445.7218884076158 1:1.3003102 2:0.87835723 3:0.21065738 4:0.2452908 
-445.7218884076158 1:-1.836419 2:-0.75885051 3:-0.66884564 4:-0.85672525 
-445.7218884076158 1:1.2734077 2:-0.23650993 3:-1.1334102 4:-0.84102976 
-445.7218884076158 1:-0.54642401 2:-0.74542517 3:-0.12725012 4:-0.99544808 
-445.7218884076158 1:1.2934949 2:1.3094531 3:0.48792736 4:0.22168567 
-445.7218884076158 1:1.2773534 2:0.6439485 3:0.31501836 4:-0.653578 
-445.7218884076158 1:1.2669511 2:0.76032121 3:1.0153415 4:0.24317239 
-445.7218884076158 1:1.3451478 2:-0.44130569 3:-0.47651997 4:-0.85485995 
-445.7218884076158 1:1.0512644 2:-0.26125175 3:1.3503725 4:-0.034091688 
-445.7218884076158 1:1.2877557 2:0.3667985 3:-0.069690499 4:-0.030019939 
-397.4851645670391 1:1.129784 2:-0.62875545 3:0.74969277 4:-0.65307729 
-445.7218884076158 1:0.36894409 2:1.1694078 3:-0.58162885 4:-0.69542897 
-435.9192795796014 1:1.0988281 2:0.47155769 3:0.24175281 4:-0.84840017 
-270.8455828698428 1:-1.0942675 2:-0.88544073 3:-0.96103624 4:-0.22678445 
-445.7218884076158 1:-1.5655642 2:-1.403127 3:-1.2933316 4:-0.62917227 
-445.7218884076158 1:1.229969 2:-0.72231696 3:-0.66913329 4:-0.39413882 
-445.7218884076158 1:1.2942123 2:1.1470124 3:0.1008022 4:-0.59677986 
-445.7218884076158 1:0.89555246 2:1.0055415 3:-0.27427024 4:-0.99402022 
-445.7218884076158 1:-0.39221861 2:-0.99055932 3:0.042178257 4:-0.88539806 
-248.4551987554915 1:0.3194434 2:-0.086573882 3:-1.0041671 4:-0.21913616 
-445.7218884076158 1:0.89146327 2:-0.55886648 3:0.98565559 4:-0.39435892 
-445.7218884076158 1:0.11806888 2:0.19277408 3:0.75763203 4:0.054716454 
-284.1755856544248 1:-1.9654436 2:-0.70776295 3:-1.382631 4:-0.60020508 
-43.01570562894241 1:0.54883244 2:0.24436657 3:1.3191044 4:0.11059295 
-212.7248122152956 1:0.8048012 2:-0.8793815 3:0.28110392 4:-0.5683629 
-445.7218884076158 1:1.0920487 2:0.71951057 3:-0.96197687 4:-0.63862808 
-445.7218884076158 1:1.3275715 2:0.072837122 3:-0.99846582 4:-0.58858133 
-268.363671570831 1:0.90380257 2:-0.85511491 3:-0.76394415 4:-0.93870496 
-445.7218884076158 1:1.265875 2:0.61650379 3:1.2873474 4:0.047590894 
-445.7218884076158 1:0.96876325 2:-0.74821717 3:0.32773268 4:-0.038163437 
-34.83243747764289 1:1.3573436 2:-0.31118093 3:0.88535053 4:-0.44371512 
-445.7218884076158 1:1.1686312 2:1.4915267 3:-0.090056424 4:-0.16441516 
-445.7218884076158 1:1.2949297 2:1.5509606 3:0.17265825 4:-0.47157358 
-445.7218884076158 1:0.75533639 2:1.1871993 3:0.44552711 4:-0.17580505 
-445.7218884076158 1:0.58742863 2:-0.9267563 3:0.17749084 4:-0.51742477 
-445.7218884076158 1:1.1957131 2:0.66860122 3:0.27284824 4:0.40131031 
-445.7218884076158 1:1.3182453 2:-0.26838025 3:-0.090948152 4:-0.57425593 
-445.7218884076158 1:1.3171692 2:0.60575164 3:0.89774843 4:0.10145903 
-445.7218884076158 1:-2.0030677 2:-1.44869 3:-0.84057237 4:-0.67955191 
-445.7218884076158 1:1.2011295 2:0.92038566 3:-0.30576838 4:-0.96474764 
-445.7218884076158 1:1.3433543 2:0.77790483 3:1.1404424 4:0.42926232 
-445.7218884076158 1:0.91212442 2:0.49326991 3:1.2995727 4:0.40906864 
-445.7218884076158 1:0.12811249 2:0.98513617 3:-0.71935773 4:-0.69842226 
-445.7218884076158 1:1.1543908 2:0.47411207 3:1.0787405 4:0.62586175 
-445.7218884076158 1:1.2881144 2:1.2489499 3:0.84637338 4:0.032872072 
-445.7218884076158 1:-1.5478802 2:-0.3050326 3:-0.99730945 4:-0.69887896 
-445.7218884076158 1:0.88249575 2:0.11349925 3:1.3186154 4:-0.18334329 
-445.7218884076158 1:0.51766136 2:-0.11250379 3:1.220439 4:-0.22241007 
-445.7218884076158 1:1.1951033 2:0.94925607 3:1.146742 4:0.40950883 
-445.7218884076158 1:1.2154058 2:0.96588923 3:-0.51587108 4:-0.88536505 
-445.7218884076158 1:0.7276447 2:-0.92500388 3:-0.262649 4:-0.61568873 
-47.03862901894913 1:-0.17983198 2:-1.1452744 3:-0.053581859 4:-0.58371174 
-445.7218884076158 1:0.9386324 2:-0.51220453 3:0.90919707 4:0.24160422 
-445.7218884076158 1:1.2848861 2:-0.40224747 3:-0.42229714 4:-0.21842086 
-445.7218884076158 1:-1.3523167 2:-0.67024924 3:-0.30502048 4:-0.88496063 
-445.7218884076158 1:1.287397 2:-0.43512766 3:0.98033398 4:0.1416813 
-242.1701246557762 1:-0.0088035289 2:-0.4571963 3:0.72279709 4:-0.67774988 
-445.7218884076158 1:0.97468181 2:1.5595148 3:0.1976554 4:-0.37559586 
-44.96089554918667 1:-2.2080329 2:-1.3508573 3:-1.2215388 4:-0.82113596 
-445.7218884076158 1:0.79830872 2:-0.37661458 3:-0.20068827 4:-1.0088904 
-445.7218884076158 1:1.287397 2:-0.50596709 3:-0.59060367 4:-0.69395709 
-295.3409027845491 1:0.71469561 2:-0.18681836 3:-0.042161983 4:0.15981159 
-445.7218884076158 1:-0.31029139 2:-0.44463232 3:-0.6301849 4:-1.1097487 
-445.7218884076158 1:0.020861012 2:-0.87471828 3:-1.3194276 4:-0.79691731 
-445.7218884076158 1:1.2078731 2:0.97343355 3:1.1637711 4:0.37363343 
-445.7218884076158 1:1.2626467 2:0.49701237 3:-0.35233961 4:-1.0313125 
-445.7218884076158 1:-1.7058161 2:-1.1772339 3:-1.1396581 4:-0.36665452 
-445.7218884076158 1:1.2856035 2:-0.2849837 3:-0.066094821 4:-0.23357987 
-77.29457494944876 1:0.19730584 2:0.56131735 3:-0.48537972 4:-1.0601724 
-445.7218884076158 1:-1.734835 2:-0.97372419 3:-1.3868308 4:-0.97910331 
-445.7218884076158 1:1.318604 2:-0.038337722 3:-0.18964234 4:-0.46128691 
-445.7218884076158 1:-0.88062537 2:-0.7988889 3:-1.3645088 4:-0.89761881 
-445.7218884076158 1:-2.019898 2:-1.1476625 3:-0.74536168 4:-0.83177478 
-445.7218884076158 1:-1.9682989 2:-1.3365142 3:-1.2800103 4:-0.92562034 
-144.8713865194732 1:0.93698238 2:0.22696116 3:-1.2630905 4:-0.57764264 
-445.7218884076158 1:0.10781004 2:-1.0474269 3:-0.58677786 4:-0.86004042 
-284.2182382309907 1:-1.1605912 2:-0.68016973 3:-1.4088363 4:-0.76619487 
-407.3268551501334 1:1.3092777 2:0.78132057 3:-0.1758637 4:-0.83871601 
-445.7218884076158 1:1.0238597 2:-0.79817605 3:-0.31370764 4:-0.86036231 
-445.7218884076158 1:1.2877557 2:0.35340286 3:-0.6370023 4:-0.21960386 
-445.7218884076158 1:1.0084714 2:1.4736758 3:0.037920973 4:-0.72255177 
-445.7218884076158 1:1.315017 2:-0.39485165 3:0.43077045 4:-0.12023118 
-445.7218884076158 1:1.0721408 2:0.84868486 3:1.1845973 4:-0.012082235 
-445.7218884076158 1:1.0517666 2:-0.70595112 3:-0.9315603 4:-0.35391655 
-445.7218884076158 1:-0.32284592 2:-0.69249609 3:-0.027779268 4:-0.95593286 
-36.95513925652151 1:0.66304272 2:-0.38718852 3:-0.1518158 4:-0.99266663 
-193.6411645150391 1:0.92812247 2:1.4238654 3:0.34945058 4:-0.036842869 
-61.11137078030671 1:1.0286304 2:1.4518448 3:-0.048749266 4:-0.84914299 
-445.7218884076158 1:-1.948226 2:-1.0738677 3:-0.92612939 4:-0.3174909 
-445.7218884076158 1:0.92883987 2:0.41773755 3:-0.098369633 4:0.17499811 
-285.2860266405939 1:-0.8785449 2:-0.34459575 3:0.14538862 4:-0.28772312 
-445.7218884076158 1:0.8115089 2:-0.034595261 3:0.5829108 4:0.44967608 
-445.7218884076158 1:1.2888318 2:0.89730715 3:-0.53111676 4:-0.81941648 
-445.7218884076158 1:1.146069 2:-0.60419184 3:-0.82270904 4:-0.26411798 
-445.7218884076158 1:0.9869135 2:1.0416592 3:0.44411761 4:-0.68904073 
-445.7218884076158 1:0.94415639 2:-0.8405609 3:0.06815344 4:-0.60542407 
-445.7218884076158 1:0.12431027 2:0.98305702 3:-0.56966243 4:-0.40068664 
-445.7218884076158 1:0.92363871 2:0.49196302 3:-0.20471543 4:-0.98003321 
-445.7218884076158 1:-0.29228462 2:0.01768038 3:0.56660081 4:-0.30266204 
-445.7218884076158 1:-1.6203736 2:-0.40670278 3:-1.0005139 4:-0.89485112 
-121.323368327799 1:-0.17251449 2:0.79741909 3:-0.7418523 4:-0.89801498 
-445.7218884076158 1:-1.7248273 2:-0.84855076 3:-1.1076191 4:-0.32090237 
-445.7218884076158 1:-1.8263754 2:-0.59147935 3:-0.77056019 4:-0.5666214 
-445.7218884076158 1:1.3013863 2:1.2411977 3:0.54773068 4:0.29877377 
-22.02752817907156 1:0.80239791 2:-0.49628422 3:0.93341757 4:0.26697011 
-445.7218884076158 1:1.2787882 2:0.36293723 3:0.88491905 4:0.39723856 
-445.7218884076158 1:1.3114299 2:0.74918293 3:-0.18831913 4:-0.18788274 
-445.7218884076158 1:1.2594184 2:-0.175888 3:-0.26354073 4:-0.91980434 
-445.7218884076158 1:1.0686972 2:-0.30322077 3:1.3280505 4:-0.17495219 
-445.7218884076158 1:-0.022541762 2:-0.2921419 3:-1.0824042 4:-1.102458 
-445.7218884076158 1:0.28145701 2:-0.44531547 3:-1.3665224 4:-0.61234604 
-445.7218884076158 1:1.2538226 2:0.68312553 3:-0.8655609 4:-0.53866114 
-445.7218884076158 1:-0.3596486 2:-0.2806472 3:-1.2630071 4:-0.38120827 
-445.7218884076158 1:-1.3296468 2:-0.41626685 3:-0.40417492 4:-0.38935177 
-445.7218884076158 1:-1.8313613 2:-0.57707385 3:-1.1903427 4:-0.8014375 
-445.7218884076158 1:1.2676685 2:-0.25569746 3:0.39346168 4:-0.3987333 
-445.7218884076158 1:1.0166139 2:1.1326663 3:-0.50039528 4:-0.10691546 
-445.7218884076158 1:1.2823752 2:-0.45648345 3:-0.0043642084 4:-0.63731577 
-445.7218884076158 1:-0.025447237 2:-0.24646012 3:-0.049151983 4:-0.95257367 
-445.7218884076158 1:0.9573207 2:-0.22296578 3:0.14794874 4:-0.90965523 
-445.7218884076158 1:1.276636 2:-0.33039817 3:0.8511772 4:-0.081136893 
-445.7218884076158 1:-0.69259451 2:-0.9210238 3:-0.62575502 4:-1.0806412 
-445.7218884076158 1:-0.71583831 2:-0.39559421 3:-0.91858422 4:-1.1451014 
-445.7218884076158 1:1.3160931 2:0.43986559 3:-0.34204159 4:-0.65874747 
-445.7218884076158 1:1.0453817 2:-0.76333552 3:-0.51871886 4:-0.34478263 
-445.7218884076158 1:1.2213244 2:0.47648824 3:1.2187994 4:0.66589145 
-238.7346071973756 1:-2.0117268 2:-1.0967115 3:-1.2079328 4:-1.0824019 
-445.7218884076158 1:-1.5212647 2:-1.4430941 3:-0.82959836 4:-0.57148549 
-286.8273830689994 1:1.1639323 2:-0.55595568 3:-1.2172586 4:-0.85887392 
-445.7218884076158 1:1.2691033 2:0.32257212 3:1.18267 4:-0.17822609 
-445.7218884076158 1:-0.43827577 2:-0.63879475 3:-1.3729371 4:-0.57109758 
-286.1916848683007 1:-1.6815321 2:-0.55856946 3:-1.3002727 4:-0.86342713 
-156.8095290212734 1:-2.2591226 2:-1.0760567 3:-1.0485203 4:-0.51693781 
-445.7218884076158 1:-0.30627395 2:-0.76137518 3:-0.083497906 4:-1.009303 
-45.19233360440108 1:0.74184924 2:0.5175068 3:-0.036380132 4:0.21678856 
-445.7218884076158 1:-2.0379729 2:-1.3132842 3:-1.0470118 4:-0.47964005 
-445.7218884076158 1:0.97116654 2:-0.5635297 3:-1.2144424 4:-0.38153841 
-445.7218884076158 1:1.0144258 2:-0.49782873 3:1.0756626 4:0.21915458 
-445.7218884076158 1:0.16789239 2:0.78901341 3:-0.88919746 4:-0.86187546 
-445.7218884076158 1:0.95893485 2:-0.86158996 3:0.160548 4:-0.62672097 
-445.7218884076158 1:1.2550422 2:1.1560122 3:0.8837972 4:-0.17484214 
-445.7218884076158 1:0.12664182 2:0.41729201 3:-0.77631328 4:-1.0783027 
-35.8346885471984 1:1.3013863 2:-0.49070023 3:0.81832708 4:0.17458544 
-445.7218884076158 1:1.2734077 2:-0.60962731 3:0.28705836 4:-0.32736765 
-445.7218884076158 1:1.2559748 2:0.80160708 3:1.4015749 4:0.19081741 
-445.7218884076158 1:1.180289 2:0.95371138 3:0.045313689 4:0.27266506 
-195.1563613748283 1:-1.1181928 2:-0.89099501 3:0.022588999 4:-0.30472542 
-317.1426909864344 1:-0.22535109 2:-0.85567925 3:-1.3775108 4:-0.83497441 
-445.7218884076158 1:1.3064081 2:1.1779323 3:0.73464845 4:0.33720778 
-445.7218884076158 1:1.2127873 2:1.4205982 3:0.45317872 4:-0.57239613 
-68.69840284583253 1:-0.53329556 2:0.50562597 3:-1.0040434 4:-0.67140015 
-445.7218884076158 1:1.1425896 2:-0.43435541 3:0.23459022 4:-0.84289231 
-445.7218884076158 1:1.1160099 2:0.54388223 3:1.0080351 4:-0.44426535 
-445.7218884076158 1:1.1849162 2:0.20005108 3:-0.1975816 4:0.12976869 
-445.7218884076158 1:1.0348359 2:0.12644936 3:-1.0502603 4:-0.26645649 
-445.7218884076158 1:1.2708968 2:0.17317071 3:0.89412399 4:-0.32778032 
-133.0721943792062 1:0.12635486 2:-0.97279748 3:-1.1847939 4:-0.88879302 
-445.7218884076158 1:1.2791469 2:1.4413896 3:-0.019178405 4:-0.73501022 
-445.7218884076158 1:0.21563544 2:-0.31257692 3:1.0391881 4:-0.40002635 
-445.7218884076158 1:1.1440244 2:-0.42740512 3:0.1396643 4:0.16600175 
-445.7218884076158 1:-0.68212045 2:-0.51802613 3:-1.3693989 4:-0.67357909 
-445.7218884076158 1:-0.62397508 2:-0.81804673 3:-1.3623801 4:-0.516206 
-445.7218884076158 1:1.2719729 2:0.15410198 3:-0.52245836 4:-0.58290565 
-445.7218884076158 1:1.0735397 2:1.0681832 3:0.70783907 4:0.41856022 
-304.0574352910856 1:1.3358216 2:0.40294592 3:1.4849372 4:0.34689194 
-445.7218884076158 1:1.2748425 2:0.32010685 3:0.0038914699 4:-0.13049309 
-227.4369355771403 1:-0.041983336 2:-0.59391492 3:0.83176054 4:-0.25955102 
-445.7218884076158 1:-1.9393302 2:-0.98762475 3:-1.0696239 4:-1.0604475 
-445.7218884076158 1:1.2598488 2:-0.30387422 3:1.0043531 4:0.026434307 
-445.7218884076158 1:0.55690321 2:-0.43973148 3:0.091769858 4:-0.92196677 
-445.7218884076158 1:1.0764093 2:1.6530169 3:-0.34491813 4:-0.49977594 
-304.4905041542154 1:-0.15196094 2:0.37873873 3:0.2187117 4:-0.20064822 
-369.7899275584776 1:1.1884315 2:-0.24886599 3:-0.31091739 4:-1.0684534 
-445.7218884076158 1:1.198798 2:-0.24283647 3:1.3800296 4:0.14872433 
-445.7218884076158 1:0.50137635 2:0.0022353043 3:1.2067467 4:0.19040473 
-327.4344964504162 1:0.40667939 2:-0.20080804 3:-1.3528876 4:-0.76898732 
-445.7218884076158 1:1.2960058 2:0.57590106 3:0.24753466 4:-0.39812804 
-445.7218884076158 1:1.1070782 2:-0.82071992 3:-0.85138818 4:-0.88585201 
-445.7218884076158 1:0.97801773 2:0.84838784 3:-0.58784219 4:-1.002271 
-445.7218884076158 1:0.99415925 2:-0.78249336 3:0.72970079 4:-0.13360193 
-178.1577518007832 1:-0.15296531 2:-0.28343919 3:0.42475847 4:0.17224693 
-445.7218884076158 1:1.1666584 2:-0.80684905 3:-0.80011667 4:-0.83480934 
-445.7218884076158 1:1.2985167 2:-0.33075459 3:1.1911846 4:-0.15825251 
-445.7218884076158 1:0.87377933 2:0.13405309 3:1.3259506 4:-0.20064822 
-445.7218884076158 1:1.2083035 2:1.393896 3:0.77664597 4:-0.018877654 
-445.7218884076158 1:-0.60367262 2:0.36171944 3:-0.74743279 4:-0.38962689 
-445.7218884076158 1:-1.3755605 2:-0.2921716 3:-0.81044922 4:-0.94214944 
-445.7218884076158 1:-0.0069024157 2:-0.47632443 3:-1.1128055 4:-1.0910957 
-445.7218884076158 1:-0.18044177 2:0.096687883 3:-1.246139 4:-0.58672979 
-445.7218884076158 1:-0.28102142 2:-0.32763587 3:0.69639043 4:-0.49311258 
-158.7067346295844 1:-1.2295335 2:-0.57125224 3:0.0038914699 4:-0.46619502 
-347.579297714441 1:0.83328203 2:0.22357512 3:1.2383024 4:0.47030995 
-445.7218884076158 1:1.0500089 2:0.13449862 3:1.3003206 4:-0.28579729 
-445.7218884076158 1:-0.10400267 2:-0.79265146 3:-0.10705679 4:-1.0123018 
-445.7218884076158 1:1.2142938 2:0.93205857 3:0.041602948 4:-0.84500522 
-109.9293278814111 1:-0.65489507 2:-0.89328207 3:-1.2042796 4:-0.34450751 
-445.7218884076158 1:-1.3997728 2:-0.54184719 3:-1.0750293 4:-1.1367653 
-445.7218884076158 1:1.2698207 2:0.40478744 3:1.4522309 4:0.41754228 
-162.7652667765354 1:1.1061815 2:1.5770984 3:0.52489093 4:-0.32945854 
-445.7218884076158 1:0.8636281 2:0.051867461 3:-0.77452982 4:-0.12397279 
-185.920833152743 1:-1.8858121 2:-0.99988874 3:-0.46233862 4:-0.62747204 
-330.2911598883303 1:-0.46937512 2:0.57545553 3:-0.63602428 4:-0.83245983 
-312.6082888470037 1:-1.0652127 2:-0.9610117 3:0.11417813 4:-0.47501531 
-445.7218884076158 1:1.3049733 2:0.035887748 3:-0.78960003 4:-1.0990466 
-445.7218884076158 1:0.30922043 2:-0.39497046 3:1.0768995 4:0.054138706 
-445.7218884076158 1:1.2171634 2:-0.38822809 3:0.86170535 4:-0.5344821 
-191.9728415207459 1:-0.53031835 2:-0.29410224 3:0.42636934 4:-0.66987875 
-445.7218884076158 1:1.2748425 2:0.17777453 3:-0.62126761 4:-0.52586815 
-445.7218884076158 1:-0.35835728 2:-0.68215977 3:-0.9305679 4:-1.1214412 
-445.7218884076158 1:1.3006689 2:1.2715532 3:-0.15912222 4:-0.3472862 
-178.1260719186217 1:0.78281285 2:1.2913645 3:-0.63027119 4:-0.41834922 
-445.7218884076158 1:1.2612119 2:0.18107146 3:0.82175017 4:0.23417603 
-39.13546744339907 1:-2.1206534 2:-0.90026206 3:-1.2994644 4:-0.45583957 
-445.7218884076158 1:-2.1530584 2:-1.0781002 3:-1.0968062 4:-0.42965658 
-445.7218884076158 1:1.1600583 2:0.1730816 3:-0.41634269 4:0.027589804 
-445.7218884076158 1:0.15989337 2:-0.61847853 3:-0.95270002 4:-1.1408645 
-445.7218884076158 1:1.1948522 2:-0.13766144 3:-1.0824689 4:-1.012742 
-445.7218884076158 1:0.22284533 2:-0.1629379 3:1.185489 4:-0.014943464 
-445.7218884076158 1:1.318604 2:0.54946622 3:1.123442 4:0.37770517 
-445.7218884076158 1:1.3218323 2:0.45281569 3:-0.37860245 4:-0.93058072 
-445.7218884076158 1:1.0721766 2:-0.17170001 3:-0.930985 4:-0.18736001 
-445.7218884076158 1:1.0523046 2:0.86383292 3:1.1639725 4:0.39762373 
-130.6870975109617 1:0.035998178 2:-0.85995635 3:-0.58280823 4:-0.19330257 
-445.7218884076158 1:0.26750355 2:-0.81973975 3:0.49836921 4:-0.13357441 
-445.7218884076158 1:-1.1668326 2:-1.3350172 3:-1.134253 4:-0.54783909 
-326.8844197687388 1:0.43605697 2:-0.018377931 3:-1.0710335 4:-1.0497729 
-445.7218884076158 1:0.95323151 2:0.32575024 3:-0.80182822 4:-0.1596281 
-445.7218884076158 1:1.2812991 2:-0.64776477 3:0.38894551 4:-0.36640691 
-445.7218884076158 1:-0.55313171 2:-0.85116454 3:-0.21639419 4:-1.0283687 
-445.7218884076158 1:0.37633332 2:-0.98966529 3:-0.17675543 4:-0.71372048 
-445.7218884076158 1:1.1500864 2:-0.56843055 3:-1.0333583 4:-0.9513714 
-445.7218884076158 1:0.15896075 2:-0.17464052 3:1.0473862 4:0.012623376 
-445.7218884076158 1:-2.2452947 2:-1.2580146 3:-1.142969 4:-0.77273443 
-445.7218884076158 1:0.54535305 2:0.060718678 3:1.1274692 4:0.29679292 
-445.7218884076158 1:0.5106667 2:-0.61449845 3:0.97348781 4:-0.091398801 
-445.7218884076158 1:1.0410773 2:1.0932814 3:0.8612451 4:0.35390745 
-89.3516608356019 1:1.2931362 2:0.30118663 3:-1.1863213 4:-0.44723663 
-445.7218884076158 1:0.79120645 2:0.42679668 3:0.021237024 4:-0.92131474 
-445.7218884076158 1:1.1257665 2:-0.45128559 3:-1.1620433 4:-0.81765847 
-445.7218884076158 1:-0.69876416 2:-0.84715476 3:-0.82395171 4:-1.1310978 
-445.7218884076158 1:1.2712555 2:0.8721198 3:-0.70957748 4:-0.35061513 
-445.7218884076158 1:-0.19869963 2:-1.0972254 3:-1.1064685 4:-0.78688375 
-45.27385848833043 1:1.0288456 2:-0.10650397 3:-0.1920874 4:-1.0245446 
-445.7218884076158 1:1.2640815 2:0.47488433 3:0.47541439 4:-0.49270266 
-445.7218884076158 1:-1.2575838 2:-0.86369881 3:-0.96805788 4:-0.23545067 
-445.7218884076158 1:1.0189813 2:1.5756133 3:0.15410454 4:-0.28700781 
-445.7218884076158 1:0.55435643 2:0.46258767 3:1.0023971 4:0.19037722 
-445.7218884076158 1:-2.2117024 2:-1.060772 3:-1.2852198 4:-0.70817217 
-445.7218884076158 1:1.2830926 2:0.20474401 3:-0.70785156 4:-0.29077693 
-445.7218884076158 1:0.12136892 2:0.79569637 3:0.053569367 4:-0.36494879 
-445.7218884076158 1:-1.226341 2:-0.48508654 3:-1.2779795 4:-0.93820149 
-216.1697056582313 1:1.3663111 2:-0.39639616 3:1.1570688 4:-0.26202708 
-394.0569682225575 1:1.2360311 2:1.7067182 3:0.061882576 4:-0.44685146 
-445.7218884076158 1:0.53828665 2:-0.74985078 3:0.68747314 4:-0.51680576 
-445.7218884076158 1:0.56088478 2:-0.11785016 3:-1.2865228 4:-0.69076572 
-445.7218884076158 1:1.3114299 2:0.90829692 3:0.2783712 4:-0.45933908 
-147.2576454963535 1:1.115149 2:1.691986 3:0.21295861 4:-0.36555405 
-445.7218884076158 1:-0.48885256 2:0.19384335 3:-1.2057955 4:-0.58176666 
-445.7218884076158 1:1.2956471 2:0.2232781 3:-0.21032469 4:-0.033844082 
-445.7218884076158 1:0.28726796 2:-0.69745633 3:-1.3721604 4:-0.82415401 
-445.7218884076158 1:0.80376097 2:0.009007376 3:-1.2747606 4:-0.69134622 
-445.7218884076158 1:1.1446342 2:1.0921527 3:-0.50177602 4:-0.12873233 
-445.7218884076158 1:0.55704669 2:-0.82945233 3:-0.4440438 4:-0.95407031 
-332.4957773229343 1:1.1043162 2:1.1338247 3:-0.77499007 4:-0.65911063 
-445.7218884076158 1:-0.94167621 2:-0.85906529 3:-0.5936528 4:-1.0903528 
-445.7218884076158 1:1.1131402 2:0.85661532 3:-0.80065171 4:-0.75903629 
-445.7218884076158 1:0.15562483 2:0.67382878 3:-1.0034883 4:-0.70181172 
-36.24687316498689 1:1.3175279 2:0.36807569 3:-0.55217305 4:-0.31341916 
-445.7218884076158 1:-1.5844318 2:-1.3676538 3:-1.0948858 4:-0.93363453 
-445.7218884076158 1:-0.29684012 2:-1.1608027 3:-0.92349448 4:-0.85588064 
-445.7218884076158 1:-0.26036027 2:-0.26294477 3:0.74557931 4:-0.12356011 
-445.7218884076158 1:1.2780708 2:1.4637256 3:-0.21259715 4:-0.50194112 
-445.7218884076158 1:1.0477491 2:-0.56679693 3:-1.1550907 4:-0.45952891 
-445.7218884076158 1:-1.2665514 2:-1.3653371 3:-0.66099267 4:-0.76999975 
-445.7218884076158 1:-2.054283 2:-1.0592751 3:-0.66035983 4:-0.59038061 
-445.7218884076158 1:0.84271586 2:1.2199013 3:-0.58076589 4:-0.29259271 
-445.7218884076158 1:1.3067668 2:-0.50534335 3:-0.9614217 4:-0.74316803 
-445.7218884076158 1:-1.2924137 2:-0.79398806 3:-0.52887305 4:-1.0540648 
-445.7218884076158 1:0.6969758 2:1.4325384 3:-0.075961363 4:-0.49887081 
-445.7218884076158 1:1.0872421 2:1.4797647 3:0.084664797 4:-0.78237732 
-445.7218884076158 1:0.39355095 2:1.1571706 3:-0.11416185 4:-0.69559405 
-445.7218884076158 1:1.2827339 2:-0.087049115 3:0.30647503 4:-0.59192402 
-445.7218884076158 1:0.89967751 2:-0.12886963 3:1.3683221 4:-0.055853534 
-445.7218884076158 1:1.1727563 2:-0.79086934 3:0.016001716 4:-0.33430062 
-445.7218884076158 1:-0.18854841 2:-1.0447715 3:0.048334059 4:-0.69375626 
-445.7218884076158 1:1.1639681 2:0.38340195 3:1.5074892 4:0.32592794 
-445.7218884076158 1:0.95265759 2:0.038828253 3:-0.80095375 4:-1.0983313 
-445.7218884076158 1:0.97439485 2:1.3916684 3:-0.56275873 4:-0.75419862 
-445.7218884076158 1:1.0794941 2:0.70590702 3:1.4514254 4:0.38062143 
-445.7218884076158 1:0.94824558 2:-0.87947061 3:-0.24504456 4:-0.36734232 
-445.7218884076158 1:1.1984751 2:1.5213476 3:0.36184848 4:-0.027103687 
-4.820025021275857 1:0.35513411 2:-0.3352396 3:0.20786713 4:-0.89614418 
-445.7218884076158 1:1.0774137 2:-0.38175304 3:0.60353562 4:-0.74667826 
-445.7218884076158 1:-0.41015364 2:-0.053753096 3:0.4023502 4:-0.14350618 
-445.7218884076158 1:0.95750005 2:-0.53350091 3:1.19199 4:-0.14911859 
-445.7218884076158 1:1.3114299 2:-0.39951488 3:0.34861638 4:-0.018575024 
-445.7218884076158 1:-0.026128769 2:-0.53834235 3:-1.3991999 4:-0.68890317 
-445.7218884076158 1:-0.54807403 2:-0.17063074 3:0.16618602 4:-0.75089582 
-324.1773079122036 1:-0.52809441 2:-0.16234386 3:-1.0969644 4:-0.2341301 
-445.7218884076158 1:-2.1887527 2:-1.0122567 3:-0.87845069 4:-0.8198154 
-445.7218884076158 1:1.2045372 2:-0.30247822 3:-0.75712674 4:-0.20004296 
-445.7218884076158 1:-0.055506349 2:0.0049975967 3:-1.1189268 4:-1.0346689 
-445.7218884076158 1:0.84619525 2:1.4986552 3:-0.42097393 4:-0.64494204 
-445.7218884076158 1:1.0789919 2:-0.45707749 3:1.2476799 4:0.15772069 
-445.7218884076158 1:1.2248755 2:0.56752508 3:1.4939695 4:0.37762264 
-445.7218884076158 1:1.2773534 2:1.0645892 3:0.14323121 4:-0.38816876 
-445.7218884076158 1:-1.1881035 2:-0.15108678 3:-1.2256494 4:-0.79471637 
-428.0473943587911 1:1.2494824 2:-0.77604801 3:-0.088589387 4:-0.38115325 
-153.7647569039985 1:-0.5368467 2:-1.048012 3:-0.87173972 4:-1.0978085 
-445.7218884076158 1:0.96338274 2:-0.31706194 3:-1.2044579 4:-0.87320483 
-172.7108058896966 1:0.55937824 2:-0.76814726 3:0.7410919 4:-0.29539892 
-445.7218884076158 1:1.06407 2:0.082222976 3:1.42732 4:0.23970591 
-445.7218884076158 1:1.3110712 2:0.13797376 3:1.1920763 4:0.16908307 
-445.7218884076158 1:0.61196375 2:0.59829642 3:-0.55087861 4:-1.0501856 
-275.1137359282925 1:1.232193 2:1.3657088 3:0.38814008 4:-0.70260075 
-445.7218884076158 1:-0.50456365 2:-1.1003857 3:-1.2694995 4:-0.66648104 
-445.7218884076158 1:1.290984 2:1.6178793 3:0.19621713 4:-0.49381138 
-445.7218884076158 1:-0.13036717 2:0.38028324 3:-1.0328923 4:-0.97366697 
-445.7218884076158 1:1.2891905 2:-0.1083455 3:0.12539665 4:-0.54822425 
-445.7218884076158 1:1.1282774 2:0.1744479 3:1.2691964 4:0.4999952 
-40.40625043583309 1:0.98077972 2:1.0493817 3:0.84890473 4:0.36972675 
-382.2974861451528 1:0.45793771 2:-0.13549319 3:-0.36214862 4:-1.0398136 
-445.7218884076158 1:0.83037655 2:0.11023203 3:-0.99266383 4:-1.0450134 
-445.7218884076158 1:-1.3705028 2:-0.5476391 3:-1.0230545 4:-1.1394064 
-375.4830010031133 1:-0.96717983 2:-1.3338855 3:-1.13444 4:-0.72651237 
-445.7218884076158 1:0.9896755 2:0.4501128 3:-0.24271456 4:-1.0230039 
-258.4605484456352 1:1.2934949 2:0.34606645 3:-0.73857304 4:-1.1102714 
-445.7218884076158 1:-0.5403261 2:-0.26689514 3:-1.1686766 4:-1.0375026 
-445.7218884076158 1:-0.50485061 2:-0.11045435 3:0.3233028 4:-0.59956955 
-445.7218884076158 1:1.2536433 2:1.1968525 3:0.79137387 4:-0.26177948 
-445.7218884076158 1:0.86201395 2:-0.089454982 3:-0.3937043 4:-1.0621807 
-445.7218884076158 1:-0.55958832 2:-0.16195773 3:-1.2397646 4:-0.94821579 
-445.7218884076158 1:1.0542416 2:0.95994881 3:-0.85931305 4:-0.51866005 
-382.4049096430505 1:1.2856035 2:1.4006978 3:0.42754872 4:0.23940328 
-59.71755791457132 1:0.93716173 2:0.1256474 3:1.020433 4:-0.56268446 
-445.7218884076158 1:0.52375927 2:-0.35326876 3:-1.1822251 4:-1.0328531 
-445.7218884076158 1:-0.26767776 2:-0.36289223 3:0.6241892 4:-0.61290728 
-445.7218884076158 1:1.0416512 2:1.5594554 3:-0.24878406 4:-0.2262067 
-445.7218884076158 1:1.3028211 2:0.39881733 3:0.94311152 4:0.51003701 
-265.744121701182 1:0.93920632 2:-0.508967 3:0.012607395 4:0.1034949 
-445.7218884076158 1:1.1871402 2:1.5587128 3:0.10431159 4:-0.12713665 
-445.7218884076158 1:0.53448442 2:1.034204 3:-0.79090023 4:-0.6715157 
-445.7218884076158 1:1.3211149 2:0.80234964 3:0.62781364 4:0.35679619 
-445.7218884076158 1:-1.061554 2:-0.014011727 3:-0.66973736 4:-0.44836461 
-445.7218884076158 1:1.1233273 2:0.86169437 3:1.2946826 4:0.043051444 
-445.7218884076158 1:1.2755599 2:0.082698209 3:-0.058845932 4:-0.36516888 
-445.7218884076158 1:1.294571 2:0.026383086 3:-0.88382407 4:-0.38649054 
-445.7218884076158 1:1.2533204 2:0.59835583 3:-0.85116093 4:-0.84218525 
-20.10422188667032 1:-2.0847188 2:-0.823304 3:-1.2713289 4:-0.90915727 
-445.7218884076158 1:0.84795288 2:-0.61503309 3:-1.2354095 4:-0.55687397 
-445.7218884076158 1:1.0526633 2:-0.15322532 3:0.47722662 4:0.36749829 
-445.7218884076158 1:1.1345188 2:0.26361351 3:0.59924957 4:0.44780528 
-445.7218884076158 1:-1.0869858 2:-0.86423345 3:-1.397589 4:-0.5291283 
-445.7218884076158 1:-1.9602425 2:-1.0857188 3:-1.4261819 4:-0.65966086 
-445.7218884076158 1:1.2366767 2:1.1703286 3:-0.39030998 4:-0.80648042 
-445.7218884076158 1:1.3099951 2:-0.19849128 3:0.67093302 4:-0.58541748 
-445.7218884076158 1:0.6688178 2:-0.70452542 3:0.79660918 4:-0.45557821 
-81.91883611287432 1:1.174765 2:0.74826217 3:0.33314058 4:0.50062797 
-216.7388420082583 1:-1.8129241 2:-0.75427639 3:-0.56465725 4:-0.47529043 
-445.7218884076158 1:1.1806118 2:-0.40391079 3:0.89219671 4:-0.58543398 
-445.7218884076158 1:1.2223646 2:1.3287891 3:-0.12742272 4:-0.78003606 
-445.7218884076158 1:0.35212103 2:-0.91532101 3:-0.99839678 4:-0.9164479 
-445.7218884076158 1:1.1170501 2:-0.12839439 3:1.1376809 4:0.4138557 
-445.7218884076158 1:-0.28532583 2:-0.57374722 3:-1.1934235 4:-1.091976 
-445.7218884076158 1:-0.16648832 2:-0.98237046 3:-1.0056227 4:-0.35377899 
-445.7218884076158 1:-2.0946512 2:-0.89152965 3:-0.85907142 4:-0.83980548 
-445.7218884076158 1:-1.3038204 2:-1.3232789 3:-1.112679 4:-0.9442651 
-445.7218884076158 1:0.87747394 2:-0.22305489 3:-0.97180602 4:-1.1100238 
-305.5586453294314 1:-1.8649357 2:-0.72130709 3:-1.0465927 4:-1.0223436 
-445.7218884076158 1:1.269462 2:0.7416089 3:-0.29987147 4:-0.65404295 
-318.1047273071418 1:0.60708542 2:0.61896906 3:-0.95238935 4:-0.31641794 
-72.70273388758214 1:-0.25480041 2:0.70258039 3:-0.37719294 4:-0.51057708 
-445.7218884076158 1:-0.88844504 2:0.20364503 3:-1.0850903 4:-0.67042899 
-179.111447969182 1:-0.73025807 2:-1.0741409 3:0.10851134 4:-0.7098636 
-97.67295029338275 1:-1.4676389 2:-0.34046717 3:-0.63280255 4:-0.512701 
-445.7218884076158 1:1.2376452 2:-0.60627098 3:-0.64597712 4:-0.41449757 
-445.7218884076158 1:1.2988754 2:0.78420167 3:0.69431931 4:-0.12364265 
-143.7354131002735 1:-2.0483393 2:-1.4420516 3:-1.0673792 4:-0.56652511 
-445.7218884076158 1:1.2028513 2:-0.57630159 3:0.035907393 4:-0.84063359 
-445.7218884076158 1:0.76319193 2:-0.67016013 3:0.92429893 4:-0.031312994 
-445.7218884076158 1:0.41055336 2:-0.41436591 3:0.45539365 4:-0.80766343 
-445.7218884076158 1:1.3060494 2:-0.35017974 3:1.0520174 4:-0.029057026 
-445.7218884076158 1:1.1864228 2:-0.414158 3:0.5086097 4:-0.73183388 
-445.7218884076158 1:-1.3361751 2:-0.48342322 3:-1.3430268 4:-0.55628246 
-445.7218884076158 1:-1.9651567 2:-1.0339748 3:-0.66562391 4:-0.77700701 
-445.7218884076158 1:1.0799963 2:-0.14098807 3:1.3523573 4:-0.20557284 
-445.7218884076158 1:0.47318248 2:0.2563068 3:0.94791534 4:-0.45662916 
-445.7218884076158 1:0.46367692 2:-0.75593971 3:0.39035502 4:-0.79227057 
-222.9399566314946 1:-1.0245361 2:0.085609012 3:-0.69709329 4:-0.58404739 
-445.7218884076158 1:-0.83951828 2:-1.2533261 3:-0.47154355 4:-0.78318617 
-445.7218884076158 1:-1.6642786 2:-0.94502605 3:-1.4476984 4:-0.61666265 
-445.0378976355362 1:0.81240565 2:0.90146544 3:-0.1504063 4:-0.98645722 
-18.06087929284321 1:-0.61432603 2:0.44025171 3:-0.9798891 4:-0.84814156 
-445.7218884076158 1:0.81735572 2:0.63592894 3:1.049745 4:0.413388 
-445.7218884076158 1:-0.7745576 2:-0.14235437 3:-1.2655989 4:-0.6287871 
-122.789668870972 1:1.0900399 2:0.57893067 3:-0.95426774 4:-0.91667625 
-445.7218884076158 1:0.50087417 2:0.38955028 3:-1.1142726 4:-0.82722983 
-445.7218884076158 1:1.2665924 2:0.27938531 3:0.19049281 4:-0.024792694 
-445.7218884076158 1:-1.8543541 2:-1.4382527 3:-0.63913095 4:-0.7462565 
-445.7218884076158 1:1.0252945 2:0.62621637 3:-0.96112541 4:-0.87694093 
-445.7218884076158 1:1.096927 2:-0.2705485 3:-0.36749899 4:-1.0840526 
-445.7218884076158 1:1.239367 2:-0.077663261 3:1.0798624 4:-0.44968518 
-428.7320477632638 1:-2.0144744 2:-1.2147808 3:-1.2959291 4:-0.50930879 
-445.7218884076158 1:1.2988754 2:0.5620896 3:-0.75088464 4:-0.47842127 
-201.3490832895545 1:0.96765128 2:-0.57235122 3:0.46822304 4:0.21367973 
-445.7218884076158 1:0.84651808 2:-0.84109554 3:0.33524046 4:-0.21809071 
-445.7218884076158 1:-0.19335499 2:-0.22658943 3:0.75812104 4:-0.41647842 
-445.7218884076158 1:0.81233391 2:0.13984499 3:-1.038047 4:-0.99447141 
-197.9788597286725 1:1.3523218 2:1.3409075 3:-0.19223123 4:-0.46403534 
-445.7218884076158 1:-1.2365281 2:-0.71691119 3:-0.31126258 4:-0.98211585 
-387.4784254844766 1:0.35542107 2:-0.91677641 3:-0.7069023 4:-0.33490588 
