svm_type c_svc
kernel_type rbf
gamma 1.2
nr_class 2
total_sv 617
rho 1.59303
label 2 1
nr_sv 315 302
SV
1 1:1.3608684 2:-0.67465146 3:-1.1727772 4:-1.461274 5:-1.0891245 6:-1.0079836 
1 1:-0.49709242 2:-0.43935873 3:-1.063456 4:-1.0693857 5:-1.1609245 6:-0.94957364 
0.7355067399409975 1:1.4524022 2:-0.50475452 3:-0.073217734 4:-0.86182079 5:-1.6202624 6:-1.0214304 
1 1:1.4871753 2:-0.63047283 3:0.060199815 4:-0.48641941 5:-0.83816871 6:-1.1680349 
1 1:0.3922028 2:-0.67320197 3:0.10222279 4:-1.0134397 5:-0.98367794 6:-1.0296112 
0.9117728895899996 1:0.97269803 2:0.46105355 3:-0.49731785 4:-0.98004461 5:-1.2834789 6:-0.98872189 
1 1:1.5956205 2:0.90013418 3:-0.7961596 4:-1.3588655 5:-1.1277689 6:-0.8152613 
1 1:-1.1727676 2:-1.5960978 3:-1.0040705 4:-0.83319746 5:-1.0690946 6:-1.3292504 
0.9424888174658139 1:1.6545505 2:-0.35816257 3:-0.16303333 4:-0.99853709 5:-0.7665422 6:-1.1168171 
1 1:1.1474364 2:-0.33539367 3:0.64047231 4:-0.79512056 5:-0.52704574 6:-1.0879546 
1 1:1.6892793 2:0.32133203 3:0.86166857 4:-0.43543073 5:-0.48768788 6:-1.0285495 
0.6804582470743719 1:0.39100642 2:-0.25991306 3:-1.4039969 4:-1.3561569 5:-0.76006105 6:-1.515511 
0.5770844434802875 1:1.0398637 2:0.24530363 3:0.27754729 4:-0.8404906 5:-0.93501541 6:-1.2198579 
1 1:-1.1202354 2:-1.1967512 3:-1.1312595 4:-1.2923898 5:-1.0389752 6:-1.0340706 
1 1:0.37470014 2:-0.55040949 3:0.1024979 4:-1.2099765 5:-0.94288233 6:-0.98564745 
0.7515199035301521 1:1.5841108 2:-0.79105313 3:0.53353102 4:-0.75277364 5:-0.82945756 6:-1.3245837 
1 1:1.3017567 2:-0.041543737 3:-1.2503132 4:-0.89768613 5:-1.1741896 6:-1.1481459 
1 1:1.1119027 2:-0.33857332 3:0.65329842 4:-0.62995611 5:-0.90915003 6:-0.97049097 
1 1:1.3434598 2:0.32274369 3:0.26074653 4:-0.4780103 5:-0.93056647 6:-0.9816766 
1 1:-0.65872606 2:-1.4123734 3:-0.31185096 4:-1.5105744 5:-1.0647388 6:-1.3538489 
0.1687295270701873 1:0.72851228 2:0.075798526 3:-0.84373407 4:-1.2569933 5:-1.3886147 6:-0.81366886 
1 1:1.6607511 2:-0.47033226 3:-0.24710293 4:-0.5431217 5:-0.91161062 6:-1.2663792 
1 1:0.71872203 2:-0.088314886 3:-1.3045125 4:-0.98268296 5:-0.97260829 6:-1.2353487 
0.255146650763274 1:0.80886041 2:-0.11195935 3:0.07016177 4:-1.1500321 5:-1.2007549 6:-0.98343962 
1 1:-1.3642431 2:-1.5415584 3:-1.7048417 4:-1.2245037 5:-0.80297422 6:-1.3646688 
1 1:1.3900906 2:-0.93389611 3:-1.5630899 4:-1.354561 5:-1.280478 6:-1.183096 
1 1:0.0131164 2:-0.49663492 3:-1.2548191 4:-1.0303379 5:-1.1632836 6:-1.018816 
0.2003283920444987 1:1.6489313 2:0.25888658 3:-1.2029241 4:-1.7658978 5:-1.0358996 6:-1.4404641 
0.6787653908773478 1:0.6334221 2:-0.048556744 3:0.29557614 4:-0.6445507 5:-0.8699475 6:-1.5778942 
0.4914692778618173 1:-1.0187986 2:-1.1275811 3:-0.79521045 4:-1.1933112 5:-0.97712174 6:-1.7499791 
1 1:0.40324372 2:-0.49876135 3:0.21915795 4:-1.0417714 5:-0.96885355 6:-0.89079553 
1 1:1.298367 2:1.2266506 3:-0.25704917 4:-0.8757839 5:-1.1539035 6:-1.5825172 
1 1:-1.4765123 2:-1.2885376 3:-1.1075326 4:-1.0247073 5:-1.2826931 6:-1.1845714 
1 1:1.1029265 2:1.1457026 3:-0.85908062 4:-0.96142411 5:-1.2788269 6:-1.53191 
1 1:1.1543018 2:-0.49185402 3:0.39787638 4:-1.194967 5:-0.93310863 6:-1.0829864 
1 1:1.5388072 2:0.81312053 3:0.10636806 4:-0.72983471 5:-0.97477609 6:-1.1401369 
0.2192381913872614 1:-0.33071402 2:-1.6092161 3:-1.4782217 4:-1.1633537 5:-1.2404189 6:-1.8468889 
1 1:0.9910611 2:0.15104275 3:-0.34336963 4:-0.51969046 5:-1.2283917 6:-1.2174954 
0.1349827753148424 1:-1.6686215 2:-1.3303568 3:-1.193403 4:-1.7906573 5:-1.501443 6:-1.1493827 
1 1:-1.1478822 2:-1.5216819 3:-1.308014 4:-1.0928955 5:-0.99998475 6:-1.1517568 
1 1:1.6160355 2:1.154459 3:0.21006666 4:-0.72832531 5:-1.1911829 6:-1.3497688 
1 1:0.90007721 2:-0.57724178 3:0.24890574 4:-1.2371908 5:-1.0136317 6:-1.0162257 
1 1:1.6963091 2:0.50401903 3:-0.91276069 4:-0.81502999 5:-0.88029612 6:-1.6084639 
1 1:0.64093948 2:-0.47776208 3:-0.63695085 4:-0.80896278 5:-0.76289494 6:-1.4707326 
0.004002126770230204 1:1.0147445 2:-0.20334204 3:0.28202125 4:-0.4050357 5:-1.2369998 6:-1.3783774 
1 1:0.69624295 2:-0.92990032 3:0.14226861 4:-0.90562098 5:-0.93096646 6:-1.0533283 
1 1:1.05016 2:-0.62833259 3:-0.053079823 4:-1.1961158 5:-0.76662678 6:-1.0561036 
1 1:0.65053005 2:0.31588464 3:-1.0781655 4:-1.251626 5:-1.1570429 6:-0.94707781 
1 1:1.6274722 2:0.21686474 3:0.85768643 4:-0.28516329 5:-0.25087784 6:-1.265135 
1 1:1.5148532 2:0.11644335 3:-0.38313277 4:-0.78159962 5:-1.1482858 6:-0.88348145 
0.281865054258891 1:-1.322565 2:-1.8394247 3:-1.480371 4:-1.8398662 5:-1.2464609 6:-1.7425721 
1 1:0.78732795 2:-0.31309524 3:-0.34352266 4:-0.73180816 5:-1.1071388 6:-1.0066054 
1 1:0.0049813244 2:-0.83567882 3:0.20756254 4:-1.4405762 5:-1.2705068 6:-1.3693915 
1 1:-1.6232522 2:-1.7789086 3:-1.1514786 4:-1.147557 5:-1.4865645 6:-1.2137024 
0.6210274646958895 1:0.73598528 2:0.78792564 3:-1.0836834 4:-1.2290457 5:-1.2115386 6:-1.4305662 
1 1:0.90585307 2:-1.1222183 3:-0.20071058 4:-0.91347651 5:-1.0118916 6:-1.2362809 
1 1:0.45495601 2:-0.86772691 3:0.34349309 4:-0.6952922 5:-0.78692377 6:-1.419572 
1 1:0.15933868 2:0.12690842 3:-0.865828 4:-1.2896197 5:-0.95774628 6:-1.2551927 
1 1:-0.49749793 2:-0.40885554 3:-1.6332388 4:-0.95285057 5:-1.0981313 6:-1.1318702 
1 1:1.2692577 2:0.064777675 3:0.78392619 4:-0.82106628 5:-0.92442434 6:-0.94853626 
0.1277511625911303 1:-1.455396 2:-0.92433708 3:-1.8334431 4:-1.4637108 5:-1.2821136 6:-1.5235768 
1 1:0.88649065 2:0.88903876 3:-1.0271425 4:-1.126039 5:-1.3340016 6:-1.2382437 
1 1:0.97006266 2:-0.10480633 3:-0.10696771 4:-0.61928104 5:-1.0860219 6:-1.004888 
1 1:-0.64456667 2:-0.27647326 3:-1.3961591 4:-1.4133602 5:-1.2054494 6:-1.1595698 
0.5963972905138083 1:-0.63470925 2:-1.3364159 3:-0.69248263 4:-1.3745604 5:-1.1183635 6:-0.96974728 
0.4613734946595006 1:0.20448819 2:-0.46928615 3:-0.39409533 4:-1.2139694 5:-0.96246307 6:-1.0383827 
1 1:1.4806671 2:0.80295419 3:-0.16562666 4:-0.64377684 5:-1.5032696 6:-1.0849662 
1 1:0.84703187 2:0.25444348 3:-0.16871099 4:-0.76285881 5:-1.004751 6:-1.1609695 
0.5606428351819046 1:-0.070958893 2:-0.088699327 3:-1.3346344 4:-1.2000855 5:-1.0885982 6:-1.2222072 
1 1:0.41183642 2:0.20186694 3:-1.3991463 4:-1.0482305 5:-1.4928723 6:-0.96075944 
0.2492884223748761 1:0.73945213 2:-0.42471667 3:-1.3270238 4:-1.1782892 5:-1.2484788 6:-0.88649912 
1 1:0.81290273 2:0.25206828 3:-1.0024969 4:-1.0139851 5:-1.0825694 6:-1.0844509 
0.01314171767809566 1:0.64161777 2:-0.91588574 3:-0.41223805 4:-1.338883 5:-1.2452144 6:-0.91245842 
1 1:-0.56488565 2:-0.89806262 3:-0.76491543 4:-1.3429999 5:-0.9579533 6:-1.0442368 
1 1:0.95163184 2:-0.69561634 3:-0.65330648 4:-1.0091703 5:-0.98238007 6:-1.0228407 
1 1:1.4675187 2:-0.15652257 3:-1.3043827 4:-0.80916146 5:-1.3618953 6:-1.0289313 
0.5457932603089944 1:1.487125 2:-0.79759102 3:-0.74949131 4:-0.94347576 5:-1.378025 6:-1.1291166 
0.5158903283907396 1:0.86511741 2:-0.82489584 3:-1.4487711 4:-1.2550049 5:-1.0306627 6:-1.1418122 
1 1:0.9933597 2:-0.58223558 3:0.27696797 4:-0.63900981 5:-0.87614177 6:-0.91717451 
1 1:-0.35758218 2:-0.78099211 3:-1.2993811 4:-1.1179261 5:-1.3576588 6:-0.81429128 
1 1:-0.94544126 2:-1.3260469 3:-0.99713055 4:-0.90486608 5:-1.1927335 6:-1.2669897 
1 1:-0.27717263 2:-1.0934877 3:-1.5270456 4:-1.269146 5:-0.7747558 6:-1.4718293 
1 1:1.6516253 2:-0.4184989 3:-0.733057 4:-0.91010455 5:-1.1126034 6:-1.1625298 
1 1:0.75662138 2:-0.43809705 3:0.55734274 4:-0.81676529 5:-0.9682718 6:-1.1277779 
1 1:1.1202639 2:-0.37701657 3:-0.059935584 4:-0.63908077 5:-0.7207698 6:-1.0487605 
0.7789021780472409 1:0.14111774 2:-1.6362771 3:-0.90873073 4:-1.7084327 5:-1.5056958 6:-1.4459532 
0.02664435913984137 1:-1.0922603 2:-1.0807075 3:-1.0332697 4:-1.2198064 5:-1.5034333 6:-0.91652351 
0.3328083784617258 1:-0.31324979 2:-1.4252775 3:-1.6556878 4:-1.0583009 5:-1.4560575 6:-1.203311 
0.03391365820973984 1:0.095690434 2:-0.89661777 3:-1.1728339 4:-1.0557872 5:-1.1052852 6:-1.0528088 
1 1:1.2441201 2:0.7071795 3:-0.92641225 4:-1.0780046 5:-1.2300395 6:-0.97256569 
1 1:1.0924952 2:-0.61470611 3:-0.1741038 4:-0.45860629 5:-1.182431 6:-1.2465857 
1 1:1.2012649 2:0.67532793 3:-1.0373358 4:-1.5471475 5:-1.0669468 6:-1.1174516 
0.570581878591263 1:-1.0569361 2:-1.0556559 3:-0.94261102 4:-1.2129687 5:-0.97323925 6:-1.3084638 
1 1:0.86053404 2:-0.35968492 3:-0.22687258 4:-0.86220448 5:-0.97123445 6:-0.88991351 
1 1:1.5216826 2:0.095298583 3:0.9373544 4:-0.38024222 5:-0.66696603 6:-1.1963481 
0.2892182791117796 1:1.5355931 2:-0.94957014 3:-0.87182651 4:-1.5097366 5:-1.1456475 6:-1.4091004 
1 1:-0.31616139 2:0.053054228 3:-1.2663453 4:-1.0649959 5:-1.3498338 6:-1.4574958 
1 1:1.4699565 2:0.62214161 3:0.31625188 4:-0.58721582 5:-1.0819941 6:-1.1891365 
1 1:0.28102636 2:-0.92876767 3:-1.0184214 4:-1.2068173 5:-0.88928271 6:-1.149535 
0.3673053853761589 1:1.5812313 2:-0.092100186 3:0.31567802 4:-0.2953989 5:-1.2221519 6:-1.4653959 
0.967860849832769 1:-1.5219469 2:-1.5604424 3:-1.5052759 4:-1.3736377 5:-1.1617629 6:-0.92822245 
0.345408083659221 1:0.68330913 2:-1.1728893 3:-1.5452487 4:-1.2239311 5:-1.172754 6:-1.3158207 
1 1:0.23578354 2:0.081119895 3:-0.58888197 4:-0.99393252 5:-1.3738546 6:-1.0726617 
0.2150032102375531 1:-0.46352843 2:-1.2088706 3:-0.94214613 4:-0.92019002 5:-1.1151029 6:-1.211791 
0.2123789125700707 1:1.7176677 2:0.81038071 3:-0.93332193 4:-0.94857924 5:-1.4595731 6:-1.1062478 
1 1:-1.1581758 2:-0.85917063 3:-0.88074641 4:-1.3571585 5:-1.2079038 6:-1.1139171 
1 1:1.3682424 2:-0.010256005 3:1.0502979 4:-0.70981646 5:-0.88863196 6:-1.3188712 
1 1:1.6877978 2:1.4264378 3:-0.67227722 4:-1.3931173 5:-1.2463101 6:-1.2586116 
1 1:0.99067289 2:-1.1863782 3:-1.2804733 4:-1.0217027 5:-1.2935073 6:-1.5410827 
0.05528252227368835 1:-0.92379832 2:-0.65190401 3:-1.377358 4:-1.3411344 5:-1.266844 6:-0.99571106 
1 1:1.675882 2:-0.54161661 3:0.68681946 4:-0.84030513 5:-1.2438139 6:-1.1831964 
1 1:-0.09874397 2:-0.58673214 3:-1.4716398 4:-1.5775269 5:-0.89001316 6:-0.92232982 
1 1:0.2960657 2:-1.1271147 3:-1.4518903 4:-1.0488764 5:-0.96743545 6:-1.3324471 
1 1:1.4389481 2:1.2445371 3:-0.97120495 4:-1.0185321 5:-1.4396331 6:-1.3192829 
1 1:1.4809916 2:1.2032953 3:-0.63243644 4:-0.96797251 5:-1.0616787 6:-1.1655551 
1 1:1.513884 2:-0.047439942 3:0.89845865 4:-0.13204848 5:-0.42499824 6:-1.2717712 
0.8160014805547414 1:1.6758897 2:0.28775771 3:-1.3441502 4:-1.2774011 5:-1.1105051 6:-1.1569196 
1 1:1.5067399 2:-0.41055837 3:0.92580697 4:-0.57849177 5:-0.36035553 6:-1.1037529 
0.4339922729872013 1:0.87399179 2:1.0159182 3:-0.44241808 4:-1.2572089 5:-1.5294762 6:-1.3539388 
0.1579006352069943 1:-0.87534162 2:-1.231623 3:-1.5308099 4:-0.82529572 5:-1.2353582 6:-1.6103815 
1 1:0.099604973 2:-0.4641588 3:-0.010264135 4:-1.0814641 5:-0.84516993 6:-1.0884168 
1 1:1.3278642 2:0.24231856 3:0.16910202 4:-0.72978177 5:-0.63967032 6:-1.0238241 
0.8622823817832606 1:0.90013071 2:0.40987613 3:-1.45798 4:-1.6400522 5:-1.2917163 6:-1.0063507 
1 1:1.3790837 2:-0.730835 3:-0.68671699 4:-1.3023843 5:-0.79872192 6:-1.1201687 
0.04552635420551584 1:-1.2879685 2:-1.5423787 3:-1.0997586 4:-1.6949404 5:-0.86162936 6:-1.6757157 
1 1:-1.2249973 2:-1.0530954 3:-1.0113569 4:-1.3576216 5:-1.0292063 6:-1.182579 
1 1:0.99171682 2:0.21709684 3:-0.8395096 4:-0.93835113 5:-1.0340984 6:-0.94768405 
1 1:1.1223971 2:-0.37136058 3:0.67534286 4:-0.81758301 5:-0.56188817 6:-1.0612189 
0.7267251268454014 1:0.80156989 2:-0.96016266 3:0.12015595 4:-0.85754553 5:-1.4334824 6:-1.3551767 
1 1:0.051074485 2:-1.1526549 3:-1.0236822 4:-0.92859986 5:-1.2513561 6:-1.0822439 
1 1:1.6743719 2:1.3959854 3:-0.63331899 4:-1.0503624 5:-1.104286 6:-1.0867215 
1 1:1.2839276 2:-0.93123519 3:-0.19144046 4:-1.3012064 5:-1.1040993 6:-1.116543 
1 1:0.48005059 2:-0.6249295 3:0.20949903 4:-0.79372918 5:-1.1623716 6:-1.0936067 
0.3563564945858714 1:1.6195302 2:0.1578986 3:-0.68559876 4:-1.1056052 5:-0.89469072 6:-1.0730899 
1 1:1.6255053 2:0.47866272 3:0.35696272 4:-0.68901105 5:-0.69380642 6:-1.2622 
1 1:-1.4135457 2:-1.61014 3:-1.4942457 4:-1.2870244 5:-1.0960632 6:-0.81127679 
1 1:0.74187185 2:-0.19952437 3:0.38271265 4:-0.89225717 5:-1.1781144 6:-1.1697896 
0.9295039165087503 1:0.38918577 2:-1.0767406 3:-1.0223243 4:-1.0023046 5:-1.1713654 6:-1.1151607 
1 1:1.2842948 2:-0.19886613 3:-0.31320614 4:-0.70029986 5:-1.254233 6:-0.91587274 
1 1:-1.6231245 2:-0.94757831 3:-1.2774786 4:-1.5017652 5:-1.2473923 6:-0.8827597 
1 1:0.34396296 2:-1.1902364 3:-1.4389096 4:-1.3782127 5:-1.2458348 6:-0.93504227 
1 1:0.37885564 2:-0.88985498 3:0.30794711 4:-1.1492276 5:-1.2511482 6:-1.0883182 
1 1:1.2065555 2:-0.94673546 3:-0.070154752 4:-1.5257344 5:-1.3908785 6:-1.0517408 
0.06587402476859827 1:-0.29575713 2:-1.0875521 3:-0.78521978 4:-1.0103865 5:-1.2450271 6:-0.97087616 
0.786904931319234 1:1.3166393 2:-0.53185983 3:-0.54864569 4:-0.98376793 5:-1.6676358 6:-0.90028533 
1 1:1.6675665 2:-0.83817692 3:0.052343875 4:-0.64803035 5:-1.0349113 6:-1.287071 
1 1:1.420551 2:-0.64468433 3:0.6208613 4:-0.75945684 5:-1.236545 6:-1.1748732 
0.3607242015821528 1:1.6515041 2:-0.38425047 3:-0.26450357 4:-1.3503291 5:-0.82860995 6:-1.2599645 
1 1:1.4170611 2:-0.56786985 3:0.042961327 4:-1.2755247 5:-0.91978462 6:-1.0091358 
1 1:1.353183 2:0.14315826 3:0.89130582 4:-0.80662308 5:-0.99118099 6:-1.0423728 
0.6020779313918034 1:-1.5742349 2:-1.948232 3:-1.7628604 4:-1.307584 5:-1.4002619 6:-1.6433386 
1 1:1.053471 2:-0.60723422 3:0.3434316 4:-1.1643833 5:-0.65815497 6:-1.2807408 
0.4868240770198057 1:1.5783396 2:1.3182022 3:-0.057391977 4:-1.2627287 5:-1.4045365 6:-1.4816833 
1 1:1.4581487 2:0.2134252 3:0.54422955 4:-0.91239796 5:-0.89070825 6:-0.99377247 
1 1:1.0473207 2:0.47011964 3:-0.90692044 4:-0.9333585 5:-0.9505097 6:-1.2748205 
1 1:0.63396728 2:-1.1911514 3:-0.040436057 4:-1.1835649 5:-1.1781109 6:-1.2924519 
1 1:1.7233509 2:-0.16242722 3:0.90376462 4:-0.85893709 5:-0.76829337 6:-1.0303908 
1 1:1.1475209 2:0.6779814 3:0.2290065 4:-0.73426196 5:-1.3322378 6:-1.1962123 
0.1020727509251552 1:0.44620322 2:0.13171909 3:-0.83195207 4:-1.2588296 5:-1.2183251 6:-0.96116746 
1 1:1.0187004 2:0.92133641 3:-0.54534149 4:-1.2076049 5:-1.099637 6:-1.2277705 
1 1:1.0599732 2:0.047160965 3:0.46219519 4:-1.0688875 5:-1.3142896 6:-1.1461021 
1 1:1.2489789 2:-0.072406262 3:0.24199873 4:-0.63972469 5:-0.73466846 6:-0.94231592 
0.5666628405290001 1:0.71100375 2:-0.069416229 3:-0.42293791 4:-0.62021919 5:-0.88188071 6:-1.719658 
1 1:1.0862066 2:0.17715864 3:0.53728032 4:-0.71605706 5:-0.88878183 6:-1.2582536 
1 1:1.6255832 2:-0.9744558 3:-0.87844479 4:-0.951869 5:-1.4547804 6:-1.7007979 
1 1:-0.42136326 2:-1.2699377 3:-0.6109923 4:-1.2225758 5:-1.0247257 6:-0.98461326 
1 1:-0.88939536 2:-0.46394959 3:-1.4312998 4:-1.2072958 5:-0.88612137 6:-1.3575671 
1 1:0.94325096 2:0.20767943 3:-0.78566637 4:-0.97864206 5:-0.92270696 6:-1.1803781 
1 1:0.90878372 2:0.39617534 3:-0.35868541 4:-0.84338344 5:-1.2388348 6:-0.88217459 
1 1:-0.82295232 2:-0.99989751 3:-0.68144003 4:-1.2746329 5:-1.1023342 6:-0.9738993 
1 1:-0.27423324 2:-0.69661516 3:-1.6163882 4:-1.2771291 5:-1.1043943 6:-0.94332628 
1 1:1.3834281 2:0.054049049 3:-0.44639083 4:-0.66021051 5:-1.2877918 6:-0.87990633 
1 1:1.6121992 2:-1.0194688 3:-0.43205241 4:-1.042902 5:-1.1908352 6:-1.281472 
1 1:1.7023805 2:-0.035873884 3:0.28807274 4:-0.72134268 5:-0.78131506 6:-0.82191526 
0.9106492352832753 1:1.7068597 2:0.04468589 3:-0.39230895 4:-0.5570641 5:-1.0170455 6:-1.2539144 
1 1:1.2351855 2:-0.44612206 3:-0.43372781 4:-0.89394988 5:-0.85540888 6:-1.0397559 
1 1:0.74356513 2:0.21252224 3:-0.34169431 4:-1.2654093 5:-1.0633586 6:-0.99536945 
1 1:1.0210954 2:-0.56131763 3:0.78740116 4:-0.7475286 5:-0.5327385 6:-1.1491596 
1 1:1.1225706 2:0.014231302 3:0.5199622 4:-0.44137041 5:-0.98818937 6:-1.2284661 
1 1:1.4528501 2:-0.072721323 3:0.09349149 4:-0.60504586 5:-0.55830902 6:-0.80068389 
1 1:1.3300801 2:-0.042358781 3:0.70941409 4:-0.86095514 5:-0.88893618 6:-1.0145913 
0.2065891512910653 1:1.6454666 2:1.1294831 3:-0.18786922 4:-1.0120326 5:-0.97366905 6:-1.3117051 
0.5445110623582706 1:1.6292396 2:0.13629721 3:0.59291088 4:-0.4848459 5:-0.9365894 6:-0.98169301 
1 1:1.7039334 2:-0.70295323 3:-1.3077373 4:-1.5367784 5:-1.2695596 6:-0.9169945 
1 1:0.85062452 2:-0.16503268 3:-0.11410947 4:-1.0720698 5:-1.3451431 6:-0.8860059 
1 1:0.4097334 2:-1.19589 3:-0.63474878 4:-1.098172 5:-1.1922566 6:-1.0578065 
1 1:1.7140081 2:0.022771596 3:0.51945182 4:-0.55492832 5:-1.1216868 6:-0.92325933 
1 1:1.1000194 2:-0.31459183 3:-1.2820828 4:-1.5296746 5:-1.0313088 6:-0.90071334 
1 1:1.3978126 2:0.54308178 3:-0.48420133 4:-0.77128852 5:-0.96405135 6:-1.1631746 
1 1:0.61300102 2:-0.40367298 3:-0.7347363 4:-1.1526486 5:-1.1362163 6:-0.83876177 
1 1:1.6571309 2:-0.058148377 3:0.78561016 4:-0.38065501 5:-0.94597831 6:-0.9480829 
0.9043570331547521 1:1.1886091 2:-0.45450052 3:0.75459313 4:-0.70782355 5:-0.99934626 6:-1.2870234 
1 1:0.050325004 2:-1.2538055 3:-0.76562284 4:-1.5379586 5:-0.97084037 6:-1.0811061 
0.9844417532804717 1:0.32650527 2:-1.1512544 3:-0.11438198 4:-0.92201595 5:-1.1404849 6:-1.2202614 
1 1:-0.56402578 2:-1.7770785 3:-1.5319328 4:-1.1251991 5:-1.1837777 6:-1.1902572 
1 1:1.5078069 2:-0.28581072 3:0.74066652 4:-0.84475521 5:-0.78347457 6:-1.0177029 
1 1:0.47992414 2:-1.1042106 3:-0.4043217 4:-1.0794387 5:-0.79567099 6:-1.1851027 
1 1:-0.50891992 2:-0.98573198 3:-0.61861241 4:-1.2227157 5:-0.94557774 6:-1.1538564 
0.5261735193516981 1:1.638299 2:0.74929628 3:-0.056078923 4:-0.57006064 5:-0.92435968 6:-1.3343311 
1 1:0.14099004 2:-0.55535268 3:-0.5314284 4:-0.75917473 5:-1.0407491 6:-1.1793659 
0.3759809055245955 1:0.49857956 2:-0.19331114 3:-1.6556045 4:-1.6174406 5:-1.4317543 6:-0.85404944 
0.6963360142430262 1:1.226065 2:-0.75230972 3:-1.2638676 4:-1.3664509 5:-1.0582779 6:-1.06419 
1 1:1.068026 2:-0.7665976 3:-1.5367591 4:-0.84417206 5:-1.4796136 6:-1.1152774 
0.1625683226400886 1:1.6055384 2:-0.46948087 3:-0.97087058 4:-1.682499 5:-1.7490866 6:-1.6945882 
1 1:1.7034681 2:-0.63380238 3:0.53138459 4:-0.81027163 5:-1.0141691 6:-0.83205228 
1 1:0.092556805 2:-0.86808385 3:-0.041583753 4:-1.0118731 5:-0.70695308 6:-1.178682 
1 1:0.70760074 2:-1.0158672 3:-0.70169321 4:-0.65155073 5:-1.1599735 6:-1.5492321 
0.08850704316314058 1:0.593422 2:-0.062873859 3:-1.8191509 4:-1.5946338 5:-1.3396349 6:-1.6928817 
1 1:1.1106621 2:0.14533424 3:0.093542145 4:-1.317603 5:-0.85596925 6:-1.3318445 
1 1:-0.012095374 2:-0.20852316 3:-1.0020329 4:-0.78573089 5:-1.0599342 6:-1.2400038 
0.6486493970181116 1:1.5724269 2:0.94176112 3:0.048124671 4:-0.64837872 5:-1.4427437 6:-1.1981347 
1 1:0.90390878 2:-0.78223795 3:-0.82201806 4:-1.2193228 5:-1.0577389 6:-0.97400396 
1 1:1.6738965 2:1.3620443 3:-0.23037328 4:-1.4335238 5:-0.91602594 6:-1.4585578 
0.7143652244802278 1:-1.2492527 2:-1.4289692 3:-1.7400855 4:-1.0205628 5:-1.2889183 6:-1.0658892 
0.4053707451193061 1:-0.050722942 2:-0.68039688 3:-1.4245192 4:-1.3184394 5:-0.88232758 6:-1.1603923 
1 1:0.98240041 2:-0.56112054 3:0.906643 4:-0.63475438 5:-0.43989306 6:-1.3363886 
1 1:-0.12128439 2:-0.95847336 3:-0.2271227 4:-0.78366124 5:-0.9768628 6:-1.6809845 
1 1:0.75041219 2:0.25360322 3:-0.88232063 4:-0.90434995 5:-1.0999208 6:-1.1608369 
0.1445955576737307 1:1.6715618 2:0.11029703 3:-1.2287925 4:-0.96084876 5:-1.3466364 6:-1.0663033 
0.5453670241545417 1:0.89659905 2:-1.2206737 3:-1.3860825 4:-1.1470367 5:-1.6952857 6:-1.2437881 
1 1:-1.3018352 2:-0.98792743 3:-1.5427485 4:-1.0789512 5:-1.1419545 6:-1.2762686 
0.7519785497787762 1:1.4066212 2:-0.52211914 3:-0.24401958 4:-0.65707701 5:-0.99852625 6:-1.0920199 
1 1:-0.61718374 2:-1.2768278 3:-0.75754632 4:-1.1954881 5:-0.96964978 6:-1.1204979 
1 1:1.6008767 2:0.43767685 3:-0.23951096 4:-0.65345294 5:-1.2314775 6:-0.94056117 
1 1:1.3810104 2:-1.0930102 3:0.42213753 4:-0.88659837 5:-0.72561398 6:-1.1341447 
1 1:1.7066704 2:-0.87534644 3:-0.65119203 4:-0.95440442 5:-1.336188 6:-1.0773704 
1 1:1.4144418 2:0.38871823 3:-0.47862308 4:-0.82493869 5:-0.87098529 6:-1.1211618 
1 1:1.0034664 2:0.011107044 3:0.55411799 4:-0.53194541 5:-0.52326632 6:-1.183944 
1 1:1.6378176 2:0.26036466 3:0.57566013 4:-0.58207026 5:-0.48996383 6:-0.95461939 
1 1:1.1650142 2:-1.1851362 3:0.0065540586 4:-0.80668912 5:-0.79613318 6:-1.2922112 
1 1:1.6042443 2:0.66546102 3:-1.1747852 4:-1.3430618 5:-1.3375942 6:-0.86407157 
1 1:1.5767979 2:-0.79741868 3:0.34502848 4:-0.81163077 5:-0.88840241 6:-1.0083971 
1 1:1.6763856 2:0.24406322 3:-1.0850324 4:-1.0862814 5:-1.1869381 6:-0.96936013 
1 1:1.2499744 2:-1.0779825 3:-1.2284557 4:-1.1910555 5:-1.2530048 6:-1.1623308 
1 1:0.26400297 2:-0.91561013 3:-0.68396545 4:-0.95349515 5:-1.1529139 6:-0.93901004 
1 1:0.82631946 2:-0.074163788 3:-1.1042208 4:-0.94854571 5:-1.02751 6:-1.1279138 
1 1:1.5277965 2:-0.34144002 3:0.96910263 4:-0.87902559 5:-0.54281085 6:-1.0394509 
1 1:-0.68008024 2:-1.0987486 3:-0.27446677 4:-1.1252994 5:-1.2061578 6:-1.1350226 
1 1:1.4825783 2:-0.64086813 3:-0.46962976 4:-1.0427433 5:-0.88904541 6:-1.0549668 
0.4420682251913702 1:-0.33783127 2:-1.1095654 3:-0.28677795 4:-0.86194249 5:-1.4169979 6:-1.4260185 
1 1:0.70058802 2:-0.81967612 3:-1.0999775 4:-0.91511166 5:-1.0522799 6:-0.92655146 
0.9664581731728101 1:-0.65170353 2:-0.82655768 3:-0.89638263 4:-0.85759297 5:-1.295753 6:-1.2963974 
0.8823641144686349 1:1.2752378 2:0.94297833 3:-0.34495262 4:-1.5385968 5:-1.1476278 6:-1.2236453 
0.1480339085527302 1:-0.39968493 2:-0.41587801 3:-1.3487359 4:-1.3264987 5:-0.86071109 6:-1.4220342 
0.3279989824568476 1:0.1208866 2:-1.5064613 3:-1.3931962 4:-1.3545768 5:-1.3785748 6:-1.1843177 
0.04745765092745748 1:-1.329869 2:-1.3527683 3:-1.1417933 4:-1.3313429 5:-0.94011473 6:-1.1790425 
1 1:-0.75649916 2:-1.1503383 3:-1.384435 4:-1.094831 5:-1.0582263 6:-1.0363093 
1 1:1.0424021 2:-0.17856796 3:0.6197772 4:-0.41365379 5:-0.605379 6:-1.1942555 
1 1:0.70905005 2:0.56866819 3:-1.0922066 4:-0.84435581 5:-1.2537033 6:-1.3510632 
1 1:1.530521 2:-0.077468192 3:-0.59345848 4:-1.29517 5:-1.1580976 6:-0.84344653 
1 1:0.44831697 2:-1.205017 3:-0.86010448 4:-0.93812075 5:-1.0568852 6:-1.2997843 
0.2150074057248614 1:-0.17982564 2:-1.2017852 3:-1.3999411 4:-1.0823449 5:-1.6627381 6:-0.92459971 
0.4457780522269333 1:0.10245096 2:-0.64704486 3:0.0003355625 4:-1.1619639 5:-1.2764823 6:-1.0730674 
1 1:1.4437461 2:-0.53713436 3:0.47340787 4:-0.98449192 5:-0.68746456 6:-0.86824172 
1 1:0.42162576 2:-0.38408544 3:-1.3131585 4:-0.74537318 5:-1.0028025 6:-1.1976265 
1 1:-0.90700976 2:-1.4224505 3:-1.0154585 4:-1.297808 5:-1.0733156 6:-0.98178231 
0.09957730741739007 1:0.33017177 2:-0.61211266 3:-0.33779043 4:-1.0073401 5:-1.2212295 6:-0.93443626 
1 1:-1.1410292 2:-1.1207477 3:-0.89927657 4:-1.2129929 5:-1.1171716 6:-1.1240325 
1 1:1.5562928 2:0.54760415 3:0.18477623 4:-0.2286824 5:-1.1841705 6:-1.5682488 
1 1:0.95331048 2:0.16948421 3:-0.70770812 4:-0.66030545 5:-0.89638665 6:-1.3945249 
1 1:1.279526 2:-0.60932027 3:0.51579638 4:-0.83467255 5:-0.57842554 6:-1.1437287 
1 1:1.0334418 2:-0.46863973 3:-0.37865543 4:-0.64197653 5:-0.93346163 6:-1.1153822 
1 1:0.98806136 2:0.068210422 3:0.11551891 4:-0.36747456 5:-1.3546367 6:-1.237166 
1 1:0.90560111 2:-0.58345522 3:0.16016675 4:-1.3455614 5:-0.64550679 6:-1.2903303 
1 1:0.69996801 2:-0.08675449 3:0.22185564 4:-0.93989369 5:-0.67604377 6:-1.2308965 
1 1:1.5258198 2:0.2173715 3:-0.96577004 4:-1.1541286 5:-0.87534428 6:-1.1644764 
1 1:0.54618867 2:-0.76957071 3:-0.31336603 4:-0.85457624 5:-1.0712001 6:-0.91433936 
1 1:0.45178688 2:-0.3666967 3:0.41099296 4:-0.83344701 5:-1.075284 6:-1.1538841 
1 1:-0.012773851 2:-0.7443175 3:-0.35813593 4:-1.4400406 5:-1.7555174 6:-0.84186234 
1 1:1.3534592 2:-0.2865574 3:0.84537452 4:-0.77928312 5:-1.0945174 6:-1.5164455 
1 1:1.3500129 2:-0.50148699 3:-1.0396911 4:-1.103562 5:-0.97701424 6:-1.1447846 
0.9153049171309682 1:1.4931334 2:-0.93333258 3:-0.082895614 4:-1.0309676 5:-1.1572859 6:-1.2077285 
1 1:1.7011392 2:1.2673249 3:-0.29920463 4:-1.1295064 5:-1.0082583 6:-1.0700235 
0.8356795449145377 1:0.54935758 2:-0.65514404 3:0.37110986 4:-0.78661398 5:-0.78826383 6:-1.3463228 
1 1:1.713165 2:0.21027588 3:-0.77452555 4:-0.99578325 5:-0.9818782 6:-0.94037651 
1 1:-0.62775672 2:-1.075316 3:-0.72751314 4:-1.1474258 5:-0.92963697 6:-1.2249662 
1 1:0.87828534 2:-0.75719582 3:-1.2765143 4:-1.2098578 5:-0.95459299 6:-1.106721 
0.07090982589390085 1:-0.6830383 2:-0.60757516 3:-1.7912355 4:-1.1901937 5:-1.0620031 6:-1.3265195 
1 1:1.4301716 2:0.41170567 3:0.63406328 4:-0.82640816 5:-0.7069863 6:-1.0094913 
1 1:1.5427156 2:0.30590559 3:0.74296888 4:-0.74833738 5:-0.83565469 6:-1.1584552 
1 1:0.17584984 2:-0.89431944 3:0.02097382 4:-0.91625736 5:-1.2349592 6:-1.1119227 
1 1:1.613865 2:0.91596231 3:0.32796025 4:-0.53754913 5:-1.0510712 6:-0.98857011 
0.4062848286923823 1:-1.0533891 2:-1.0428118 3:-1.624768 4:-0.92412307 5:-1.7133127 6:-1.5823403 
1 1:1.0740854 2:-0.3380574 3:0.71031365 4:-0.68451842 5:-0.72891054 6:-1.1846112 
0.7527272780320425 1:0.98762316 2:-0.68050561 3:-0.66925036 4:-1.1102525 5:-1.3640081 6:-0.86996609 
0.3397318941892648 1:0.15538037 2:-1.1016991 3:-0.38793925 4:-1.3945496 5:-0.71973723 6:-1.5520257 
1 1:1.311738 2:0.12381811 3:0.200419 4:-0.53998994 5:-0.87070341 6:-0.96960131 
1 1:-1.2839473 2:-0.60214028 3:-1.3305898 4:-1.5198142 5:-1.3543912 6:-1.297122 
1 1:1.7168995 2:0.30683437 3:-0.051539752 4:-0.90796655 5:-0.66809235 6:-1.1951294 
0.1324217972899503 1:1.1871113 2:-0.02410927 3:-0.25839756 4:-0.98673728 5:-0.74847236 6:-1.1037308 
1 1:1.699101 2:-0.057894425 3:0.75702938 4:-0.58956699 5:-1.0267576 6:-0.82128334 
1 1:0.13427212 2:-0.42851996 3:-0.83647329 4:-1.0935052 5:-0.8239735 6:-1.2763654 
1 1:1.6693967 2:0.094551815 3:0.42603459 4:-0.32544207 5:-0.7985485 6:-0.9567482 
1 1:-0.28027471 2:-0.426204 3:-0.9560688 4:-1.3412125 5:-1.1742175 6:-0.96223731 
1 1:1.381548 2:-0.78482405 3:0.40818631 4:-1.064709 5:-1.2009416 6:-1.2187854 
1 1:0.27503303 2:0.25512827 3:-0.71076315 4:-1.2140587 5:-1.3253097 6:-0.97815054 
1 1:1.0182894 2:0.066106173 3:-0.082096069 4:-0.77151232 5:-0.7872898 6:-1.109401 
1 1:0.21422976 2:-0.46574413 3:0.25160894 4:-1.1201487 5:-0.9729159 6:-0.94557996 
0.2081600743942198 1:-0.5888509 2:-0.31517921 3:-1.1946952 4:-1.3073309 5:-1.4663391 6:-1.0136911 
1 1:1.1057954 2:0.56160845 3:-1.1311113 4:-0.92676384 5:-1.2556483 6:-1.1977002 
1 1:1.4408525 2:0.78148714 3:0.72885772 4:-0.49400547 5:-0.72629494 6:-1.1986706 
1 1:1.1619233 2:-0.019465765 3:-0.19838694 4:-0.96224392 5:-1.7217293 6:-0.8645133 
1 1:1.2915222 2:1.0588285 3:-0.40410655 4:-1.0377993 5:-1.125404 6:-1.0984755 
1 1:0.16920115 2:-1.1592786 3:-0.37275249 4:-1.0317156 5:-1.1313038 6:-1.023885 
0.8279611593389525 1:0.88604995 2:-0.13861756 3:-1.2768509 4:-0.68800327 5:-1.3661485 6:-1.4461559 
1 1:1.4174911 2:-0.3334391 3:0.95189601 4:-0.50033629 5:-0.54167059 6:-1.1868927 
0.6805412222937265 1:0.044621388 2:0.050115553 3:-1.3533137 4:-1.3729731 5:-0.94504931 6:-1.7634143 
1 1:-0.033334195 2:-1.2726153 3:-0.86219363 4:-1.0554215 5:-1.1674701 6:-0.95056025 
1 1:0.97644808 2:-0.40629209 3:0.39568618 4:-0.57689172 5:-0.86821905 6:-0.95664651 
1 1:0.24210851 2:-0.34099017 3:-0.218437 4:-1.1711813 5:-0.8433736 6:-1.1274867 
1 1:0.82194854 2:-0.41605251 3:0.55046448 4:-0.47205259 5:-0.50917828 6:-0.99783436 
1 1:-1.2948061 2:-1.4778487 3:-0.95072463 4:-1.7416176 5:-1.1410727 6:-0.99042337 
1 1:1.3331238 2:-0.14930822 3:0.77905075 4:-0.37107877 5:-1.0016564 6:-1.1869117 
1 1:0.2308539 2:0.31329221 3:-1.2472387 4:-1.2319103 5:-1.176892 6:-1.2293431 
0.03968152488677446 1:1.6125915 2:-0.27482686 3:-0.55382394 4:-1.0100667 5:-1.1731303 6:-0.93905895 
-1 1:-0.013950944 2:-0.21611087 3:-1.3173781 4:-1.1780845 5:-0.81779003 6:-1.3447499 
-1 1:-0.89635205 2:-1.079822 3:-0.75810418 4:-0.81891898 5:-0.94981942 6:-1.3438869 
-1 1:1.3786647 2:0.62811942 3:-0.012685039 4:-0.93663689 5:-1.2577597 6:-0.96433424 
-1 1:1.6387515 2:-0.73284497 3:-0.47083909 4:-1.2480589 5:-1.3616239 6:-1.1526339 
-1 1:1.2319706 2:0.62454559 3:-0.7426051 4:-0.4297649 5:-1.2337426 6:-1.2910666 
-1 1:1.4054317 2:-0.51624271 3:-0.44815589 4:-0.57593263 5:-1.3430114 6:-0.94881183 
-1 1:1.1644941 2:0.33317314 3:-0.45524023 4:-1.3691293 5:-1.1771851 6:-0.983446 
-1 1:0.767183 2:-0.50993594 3:0.49579112 4:-1.362028 5:-0.90927024 6:-1.1930173 
-1 1:1.2226057 2:-0.086892304 3:0.76905382 4:-0.95638929 5:-0.5589064 6:-0.90901403 
-1 1:-1.3772488 2:-1.407595 3:-0.73568706 4:-1.3449954 5:-1.0571753 6:-1.1486761 
-1 1:1.2061472 2:0.16236498 3:0.31914821 4:-0.71846848 5:-0.3465991 6:-1.1552251 
-0.2937330188787214 1:1.6141511 2:0.46484434 3:1.3078629 4:-0.31220627 5:-0.83205324 6:-1.2648864 
-1 1:1.1517047 2:0.57086803 3:-0.51820108 4:-1.0633708 5:-0.95635147 6:-1.0464329 
-1 1:0.36141547 2:-0.99674796 3:-1.1939143 4:-1.3765052 5:-0.82719365 6:-0.99134888 
-0.1771634939769046 1:1.1778776 2:0.078099621 3:-0.026487865 4:-0.76192375 5:-0.34492664 6:-1.3075147 
-1 1:1.2047843 2:0.097335248 3:-0.495917 4:-0.97336998 5:-0.92170322 6:-0.85722021 
-1 1:0.00069051304 2:-0.83049469 3:-0.98177648 4:-0.88289126 5:-0.99986689 6:-0.94037369 
-1 1:0.34002986 2:-0.42637134 3:0.070364737 4:-1.1467227 5:-0.52340614 6:-1.1535973 
-1 1:1.1589381 2:-0.14596565 3:0.87694869 4:-1.0395405 5:-1.243913 6:-1.3235913 
-1 1:-0.21400426 2:0.070986994 3:-1.3022182 4:-1.1331637 5:-1.0226817 6:-1.1595166 
-0.6110942034888488 1:-0.8514842 2:-1.3518117 3:-0.95570078 4:-0.60514707 5:-1.3313351 6:-1.0992437 
-1 1:1.614815 2:0.74875378 3:0.54667865 4:-0.73777485 5:-0.8255212 6:-0.94849698 
-1 1:-0.089429575 2:-0.9873579 3:-1.1741846 4:-0.74723689 5:-0.92419612 6:-1.2917656 
-1 1:1.6269405 2:-0.14445903 3:-1.0224865 4:-0.85765916 5:-1.0667399 6:-1.1957723 
-1 1:1.0651489 2:-0.80694944 3:-0.69471095 4:-0.59597176 5:-1.3048409 6:-1.1626746 
-1 1:1.3050032 2:-0.31771983 3:0.85908816 4:-0.95947958 5:-0.70488344 6:-1.1706625 
-0.224521217581163 1:0.79845771 2:-1.4992673 3:-0.023294922 4:-1.3147615 5:-1.3378104 6:-1.2629405 
-1 1:1.3190856 2:0.58229028 3:0.21817139 4:-0.44308183 5:-1.2243516 6:-1.116394 
-1 1:1.1447858 2:-0.20395283 3:0.90066294 4:-0.61470468 5:-0.85218583 6:-1.3223192 
-0.1581959948354747 1:-0.93790025 2:-0.53723021 3:-1.1948788 4:-1.0720746 5:-0.78169021 6:-1.3222783 
-1 1:1.6526592 2:-0.47584439 3:0.49176669 4:-0.5501908 5:-1.2393279 6:-0.76411729 
-1 1:0.0079238819 2:-0.71904017 3:-1.1539626 4:-0.9816851 5:-1.0771628 6:-0.85394571 
-1 1:1.6249138 2:-0.59647875 3:-0.79528866 4:-1.1754912 5:-1.2318114 6:-1.0307689 
-0.9486419301108198 1:1.348019 2:0.36299012 3:0.80068391 4:-0.54703679 5:-1.164405 6:-0.98328857 
-1 1:1.3500458 2:-0.84450972 3:-0.48191461 4:-1.2396036 5:-0.55016544 6:-1.3489894 
-1 1:1.6684538 2:0.80526938 3:-0.87388162 4:-1.3173389 5:-0.97039379 6:-0.99427704 
-1 1:1.2705137 2:0.2154469 3:0.94875664 4:-0.23517193 5:-0.5698247 6:-1.2024032 
-1 1:0.069494877 2:-0.48274679 3:-1.3719874 4:-1.1731814 5:-0.78572935 6:-1.0587249 
-0.1164891767695441 1:-1.4211382 2:-1.2846867 3:-1.3484594 4:-0.47223255 5:-1.3251975 6:-1.3375224 
-1 1:1.693159 2:-0.62377301 3:1.0694565 4:-0.76998401 5:-1.03218 6:-1.2938689 
-0.3309924613100407 1:0.19047035 2:-0.31677381 3:-0.52748057 4:-0.44269953 5:-1.0643543 6:-1.3125461 
-1 1:1.2971408 2:-0.46319582 3:0.024100324 4:-0.60393644 5:-1.1783906 6:-0.73058512 
-1 1:-1.2723824 2:-1.0161588 3:-1.4349249 4:-1.3424371 5:-1.2919788 6:-0.55839036 
-1 1:1.3895323 2:-0.27977414 3:-1.3411256 4:-1.321044 5:-0.74805175 6:-1.0201897 
-1 1:1.4591753 2:-0.83462912 3:-0.60374534 4:-0.87346108 5:-1.0706812 6:-1.1779703 
-1 1:-0.86755835 2:-1.133885 3:-0.82775024 4:-1.359602 5:-0.79021028 6:-0.93010939 
-1 1:1.670166 2:-0.0063759645 3:-0.34335419 4:-0.70142407 5:-0.70892258 6:-1.069238 
-1 1:1.4602935 2:-1.114264 3:-1.184066 4:-1.1752363 5:-1.216876 6:-1.1891351 
-1 1:1.3646872 2:0.1305859 3:0.19708466 4:-0.32418515 5:-0.76168385 6:-1.2451008 
-1 1:-0.094146989 2:-1.5455835 3:-1.264934 4:-0.97426202 5:-1.3190189 6:-1.0360584 
-1 1:1.4483078 2:-0.73519249 3:-1.0752366 4:-1.3433101 5:-1.2119312 6:-0.81660379 
-0.6316823039250912 1:0.67926438 2:-0.51168782 3:-0.2589075 4:-0.33887201 5:-1.3357845 6:-1.1383929 
-1 1:-1.042557 2:-1.4949577 3:-1.4833635 4:-0.91449509 5:-0.95729814 6:-1.0501545 
-0.03720170350202685 1:1.2699196 2:-0.27483384 3:0.30577776 4:-0.28808923 5:-0.9969322 6:-0.77479091 
-1 1:0.96597834 2:-0.039241207 3:-1.2129888 4:-1.047537 5:-0.78421468 6:-1.0846911 
-1 1:1.1332194 2:-0.75390256 3:0.14496652 4:-0.45550673 5:-0.6050725 6:-1.0380735 
-1 1:-1.287548 2:-0.8427228 3:-1.1512685 4:-1.0785451 5:-1.2614265 6:-0.84487786 
-0.5509483569012071 1:1.7105611 2:1.3354579 3:0.34921509 4:-0.78307793 5:-1.041489 6:-1.0216695 
-1 1:0.85433287 2:0.49315469 3:-1.2195842 4:-1.2638258 5:-1.1867844 6:-1.0503088 
-1 1:1.0211546 2:-0.3376562 3:0.58120235 4:-0.89961708 5:-0.68658109 6:-0.93136881 
-1 1:1.233613 2:0.69577697 3:-0.019270484 4:-1.1466272 5:-0.96042216 6:-1.2485264 
-1 1:1.673311 2:-0.88879721 3:0.21587646 4:-0.86342559 5:-1.1584726 6:-1.1512139 
-1 1:0.94710869 2:0.0076040266 3:0.099201003 4:-0.3726741 5:-1.2873937 6:-1.1184563 
-0.3064599646773423 1:0.19347552 2:-0.46715507 3:0.37795157 4:-0.72251453 5:-1.3470338 6:-1.1386952 
-0.4404685630818529 1:0.27007235 2:-1.1219722 3:-0.058217736 4:-0.4577687 5:-1.0949003 6:-1.1756876 
-0.5685365575515794 1:0.33905143 2:-0.71035085 3:-0.32792163 4:-0.67733889 5:-1.3483917 6:-0.82463262 
-1 1:-0.23563448 2:-0.7708257 3:-1.1790072 4:-0.78014693 5:-0.94874652 6:-1.2420215 
-1 1:-1.7292273 2:-1.4118486 3:-0.72491087 4:-1.3487292 5:-1.2430231 6:-1.225098 
-1 1:-1.0044333 2:-1.4047184 3:-0.79548822 4:-0.8404236 5:-1.3517145 6:-1.2459509 
-1 1:1.2341721 2:1.6856234 3:-0.29103649 4:-1.2405817 5:-1.2080214 6:-1.2552801 
-1 1:1.6556993 2:-0.34704627 3:0.77008488 4:-0.17556429 5:-1.1175952 6:-1.0677802 
-1 1:0.73412616 2:-1.3845894 3:-0.51969777 4:-0.69228062 5:-1.1644997 6:-1.2820806 
-1 1:-0.45179689 2:-0.74594903 3:-0.3897849 4:-1.3235322 5:-1.0579232 6:-0.87274262 
-1 1:1.024649 2:-0.51095203 3:-1.4679183 4:-1.3309776 5:-1.1291856 6:-0.78017494 
-1 1:0.44863522 2:0.45864269 3:-0.82256171 4:-0.81646586 5:-1.1691573 6:-1.0400886 
-1 1:1.5490508 2:0.24214553 3:0.28409235 4:-0.99417371 5:-0.49674151 6:-1.3593128 
-1 1:1.2467169 2:0.94089982 3:-0.93591119 4:-0.87384338 5:-1.2730421 6:-1.1272313 
-1 1:0.82207973 2:-0.069513669 3:-1.3370646 4:-0.6933001 5:-1.1713189 6:-1.3109718 
-1 1:1.6622687 2:-0.37143242 3:-0.3127219 4:-0.48806633 5:-0.87424332 6:-1.2209671 
-1 1:1.2942754 2:0.36376094 3:0.55246586 4:-0.55035009 5:-0.73079074 6:-0.98864112 
-1 1:1.1116241 2:0.41961083 3:-1.1422884 4:-0.99363211 5:-1.1521961 6:-0.84623174 
-0.9320501998624001 1:-0.323623 2:0.40384392 3:-1.3089899 4:-1.3587641 5:-1.1481917 6:-1.1823909 
-1 1:0.51953622 2:-1.4135374 3:-1.3261354 4:-0.89400994 5:-1.1698863 6:-1.1164286 
-1 1:-1.2414921 2:-1.2085851 3:-1.3292019 4:-1.3870594 5:-0.83931107 6:-1.0121924 
-1 1:0.73112099 2:-0.55734178 3:-0.64222695 4:-0.66306619 5:-0.93656599 6:-1.2559696 
-1 1:-0.77974456 2:-1.1298557 3:-1.0149365 4:-1.1259381 5:-0.67613612 6:-1.2215307 
-1 1:1.2831983 2:1.0651431 3:-0.47835581 4:-0.72984204 5:-0.93230596 6:-1.2901126 
-1 1:1.2173292 2:0.24852237 3:-0.98786303 4:-0.73777485 5:-1.2563365 6:-1.0585518 
-1 1:-0.30367008 2:-1.3126362 3:-0.23273202 4:-1.3312165 5:-0.80273792 6:-1.2241471 
-1 1:1.0386964 2:0.49564236 3:-0.30773292 4:-1.1165589 5:-0.93091751 6:-0.91820783 
-1 1:1.6600673 2:0.36348064 3:0.28758464 4:-0.92679255 5:-1.0232497 6:-0.76096873 
-1 1:0.54591879 2:-0.4944143 3:-0.14352918 4:-0.73414296 5:-1.231398 6:-0.94327037 
-0.977380338583301 1:0.55741531 2:-0.65702367 3:-0.64073026 4:-1.3132896 5:-1.0404476 6:-0.68256958 
-1 1:0.45562399 2:-0.69433868 3:0.41600081 4:-0.88241337 5:-1.1740169 6:-1.0854499 
-1 1:0.17418653 2:-0.60642942 3:-1.4822686 4:-1.0305245 5:-1.0139723 6:-1.1800138 
-1 1:0.81484636 2:0.46831306 3:-1.0820881 4:-0.77020702 5:-1.0136252 6:-1.2663032 
-1 1:0.43021984 2:-0.10157305 3:-0.50898811 4:-1.1188623 5:-1.0803752 6:-0.84887653 
-1 1:0.49098712 2:-0.19561389 3:-0.42181411 4:-0.62295608 5:-0.88743364 6:-1.0887653 
-0.3454586685771493 1:1.6095385 2:0.43285503 3:-0.63298072 4:-0.20519288 5:-1.3110542 6:-1.2556012 
-0.5083259246392928 1:-0.03711869 2:0.63390062 3:-0.97648817 4:-1.253134 5:-1.297094 6:-1.1060194 
-1 1:0.3409384 2:0.70674373 3:-0.9810115 4:-1.3528295 5:-1.1810665 6:-0.99474933 
-0.7482453267119011 1:1.3463068 2:-0.38457151 3:-0.90674232 4:-0.99235777 5:-0.92750948 6:-0.845665 
-1 1:1.7081849 2:-0.33688538 3:-0.12477064 4:-0.19557156 5:-1.0920571 6:-1.1945003 
-0.2269608168005784 1:0.87585825 2:1.1750559 3:-0.42969669 4:-0.80391353 5:-1.1584978 6:-1.1874538 
-0.002463048314689717 1:1.1068718 2:-0.91700245 3:0.24491228 4:-1.0352714 5:-0.62618332 6:-0.86373773 
-1 1:-0.99115461 2:-0.41088473 3:-1.1272882 4:-1.225812 5:-1.0182639 6:-1.2440492 
-1 1:-0.95928586 2:-1.1052593 3:-0.58119518 4:-1.0481424 5:-1.2627455 6:-0.8985923 
-1 1:0.63009843 2:0.33411916 3:-0.70219441 4:-0.96266545 5:-0.75808649 6:-1.3266296 
-0.8385200483300079 1:1.3875754 2:-0.30279382 3:0.24930258 4:-1.0764616 5:-0.55865395 6:-0.70287779 
-1 1:0.72042818 2:-0.64994608 3:0.58535982 4:-0.69963998 5:-0.75063933 6:-0.84978961 
-1 1:-0.22707325 2:-0.7060062 3:0.2598792 4:-0.8305474 5:-1.1889144 6:-1.342743 
-1 1:1.2053434 2:0.14414544 3:0.53274279 4:-0.76536449 5:-0.39342788 6:-1.184003 
-1 1:1.1108204 2:-1.0063483 3:-1.4327996 4:-0.96553274 5:-0.99295617 6:-1.3409515 
-1 1:1.5523355 2:-0.54175006 3:-0.18620153 4:-0.82006589 5:-1.0259635 6:-0.75319178 
-1 1:1.1754315 2:0.34901012 3:0.31525681 4:-0.78087968 5:-1.1499052 6:-0.83791954 
-0.6629655484453745 1:0.59973226 2:-0.41084969 3:-0.30823182 4:-0.79155235 5:-0.41397069 6:-1.3284463 
-1 1:0.71336953 2:-1.1045235 3:-1.2871349 4:-0.63009243 5:-1.3339543 6:-1.1469885 
-1 1:-1.3984247 2:-0.50762346 3:-1.3860696 4:-1.3045667 5:-1.0902963 6:-1.1943869 
-1 1:1.4323035 2:-1.097481 3:-0.21706665 4:-1.2664032 5:-0.83634483 6:-1.162851 
-1 1:-0.3159703 2:-0.97138076 3:-1.1315122 4:-1.3772893 5:-0.85407918 6:-0.92626814 
-1 1:1.4755989 2:0.19400391 3:1.0465405 4:-0.25384113 5:-0.34183417 6:-1.1366801 
-0.2998157456536142 1:1.672018 2:0.73256642 3:0.3773529 4:0.02912789 5:-1.2394321 6:-1.3380724 
-1 1:0.85426298 2:-0.9702946 3:-0.096599571 4:-1.1132488 5:-0.75597225 6:-0.97670808 
-1 1:0.92757509 2:0.62486093 3:0.11739413 4:-0.57918222 5:-1.2077848 6:-1.1525615 
-0.7924622517990295 1:0.98792306 2:-1.5928247 3:-0.78294926 4:-1.1326316 5:-1.2934713 6:-1.3097093 
-1 1:-0.36971388 2:-0.52251443 3:0.015419511 4:-1.0382343 5:-1.150511 6:-1.2611616 
-0.3772656494888046 1:-1.171884 2:-0.28947954 3:-0.81454609 4:-1.311977 5:-1.2110824 6:-1.3520854 
-1 1:0.062855552 2:-1.6421421 3:-1.1911105 4:-1.3657469 5:-1.1826443 6:-0.85920381 
-1 1:1.3535052 2:-0.017167537 3:0.3319865 4:-0.81417203 5:-0.42226986 6:-1.0931198 
-1 1:1.2833031 2:-0.15199211 3:-1.0216883 4:-0.57758929 5:-1.3159738 6:-1.1947018 
-1 1:0.91233959 2:0.070356317 3:-0.58635045 4:-1.141396 5:-1.1785894 6:-0.84248495 
-1 1:0.8053067 2:-1.1186437 3:0.43349548 4:-0.53919955 5:-0.84189865 6:-1.31816 
-1 1:1.3623809 2:0.69045126 3:0.25761754 4:-1.1086548 5:-0.8935239 6:-1.1290543 
-1 1:0.95500599 2:-0.21183628 3:-0.13521422 4:-0.76163702 5:-0.54401207 6:-1.1025497 
-1 1:0.39793175 2:-0.68281132 3:-0.94542349 4:-1.3810266 5:-0.88923232 6:-0.97204821 
-1 1:1.4610623 2:-0.60776084 3:0.8752857 4:-0.90665785 5:-0.62836067 6:-1.0200952 
-1 1:1.0564479 2:0.062893315 3:-0.39750118 4:-0.99532062 5:-1.0849539 6:-0.83011111 
-1 1:0.26720696 2:-0.29964044 3:-1.2294524 4:-0.85042723 5:-0.8577712 6:-1.2034989 
-1 1:1.3095459 2:-0.51673323 3:-0.42304473 4:-1.2783884 5:-0.75493091 6:-0.92696082 
-0.6960053008237086 1:-0.4260433 2:-0.74311098 3:0.090786268 4:-0.87295134 5:-1.0004033 6:-1.3358581 
-1 1:1.3974995 2:-0.40275601 3:0.03045295 4:-0.77011144 5:-1.2429221 6:-0.6164813 
-1 1:0.74974604 2:-0.32917711 3:0.44377276 4:-1.328945 5:-0.73154808 6:-1.2466562 
-1 1:0.38437356 2:-0.25496754 3:-0.84870393 4:-1.3515615 5:-0.93053884 6:-0.78867606 
-1 1:1.6091541 2:-0.44084185 3:-0.3008814 4:-0.7646636 5:-0.83615549 6:-1.3075053 
-1 1:0.49989779 2:-0.68312666 3:-0.80656374 4:-0.83265008 5:-1.1321708 6:-0.90265394 
-1 1:-0.5818927 2:-1.1363026 3:-0.54407722 4:-1.297099 5:-0.76695366 6:-1.3327413 
-0.4169744848989432 1:-0.93695676 2:-1.5293821 3:-0.40029501 4:-1.377309 5:-1.1937077 6:-0.76172438 
-1 1:0.90108769 2:-0.91640681 3:0.49326338 4:-0.70856042 5:-1.3213193 6:-1.1268188 
-1 1:-1.2037178 2:-0.56617125 3:-1.4904758 4:-1.1091263 5:-1.1265192 6:-1.2255388 
-1 1:0.72843032 2:-1.1970227 3:-1.0183623 4:-0.8577866 5:-1.2467088 6:-1.3509494 
-1 1:0.23855303 2:-0.91069569 3:-0.46525144 4:-1.1978305 5:-1.3491976 6:-0.68458465 
-1 1:0.89857173 2:0.065941583 3:-1.4256355 4:-0.74857496 5:-1.2633166 6:-1.1363243 
-1 1:1.2060773 2:0.4292812 3:0.56267663 4:-0.98063376 5:-0.76098962 6:-1.3075934 
-1 1:0.94148273 2:-0.066430362 3:-0.083960838 4:-0.39933983 5:-1.3083089 6:-1.0276518 
-1 1:1.2291402 2:-0.49882903 3:0.54435046 4:-0.99831534 5:-1.345711 6:-0.95636838 
-1 1:0.28170864 2:-0.74177956 3:-0.43392069 4:-1.0249492 5:-1.3580048 6:-0.80460777 
-1 1:0.64638225 2:0.24056884 3:-0.079404243 4:-0.70642589 5:-1.2709184 6:-1.1130943 
-1 1:-0.40811713 2:0.16404678 3:-1.0763342 4:-1.1007761 5:-1.2507133 6:-1.1680052 
-1 1:1.152788 2:-0.92309899 3:-0.46318933 4:-0.87798501 5:-1.1546512 6:-0.80463926 
-1 1:1.4876894 2:-0.85396986 3:0.38254143 4:-1.2140529 5:-1.2236005 6:-1.0384513 
-1 1:1.4945035 2:0.072984135 3:0.90964309 4:-1.0550876 5:-1.2125655 6:-1.3156286 
-1 1:0.65763416 2:-1.2677986 3:-0.26725572 4:-1.3236692 5:-1.1246763 6:-1.1177478 
-1 1:1.0228319 2:0.0057119977 3:0.53690026 4:-0.87256903 5:-0.7611474 6:-1.0548207 
-1 1:-1.5298659 2:-1.6046849 3:-1.4368673 4:-1.3687786 5:-0.875758 6:-0.6260844 
-1 1:0.38115873 2:-0.75081925 3:0.40286318 4:-1.1724232 5:-1.0664401 6:-1.1582037 
-1 1:1.1866835 2:0.22609832 3:-0.00037890493 4:-0.43288705 5:-1.3284131 6:-0.97633025 
-1 1:0.41826905 2:-0.37752896 3:0.045785728 4:-0.7725327 5:-1.0564149 6:-0.80722108 
-1 1:-0.83376769 2:-1.3886292 3:-1.3249181 4:-1.1316854 5:-1.0898419 6:-0.70039043 
-1 1:-1.3386708 2:-0.95386198 3:-1.0755692 4:-1.2381604 5:-1.2274661 6:-1.1005787 
-1 1:-0.27078795 2:-0.23447056 3:-0.69391272 4:-0.93548998 5:-1.0639314 6:-1.3457049 
-1 1:-1.4135554 2:-1.5187833 3:-1.1025429 4:-1.3775754 5:-0.99409218 6:-0.82998517 
-1 1:1.7001129 2:1.6977814 3:-0.48989697 4:-1.1647675 5:-1.3289811 6:-1.3375328 
-1 1:1.7008816 2:1.1393526 3:-0.050235379 4:-0.81327998 5:-0.71094215 6:-1.0299187 
-1 1:1.4304515 2:0.96560131 3:-1.2623829 4:-1.3370275 5:-1.1167779 6:-1.255469 
-1 1:0.78961693 2:-0.21176621 3:-0.14273094 4:-0.48182202 5:-0.57477895 6:-1.1853537 
-1 1:1.2997267 2:-0.69111523 3:-1.3834753 4:-1.1846697 5:-1.3701073 6:-0.80350578 
-1 1:1.628513 2:0.60867357 3:-1.1607343 4:-1.3167081 5:-0.86275702 6:-0.92973156 
-1 1:-0.3614322 2:-0.88760593 3:-0.61129532 4:-1.3652508 5:-0.69885629 6:-1.0518705 
-0.309086549700733 1:1.2718415 2:1.2475136 3:0.11190626 4:-1.2227854 5:-1.3301833 6:-0.9095178 
-1 1:1.5679204 2:0.49192838 3:0.46226522 4:-0.21698061 5:-1.3476949 6:-1.203883 
-1 1:0.44356837 2:-0.52205894 3:0.3765214 4:-1.111538 5:-0.82438519 6:-1.1471491 
-1 1:1.37227 2:0.49434597 3:-0.87112105 4:-0.94689539 5:-0.85814987 6:-1.3386209 
-1 1:1.7142651 2:1.3147857 3:-0.16075777 4:-0.67319726 5:-1.0078189 6:-1.3012144 
-1 1:1.1752918 2:-0.66175374 3:0.39684315 4:-0.95419104 5:-0.37086549 6:-1.2525597 
-1 1:0.82693692 2:0.039067766 3:0.34003538 4:-1.00268 5:-1.2578322 6:-1.0680321 
-1 1:0.76945435 2:0.82538095 3:-0.88179745 4:-0.92195003 5:-1.1740864 6:-1.3465103 
-1 1:-1.2748984 2:-1.4319251 3:-1.399011 4:-0.80821445 5:-1.1137233 6:-1.3101878 
-0.4552004035638228 1:1.2411609 2:-0.41098984 3:0.4521875 4:-0.11939739 5:-0.69144068 6:-1.0182691 
-1 1:0.42717972 2:-1.5318698 3:-1.3910951 4:-1.3870839 5:-1.0357458 6:-1.035901 
-1 1:0.82746108 2:-0.26891249 3:-0.45214707 4:-0.9924852 5:-0.86584948 6:-0.99610321 
-1 1:1.3252007 2:-0.074944492 3:1.00909 4:-0.76383527 5:-0.83331547 6:-1.209774 
-1 1:1.4227988 2:-0.110858 3:0.70080467 4:-1.1184386 5:-0.628266 6:-1.0636839 
-0.3179114080167676 1:-0.44299105 2:-0.84661197 3:-1.4710587 4:-0.65994404 5:-1.0903342 6:-1.123686 
-0.5612885221082593 1:1.7026638 2:-0.33243561 3:0.047881097 4:-1.2135368 5:-1.1279013 6:-0.60939703 
-0.04521673911758295 1:0.10115397 2:0.27360927 3:-1.1962358 4:-1.3262625 5:-0.69232424 6:-1.2262819 
-1 1:1.5705762 2:0.4019519 3:0.41111162 4:-0.74774663 5:-0.59737289 6:-0.73379665 
-1 1:0.80649479 2:-0.046914435 3:0.39651055 4:-1.0498627 5:-0.69828828 6:-1.2160081 
-1 1:0.88511836 2:-0.7269937 3:0.48717683 4:-0.75778212 5:-1.3537959 6:-1.3449832 
-1 1:1.359236 2:-0.51743398 3:0.51282015 4:-0.44384644 5:-0.270739 6:-1.0657966 
-0.3354251635003298 1:1.5938487 2:0.56575254 3:0.8179125 4:-0.56471837 5:-0.15937864 6:-1.1451655 
-1 1:1.3415894 2:0.32255676 3:0.28093267 4:-0.15335877 5:-0.93517754 6:-1.1423066 
-1 1:1.4287392 2:-0.77734269 3:0.3734615 4:-1.3067586 5:-0.90750312 6:-1.1813299 
-1 1:1.5007235 2:-0.28247203 3:1.0220613 4:-0.50514259 5:-0.81293044 6:-1.1204304 
-1 1:1.7152435 2:0.35594756 3:0.57351933 4:-0.62706585 5:-0.91447694 6:-0.93092801 
-1 1:0.87554376 2:-0.58001109 3:-0.82289431 4:-0.6224782 5:-1.208012 6:-1.3081066 
-1 1:1.0562732 2:0.54795346 3:-1.0682188 4:-1.2337671 5:-0.80365304 6:-1.335273 
-1 1:0.86988286 2:0.11299704 3:0.7168359 4:-0.59963551 5:-0.71905199 6:-1.2897663 
-1 1:-0.56735608 2:-0.72762438 3:-0.76472288 4:-1.3575254 5:-1.037292 6:-0.85995946 
-1 1:1.6637713 2:0.043727763 3:-0.05928205 4:-0.31609304 5:-1.3654043 6:-1.2584759 
-1 1:1.660242 2:-0.24126784 3:-0.74366941 4:-0.72136762 5:-0.88061759 6:-1.012885 
-1 1:1.1639001 2:-0.14558024 3:0.49585764 4:-0.15718182 5:-0.58134256 6:-1.2183349 
-1 1:1.2659011 2:-0.9584519 3:0.36777407 4:-1.0000357 5:-0.99447085 6:-1.0634855 
-1 1:0.52446329 2:0.34690787 3:-0.82628681 4:-0.7031763 5:-1.0023598 6:-1.2441814 
-1 1:1.1205348 2:-0.4401411 3:0.27018975 4:-0.7361182 5:-0.87597889 6:-0.68861481 
-1 1:1.5241009 2:-0.17290954 3:0.90824618 4:-0.24527114 5:-0.49822463 6:-0.72664942 
-1 1:1.047048 2:-0.91391915 3:0.62962865 4:-0.99936668 5:-0.65802311 6:-1.0514895 
-0.628657204316587 1:1.6308892 2:0.33997043 3:0.055530856 4:-0.17279258 5:-0.49137702 6:-1.2417035 
-1 1:1.6699913 2:-1.1774367 3:-0.11020284 4:-0.81519151 5:-1.1759071 6:-1.3567254 
-1 1:-0.79043736 2:-1.4981006 3:-0.55272477 4:-1.1574496 5:-1.0295924 6:-0.886124 
-1 1:1.6111459 2:-1.0065935 3:-1.4241388 4:-1.3854677 5:-0.93489353 6:-1.0572955 
-1 1:1.6852967 2:0.42360511 3:-0.9181837 4:-0.83099342 5:-1.2907544 6:-0.66792877 
-1 1:1.5981468 2:0.07147752 3:-0.090978661 4:-0.60511521 5:-0.46916175 6:-0.95586461 
-0.417057113777061 1:-0.047811496 2:-1.0681545 3:0.17629727 4:-1.2004461 5:-1.3702319 6:-0.78404767 
-0.1621328238931149 1:1.012803 2:1.3031883 3:-1.3015663 4:-1.0627974 5:-1.3419246 6:-1.1602628 
-1 1:0.58844541 2:-0.053361348 3:-1.1689395 4:-1.3305825 5:-1.3082994 6:-0.63893053 
-1 1:0.19207776 2:-0.93108756 3:-0.88934743 4:-1.1514538 5:-1.2737648 6:-0.71512569 
-1 1:1.694417 2:-0.42181645 3:-0.11851779 4:-0.89356392 5:-0.8531325 6:-1.0750282 
-1 1:1.5553057 2:1.1447134 3:-0.72517695 4:-0.60852409 5:-1.3386529 6:-1.027085 
-0.4891082790155954 1:1.1073959 2:0.52675573 3:0.17852568 4:-0.5403146 5:-1.0622527 6:-0.95898168 
-1 1:0.5168106 2:-0.76269699 3:0.065808141 4:-1.2484667 5:-0.72514225 6:-1.2996339 
-1 1:1.236723 2:-1.2843013 3:-0.17036986 4:-1.3572992 5:-1.0201888 6:-1.3185976 
-1 1:-0.66481436 2:-1.3397132 3:-1.2025319 4:-0.72907743 5:-1.1926948 6:-1.2232529 
-1 1:-1.6398934 2:-1.6145679 3:-1.4292575 4:-0.81318441 5:-1.1643167 6:-1.1394225 
-1 1:1.1106807 2:0.2347526 3:-0.5211612 4:-0.58564954 5:-1.0512713 6:-1.2294619 
-1 1:0.98289115 2:0.18054948 3:-0.67432268 4:-0.69575322 5:-0.92586858 6:-1.0870147 
-1 1:-0.48848789 2:-0.39038775 3:-1.4171043 4:-1.1889642 5:-1.1698831 6:-0.64677045 
-0.03256263666062163 1:1.5366457 2:-0.15398925 3:1.2971865 4:-0.69024167 5:-0.14669322 6:-1.1517775 
-1 1:-0.97252956 2:-1.094678 3:-1.2766381 4:-1.3379037 5:-0.69172468 6:-1.3477911 
-0.1604988989716844 1:1.5677457 2:-0.9413886 3:0.83174859 4:-0.66628392 5:-0.29273338 6:-1.2301955 
-1 1:0.21744697 2:-1.5553274 3:-0.29861973 4:-1.0774269 5:-1.2257242 6:-1.0577048 
-1 1:1.6642256 2:-0.7308128 3:0.097404973 4:-0.80044093 5:-0.77367505 6:-1.0421352 
-0.5151120831338698 1:0.2316691 2:-1.1163312 3:0.47300815 4:-1.380155 5:-1.2485201 6:-1.2076077 
-1 1:1.1844121 2:1.301997 3:-0.027252841 4:-1.2656959 5:-0.92791971 6:-1.3253733 
-0.1078459001161105 1:0.12809565 2:-0.65888066 3:0.22485661 4:-0.69208947 5:-0.44063533 6:-1.3230434 
-0.4424294446269635 1:0.34492199 2:0.058303393 3:-1.3301498 4:-0.91395349 5:-1.0135937 6:-0.96490098 
-1 1:1.4371956 2:1.5036032 3:-0.99052381 4:-1.3178773 5:-1.0114794 6:-1.095689 
-1 1:1.6791466 2:-0.3359744 3:0.94769233 4:-0.66023077 5:-0.75720293 6:-0.93026681 
-1 1:0.069914202 2:-1.0130755 3:0.016417305 4:-0.75408651 5:-1.0312649 6:-1.3570595 
-0.2093870924970051 1:1.4688897 2:-0.40191511 3:0.64223412 4:-0.27907322 5:-0.10428225 6:-1.2765738 
-1 1:1.2639792 2:-0.44742892 3:-0.24201151 4:-1.2330089 5:-1.0535748 6:-0.91817634 
-1 1:0.93145386 2:1.2035064 3:-0.77194026 4:-1.2290393 5:-1.3460515 6:-1.1724604 
-1 1:1.1404528 2:0.031814989 3:-0.53296844 4:-1.0639124 5:-1.223386 6:-0.80208892 
-1 1:1.5641116 2:0.65695534 3:-0.74303748 4:-1.1467897 5:-1.3111521 6:-0.89944241 
-1 1:1.5854622 2:0.77902624 3:-0.99870573 4:-1.2426525 5:-1.2167024 6:-0.77148492 
-1 1:0.61524731 2:-0.058476834 3:0.0019160228 4:-1.2953532 5:-1.358523 6:-0.77771907 
-1 1:1.2127166 2:-0.35121574 3:0.73539488 4:-0.63165351 5:-1.1317038 6:-1.2248052 
-0.208052907757327 1:-0.90355048 2:-0.10654838 3:-1.2745427 4:-1.1988372 5:-1.2592049 6:-1.0482434 
-0.1344616117336071 1:0.74380559 2:-0.97110046 3:0.22126455 4:-0.33922246 5:-0.76622788 6:-1.2331898 
-1 1:-0.56417619 2:-1.627665 3:-1.3901871 4:-0.98655948 5:-0.9349882 6:-1.1142813 
-1 1:1.1818263 2:-0.44364486 3:0.43981484 4:-0.20876106 5:-0.67569434 6:-1.2762306 
-1 1:0.36141547 2:-1.2940628 3:-0.39091574 4:-0.78221775 5:-1.2930043 6:-1.2287503 
-1 1:1.5804653 2:-0.017482875 3:0.83763558 4:-0.93724221 5:-1.1185734 6:-0.88933553 
-1 1:0.35358806 2:-0.49998527 3:-0.19172266 4:-1.163388 5:-0.49857174 6:-1.1605683 
-1 1:1.4462461 2:0.15633852 3:0.90205985 4:-0.57070781 5:-1.003054 6:-1.0629723 
-1 1:0.73947256 2:-0.0099497968 3:0.26942477 4:-0.59014162 5:-1.2118902 6:-1.1221117 
-0.3967740732589034 1:0.84437388 2:-1.1676612 3:-0.039093338 4:-1.3369829 5:-1.3000634 6:-0.81773727 
-1 1:1.3247115 2:-0.45450651 3:0.97443323 4:-0.75195198 5:-0.94145714 6:-1.2279758 
-1 1:1.4455821 2:-0.82702597 3:0.41320698 4:-0.33813926 5:-0.581027 6:-1.225394 
-1 1:0.85038422 2:-0.49676182 3:0.75382082 4:-0.66717596 5:-0.30125344 6:-1.1496018 
-1 1:-0.074333849 2:-1.3605396 3:-0.56499765 4:-1.3868813 5:-0.83845907 6:-0.93149475 
-1 1:1.6728567 2:0.07263376 3:0.66814352 4:-0.23577724 5:-0.84215109 6:-0.63600237 
-1 1:1.7225118 2:0.37465763 3:0.37725312 4:-1.2711214 5:-0.64603191 6:-1.3197185 
-0.9204295762512175 1:1.0111257 2:-1.0618828 3:0.33012395 4:-1.3472924 5:-0.72640448 6:-1.3308613 
-0.2627207988596727 1:1.7169208 2:-0.68088426 3:0.75179198 4:-0.25728187 5:-1.2775925 6:-1.2984563 
-1 1:0.45401657 2:-0.46694484 3:-0.72497739 4:-0.76084056 5:-0.81068998 6:-1.1677596 
-0.8445439232801145 1:0.58327373 2:-0.98616662 3:0.27112102 4:-0.74965815 5:-0.72665693 6:-0.92387524 
-1 1:0.9397006 2:-0.019199716 3:0.48657815 4:-0.50657623 5:-1.0933982 6:-0.91068277 
-0.1098715314433256 1:1.0374035 2:-0.87376609 3:-1.2221652 4:-0.68253186 5:-1.0503877 6:-1.1941004 
-1 1:-1.0147067 2:-1.0045613 3:-0.5670265 4:-1.2086115 5:-1.0192106 6:-1.1675108 
-0.09934592089606253 1:1.0098678 2:-0.32865155 3:0.7202284 4:-0.043414381 5:-0.78692847 6:-1.3319573 
-1 1:1.2402873 2:-0.73242452 3:-1.1224655 4:-1.0880231 5:-0.93224285 6:-1.2052873 
-1 1:1.1504817 2:-0.52023699 3:-0.63371244 4:-1.1018306 5:-1.2607385 6:-0.78241042 
-1 1:0.87669691 2:0.37949281 3:-1.4378717 4:-0.97356113 5:-0.90327464 6:-1.2475 
-0.6559923774402577 1:1.7192621 2:-0.20808726 3:0.84378864 4:-1.0990685 5:-0.32394204 6:-1.0085715 
-1 1:0.33111919 2:-1.2217592 3:-0.21088032 4:-0.81117731 5:-0.68547664 6:-1.2435549 
-1 1:0.77560446 2:-0.97484948 3:-0.64445536 4:-1.1945586 5:-0.6514595 6:-1.2128847 
-0.5818462976707637 1:1.5882927 2:0.021303717 3:-1.1975662 4:-1.3795341 5:-1.225071 6:-0.50023645 
-1 1:1.5442285 2:1.1132146 3:-0.047009176 4:-0.40411864 5:-0.92369123 6:-1.2958399 
-1 1:1.6068478 2:0.13359913 3:0.96591871 4:-0.73685095 5:-1.0525335 6:-0.90737678 
-1 1:0.57237126 2:-0.68225072 3:-1.4277508 4:-1.2626438 5:-0.84227732 6:-1.1611004 
-1 1:-0.52510901 2:-0.61347197 3:-1.4385369 4:-0.92851292 5:-1.1593877 6:-1.1182138 
-1 1:1.5988457 2:0.33776306 3:-0.41509563 4:-0.81455433 5:-0.81640157 6:-0.93442291 
-1 1:0.70211763 2:-0.65043661 3:0.39747509 4:-1.3599658 5:-1.3095774 6:-1.0286908 
-0.05472819847358106 1:1.1692465 2:-0.56105576 3:0.55752135 4:-0.98330989 5:-0.25622334 6:-1.1033935 
-1 1:0.92097071 2:-0.41042924 3:0.40369468 4:-0.95349015 5:-1.3344686 6:-1.1773595 
-0.07455478422511994 1:1.0701808 2:-0.23082665 3:-1.0296374 4:-1.2976916 5:-0.46499639 6:-1.2807488 
-1 1:1.2805076 2:-0.51585729 3:-0.55950978 4:-0.91545085 5:-0.74401261 6:-1.2845271 
-1 1:0.46841342 2:-0.44105208 3:0.21048837 4:-1.0137031 5:-1.3397006 6:-0.94541139 
-0.4728624315158929 1:1.0678745 2:1.1722179 3:-0.73149632 4:-1.3397674 5:-1.3422623 6:-0.72117092 
-0.3878629499189162 1:-0.11717496 2:-1.0072592 3:-1.3131907 4:-1.3465182 5:-0.72189201 6:-0.90148897 
-1 1:-0.076220815 2:-0.39634414 3:-0.33177977 4:-1.2262421 5:-1.2235974 6:-0.7490042 
-1 1:0.99036912 2:-0.215305 3:1.0353652 4:-0.51565596 5:-0.5690358 6:-1.0898107 
