svm_type nu_svr
kernel_type precomputed
nr_class 2
total_sv 68
rho -895.786
SV
100 0:2 
100 0:3 
75.4184499864228 0:5 
-100 0:8 
-47.02178683035503 0:12 
-100 0:14 
-9.528388943652685 0:16 
57.55137194862251 0:18 
100 0:19 
-84.27908504323584 0:20 
56.0204333540514 0:24 
100 0:26 
100 0:27 
68.40506997349901 0:28 
100 0:30 
100 0:31 
-43.56876578269696 0:32 
-91.02589916122471 0:35 
-82.88883394974451 0:36 
-100 0:37 
39.0713665154254 0:38 
-100 0:39 
13.84831516696312 0:42 
58.78492468161344 0:45 
52.06254172793901 0:46 
25.29746947277777 0:48 
-81.24381459338234 0:49 
100 0:51 
30.6489331519998 0:52 
100 0:53 
100 0:55 
100 0:57 
-100 0:58 
-21.49948157915464 0:59 
54.68395024167655 0:62 
-100 0:63 
-100 0:65 
-22.48000943211343 0:67 
-100 0:68 
11.30766258397645 0:69 
39.38060374758538 0:71 
-100 0:72 
-100 0:75 
47.94833499030005 0:76 
-21.94430867227998 0:77 
-100 0:78 
-54.99349303107482 0:79 
-42.97279155986533 0:81 
-29.54602445641536 0:82 
-83.31442355327205 0:84 
29.1978708648634 0:85 
-71.5330676258782 0:86 
100 0:87 
74.02900178186032 0:88 
-60.93671765593584 0:89 
-61.96697807914744 0:90 
52.78186780713185 0:91 
-38.62482156812619 0:94 
100 0:95 
-100 0:96 
100 0:98 
80.95187100666381 0:101 
-50.47049002118619 0:102 
-100 0:104 
-78.57083347869643 0:105 
51.80996099662814 0:106 
-40.78998498256202 0:108 
100 0:110 
