svm_type nu_svr
kernel_type polynomial
degree 1
gamma 1
coef0 0
nr_class 2
total_sv 6
rho -0.0876369
probA 0.0278422
SV
0.05 0:0.21052632 2:0.10526316 3:0.10526316 4:0.10526316 5:0.10526316 8:0.052631579 9:0.10526316 14:0.052631579 15:0.052631579 16:0.10526316 20:0.38 
0.1 2:0.11111111 3:0.11111111 4:0.055555556 5:0.11111111 9:0.11111111 12:0.055555556 14:0.055555556 15:0.055555556 16:0.16666667 17:0.11111111 19:0.055555556 20:0.36 
-0.1 3:0.058823529 4:0.17647059 5:0.058823529 7:0.058823529 8:0.058823529 9:0.058823529 11:0.11764706 13:0.058823529 14:0.058823529 15:0.058823529 16:0.058823529 17:0.17647059 20:0.34 
-0.1 0:0.11111111 3:0.055555556 5:0.11111111 6:0.11111111 7:0.11111111 8:0.055555556 12:0.11111111 14:0.055555556 15:0.055555556 16:0.055555556 17:0.055555556 19:0.11111111 20:0.36 
0.1 0:0.16666667 2:0.055555556 4:0.11111111 7:0.055555556 8:0.11111111 9:0.055555556 11:0.11111111 13:0.11111111 15:0.055555556 16:0.11111111 17:0.055555556 20:0.36 
-0.05 0:0.05 1:0.05 2:0.05 5:0.15 8:0.05 9:0.05 13:0.05 15:0.15 16:0.25 17:0.1 18:0.05 20:0.4 
