svm_type nu_svr
kernel_type precomputed
nr_class 2
total_sv 14
rho -0.330554
SV
-0.001181092816223973 0:1 
0.001953125 0:2 
-0.001330563453220299 0:4 
-0.001453347157705648 0:6 
0.001953125 0:7 
0.001780849998264735 0:8 
-0.001663863062249593 0:10 
0.0005629000017352655 0:12 
0.001953125 0:13 
-0.001431066307460059 0:14 
-0.001953125 0:22 
-0.0009688854900514554 0:23 
0.001953125 0:24 
-0.0001743067130889722 0:26 
