svm_type c_svc
kernel_type precomputed
nr_class 2
total_sv 551
rho -2.05721
label -1 1
probA -1.46478
probB -0.048982
nr_sv 270 281
SV
0.1 0:8 
0.1 0:10 
0.1 0:11 
0.1 0:12 
0.1 0:15 
0.09610884203605316 0:19 
0.1 0:20 
0.1 0:21 
0.1 0:23 
0.1 0:25 
0.1 0:26 
0.1 0:29 
0.1 0:31 
0.1 0:37 
0.1 0:39 
0.1 0:43 
0.1 0:46 
0.05301419280535764 0:47 
0.07814347530603453 0:49 
0.1 0:53 
0.1 0:54 
0.1 0:56 
0.1 0:57 
0.1 0:61 
0.1 0:74 
0.1 0:76 
0.1 0:80 
0.1 0:82 
0.1 0:83 
0.1 0:84 
0.1 0:86 
0.1 0:93 
0.1 0:94 
0.1 0:96 
0.1 0:99 
0.1 0:104 
0.08098032215242151 0:105 
0.1 0:106 
0.1 0:107 
0.1 0:108 
0.1 0:109 
0.02130260092337915 0:114 
0.1 0:117 
0.1 0:118 
0.1 0:119 
0.1 0:122 
0.1 0:123 
0.09720955227119464 0:127 
0.1 0:129 
0.1 0:133 
0.1 0:136 
0.1 0:138 
0.07542039100580292 0:142 
0.1 0:144 
0.1 0:145 
0.1 0:146 
0.1 0:147 
0.1 0:149 
0.1 0:150 
0.1 0:154 
0.1 0:157 
0.1 0:159 
0.1 0:161 
0.1 0:166 
0.1 0:167 
0.1 0:169 
0.1 0:171 
0.1 0:172 
0.1 0:174 
0.1 0:175 
0.1 0:176 
0.1 0:182 
0.1 0:187 
0.09634491459600933 0:190 
0.1 0:194 
0.1 0:198 
0.1 0:201 
0.1 0:203 
0.1 0:207 
0.1 0:209 
0.1 0:213 
0.1 0:214 
0.1 0:215 
0.07056827721503293 0:216 
0.08708340629358963 0:219 
0.1 0:220 
0.1 0:222 
0.1 0:224 
0.1 0:225 
0.1 0:227 
0.1 0:229 
0.06354534286568554 0:231 
0.1 0:232 
0.06433394832948214 0:233 
0.1 0:234 
0.1 0:238 
0.1 0:240 
0.1 0:247 
0.1 0:251 
0.1 0:256 
0.1 0:262 
0.1 0:263 
0.1 0:265 
0.1 0:269 
0.09849974557811192 0:270 
0.06413905340666802 0:272 
0.1 0:273 
0.1 0:274 
0.05701472601875109 0:279 
0.1 0:281 
0.1 0:282 
0.1 0:285 
0.1 0:295 
0.1 0:301 
0.1 0:304 
0.0175227490978251 0:306 
0.05565866522676264 0:308 
0.008852041300244985 0:309 
0.1 0:311 
0.1 0:317 
0.1 0:321 
0.1 0:324 
0.1 0:327 
0.1 0:330 
0.1 0:335 
0.1 0:338 
0.1 0:341 
0.1 0:342 
0.06680389323487675 0:345 
0.1 0:346 
0.1 0:354 
0.1 0:357 
0.1 0:358 
0.1 0:360 
0.1 0:362 
0.1 0:363 
0.1 0:364 
0.1 0:365 
0.1 0:367 
0.1 0:370 
0.1 0:371 
0.1 0:372 
0.1 0:375 
0.1 0:376 
0.1 0:378 
0.1 0:379 
0.1 0:380 
0.1 0:383 
0.1 0:384 
0.1 0:389 
0.1 0:392 
0.1 0:394 
0.1 0:396 
0.1 0:398 
0.1 0:401 
0.1 0:402 
0.1 0:404 
0.1 0:408 
0.1 0:412 
0.1 0:414 
0.1 0:418 
0.1 0:419 
0.05346774348015412 0:420 
0.1 0:424 
0.1 0:428 
0.1 0:429 
0.1 0:432 
0.1 0:433 
0.1 0:434 
0.1 0:435 
0.1 0:440 
0.1 0:444 
0.1 0:450 
0.01792925254321869 0:454 
0.1 0:459 
0.1 0:465 
0.1 0:468 
0.1 0:469 
0.1 0:470 
0.1 0:472 
0.1 0:474 
0.1 0:475 
0.1 0:476 
0.1 0:480 
0.1 0:488 
0.1 0:491 
0.1 0:493 
0.1 0:496 
0.1 0:499 
0.1 0:501 
0.1 0:502 
0.1 0:509 
0.07961480874101082 0:512 
0.1 0:513 
0.1 0:514 
0.1 0:515 
0.04714806081227633 0:518 
0.1 0:521 
0.1 0:522 
0.1 0:524 
0.1 0:530 
0.1 0:532 
0.02992164815165645 0:536 
0.1 0:537 
0.1 0:540 
0.08690744613896502 0:542 
0.1 0:548 
0.1 0:549 
0.1 0:550 
0.1 0:553 
0.1 0:555 
0.1 0:557 
0.1 0:561 
0.1 0:562 
0.1 0:563 
0.1 0:566 
0.1 0:567 
0.1 0:572 
0.1 0:573 
0.01989492717403491 0:574 
0.1 0:575 
0.1 0:577 
0.1 0:578 
0.1 0:580 
0.1 0:581 
0.1 0:587 
0.1 0:589 
0.1 0:591 
0.08553682635603568 0:592 
0.07182483165626714 0:595 
0.1 0:598 
0.1 0:599 
0.1 0:600 
0.1 0:604 
0.1 0:606 
0.07372442369373396 0:607 
0.05698005485822417 0:608 
0.1 0:609 
0.1 0:611 
0.02983309224957192 0:613 
0.1 0:614 
0.09062449685669849 0:615 
0.1 0:616 
0.1 0:626 
0.1 0:627 
0.1 0:631 
0.1 0:632 
0.1 0:633 
0.1 0:634 
0.01375500072993945 0:635 
0.1 0:640 
0.06101365648654462 0:644 
0.1 0:645 
0.1 0:649 
0.04858588760632922 0:653 
0.1 0:654 
0.1 0:660 
0.1 0:662 
0.1 0:665 
0.1 0:670 
0.1 0:671 
0.02454905898503639 0:672 
0.1 0:673 
0.1 0:675 
0.1 0:681 
0.1 0:682 
0.1 0:686 
0.1 0:687 
0.1 0:696 
0.009192950521266693 0:697 
-0.1 0:698 
-0.04908553270902442 0:700 
-0.1 0:701 
-0.1 0:702 
-0.1 0:705 
-0.1 0:707 
-0.05447123084217337 0:712 
-0.02969387331249381 0:715 
-0.1 0:717 
-0.1 0:720 
-0.1 0:721 
-0.03209370703786907 0:722 
-0.1 0:727 
-0.03007903247642225 0:728 
-0.004053077566677755 0:729 
-0.1 0:730 
-0.1 0:734 
-0.1 0:736 
-0.1 0:737 
-0.1 0:738 
-0.1 0:740 
-0.1 0:743 
-0.1 0:744 
-0.1 0:746 
-0.1 0:750 
-0.03270379839480694 0:752 
-0.04936213064607408 0:753 
-0.1 0:754 
-0.1 0:755 
-0.1 0:759 
-0.1 0:760 
-0.1 0:766 
-0.1 0:769 
-0.1 0:772 
-0.1 0:777 
-0.1 0:778 
-0.04511281700810753 0:779 
-0.1 0:780 
-0.04879553695050867 0:781 
-0.1 0:785 
-0.1 0:786 
-0.1 0:787 
-0.1 0:789 
-0.1 0:791 
-0.1 0:792 
-0.1 0:793 
-0.09927419171948089 0:797 
-0.1 0:803 
-0.1 0:804 
-0.1 0:805 
-0.1 0:807 
-0.1 0:808 
-0.1 0:809 
-0.1 0:811 
-0.1 0:813 
-0.1 0:814 
-0.1 0:815 
-0.04456517109847692 0:817 
-0.09624268204070832 0:819 
-0.1 0:823 
-0.1 0:828 
-0.1 0:829 
-0.1 0:830 
-0.02340008658465128 0:832 
-0.1 0:834 
-0.1 0:835 
-0.1 0:836 
-0.1 0:837 
-0.1 0:840 
-0.1 0:841 
-0.1 0:843 
-0.1 0:845 
-0.1 0:852 
-0.1 0:855 
-0.1 0:856 
-0.1 0:857 
-0.1 0:860 
-0.1 0:861 
-0.04746494193205011 0:862 
-0.1 0:865 
-0.08515471067909687 0:866 
-0.1 0:868 
-0.1 0:869 
-0.1 0:870 
-0.1 0:871 
-0.1 0:873 
-0.1 0:876 
-0.1 0:877 
-0.1 0:879 
-0.1 0:883 
-0.1 0:884 
-0.1 0:885 
-0.1 0:890 
-0.1 0:891 
-0.1 0:893 
-0.05674002689980825 0:902 
-0.1 0:903 
-0.002262148006855547 0:904 
-0.1 0:906 
-0.1 0:911 
-0.1 0:914 
-0.1 0:915 
-0.1 0:918 
-0.09062931401118345 0:921 
-0.1 0:922 
-0.1 0:926 
-0.07820236914907956 0:937 
-0.1 0:942 
-0.1 0:943 
-0.1 0:945 
-0.1 0:951 
-0.05297651354336101 0:959 
-0.1 0:960 
-0.02218740121040879 0:961 
-0.1 0:967 
-0.1 0:968 
-0.1 0:969 
-0.048320606911074 0:973 
-0.1 0:975 
-0.1 0:982 
-0.1 0:983 
-0.0440908974539828 0:984 
-0.1 0:988 
-0.1 0:992 
-0.1 0:996 
-0.1 0:998 
-0.07033897467589009 0:999 
-0.1 0:1000 
-0.0263920174827677 0:1004 
-0.1 0:1006 
-0.1 0:1007 
-0.1 0:1009 
-0.1 0:1012 
-0.1 0:1013 
-0.1 0:1020 
-0.1 0:1021 
-0.1 0:1023 
-0.1 0:1024 
-0.1 0:1025 
-0.1 0:1026 
-0.1 0:1028 
-0.1 0:1029 
-0.1 0:1030 
-0.1 0:1033 
-0.1 0:1035 
-0.1 0:1036 
-0.1 0:1041 
-0.1 0:1044 
-0.1 0:1046 
-0.1 0:1048 
-0.1 0:1049 
-0.1 0:1050 
-0.1 0:1054 
-0.1 0:1055 
-0.1 0:1059 
-0.1 0:1060 
-0.1 0:1064 
-0.1 0:1066 
-0.1 0:1067 
-0.1 0:1068 
-0.05118500252724407 0:1071 
-0.1 0:1073 
-0.1 0:1089 
-0.1 0:1090 
-0.0003235457685319216 0:1091 
-0.1 0:1092 
-0.1 0:1098 
-0.1 0:1102 
-0.1 0:1105 
-0.1 0:1108 
-0.1 0:1111 
-0.1 0:1113 
-0.1 0:1114 
-0.1 0:1115 
-0.1 0:1116 
-0.06829663416389969 0:1118 
-0.07695134209292939 0:1120 
-0.1 0:1125 
-0.1 0:1129 
-0.1 0:1130 
-0.1 0:1132 
-0.1 0:1135 
-0.01889041665507976 0:1136 
-0.1 0:1143 
-0.1 0:1150 
-0.1 0:1151 
-0.1 0:1156 
-0.1 0:1158 
-0.1 0:1160 
-0.06841404406011094 0:1161 
-0.09475640547547587 0:1164 
-0.1 0:1165 
-0.1 0:1175 
-0.1 0:1178 
-0.03908651386515597 0:1183 
-0.1 0:1185 
-0.07417971536688925 0:1186 
-0.1 0:1190 
-0.1 0:1191 
-0.1 0:1192 
-0.1 0:1193 
-0.1 0:1194 
-0.1 0:1195 
-0.1 0:1199 
-0.1 0:1201 
-0.0232831772163012 0:1202 
-0.1 0:1203 
-0.1 0:1204 
-0.05904160458912634 0:1205 
-0.1 0:1206 
-0.1 0:1207 
-0.02214004952817307 0:1208 
-0.1 0:1209 
-0.09373636652327709 0:1212 
-0.04268110484673786 0:1213 
-0.1 0:1214 
-0.1 0:1216 
-0.1 0:1219 
-0.001857818210113161 0:1223 
-0.1 0:1224 
-0.1 0:1226 
-0.05856674059268974 0:1232 
-0.1 0:1234 
-0.1 0:1236 
-0.1 0:1237 
-0.1 0:1238 
-0.1 0:1239 
-0.0456111714242322 0:1240 
-0.1 0:1241 
-0.1 0:1244 
-0.1 0:1248 
-0.1 0:1249 
-0.1 0:1251 
-0.1 0:1252 
-0.08628932111632473 0:1254 
-0.07382586409476917 0:1255 
-0.1 0:1256 
-0.1 0:1259 
-0.1 0:1265 
-0.1 0:1266 
-0.1 0:1267 
-0.1 0:1270 
-0.01754037372998436 0:1277 
-0.08193601299112939 0:1281 
-0.1 0:1283 
-0.1 0:1285 
-0.00526486288160634 0:1288 
-0.1 0:1289 
-0.1 0:1292 
-0.1 0:1296 
-0.1 0:1300 
-0.1 0:1301 
-0.1 0:1307 
-0.1 0:1308 
-0.1 0:1309 
-0.1 0:1312 
-0.1 0:1316 
-0.1 0:1318 
-0.1 0:1323 
-0.1 0:1324 
-0.1 0:1325 
-0.1 0:1326 
-0.1 0:1330 
-0.1 0:1331 
-0.1 0:1332 
-0.1 0:1334 
-0.06827197815389104 0:1337 
-0.1 0:1343 
-0.06249032316205367 0:1345 
-0.05770447603896302 0:1346 
-0.1 0:1355 
-0.1 0:1357 
-0.1 0:1360 
-0.1 0:1362 
-0.1 0:1365 
-0.1 0:1372 
-0.1 0:1379 
-0.1 0:1384 
-0.1 0:1390 
-0.0748255161425405 0:1391 
-0.02220713514398456 0:1394 
